// Weights File

#define NUMBER_OF_LAYERS 2

#define LAYER_1_WEIGHTS_LENGTH 2400
#define LAYER_1_BIASES_LENGTH  20
#define LAYER_2_WEIGHTS_LENGTH 80
#define LAYER_2_BIASES_LENGTH  4

#define LAYER_1_WEIGHTS_ABS_MAX 5.0000000000e+00
#define LAYER_1_BIASES_ABS_MAX  3.0000000000e+00
#define LAYER_2_WEIGHTS_ABS_MAX 5.0000000000e+00
#define LAYER_2_BIASES_ABS_MAX  0.0000000000e+00

double mlpWeightsLayer1[] = {
	4.4763865389e-01,
	-6.9835527786e-01,
	-6.5881384986e-01,
	3.6043574166e-01,
	5.2112740256e-01,
	-1.8277670219e-01,
	-3.9043305786e-01,
	-8.4986377966e-01,
	-2.4844326882e-01,
	-1.2335353676e-01,
	-6.6949632655e-01,
	8.5941913531e-01,
	-8.9960686020e-01,
	-7.3987961828e-01,
	-1.7859285659e-01,
	3.1774151107e-01,
	-4.2153514802e-01,
	9.9008370703e-02,
	5.9160620328e-01,
	7.8466380005e-01,
	3.2896376696e-02,
	2.8164773494e-01,
	1.2395828363e-01,
	7.2322021505e-01,
	4.4599035636e-01,
	2.3911231674e-02,
	-5.6919970343e-01,
	-5.9378374349e-01,
	-6.6132946855e-01,
	7.0558792246e-01,
	-2.8907864787e-01,
	7.8630918534e-01,
	-9.9276735633e-01,
	5.2107502265e-02,
	1.4674492606e-01,
	5.2836004716e-01,
	8.6933080101e-01,
	7.5631186820e-01,
	6.7849626750e-01,
	-3.7911246874e-01,
	-3.6704166856e-01,
	-9.9100005906e-01,
	-5.1969333343e-01,
	-2.6664852876e-01,
	-7.3087967733e-01,
	3.0171380998e-01,
	-9.4890701862e-01,
	-1.5241482535e-01,
	-5.9927781932e-01,
	6.4269918559e-01,
	-3.6775102623e-01,
	4.3361855738e-01,
	-7.5653080398e-02,
	7.5620725833e-01,
	1.5683877149e-01,
	-6.2966272404e-01,
	-2.1988151093e-01,
	5.8763906806e-01,
	-2.2344646753e-01,
	1.1878902052e-01,
	2.9322698959e-01,
	4.8747488553e-01,
	-9.4901794146e-02,
	3.0045963419e-01,
	-4.6041761314e-01,
	-9.4815686901e-01,
	-1.7118031959e-01,
	-5.9108681306e-01,
	8.0815500012e-01,
	-4.9268405302e-01,
	2.9800719130e-02,
	-5.5888666937e-01,
	-4.8368411208e-01,
	5.1010738570e-01,
	1.7446480187e-01,
	-2.1456378941e-01,
	-1.8817880526e-01,
	2.2555778419e-01,
	6.3302138524e-01,
	2.1254337542e-01,
	-1.3174303115e-01,
	-7.3472964099e-01,
	-3.5383806813e-01,
	7.9260388845e-01,
	-9.7852238360e-01,
	8.0300070429e-01,
	-8.3705883652e-01,
	-1.9840389453e-01,
	3.9063977142e-01,
	-6.0505303117e-02,
	9.2038512599e-01,
	-3.1613323899e-01,
	-5.7303041852e-01,
	-1.7451666909e-01,
	9.8432639520e-01,
	-3.3448031653e-02,
	-1.2267353717e-01,
	-1.8685392532e-01,
	3.7546515622e-01,
	-3.1451853798e-01,
	3.2046202166e-01,
	-5.9473412558e-01,
	1.2659479264e-01,
	8.3677791051e-01,
	9.1537326012e-01,
	-6.9894040641e-01,
	-3.7778587983e-01,
	-2.7280554607e-01,
	5.2661737778e-01,
	-7.4476449459e-01,
	9.3973783028e-01,
	-6.0512565430e-01,
	-4.7949413558e-01,
	-4.1410023878e-01,
	-8.1252176585e-01,
	-4.5801651918e-01,
	-6.1109953542e-01,
	-6.4958060237e-01,
	3.4357958629e-01,
	7.7954023694e-01,
	3.0066816064e+00,
	1.2571945196e+00,
	-4.2300746546e-01,
	-2.3135670298e-01,
	-3.3498863367e+00,
	-1.6314785888e+00,
	-7.9653021842e-01,
	-9.7244661778e-01,
	-1.9326513537e+00,
	-2.5164451416e+00,
	-6.2989634605e-01,
	-3.0062585208e+00,
	-2.9152318332e+00,
	-1.0214232014e+00,
	4.5784402319e-02,
	-8.0108274191e-01,
	-3.6323396932e-01,
	-2.9148725403e-01,
	-8.5940483242e-02,
	-4.5095605670e-01,
	2.1492481486e-01,
	-2.7439095879e-01,
	-3.7748787601e-01,
	7.2391291621e-01,
	5.9531394146e-01,
	1.5197748171e-01,
	-6.5051634112e-01,
	-9.8586216460e-01,
	4.8097023172e-01,
	6.7855364681e-01,
	7.4108412197e-01,
	-1.7318876878e-01,
	-3.4780331862e-02,
	-7.3966436862e-01,
	-4.5513089807e-01,
	5.3998237567e-02,
	-2.8827037297e-01,
	2.2953314284e-01,
	-9.7817428721e-01,
	9.7283253265e-01,
	2.8843404537e-01,
	6.7408117730e-01,
	-4.4582598072e-01,
	7.5259810627e-01,
	-5.4706806482e-01,
	-2.7706584440e-02,
	-8.6802632259e-01,
	5.3252110539e-01,
	-9.8737306799e-01,
	2.3887563570e-01,
	-8.6062939144e-01,
	3.0819595480e-01,
	-7.1464765283e-01,
	1.4073768767e-01,
	1.2427084107e-01,
	9.1771911081e-01,
	-6.7034759637e-01,
	4.8232920816e-01,
	9.3899155312e-01,
	8.6895209101e-01,
	1.8498188093e-01,
	7.4107109280e-01,
	-3.0038167033e-01,
	-8.4719415719e-01,
	-9.7844226457e-01,
	2.4890214456e-01,
	1.8383742420e-01,
	-3.0392445217e-01,
	-5.2895634397e-01,
	2.2665010893e-01,
	-2.8726388022e-01,
	7.6378285307e-01,
	-9.8092377540e-02,
	2.5222308128e-01,
	5.4042716527e-01,
	3.7733242890e-01,
	-7.7153515962e-01,
	6.5148028735e-01,
	-8.8822470463e-02,
	-6.8893368868e-01,
	3.8715061730e-02,
	1.5962541865e-01,
	6.2906021637e-01,
	1.8732598945e-01,
	-7.8194921005e-01,
	-2.9710440976e-01,
	1.0572296500e-01,
	-4.6217849306e-01,
	-7.6684771685e-01,
	1.0814013782e-01,
	-5.8294880480e-01,
	3.3603493035e-01,
	-2.2838760193e-01,
	6.4852261374e-02,
	4.7704313678e-01,
	-2.2809243164e-01,
	-6.9252266117e-01,
	-3.1911820935e-01,
	4.8786215921e-01,
	-2.1872585931e-01,
	9.0730521102e-01,
	-8.2344725506e-01,
	-4.5596504596e-01,
	-1.8963642142e-01,
	3.9789694797e-01,
	-9.6028599716e-01,
	-8.3884892712e-01,
	6.3512464773e-01,
	7.0637959715e-01,
	5.1692056554e-02,
	8.7486384577e-01,
	-3.7881125089e-01,
	-8.9264456246e-01,
	4.0121776880e-01,
	7.4352131463e-01,
	-7.6087793062e-01,
	-9.3932767823e-01,
	-1.4257066204e-01,
	-2.5490968468e-01,
	-7.9486024043e-01,
	6.9018101271e-01,
	-4.1468172000e-02,
	4.6172957609e-01,
	-3.9097085786e-01,
	-8.6303524754e-01,
	-2.5970018782e-02,
	3.6999099894e-01,
	-5.7132983415e-01,
	6.6096911897e-01,
	-1.1111682035e-01,
	2.1344474200e-01,
	5.3939861837e-01,
	5.4840425605e-02,
	7.8178802914e-01,
	-6.0575062980e-01,
	-5.0471115735e-01,
	8.4452316349e-01,
	-4.4582329267e-01,
	-8.6381855979e-01,
	5.5627476156e-01,
	6.0669846656e-01,
	9.9442229330e-01,
	-8.5780804631e-01,
	6.7963946224e-01,
	3.9646167688e-01,
	9.0981414323e-01,
	9.2025250985e-01,
	4.5720839242e-01,
	-2.3697584851e-01,
	-3.4205998031e-01,
	6.5914904045e-01,
	-3.5617381727e-01,
	7.5908852274e-01,
	1.8680324634e-01,
	2.9069956338e-01,
	9.2330127011e-01,
	-8.0713927591e-01,
	-2.9064427966e-01,
	-6.0516041473e-01,
	8.7848125299e-01,
	6.1567147896e-01,
	6.4765309526e-01,
	4.7139927720e-01,
	-3.0149566908e-01,
	4.4396927775e-01,
	8.7214565940e-01,
	2.0083427071e-01,
	2.9860614168e-01,
	-5.6582857925e-01,
	3.3795421334e-01,
	-1.4142197281e-01,
	-9.5618864240e-01,
	3.3775206159e-01,
	9.6895112701e-03,
	7.2669958869e-01,
	-2.6366703830e-01,
	-7.6852814796e-02,
	6.4929227608e-01,
	-8.0593241463e-01,
	6.8786426526e-01,
	-6.9317232153e-01,
	8.5164711476e-01,
	-6.7007581501e-01,
	-9.3342084886e-01,
	3.9837335767e-02,
	6.1892403050e-01,
	9.8839130808e-01,
	2.3462897590e-01,
	-6.6814453326e-01,
	-6.1493112501e-01,
	1.1270611186e-01,
	9.4752204975e-01,
	-9.6874367224e-01,
	-4.1772847719e-01,
	-3.5769037083e-01,
	4.7129935101e-01,
	-5.4450851661e-01,
	8.4412499747e-01,
	-2.2900902280e-01,
	-1.2872663436e-01,
	1.4835725716e-01,
	5.9181766928e-01,
	-9.3442153169e-02,
	-4.9235389192e-01,
	-3.6427234166e-01,
	-3.4592578110e-01,
	2.5376286653e-01,
	5.6136201294e-01,
	-6.9721659041e-01,
	4.4501581513e-01,
	2.5167775053e-01,
	-3.8315108562e-01,
	3.0662404674e-01,
	5.8633337824e-01,
	-3.1474956881e-01,
	-6.5160307873e-01,
	2.0883429137e-01,
	-3.2451469794e-01,
	5.8302919344e-01,
	5.4068986013e-01,
	5.9944333802e-02,
	-3.0448012987e-01,
	4.8766975472e-01,
	9.1304045841e-02,
	2.7928532962e-01,
	-8.6576133854e-01,
	-4.3004396737e-01,
	7.3729617793e-01,
	9.8110713611e-01,
	3.4361128471e-01,
	-3.7500890893e-01,
	1.6316630235e-01,
	-2.4448169265e-02,
	5.5813981928e-01,
	6.8818158299e-01,
	6.2270800502e-01,
	-7.7762632739e-01,
	-5.3595988524e-02,
	1.8731289668e-01,
	-4.6688202841e-01,
	-5.9959100354e-01,
	-5.5593162196e-01,
	1.5314203182e-01,
	7.0704273286e-01,
	-9.7976383557e-01,
	8.2943436145e-01,
	-9.4455932264e-01,
	2.3924876367e-01,
	-4.8781366539e-01,
	6.3757859411e-01,
	-2.5540568295e-01,
	5.1252048160e-01,
	-6.8597833067e-01,
	-7.3701607703e-01,
	-3.3399932302e-01,
	6.1208826762e-01,
	-5.9998131570e-01,
	2.3553083516e-01,
	3.5193622947e-01,
	-6.1756347317e-01,
	-4.1839836047e-01,
	9.7408127863e-01,
	5.3332932297e-01,
	5.5326102292e-01,
	5.3744748952e-01,
	2.2925291725e-01,
	1.8137361253e-01,
	7.6628205819e-01,
	-8.1909770139e-01,
	-6.2597727018e-01,
	-6.9787424566e-01,
	-4.1417518651e-01,
	-1.8162873689e-01,
	4.5212790465e-01,
	-7.0713846959e-01,
	-1.5116465727e-01,
	2.9406032720e-01,
	-6.5169802366e-01,
	-9.1192919571e-01,
	8.0794195729e-01,
	9.8677150718e-01,
	-1.3200012368e-01,
	3.8238077023e-01,
	-6.7861711219e-01,
	1.3614575253e-01,
	-9.4990408982e-01,
	9.3664825421e-01,
	5.3837761508e-01,
	2.8777050145e-01,
	2.8922407992e-01,
	9.2205284837e-01,
	8.7073993118e-01,
	2.6995536372e-01,
	4.7150957280e-01,
	4.3287156123e-01,
	-1.8650318551e-01,
	-2.9051228393e-01,
	-3.8224700251e-01,
	-4.1879771716e-01,
	-1.0510284039e-01,
	-7.8886062875e-03,
	-1.1628176231e-01,
	4.8071560053e-01,
	8.1053816798e-01,
	-6.6062362366e-01,
	7.7358070608e-01,
	-3.4062645455e-01,
	6.3343717874e-01,
	-8.7812183978e-01,
	-2.5255943427e-01,
	4.4137550213e-01,
	-8.9135032943e-01,
	6.1544044205e-01,
	-1.7624236395e-01,
	-5.6996700852e-01,
	-2.4841379037e-01,
	-1.2614268952e-01,
	-6.3332011952e-01,
	-7.0986930798e-01,
	-8.3836922970e-01,
	6.5591194459e-01,
	-7.8781678232e-01,
	-9.6762939765e-01,
	-7.4134326058e-02,
	6.8359868234e-01,
	4.6516175946e-01,
	7.3936965904e-01,
	-6.0682380981e-01,
	-9.1700537313e-01,
	-6.7943829108e-01,
	2.8807713475e-01,
	7.5106172563e-02,
	2.0427646654e-01,
	-2.3121143004e-01,
	-1.1435572116e-01,
	5.4365253893e-01,
	-4.5763488834e-01,
	5.4501415933e-01,
	1.7708608377e-01,
	-3.3575672812e-01,
	-7.0754548614e-01,
	-3.8153841504e-01,
	-2.2710665894e-01,
	9.0789551269e-01,
	4.4221981125e-01,
	2.0292631998e-01,
	-3.4051883221e-01,
	-6.8393014357e-01,
	5.6960537451e-01,
	-5.0392797535e-02,
	-5.2229921934e-01,
	2.2550982477e-01,
	1.6178607465e-01,
	-4.8992796252e-01,
	-8.4863176796e-01,
	-1.5452633200e-01,
	9.7531222606e-01,
	8.9072391403e-01,
	2.3864947876e-01,
	-9.4169367940e-01,
	-7.8871788633e-01,
	-4.7327727577e-01,
	1.3341256079e-01,
	4.1555847457e-01,
	2.8079502574e-01,
	-9.9230798653e-01,
	-4.0788590023e-02,
	8.3737080759e-01,
	5.6163524056e-01,
	-8.6522970655e-01,
	-5.5911896836e-01,
	7.4846364591e-01,
	-2.8576704666e-01,
	2.6426154827e-01,
	7.5816570599e-01,
	-8.0486970620e-01,
	-5.2385975736e-01,
	-5.7859803101e-01,
	-4.8702159988e-01,
	-9.5274508049e-01,
	3.7190003413e-01,
	-1.4735005479e-02,
	2.5976804026e-01,
	-4.7269251128e-01,
	4.9221274442e-01,
	4.1194141461e-01,
	3.7406401861e-01,
	4.7198457109e-01,
	3.0838649245e-01,
	-3.8369432026e-01,
	5.3282784791e-01,
	5.2589873683e-01,
	1.4535809960e-01,
	-3.3412731937e-01,
	-5.8024918702e-02,
	-5.5834969188e-01,
	-3.1309723851e-01,
	9.0119403304e-01,
	-7.2047386410e-01,
	-7.4902650609e-01,
	-9.6250862254e-01,
	-2.1835413818e-01,
	-8.9250151529e-01,
	-2.0775026419e-01,
	-9.4334179719e-01,
	8.7191751939e-01,
	-1.0775454846e-02,
	-4.6540420763e-01,
	-7.0418047537e-01,
	5.0227202266e-01,
	-4.1786076902e-01,
	6.6932766962e-01,
	-5.0698191091e-01,
	8.5519144305e-01,
	-7.9537861319e-01,
	9.9383422080e-01,
	2.7961160861e-01,
	5.8538877200e-01,
	4.6996204623e-01,
	-4.0524446564e-01,
	-7.9519436499e-01,
	4.3961931972e-03,
	-8.7881870190e-01,
	3.5094494715e-01,
	6.7224268134e-01,
	6.3165214408e-02,
	7.9259527024e-01,
	-6.4085430263e-01,
	-3.5640180593e-02,
	-9.2787826337e-01,
	-3.8988080872e-01,
	1.8511834959e-03,
	-1.4623240155e-01,
	-2.8238237445e-01,
	7.9410078950e-01,
	-8.9574198775e-02,
	-4.1046413794e-01,
	-2.1667311677e-01,
	4.4501512109e-01,
	-1.1464468745e-01,
	-7.1440109504e-01,
	-9.7283891680e-01,
	-4.4531670001e-01,
	-2.2139075997e-01,
	8.8201161427e-01,
	-2.4100152530e-01,
	-2.2756064070e-01,
	1.6196391568e-01,
	-6.5530654120e-01,
	-7.5758674252e-01,
	7.5671966654e-01,
	-4.5050090619e-01,
	2.4680945335e-01,
	8.7790096825e-01,
	9.0044358185e-01,
	-8.0947866235e-02,
	-5.8933818275e-02,
	6.9303931485e-01,
	2.7819780374e-01,
	9.0542600113e-01,
	7.6516105410e-01,
	8.8831702242e-01,
	-9.2723026826e-02,
	-3.8107134839e-01,
	-3.9406531543e-01,
	-2.9862438829e-01,
	5.2915984677e-01,
	1.9547080397e-01,
	4.8470501391e-01,
	-2.5623708510e-02,
	-9.1917356692e-01,
	7.7030391887e-01,
	1.5373756185e-03,
	-3.6449051204e-01,
	-4.5107908708e-01,
	-1.1611009814e-01,
	3.9481442207e-01,
	3.2137212778e-01,
	-9.5414596421e-01,
	7.3950788087e-01,
	2.7723157488e+00,
	1.7292717611e+00,
	-7.3806757926e-01,
	-8.3403858375e-01,
	-4.9856994824e-01,
	-1.4208377054e+00,
	1.9810976293e-01,
	-1.1175226873e+00,
	-4.5546793119e-01,
	-9.1466524766e-01,
	-3.3924397836e-01,
	4.8470894889e-01,
	-1.0125032821e+00,
	7.3270477065e-02,
	-4.3254060809e-01,
	4.0318823027e-01,
	-1.1207831919e+00,
	6.1559167923e-01,
	-3.7204951429e-01,
	6.1957587372e-01,
	-2.3229919586e-01,
	-3.3009316956e-01,
	3.7490099262e-01,
	8.7234140794e-01,
	4.8810032849e-01,
	1.0288889456e+00,
	-3.1850486047e-01,
	-1.6824736502e-01,
	3.9562565899e-01,
	-2.5764753202e-01,
	-4.4749327762e-01,
	-1.7215981132e-01,
	-4.9312429551e-01,
	-1.4971150751e-01,
	6.3810294777e-01,
	-8.1295912550e-01,
	2.7730279142e-02,
	3.6498428641e-01,
	-1.9381028045e-01,
	-9.0825879523e-02,
	-6.2720383873e-01,
	3.3314817647e-01,
	-4.4317449510e-01,
	2.6895596034e-01,
	-2.3258871693e-01,
	-1.7659047595e-01,
	-2.2885385082e-01,
	-9.6484097227e-02,
	-3.8054352501e-01,
	4.6871410896e-01,
	-4.7662256028e-01,
	3.8965081023e-01,
	-7.5298614612e-01,
	9.1394768361e-01,
	1.6149896624e-01,
	6.6091910734e-01,
	8.5352473885e-01,
	8.1723702318e-01,
	-5.3036297277e-01,
	1.1444885723e-01,
	-4.8603804791e-01,
	1.6341853823e-03,
	9.3292751354e-01,
	1.6342950316e-02,
	8.0368855562e-01,
	3.4333431227e-01,
	1.6795355884e-02,
	-1.5540787018e-01,
	-6.4495288930e-02,
	-9.8628795851e-01,
	8.0110080862e-01,
	3.0982238589e-01,
	3.4223687302e-01,
	-6.6359398455e-01,
	-4.6379429437e-01,
	-9.4373816399e-01,
	1.4639910118e-01,
	3.3754546234e-01,
	-3.2470497215e-02,
	6.0039992860e-01,
	-9.3093710735e-01,
	-5.6046951145e-01,
	-5.3707866304e-01,
	-1.9340741403e-01,
	3.3779761003e-01,
	-7.4071834419e-01,
	-3.4815270839e-01,
	2.6155759422e-01,
	-9.7508956962e-01,
	2.3572982741e-02,
	-6.7265278569e-01,
	-3.3461413470e-01,
	-7.8680785731e-01,
	-6.3890650388e-01,
	6.9971484298e-01,
	-9.2868689404e-01,
	9.3628092709e-01,
	-9.1653145323e-02,
	-4.7011586666e-02,
	-1.2454861506e-01,
	-7.8990950600e-02,
	-2.5721366925e-01,
	-8.1404189629e-01,
	-7.3755404099e-01,
	5.1844865895e-02,
	-2.6132459915e-01,
	-6.1975823291e-01,
	-7.3778260640e-01,
	-8.7997407827e-01,
	3.9379658281e-01,
	-9.6369460671e-01,
	-1.0248410509e-01,
	-1.4468317988e-01,
	1.7593682135e-01,
	-1.0198537860e+00,
	-6.0602051390e-01,
	5.7049304420e-01,
	-2.7066670101e-01,
	6.7922423172e-01,
	7.2406546119e-01,
	1.2996967475e+00,
	-1.3483126169e+00,
	-1.0014426160e+00,
	-1.5688238257e+00,
	-1.2311534559e+00,
	-1.3440299529e+00,
	-1.4405045284e+00,
	-1.4358562386e+00,
	-1.3714176595e+00,
	-8.5270373912e-01,
	2.1317969522e+00,
	2.9145233495e+00,
	6.3466645279e-01,
	3.7494742620e-01,
	-3.6585426886e-01,
	7.9112867585e-03,
	-8.9876145031e-01,
	-4.8623785513e-01,
	2.5408246727e-01,
	-5.5228552236e-01,
	1.0530510093e+00,
	2.4317319005e-01,
	6.1199105153e-01,
	3.4745886102e-01,
	-1.9488773870e-01,
	6.1571462137e-01,
	4.1800208470e-01,
	-7.7285776486e-01,
	-4.2647520267e-01,
	1.7426348116e-01,
	9.3632943477e-01,
	-9.7859664733e-01,
	1.7475813027e-01,
	-6.7155366816e-01,
	-8.2917165080e-01,
	6.6261666890e-01,
	-5.9698602317e-01,
	-6.1411853360e-01,
	-9.1931790845e-01,
	4.2037571008e-01,
	5.6367170538e-01,
	3.8160871406e-01,
	3.6376701266e-01,
	4.8578325542e-01,
	-1.2949920205e-01,
	5.7632058461e-01,
	-4.9961475391e-01,
	1.3050343956e-01,
	-8.2738013599e-01,
	7.7709596484e-01,
	5.0767126914e-01,
	-8.3070191640e-01,
	1.0751942984e-01,
	-1.7105881817e-01,
	1.0782640945e-01,
	6.7196185033e-01,
	-8.3968166627e-01,
	-5.5736530552e-01,
	8.1184610250e-01,
	-7.6954017210e-01,
	4.7907472071e-01,
	6.7036999193e-01,
	-7.6457004370e-01,
	-3.5606007440e-01,
	9.2366592518e-01,
	-8.4913853044e-01,
	-8.8467112843e-01,
	-6.5993105128e-01,
	-2.1846005339e-01,
	-6.1583091798e-01,
	8.0468430246e-01,
	-6.5294375740e-01,
	7.6475150677e-01,
	1.4590048038e-01,
	7.8223590323e-01,
	-4.1694756012e-01,
	-2.8312528610e-01,
	-6.7335620157e-01,
	7.1064640435e-01,
	-3.1182754270e-01,
	-1.8654172361e+00,
	-1.1278779837e+00,
	-7.7660534882e-01,
	-2.6849029075e-02,
	-1.0254567306e+00,
	-9.0293861404e-01,
	-1.8666430425e-01,
	-8.0034396842e-01,
	-5.7615176418e-01,
	-5.0984157577e-01,
	-6.2793508979e-01,
	-9.0462259941e-01,
	-6.1517791574e-01,
	-2.7094049702e-01,
	-2.4640677916e-01,
	-6.3997547780e-01,
	1.2865499388e-01,
	5.8290410672e-02,
	-2.6820466055e-01,
	9.1293428352e-01,
	4.4275383475e-01,
	-4.7620737670e-01,
	-7.3922255224e-01,
	2.0667724774e-01,
	6.4346872359e-01,
	-9.2995606256e-01,
	8.4285845121e-01,
	-5.8889285000e-01,
	-5.7252160163e-01,
	6.0609560198e-01,
	3.0051506389e-01,
	-5.0907529590e-01,
	-2.2225368380e-01,
	-6.6666783103e-01,
	7.2935925237e-01,
	-1.7404267903e-02,
	-4.3010265635e-01,
	-3.6098070563e-01,
	2.2550816089e-01,
	1.8968909679e-01,
	6.1559236324e-01,
	1.5082268089e+00,
	7.1327996423e-01,
	1.2285704177e+00,
	3.8324676255e-02,
	-4.8233947573e-01,
	-2.6363709846e-01,
	1.2797521099e+00,
	8.7170541258e-01,
	3.6400465570e-01,
	1.6071868124e-01,
	-6.3684194783e-01,
	7.2614605748e-01,
	8.9362796742e-01,
	5.8226913811e-01,
	6.0838202038e-02,
	9.8406449081e-01,
	6.7129272218e-01,
	4.6390319883e-01,
	-7.3069390086e-01,
	2.0345393078e-01,
	-1.7708688970e-01,
	-2.0345711321e-01,
	-1.0305401974e+00,
	5.9532107910e-02,
	-5.0421006817e-01,
	5.8431483840e-02,
	6.8609765771e-01,
	1.0346946072e-01,
	-7.0104777783e-01,
	-9.8889533185e-02,
	-4.1953887959e-01,
	-9.2899966018e-01,
	-7.9512936556e-01,
	-6.8351354428e-01,
	-4.6026469652e-01,
	-7.2847000673e-01,
	-5.8546173291e-01,
	-8.6190151378e-01,
	3.8703248528e-01,
	2.4237263659e-01,
	6.4800409863e-01,
	9.4410530755e-01,
	-4.0600782158e-01,
	4.1876981736e-01,
	7.0999960908e-01,
	6.2491015637e-01,
	2.8336706114e-01,
	3.2116366875e-01,
	6.7778986594e-02,
	5.7770788512e-01,
	-4.5721453124e-01,
	8.2662539327e-01,
	-5.9018359791e-01,
	-3.5291593305e-01,
	-2.4910496094e-02,
	-1.6964315445e-03,
	7.3562288458e-01,
	-3.0519583696e-01,
	-7.6692779128e-01,
	-9.3015006503e-01,
	6.0869404169e-01,
	-1.8510105365e-01,
	-8.5906539720e-01,
	8.0606628507e-01,
	6.6794964645e-02,
	-3.7222421645e-01,
	-9.0646530120e-01,
	5.4840742137e-01,
	-1.7774230818e-01,
	4.7859173756e-01,
	-2.0998858406e-01,
	-5.3074815928e-01,
	4.2628988198e-01,
	3.6962363153e-01,
	8.6481300801e-01,
	1.2801164692e-01,
	8.2026866926e-03,
	1.6659012594e-01,
	-5.7228653660e-01,
	-1.0848729223e+00,
	-4.9011744963e-01,
	-1.8072580412e-01,
	8.3183817979e-01,
	1.1147201320e-01,
	6.0488441606e-01,
	-1.5110876379e-01,
	-8.6455564558e-01,
	3.2250970155e-01,
	4.9268174065e-01,
	-6.5522604815e-01,
	4.4938878160e-01,
	1.8207976709e-01,
	2.0698692861e-01,
	5.9978106347e-01,
	1.1311178960e-02,
	-6.5761032673e-01,
	-7.1539916064e-01,
	1.1075564201e-01,
	8.9130807282e-01,
	1.0686081191e-01,
	-4.0285240642e-01,
	-3.1757564265e-01,
	5.7575325324e-01,
	-9.7646311761e-01,
	-9.3548925023e-01,
	4.6501160266e-01,
	1.6770607937e-01,
	7.7694239608e-02,
	-3.6337106982e-01,
	6.2379814452e-01,
	1.4169911123e-01,
	3.6559255856e-01,
	-3.7734916683e-01,
	5.8411220439e-02,
	-4.4904853848e-01,
	-7.1482372602e-01,
	9.3833177922e-01,
	-2.9620928868e-01,
	6.7131528930e-01,
	2.6011713814e+00,
	1.1948110651e+00,
	2.3352954847e-01,
	-7.9289436439e-01,
	-2.1596235270e+00,
	-8.4669212757e-01,
	5.4195223958e-01,
	-8.1143355537e-01,
	-1.1982600671e+00,
	-1.0070176056e+00,
	-1.6028336242e+00,
	-2.7815498965e+00,
	-1.0091536699e+00,
	-2.8702778290e-01,
	9.7336379795e-01,
	3.2051523106e-01,
	2.2782242616e-02,
	-5.7467700684e-02,
	-4.9407800406e-01,
	-6.7611253608e-01,
	7.5332314866e-01,
	-9.1270772986e-01,
	2.5741923879e-01,
	8.2388985387e-02,
	-1.6658188756e-01,
	-4.6596779207e-01,
	7.3292407953e-01,
	1.5011538639e-01,
	-5.9724544018e-01,
	-5.6973614963e-01,
	-2.0116251363e-01,
	-9.5255209905e-01,
	5.5944373733e-01,
	9.6345691197e-01,
	-2.5087942714e-01,
	8.6951079192e-01,
	-2.9833895053e-01,
	-5.3675045280e-01,
	-4.7655872520e-01,
	7.1757478533e-01,
	2.8669272217e-01,
	6.7703664800e-02,
	8.4018978003e-01,
	-2.9271556703e-01,
	-7.0543457461e-01,
	5.3992966075e-01,
	-8.4470283534e-01,
	5.8880365388e-01,
	-2.9415511942e-01,
	-2.2815210138e-01,
	9.6236384205e-01,
	-4.8880383535e-01,
	1.8103847867e-02,
	4.9201556815e-01,
	7.0697129504e-01,
	8.9875021386e-01,
	-9.1669176608e-01,
	4.5398696300e-01,
	6.5430908960e-02,
	-3.8381692780e-01,
	9.1040605641e-01,
	9.0052728897e-01,
	-3.3596993212e-01,
	4.7061300738e-01,
	8.6301047212e-01,
	3.2355080246e-01,
	2.4470654246e-01,
	-4.5176976485e-01,
	8.7567855677e-01,
	8.6521347774e-01,
	-6.9477048015e-01,
	1.6510366096e-01,
	-6.8155183059e-02,
	-8.6307256082e-01,
	8.6847342727e-01,
	2.0996524430e-01,
	6.6888417456e-01,
	-9.7305870579e-01,
	-1.7925821452e-01,
	-6.2128683861e-01,
	-3.2931361703e-01,
	-4.7892389227e-01,
	-2.9601976310e-01,
	7.1648863721e-01,
	-7.4468150844e-01,
	-4.1357879399e-01,
	6.9119423916e-01,
	-6.3887497375e-01,
	-9.3627041066e-01,
	-2.3647665279e-01,
	-3.8324369969e-02,
	9.6185911020e-01,
	-3.1223070910e-01,
	6.3614554545e-01,
	4.3593124025e-01,
	-4.3562891792e-01,
	5.2292587263e-02,
	-2.2202057432e-01,
	1.4231388064e-01,
	-6.8365409010e-02,
	-3.5681384153e-01,
	4.3768050290e-01,
	-9.0267400471e-01,
	5.7486959505e-01,
	5.4181473113e-01,
	9.4407536079e-01,
	-1.9828648903e-01,
	2.4864937086e-01,
	9.9938906951e-01,
	6.1931974623e-01,
	6.3046705072e-01,
	-1.9934111521e-01,
	-6.1180851648e-01,
	-4.9874639040e-01,
	-4.0442604770e-01,
	-3.3108608518e-01,
	1.2187762171e-01,
	-6.6366044226e-01,
	2.0884861263e-02,
	1.7518271696e-01,
	2.8138742682e-01,
	1.1518973012e+00,
	8.5190588665e-02,
	7.6777006307e-01,
	7.8445567426e-01,
	-3.7841366017e-01,
	-6.6349203142e-01,
	-3.3747284732e-01,
	3.9171455926e-01,
	5.4230192233e-01,
	9.4898296460e-01,
	1.5749069139e+00,
	1.6811349608e-01,
	7.5530933097e-01,
	5.1957903186e-01,
	-4.7575401832e-01,
	6.9123337803e-01,
	-6.1664721147e-01,
	7.8448833737e-01,
	6.8617531944e-01,
	1.0056755416e+00,
	4.3978567339e-01,
	-4.2028440149e-01,
	-5.7042183305e-01,
	9.3518546998e-01,
	1.2697627626e-01,
	6.9669169185e-02,
	5.5327413239e-02,
	5.2914417675e-01,
	-8.8952353918e-01,
	-7.6340140872e-01,
	-4.3893967926e-01,
	-9.1045654471e-01,
	3.6814996632e-01,
	-6.2982644049e-01,
	7.2300063516e-01,
	9.4594075089e-01,
	-2.5774445898e-01,
	-5.9371683578e-01,
	3.0124899806e-01,
	-7.4270053475e-01,
	-9.7769790328e-01,
	2.9975332939e-01,
	2.1012970987e-01,
	7.3598307858e-01,
	-1.2564799715e-01,
	7.3644363579e-01,
	4.2082727440e-01,
	2.5251110970e-01,
	5.1160631106e-01,
	1.0514873476e-01,
	2.5104932732e-01,
	-8.2751818385e-02,
	5.9019288622e-01,
	6.4907694964e-01,
	-1.5407523101e-01,
	-3.0541610872e-01,
	-2.8219762132e-01,
	8.9720677766e-01,
	-8.6411479016e-01,
	-1.8838613098e-01,
	-8.7678168937e-01,
	-3.0310878974e-01,
	-1.0073998067e-01,
	4.6355336883e-01,
	-7.3363641098e-02,
	-4.9133535098e-01,
	4.2252120157e-01,
	8.0752529139e-01,
	2.9641894738e-02,
	-2.6217662294e-01,
	-9.3421729683e-01,
	5.1616706220e-02,
	-9.6138357096e-01,
	2.5723770826e-01,
	-2.4153155955e-01,
	-9.7715750980e-02,
	1.1118534247e-02,
	-8.0035485781e-01,
	-9.0527963681e-01,
	-9.4375787704e-01,
	-3.9177321328e-01,
	-4.9619103864e-02,
	3.0166635400e-01,
	-1.8027373154e-01,
	-2.5254307689e-03,
	-7.6251338127e-01,
	5.5458076888e-01,
	6.5292125253e-01,
	-9.5872434298e-01,
	6.4840601473e-01,
	-4.1019304127e-01,
	-6.9120240992e-01,
	-5.6842591658e-01,
	4.9808741235e-01,
	8.0257198178e-01,
	4.9820592625e-01,
	-8.7826866025e-01,
	2.4179809964e-01,
	3.0704876795e-01,
	1.5146647634e-01,
	9.8224570502e-01,
	3.7317044699e-01,
	-7.9657159275e-01,
	-9.8631877182e-01,
	-3.5875435262e-01,
	-9.5304868449e-03,
	-6.3188139677e-02,
	6.6174163032e-01,
	1.9876751360e-01,
	1.0048438616e-01,
	-8.2460545257e-01,
	-5.2421866740e-01,
	-4.9663925297e-01,
	6.1821503862e-01,
	4.1755510595e-01,
	5.8920390963e-01,
	9.1297238223e-01,
	9.5467995068e-03,
	3.7285428386e-01,
	-1.0987595255e+00,
	-4.3827892093e-01,
	8.7576823114e-01,
	-6.2840220417e-01,
	1.5308068145e-01,
	4.3951447419e-01,
	-8.2830136665e-01,
	-3.5421168205e-01,
	6.4261257250e-01,
	4.9681112585e-01,
	7.9472975249e-01,
	-5.2900742484e-01,
	3.7120187979e-01,
	3.4024285478e-01,
	-6.1850256296e-02,
	4.5263345963e-01,
	-9.9152858757e-01,
	9.3619926959e-01,
	-6.0483047757e-01,
	6.6576311533e-01,
	1.3109118123e-01,
	4.9217526724e-01,
	8.1539417288e-01,
	6.1984246404e-01,
	-9.9443217867e-01,
	4.6212123608e-01,
	6.2889211933e-02,
	6.0312398363e-01,
	3.5763640726e-01,
	-9.2286036503e-01,
	-1.8304060228e-02,
	5.0113567369e-01,
	-1.6297533680e-01,
	-4.6989157213e-02,
	9.1074010822e-01,
	-9.7963466477e-01,
	-5.7408746349e-01,
	-8.7638065401e-01,
	-2.9814588042e-01,
	-9.8264556375e-01,
	5.7736873189e-01,
	-3.1005711915e-01,
	-2.3999674583e-01,
	1.3318757290e-02,
	-9.4877925190e-01,
	7.0615499487e-01,
	-5.2838330522e-01,
	-9.3824685578e-01,
	6.4382272564e-01,
	-1.3289174932e-01,
	7.3482066642e-01,
	-2.1827566122e-01,
	-6.3338973289e-01,
	5.9406083844e-01,
	-5.6633252723e-01,
	-6.1169142444e-01,
	8.1177766938e-02,
	5.0370460353e-01,
	9.9943182152e-01,
	-5.1636120705e-01,
	5.9147938138e-01,
	-1.0457472394e-02,
	9.8642199695e-01,
	-5.7016447427e-01,
	9.5812877493e-01,
	9.8104021963e-01,
	-4.8243089083e-01,
	-6.2023044538e-01,
	-9.7750229793e-01,
	1.5119843255e-01,
	-6.1435577459e-01,
	5.9899297832e-01,
	8.4101003015e-01,
	1.4736559599e-01,
	-3.7321948679e-01,
	9.1086581233e-01,
	-1.4198060875e-01,
	8.5773103701e-02,
	9.6750491034e-01,
	-4.4671305802e-01,
	1.2484680195e+00,
	1.1111770174e+00,
	5.3207588722e-01,
	-6.0395903779e-01,
	3.2744105967e-01,
	7.4604807354e-01,
	-2.6613384820e-01,
	-6.1557708116e-01,
	2.7840687151e-01,
	-2.2595667094e-01,
	-1.1310340808e-01,
	-1.9226005087e-01,
	6.9109468243e-01,
	-1.6571527042e-01,
	2.3348218789e-01,
	6.3214044538e-01,
	-2.6813700057e-01,
	6.8248946264e-01,
	9.9997840546e-01,
	-2.4660544263e-01,
	-1.6632338429e-01,
	-6.1470780815e-01,
	-6.4759009279e-01,
	-3.2493996025e-01,
	5.4394150312e-01,
	-2.5581826013e-02,
	-4.3227063816e-01,
	-6.1804025669e-01,
	-9.5149090919e-01,
	-4.7809902374e-01,
	-1.1948437832e-01,
	1.0125903975e+00,
	-7.5955758543e-01,
	-8.2965579457e-01,
	-6.7396911527e-01,
	4.9403140421e-01,
	8.6480232301e-01,
	2.5238254636e-02,
	8.6291834933e-01,
	7.9681351986e-02,
	1.1760951418e-01,
	-3.6598328294e-01,
	9.1289033263e-01,
	6.8268344597e-01,
	1.1168484457e+00,
	4.1176050379e-01,
	2.9554110837e-01,
	-3.9523411840e-01,
	4.0168581815e-01,
	4.7533843685e-01,
	5.7394802003e-02,
	9.3754565553e-01,
	9.2615121435e-01,
	5.4100719296e-01,
	-8.6657980085e-01,
	-1.0004650506e-03,
	-5.5257424099e-01,
	-5.3286125590e-02,
	3.7988362678e-01,
	-6.1499424135e-01,
	3.9661529988e-01,
	-7.0630823655e-01,
	-5.6306486153e-01,
	5.5767659766e-01,
	-6.6341837322e-01,
	-3.3217092368e-01,
	8.3689828618e-02,
	-7.6874502491e-01,
	7.0396900929e-01,
	-5.6887869279e-02,
	3.2126777311e-01,
	4.5550335949e-01,
	6.6101765257e-01,
	1.9755299222e-01,
	-1.2505916044e-01,
	2.0163260603e-01,
	-6.7737886543e-01,
	9.2703292921e-01,
	4.7369473071e-01,
	1.2271986020e-01,
	-2.2235433865e-02,
	-5.0145957689e-01,
	-2.4426260928e-01,
	-5.8634213432e-01,
	8.7561163903e-01,
	6.3406806568e-02,
	3.7990611828e-01,
	-7.8310707053e-01,
	9.3793680346e-01,
	-2.7198071721e-01,
	-3.9299858337e-01,
	3.3380307785e-01,
	-4.6777983501e-02,
	-3.7046452323e-03,
	-6.0169674950e-02,
	3.3236019841e-01,
	7.0257046898e-01,
	-9.6078326738e-01,
	5.7609414196e-01,
	4.3181254592e-01,
	-3.8493677007e-03,
	-1.0178804080e-01,
	-1.1072656966e-01,
	-3.4190700799e-01,
	-9.0133284630e-01,
	7.3461148019e-01,
	8.3588767998e-01,
	-5.7239951517e-01,
	6.9301452257e-01,
	3.3481076225e-01,
	5.4401392128e-01,
	-3.2966379470e-01,
	8.3316351584e-01,
	-6.9496692129e-01,
	7.6954458984e-02,
	6.9682357000e-01,
	3.6404361358e-01,
	-5.3770899165e-01,
	9.1740625710e-01,
	2.8093661971e-01,
	7.6745954838e-02,
	-6.1007044628e-01,
	-4.4698279034e-01,
	-8.7598482708e-01,
	4.9797476563e-01,
	5.5128963022e-01,
	4.6132488384e-01,
	2.1343724509e-01,
	5.7228893348e-01,
	1.0089698742e-02,
	-3.6046465619e-01,
	-3.8547950021e-01,
	9.5167825963e-01,
	5.5295244958e-01,
	2.7609122476e-01,
	-9.4227916143e-01,
	3.1891241356e-01,
	1.3741862558e-01,
	-5.1383387006e-01,
	1.1638441908e-02,
	-5.2776048895e-01,
	-9.6268783123e-01,
	6.8209417253e-01,
	-6.9461511478e-01,
	-6.5593347729e-01,
	-2.3322996299e-01,
	-9.8553882367e-01,
	7.1443787968e-01,
	2.3022437608e-01,
	9.3971645791e-01,
	1.9693020920e-02,
	-5.8367753163e-01,
	-5.3717091540e-01,
	6.6068764148e-01,
	-4.3173035537e-01,
	-9.9657514987e-01,
	2.4667443481e-01,
	-9.5496965887e-01,
	2.3244676026e-01,
	-1.3317876686e-01,
	8.2065467852e-02,
	1.7329465396e+00,
	9.9902797593e-01,
	8.6696638031e-01,
	1.5175285983e+00,
	4.1513561295e-01,
	9.7211692681e-01,
	8.3946237413e-01,
	2.3465584675e+00,
	1.6179942821e+00,
	-7.2635094802e-02,
	-1.2110479652e+00,
	1.3568911718e+00,
	7.0914188109e-01,
	-7.1070968433e-01,
	1.0215592874e+00,
	-5.3051852822e-01,
	-1.6878134437e-01,
	7.4067942673e-01,
	4.1586924845e-01,
	-3.9814015221e-01,
	-1.6173994671e-01,
	7.7329070153e-01,
	-1.6511357897e-01,
	-7.8316839486e-01,
	-7.2920726738e-01,
	5.3087568339e-02,
	5.6523354932e-01,
	-7.9179715933e-01,
	-7.3105255501e-01,
	-5.3062862587e-01,
	5.8972961454e-01,
	-7.6226109133e-01,
	9.4546451275e-01,
	-3.5648773099e-01,
	6.9172122900e-01,
	-2.6110102504e-01,
	7.6007813707e-01,
	-5.3198268033e-01,
	-3.5899383638e-01,
	3.5648540764e-01,
	-7.4894774787e-01,
	1.2378558058e-02,
	-9.9682893861e-03,
	7.1616677159e-01,
	6.8934571585e-01,
	-3.2668506146e-02,
	9.4601262513e-01,
	-6.1928268967e-01,
	-3.4020362327e-01,
	4.0938924178e-01,
	1.3218229177e-02,
	3.7499763703e-01,
	2.9388029588e-01,
	-8.8058612397e-01,
	7.5491328340e-01,
	7.4628927733e-01,
	2.2896858548e-01,
	3.8166541112e-01,
	-7.5549229934e-01,
	5.7591220333e-01,
	8.8473471629e-01,
	8.4434378985e-01,
	8.1953473213e-01,
	8.6485826924e-01,
	-4.4058907889e-01,
	5.6670448085e-01,
	-3.8799505045e-01,
	-7.4571038192e-01,
	9.8278822453e-01,
	2.2515201114e-01,
	6.0946870593e-01,
	-7.6536291320e-01,
	-7.4604566740e-01,
	-3.8976512395e-01,
	9.6232923494e-01,
	9.4263506287e-01,
	5.7174917978e-01,
	9.2290282022e-01,
	-6.0387263902e-01,
	-4.6378697381e-01,
	7.6016453709e-01,
	5.9234254932e-01,
	6.7858635514e-01,
	-3.7902804218e-01,
	4.5955682287e-01,
	3.7218844899e-01,
	-6.4599657491e-01,
	-2.8606446535e-01,
	-2.3644374669e-01,
	-3.9357781083e-01,
	-7.4239499249e-01,
	-3.8518768573e-01,
	-5.6600072808e-01,
	-9.2431274721e-01,
	-5.2831844132e-01,
	-7.3224212652e-02,
	5.9047083354e-01,
	7.0262063789e-02,
	1.7963007476e-01,
	5.7322845623e-01,
	-6.9035854599e-01,
	-2.1030577766e-01,
	8.0858733718e-01,
	-4.1959843055e-01,
	4.0156890992e-01,
	7.5768342371e-01,
	-4.9722464032e-01,
	-4.4301132472e-02,
	6.5530038190e-01,
	-1.7205826773e-01,
	1.9308961096e-01,
	-1.0194157182e-02,
	-8.2134605614e-01,
	-2.0109949095e-01,
	5.6380370376e-01,
	6.1568431832e-01,
	-8.5681612220e-01,
	9.1710288255e-01,
	-6.9937702017e-01,
	-2.8161613811e-01,
	1.7600744153e-01,
	2.0819647836e-01,
	1.5006361462e+00,
	1.8628641832e+00,
	6.6789560062e-01,
	1.8210436751e+00,
	2.0190928111e+00,
	9.6051414816e-01,
	1.2316971626e+00,
	1.4125795194e+00,
	3.0744686306e+00,
	2.1112781421e+00,
	1.4432960671e+00,
	2.9296760705e-01,
	1.0677097092e+00,
	5.7470321484e-01,
	6.2193632281e-01,
	-4.6815497309e-01,
	-7.8606808146e-01,
	5.1587700025e-02,
	4.2486356588e-01,
	6.3646989582e-01,
	1.0135234989e+00,
	3.9331096036e-01,
	-8.2621014946e-01,
	5.4075104542e-01,
	1.0469553002e-02,
	-5.9429338348e-01,
	4.7460227380e-01,
	3.5230183926e-01,
	1.6714236224e-01,
	9.5052201384e-01,
	8.6324857841e-01,
	-3.3922772952e-01,
	-1.1131696699e-01,
	-5.0281435085e-01,
	-3.7222571427e-01,
	-2.5009459396e-01,
	-2.8012138013e-01,
	6.6525875112e-01,
	7.9236449012e-01,
	-4.8454181733e-01,
	1.2355478621e-02,
	6.2377037035e-01,
	-8.8192111156e-01,
	-7.9030942710e-02,
	-1.5635469918e-01,
	4.7773777285e-01,
	3.3205205753e-01,
	1.8738065812e-02,
	-5.0780344452e-01,
	-4.3194669823e-01,
	-6.2336384177e-01,
	-5.3154206999e-01,
	9.6410514413e-01,
	-4.8082049726e-01,
	-9.9245916586e-01,
	-2.5005749904e-02,
	-1.9646706127e-01,
	4.5594643351e-01,
	-7.1635837011e-01,
	9.6644164150e-01,
	4.0442851837e-01,
	-8.8754729430e-01,
	-4.7764578666e-01,
	-7.6926655243e-01,
	-3.4426452237e-01,
	2.5807338518e-01,
	4.4681595089e-02,
	3.5423035947e-01,
	-8.0224896197e-02,
	-1.6477467910e-01,
	8.7040616588e-01,
	8.9333438889e-01,
	-5.7472316862e-01,
	-1.0159925863e+00,
	-1.4963092799e-01,
	2.7908548403e-01,
	3.7674514593e-01,
	-1.2134974163e+00,
	-1.2323079806e+00,
	5.7375920089e-01,
	-3.3979402038e-01,
	-3.9050484058e-01,
	-6.3337184068e-01,
	-3.2501425216e-01,
	1.6419522913e-01,
	-7.0361313050e-01,
	5.1491230642e-01,
	-1.0760494982e+00,
	8.9066227982e-01,
	9.7334825464e-01,
	9.8856655035e-01,
	3.0993791657e-01,
	-8.7136625968e-01,
	-3.8024448157e-01,
	6.0627152713e-01,
	-2.2366612193e-01,
	8.7637284145e-01,
	-3.4894609599e-01,
	-8.5614994626e-01,
	-2.0205770437e-01,
	4.8516027775e-01,
	-9.6421139081e-01,
	-2.5894604394e-01,
	9.4780036041e-01,
	-9.7286474664e-01,
	5.8615815731e-01,
	2.4799165577e-01,
	4.9065285744e-01,
	7.3346191012e-01,
	5.1557929722e-01,
	4.6144882720e-01,
	-4.5933683805e-01,
	-7.2329786476e-01,
	9.1439394329e-01,
	2.4117395903e-01,
	4.8076452815e-01,
	-6.4025075127e-01,
	-8.3973462996e-01,
	-6.0946549448e-01,
	-9.1012404149e-01,
	-7.1716947547e-02,
	3.8074437141e-01,
	2.5184198223e-01,
	-3.4179176310e-01,
	-1.0701644152e+00,
	2.4310863079e-01,
	8.4403350980e-01,
	-1.6557647458e+00,
	-3.7178266505e-01,
	6.8998484558e-01,
	-2.0050177397e-01,
	4.0292997605e-01,
	1.0044421423e+00,
	5.6946151999e-01,
	3.2386926855e-01,
	-9.6537143166e-01,
	1.4681140815e-01,
	-4.7370707331e-01,
	4.6556981473e-01,
	-3.1158661928e-01,
	-9.2922263795e-01,
	2.1533223115e-02,
	3.8869548298e-01,
	-6.1636849568e-01,
	-7.1794936904e-02,
	-5.1135634268e-01,
	8.4522470765e-01,
	2.8279905601e-01,
	6.2143103248e-01,
	3.9574760371e-01,
	5.6383169078e-01,
	-4.5578030266e-01,
	-9.8804677614e-02,
	1.3954993773e-01,
	5.9629472172e-01,
	3.2312765838e-02,
	-6.7562866001e-01,
	4.2438308192e-01,
	3.7478537782e-02,
	-8.3911059603e-01,
	3.9640336239e-01,
	8.4092964332e-01,
	4.8559964220e-01,
	3.9515502062e-01,
	3.7662757050e-01,
	-2.4052088714e-01,
	4.2206128427e-01,
	-4.9959338589e-01,
	2.8673872877e-01,
	-4.4611079173e-02,
	3.9876674576e-01,
	3.9084875648e-01,
	9.6632822974e-01,
	-1.7275853603e-01,
	7.7155043640e-01,
	-1.0565243527e-01,
	5.0527659767e-01,
	6.6094602763e-01,
	-7.6833747511e-01,
	1.4357413425e-01,
	6.9438085126e-02,
	9.2572229878e-01,
	1.3803871520e+00,
	1.5057539105e+00,
	-2.9541260924e-02,
	2.7502560345e-01,
	-2.1370077768e-02,
	2.1946297900e-01,
	-2.9777975724e-01,
	-9.6935021692e-01,
	4.1987362531e-01,
	-7.3203573278e-01,
	1.0921502141e+00,
	-3.8278635977e-02,
	5.2924083374e-01,
	4.1482378539e-01,
	1.3113553394e+00,
	2.4901232548e+00,
	4.2900691915e+00,
	2.1816935624e+00,
	1.6755327897e+00,
	6.1523123122e-01,
	-3.2316286984e-01,
	1.1170750595e+00,
	1.2030340836e+00,
	-2.9251289727e-01,
	4.1984868379e-01,
	8.8578305693e-01,
	7.7257616318e-01,
	-7.3743690345e-02,
	-4.0192344120e-01,
	-2.4089709032e-01,
	-3.4425673199e-01,
	-7.3597599517e-01,
	-2.9957252573e-01,
	5.4036519076e-01,
	5.3269562069e-01,
	6.8051884120e-01,
	-2.4813138973e-01,
	-7.7006403474e-01,
	7.1498068844e-01,
	-7.8847460529e-01,
	-6.2376015136e-01,
	5.5882861558e-01,
	-2.1225954472e-02,
	8.0347313611e-01,
	-1.8868173463e-01,
	-3.3687668426e-01,
	-1.1518215994e-01,
	-1.6328151233e-01,
	6.7361458589e-01,
	-3.6406633348e-01,
	6.5478121028e-01,
	7.9909479039e-01,
	-5.7037894430e-01,
	6.9616711338e-01,
	8.8192885680e-01,
	7.5144371836e-01,
	1.2038051044e+00,
	1.2000617216e+00,
	-2.8187638863e-01,
	1.4542341658e+00,
	-9.2580192708e-02,
	5.0949973634e-01,
	1.8462602447e+00,
	1.0250250446e+00,
	-7.4600191428e-02,
	1.9025056578e-01,
	-4.1596605437e-01,
	5.0411885199e-01,
	8.8185184115e-01,
	-8.1581251842e-01,
	1.3785184481e-01,
	-8.3116444470e-01,
	1.0358426016e+00,
	-9.0560543481e-01,
	7.7141281509e-01,
	-2.9682269699e-01,
	-2.7158133386e-01,
	-5.3291394956e-01,
	7.8144105631e-02,
	-9.6106660467e-01,
	-3.9714194583e-02,
	-1.4429569913e-01,
	8.9416333366e-01,
	3.1857167116e-01,
	-5.4369148684e-01,
	7.6825734779e-01,
	-4.2690207797e-01,
	5.7018896796e-01,
	3.2543895344e-01,
	-4.0017879641e-01,
	2.3885230963e-01,
	6.6085923371e-01,
	2.8341738452e-01,
	1.7148463996e-01,
	-3.1973030014e-01,
	5.0295324627e-01,
	-3.6589925055e-01,
	3.7609237962e-01,
	-5.2835414350e-01,
	-6.7851631899e-01,
	7.6589022751e-01,
	5.5965824004e-01,
	-6.7825572317e-01,
	7.0602363233e-01,
	6.2362464764e-01,
	-8.7813795799e-01,
	-5.6987762059e-01,
	-7.2166496139e-01,
	-3.7460842886e-01,
	6.7147770136e-01,
	-5.7420913110e-01,
	6.9475674801e-01,
	-4.3741676744e-01,
	-6.4101940749e-01,
	1.5792623961e-01,
	6.2955233719e-02,
	-8.5798262512e-01,
	7.3646781895e-01,
	-3.6412267920e-01,
	4.6767948434e-01,
	-7.2119729301e-01,
	8.2767623270e-01,
	1.4790590859e-01,
	6.2452899973e-01,
	5.0447844522e-02,
	8.2284394065e-01,
	1.2608996601e-01,
	6.8318942009e-01,
	2.0315839151e-01,
	5.8440910616e-01,
	-1.0147411559e+00,
	-3.8686293486e-02,
	1.5703556585e-01,
	-6.7658629163e-01,
	-3.4888981708e-01,
	-3.5375697635e-01,
	-7.5637761672e-01,
	-6.4529650572e-02,
	-2.4886153847e-03,
	3.1005616528e-02,
	-2.6233254932e-01,
	4.5749565555e-01,
	-2.5284819842e-01,
	2.8283730889e-01,
	7.5990266430e-01,
	8.8005447397e-01,
	-6.0128327936e-01,
	9.8524139537e-01,
	6.6458647229e-01,
	4.3685611254e-02,
	4.7646368456e-01,
	-9.9299832619e-01,
	-7.6633113769e-02,
	-3.7234235842e-01,
	6.3171746951e-01,
	9.7375155264e-01,
	-5.4100686897e-01,
	-2.4066852306e-01,
	6.5661677051e-01,
	6.6597396353e-01,
	-6.4219674271e-01,
	6.6296448610e-01,
	-3.6074731963e-01,
	5.1711824485e-01,
	9.8985351035e-01,
	3.1352141554e-01,
	-7.1293370015e-01,
	-5.7812911275e-01,
	-5.7906152486e-01,
	3.6266353339e-01,
	5.1919289038e-01,
	2.0884104528e-01,
	-1.5369923507e-01,
	-7.1593275325e-01,
	-4.4838055228e-01,
	-5.9465361386e-01,
	-6.8174676231e-01,
	6.4567037728e-02,
	-6.9605291741e-02,
	1.5168106173e+00,
	-6.6306432469e-01,
	-6.4322215419e-01,
	1.1613049026e+00,
	4.3619154988e-01,
	1.4382464755e-01,
	1.0911840068e+00,
	8.8132339839e-01,
	8.6978999220e-01,
	-5.3244231737e-01,
	-5.7515690123e-01,
	-4.8791253716e-02,
	-2.7359878664e-01,
	-7.1564878794e-01,
	5.8757419182e-01,
	-8.3529102737e-01,
	-7.6856498425e-01,
	-4.9895735602e-02,
	-3.9515981604e-01,
	-3.0827389342e-01,
	3.0308356861e-01,
	8.4374152425e-01,
	-8.1994620534e-01,
	-4.8671544475e-01,
	-2.4189727991e-01,
	-5.1611179168e-01,
	7.9456617887e-02,
	3.6756795400e-01,
	-3.1125203605e-01,
	-9.7645184359e-01,
	-9.4865050460e-01,
	-4.2542417514e-01,
	-9.7085809241e-01,
	-7.8807773957e-01,
	-5.3459964970e-01,
	-4.2740848401e-02,
	1.0920089723e-04,
	9.8879418987e-01,
	8.5899332718e-01,
	-7.5268962316e-01,
	-7.2843925877e-01,
	-5.8103839467e-01,
	1.6091184179e-01,
	-8.6874830162e-02,
	-3.5687666987e-01,
	-2.8576374292e-01,
	7.2449806999e-02,
	-1.3973825757e-01,
	5.8677045715e-01,
	5.3284067407e-01,
	5.2084686585e-01,
	-1.1195133585e-01,
	3.5545981925e-01,
	7.0088787084e-01,
	3.9912703605e-01,
	-9.7254241070e-01,
	-8.2899506894e-01,
	-5.3909400618e-01,
	3.9422089718e-01,
	-1.4205833774e-01,
	-5.3953092093e-01,
	3.2610044358e-01,
	3.4319542130e-01,
	-4.9046424860e-01,
	6.5798413984e-01,
	8.9931487985e-01,
	4.6923349238e-01,
	-3.4219954541e-01,
	8.8742412463e-01,
	3.2755538127e-01,
	-1.2074541843e-01,
	-8.7059438106e-01,
	7.3978295586e-01,
	-9.3543307713e-01,
	5.3000529623e-02,
	-6.9574201319e-01,
	-6.6304861294e-01,
	-1.4707348687e+00,
	-1.3989985519e-01,
	-7.4247141288e-01,
	5.9381540155e-01,
	-2.9232545833e-01,
	2.0872667373e-01,
	-1.1527378512e-02,
	-6.5185076401e-01,
	-4.8255059677e-01,
	-2.1356691318e-02,
	-3.5863073538e-01,
	1.1591849644e-01,
	-5.4484791746e-01,
	5.0869373700e-01,
	6.0659979937e-01,
	9.0217075103e-01,
	-5.6835724130e-02,
	-8.7568299537e-01,
	5.6037593940e-01,
	-1.5751830356e-01,
	5.9916169004e-01,
	-7.8135737503e-01,
	-2.7048182987e-01,
	-7.2243106690e-02,
	1.2101950615e-01,
	-1.1076988892e-01,
	-3.1430771023e-01,
	1.9045108184e-01,
	9.6037672069e-01,
	7.2761682590e-02,
	9.4636986008e-01,
	-9.3998998949e-01,
	-6.8011431983e-01,
	-6.6381120509e-01,
	7.8601148448e-01,
	1.1450208262e-01,
	5.9113360377e-01,
	-1.8933462573e-01,
	5.9055191524e-01,
	-1.2265403454e+00,
	1.4492727827e+00,
	-1.7043755207e-01,
	1.3130167601e+00,
	9.8308411189e-01,
	1.7093354751e+00,
	8.7243607846e-01,
	3.7541086256e-01,
	1.3209053304e+00,
	1.2227326258e+00,
	1.5632544071e+00,
	2.0010599546e+00,
	1.1302949932e+00,
	-4.8652375083e-01,
	-1.0515076578e+00,
	7.6088988808e-01,
	4.5614746952e-01,
	3.7088394388e-01,
	-5.9154004994e-01,
	-6.5485019776e-01,
	1.3622581112e-01,
	5.6012047016e-01,
	-5.2153625193e-01,
	1.8013472385e-01,
	6.8288877465e-01,
	-3.8835025345e-01,
	-3.1221239296e-03,
	-1.6566219288e-01,
	-7.4323809981e-01,
	8.2956181613e-01,
	-5.3430120282e-01,
	-5.1378642712e-01,
	7.1307923689e-01,
	-3.2452487116e-01,
	8.5475695077e-01,
	-9.4792804333e-01,
	-5.6269616818e-01,
	-1.6871473711e-01,
	-7.0908141116e-01,
	1.3302207512e-01,
	9.3047102224e-01,
	-9.0998513620e-01,
	-3.2996266677e-01,
	-3.7123898946e-01,
	-8.9222862238e-01,
	-6.2359698682e-02,
	-7.4000934439e-01,
	2.4953704601e-01,
	-9.0456788364e-01,
	-4.2292346194e-01,
	5.8279053008e-01,
	2.1640595943e-01,
	9.7603929731e-01,
	8.8745913836e-01,
	-5.5452166384e-01,
	7.1292753691e-01,
	-4.6865258248e-01,
	4.6077585754e-01,
	-4.3510938223e-01,
	-2.2986367868e-01,
	2.9563311639e-01,
	9.1687464264e-03,
	2.5788720818e-01,
	9.2856249442e-03,
	6.6801254690e-01,
	1.2348051016e-02,
	-1.2065285125e-02,
	-8.6817801524e-01,
	9.4631062705e-01,
	3.5457069649e-01,
	2.5556774273e-01,
	8.7544417965e-01,
	4.4355874077e-01,
	9.3097326337e-01,
	-5.1927629490e-01,
	5.2163368713e-01,
	-1.3598723410e-01,
	-2.3665022445e-01,
	-2.1209664045e-01,
	-9.7906516244e-02,
	8.0501622965e-03,
	-1.0733438367e+00,
	-1.1166110382e+00,
	2.2879549527e-01,
	-7.8500135385e-01,
	-4.1550415192e-01,
	-5.9963563312e-03,
	-2.2901912076e-01,
	-9.9676179384e-01,
	4.6704330367e-01,
	4.9592649902e-01,
	3.8025973041e-01,
	-3.9644608838e-01,
	-1.6874982060e-01,
	-5.9911549184e-01,
	-6.9646330010e-01,
	9.4779887148e-01,
	4.6534224066e-01,
	-5.6081591499e-01,
	8.9427046156e-01,
	-1.8004022221e-01,
	7.0771262488e-01,
	7.7114526948e-01,
	-7.3671512354e-01,
	6.4236317633e-01,
	-7.2550419267e-01,
	8.1610877238e-01,
	-4.7764996213e-01,
	4.2001204501e-02,
	-3.8388490079e-01,
	4.8372882057e-01,
	-6.3821323157e-01,
	-3.8314632842e-02,
	6.6328315770e-01,
	7.0192768100e-01,
	2.7671068153e-01,
	-6.8487947185e-01,
	-2.6724229803e-01,
	-9.2632768290e-01,
	-5.9139740780e-01,
	-6.8806148513e-01,
	6.2609087485e-01,
	7.7601778151e-01,
	-7.3426593007e-02,
	-5.2045972781e-01,
	-8.0486802717e-01,
	2.2965360456e-01,
	-5.7362823437e-01,
	6.5779186831e-01,
	6.7408049516e-01,
	-6.7567998060e-01,
	-5.1739423172e-01,
	3.8485009842e-01,
	-8.9953319689e-01,
	-2.4800417249e-01,
	3.5303298850e-02,
	-6.2242060715e-01,
	-4.3185177101e-01,
	5.5916090798e-01,
	4.2058831416e-01,
	1.8825902057e-01,
	5.3293760784e-02,
	8.0499268234e-01,
	-8.0817253404e-01,
	-2.6413968751e-01,
	5.1079317235e-01,
	4.6887863807e-01,
	5.1820921800e-02,
	-7.5274908065e-01,
	5.5094244311e-01,
	4.6221201003e-01,
	-4.1950923829e-01,
	2.0601900816e-01,
	2.6276975370e-01,
	5.2040734213e-01,
	6.9376644571e-01,
	4.6498158549e-01,
	-2.3598565778e-01,
	-8.7068802299e-01,
	1.3253623300e-01,
	-5.5318603923e-01,
	-5.4087203347e-01,
	6.2005065923e-01,
	8.3733046885e-01,
	-4.3984208044e-01,
	-6.2784331181e-01,
	-1.2587453105e-01,
	-6.1893649894e-02,
	-5.8722849497e-02,
	-5.6659383679e-01,
	-6.4126618190e-01,
	-8.7028406741e-01,
	4.8690677601e-01,
	-8.3503783114e-01,
	-6.7738961041e-01,
	-7.7723250621e-01,
	6.7575582474e-01,
	7.9255701406e-01,
	2.7460683290e-01,
	9.2300674409e-01,
	3.4349593290e-01,
	-2.6454641841e-01,
	-4.9807553582e-01,
	-4.5086612615e-01,
	9.9734854482e-01,
	-9.8001160906e-01,
	-7.5822493920e-01,
	4.6457041924e-01,
	-2.1208081023e-01,
	-6.2740285963e-01,
	-4.0289579331e-01,
	2.3400866141e-01,
	-1.7035160561e-01,
	-7.8548534526e-01,
	6.6943948805e-02,
	3.8376645052e-01,
	-4.1440627405e-01,
	9.4263552372e-01,
	-6.7535486759e-01,
	5.0745426819e-01,
	-6.5350632023e-01,
	-3.4916882288e-01,
	6.2548927062e-01,
	8.4545879441e-01,
	-1.5517982851e-01,
	9.7347285939e-01,
	-9.1576446980e-01,
	-4.7702738308e-01,
	7.6283655655e-01,
	3.5313262021e-01,
	-5.5373370659e-01,
	1.1722752118e-01,
	-9.0002854834e-01,
	-4.4054559741e-02,
	6.6833322949e-01,
	-8.9971555261e-01,
	-2.0149712926e-02,
	9.1177817802e-01,
	5.6470781601e-01,
	7.6776947630e-01,
	-7.1562467968e-01,
	-8.3803830288e-01,
	2.5019517900e-03,
	1.1360486136e-01,
	-6.2236520937e-01,
	-9.2543375822e-01,
	-4.9201655928e-01,
	-3.1569402903e-02,
	-9.7950914586e-01,
	-1.6347413271e-01,
	-5.0465126981e-01,
	-6.0246641097e-01,
	5.2381522438e-01,
	-8.4398207082e-01,
	-7.3314748782e-01,
	-6.1977845537e-01,
	-8.5909889709e-01,
	-6.4406122243e-01,
	-9.3345477578e-02,
	9.1483731057e-01,
	3.0735875060e+00,
	1.5600352356e+00,
	4.3399601826e-01,
	3.0364748350e-01,
	-2.0776776855e+00,
	-9.4573080199e-01,
	6.5711868031e-01,
	-1.2601213566e-01,
	-1.6016785901e+00,
	-4.6355332573e-01,
	-5.2543496852e-01,
	-1.4731646417e+00,
	-7.5046093632e-01,
	-1.3747343859e+00,
	-5.6001774978e-01,
	-1.0709896280e+00,
	-1.1018773985e+00,
	-6.5253056110e-01,
	-1.2521412808e-01,
	-8.5979139079e-01,
	3.1730016902e-01,
	2.8831021251e-01,
	-6.4961364648e-01,
	-1.4041476592e-01,
	6.4577152624e-01,
	-1.6979246016e-01,
	2.6842325414e-01,
	7.9526766149e-01,
	1.8697304643e-01,
	-8.2267042907e-01,
	6.8630798704e-01,
	-9.4571818064e-02,
	5.4256896594e-01,
	-2.4962568062e-01,
	-2.7248853254e-01,
	8.6078779207e-01,
	4.5556534988e-01,
	-3.5134376361e-01,
	1.5885405117e-01,
	-9.2746544441e-01,
	-8.6551034910e-01,
	-7.7531022382e-01,
	-2.6120916487e-02,
	7.8228476820e-01,
	-7.0697186687e-01,
	-8.6759575683e-03,
	8.0919898106e-01,
	-5.6406726482e-01,
	5.1675246168e-01,
	-1.9545362107e-01,
	-4.0040736004e-01,
	-1.1984628025e-01,
	-7.0108172920e-01,
	1.6359438512e-01,
	7.7025101696e-01,
	9.5262161454e-01,
	9.9446631781e-01,
	4.0729716905e-02,
	7.4857418507e-01,
	1.8145158091e-01,
	2.1620823378e-01,
	4.5316855169e-01,
	-9.1422063833e-01,
	-2.4043652210e-01,
	-7.9479459026e-01,
	-2.0830248052e-01,
	-3.9273756117e-01,
	6.6154641354e-01,
	4.6414339610e-01,
	7.8292827301e-01,
	7.5525717652e-01,
	5.9838443677e-01,
	-9.9485902730e-01,
	-2.9331121461e-01,
	3.6736814244e-01,
	-7.1853686223e-01,
	6.8970312934e-01,
	1.7811339609e-01,
	-3.0127217692e-01,
	1.1508841683e-01,
	7.6957516573e-01,
	9.2172836527e-02,
	-1.0164101833e+00,
	-7.5372215962e-01,
	-5.3358402960e-01,
	8.3696254733e-01,
	-7.6984127168e-01,
	-5.2117598432e-01,
	-1.2534243601e-01,
	9.5096281076e-01,
	6.5011737417e-01,
	-8.6737287270e-01,
	4.5668638863e-01,
	7.6436800914e-01,
	-1.0159414957e-01,
	6.7027031216e-01,
	-4.1944354483e-01,
	5.2283920699e-01,
	3.3846743397e-01,
	-9.5507618374e-01,
	3.0423606138e-01,
	7.7408368329e-02,
	6.4247715335e-01,
	3.0991009561e-01,
	7.8719401262e-01,
	2.2213177547e-02,
	6.1453928989e-01,
	4.9944826853e-01,
	-7.8363682180e-01,
	-6.5063307255e-01,
	-2.8563112632e-01,
	-8.0649984790e-01,
	6.5441180708e-01,
	-1.9456770551e-01,
	-4.9736689670e-01,
	-8.1161144749e-01,
	-3.0432866139e-01,
	-2.5168257412e-01,
	-3.2675496913e-01,
	6.0600972306e-01,
};

double mlpBiasesLayer1[] = {
	-2.4780775930e+00,
	-4.0618771211e-01,
	-5.9550826192e-01,
	-1.8575940987e-01,
	-2.6335864038e-01,
	3.5629585068e-01,
	8.7086045458e-01,
	2.9676570143e-01,
	3.2436680107e-01,
	1.8022897718e-01,
	3.2183665592e-01,
	1.1457645236e-01,
	4.0202825886e-01,
	2.6707226793e-01,
	1.4440822554e+00,
	2.5026458465e-01,
	4.4781362394e-01,
	2.1152465141e-01,
	-2.3176996164e-01,
	-7.0731409766e-01,
};

double mlpWeightsLayer2[] = {
	-2.5139924011e-01,
	-1.8666238321e+00,
	7.3216798571e-01,
	-7.8010164609e-01,
	-8.6007435305e-01,
	-1.1110252969e+00,
	4.0029475281e+00,
	-1.1544042253e+00,
	-3.2408263893e+00,
	1.0848625612e+00,
	-5.7818607262e-01,
	8.6333633202e-01,
	-1.9959286308e+00,
	1.4592645891e+00,
	-2.8791713274e+00,
	-1.3945938343e+00,
	1.9262298683e+00,
	1.1332083802e+00,
	5.8138784447e-01,
	-6.9719516483e-03,
	-2.4476806598e-01,
	-4.4733363225e+00,
	8.2688155887e-01,
	-5.6698115805e-01,
	1.2200392888e-01,
	-1.1983527830e+00,
	-2.6752536335e+00,
	1.6234630751e+00,
	-7.5795819655e-01,
	4.0420776505e-01,
	-4.5783224162e-01,
	1.0055361067e+00,
	2.8097915072e+00,
	1.2203146664e+00,
	-2.1502488019e+00,
	1.5760779204e+00,
	9.7643384548e-01,
	1.6804536075e+00,
	-4.9822710858e-01,
	-3.9789961462e+00,
	1.5505537910e-01,
	3.3112706186e-01,
	4.5181505597e-01,
	4.3880080728e-01,
	6.3150208702e-01,
	-2.5397840346e+00,
	-1.8965852033e+00,
	-1.2431494631e+00,
	-5.6207779133e-01,
	-1.6810467572e+00,
	4.2336392095e-01,
	-2.9823193872e-01,
	-3.6393049749e-01,
	-3.3680988085e+00,
	4.5126072578e+00,
	-1.7486380381e+00,
	-1.0114572603e+00,
	-2.3540238353e+00,
	-5.9242494254e-01,
	-1.7568756072e+00,
	8.1854571114e-01,
	4.6102312704e+00,
	8.4266490694e-01,
	4.8497993886e-01,
	3.3839281686e-02,
	2.4437661978e+00,
	1.5874611685e+00,
	-4.2347630333e-01,
	3.8863319605e+00,
	-3.0324713493e-01,
	-1.2305160725e+00,
	-1.0676155457e+00,
	-2.1759396571e+00,
	-3.9085716869e+00,
	-2.9779278785e+00,
	-1.0247586750e+00,
	-8.3526139226e-01,
	-2.8350007598e+00,
	7.4264011343e-01,
	1.5184067667e+00,
double mlpBiasesLayer2[] = {
	0.0000000000e+00,
	0.0000000000e+00,
	0.0000000000e+00,
	0.0000000000e+00,
};

