// Weights File

#define NUMBER_OF_LAYERS 2

#define LAYER_1_WEIGHTS_LENGTH 600
#define LAYER_1_BIASES_LENGTH  5
#define LAYER_2_WEIGHTS_LENGTH 5
#define LAYER_2_BIASES_LENGTH  1

#define LAYER_1_WEIGHTS_ABS_MAX 4.0000000000e+00
#define LAYER_1_BIASES_ABS_MAX  1.6092000000e+04
#define LAYER_2_WEIGHTS_ABS_MAX 5.0000000000e+00
#define LAYER_2_BIASES_ABS_MAX  0.0000000000e+00

double mlpWeightsLayer1[] = {
	-9.7726741898e-01,
	2.1834194438e-01,
	-5.4967562088e-01,
	5.1718416972e-01,
	-1.1353973128e-01,
	-5.6509739792e-01,
	4.9261563341e-01,
	-6.2666459457e-01,
	1.9316529311e-01,
	-2.1750482445e-01,
	5.4770370197e-01,
	-3.0998088225e-01,
	6.6786489859e-01,
	-7.2584161421e-01,
	-1.4172695087e-01,
	6.4723991359e-01,
	6.5548880942e-01,
	7.5876985107e-01,
	2.4052798011e-02,
	-4.2948488754e-01,
	-5.5619777339e-01,
	-3.9015184437e-01,
	-3.2477836043e-01,
	7.8888763850e-01,
	1.2080531546e-01,
	6.4494555463e-01,
	7.7408060178e-01,
	-8.7531192838e-01,
	-8.9903709280e-01,
	1.2416285761e-01,
	-7.8852402036e-01,
	-8.8229764341e-01,
	-6.6377088878e-01,
	-3.3819964032e-01,
	6.1445820593e-01,
	2.0478778482e-01,
	9.6702961762e-02,
	1.0707383841e-01,
	5.7812319118e-01,
	-7.1214736240e-01,
	8.1155266138e-01,
	7.8861587718e-03,
	-6.9380512028e-02,
	4.7143906889e-01,
	2.7605141293e-01,
	7.8218990554e-01,
	1.1666336521e-01,
	-7.4422652402e-02,
	5.4095975568e-01,
	-8.6145939485e-01,
	4.9193154531e-01,
	9.7323095704e-01,
	-2.6528756379e-01,
	-8.4500309911e-01,
	7.5252185378e-01,
	8.4434505638e-01,
	7.9612488197e-01,
	5.2278488014e-01,
	9.6521555351e-01,
	8.9109465754e-01,
	-3.5932795208e-01,
	-8.2330846778e-01,
	-9.9120298680e-01,
	-2.3098840855e-02,
	-1.6150810810e-01,
	6.2325521914e-01,
	-8.1831105604e-01,
	9.3519485459e-01,
	-2.6967094246e-01,
	7.5981213514e-01,
	-7.7695250873e-01,
	-4.5811828201e-01,
	-2.3230170702e-01,
	1.5366697924e-01,
	-9.8667921405e-01,
	-9.5625029409e-01,
	-6.4143116150e-02,
	1.2998415117e-01,
	-3.0672946493e-02,
	-5.2318336047e-01,
	2.6852475725e-01,
	-5.3874140211e-01,
	-5.4995240436e-01,
	-9.9676280748e-01,
	-3.8374450029e-01,
	-7.9743055152e-01,
	8.4758224890e-01,
	-5.8761961925e-01,
	7.2535432862e-01,
	8.1279780148e-01,
	-6.9652496264e-01,
	-6.3397362439e-01,
	9.8948933370e-01,
	-6.8772794944e-01,
	3.4292753569e-01,
	-1.7201877440e-01,
	9.3552727063e-01,
	5.2461647965e-01,
	-2.3682392074e-01,
	-3.3414367276e-01,
	2.8442861386e-01,
	-1.3776429470e-02,
	2.0773804523e-01,
	-9.4787309409e-01,
	-8.6010945023e-01,
	2.2105883119e-01,
	-9.0412338819e-01,
	7.5747433619e-02,
	-6.4895701858e-01,
	6.5203666252e-02,
	5.5256407315e-01,
	6.1956773867e-01,
	5.2646226414e-01,
	-9.9738833215e-01,
	6.2280493119e-01,
	-8.5728223708e-01,
	-7.9481888367e-01,
	4.7038717916e-01,
	-4.4490185634e-01,
	9.3053544589e-01,
	2.8318497971e-01,
	-1.4142681898e-01,
	-7.0343817943e-01,
	2.3341780757e-01,
	1.3962060567e-01,
	6.3948935626e-01,
	-8.9934446192e-01,
	1.0637250222e-01,
	1.5584965909e-01,
	-2.6475853006e-01,
	5.4649745820e-01,
	-6.4485399488e-01,
	8.2814249088e-01,
	-3.7677448365e-02,
	-5.0894036522e-01,
	9.8566663963e-01,
	-8.0857601595e-01,
	-4.0346203344e-01,
	5.7650569099e-02,
	-4.5221041257e-01,
	6.4816283497e-01,
	-3.9532155437e-01,
	-8.3264267390e-01,
	1.7860217699e-01,
	-3.9270988559e-01,
	7.8086255745e-01,
	3.1734286202e-01,
	-1.8752876926e-01,
	2.5116129021e-01,
	8.6964330313e-01,
	-2.4341452645e-01,
	-4.5198648677e-01,
	-2.5540701545e-01,
	5.3147295049e-02,
	8.2068782664e-01,
	9.1543821707e-01,
	-3.0736334962e-01,
	9.2134336472e-01,
	2.1810718357e-02,
	8.5674248629e-01,
	-2.1482501887e-01,
	-2.0596045312e-01,
	-6.9472306673e-01,
	-3.6476983100e-01,
	7.7400642064e-01,
	-1.9406171199e-01,
	-3.7482409429e-01,
	9.7503212466e-01,
	4.0247625550e-01,
	6.9086907696e-01,
	-4.7289918990e-01,
	6.4217887383e-02,
	-6.9087367956e-01,
	-3.0126276580e-01,
	-7.4757821660e-01,
	-7.0004767305e-02,
	-5.0682141143e-01,
	5.8334344420e-01,
	7.5604526128e-01,
	7.5800712302e-01,
	4.6936324773e-01,
	-4.8736926517e-01,
	-6.9397936375e-01,
	-7.8604376865e-01,
	5.6577802988e-01,
	-8.7329153804e-01,
	-8.7060555158e-01,
	-7.4158532067e-01,
	-9.5194817332e-01,
	1.5120516678e-01,
	-8.8484283531e-01,
	-1.6677319220e-01,
	9.4524471459e-01,
	-5.7956590111e-01,
	4.6845697680e-01,
	7.1925113430e-01,
	2.2637238690e-01,
	-9.0636711750e-01,
	6.9428325896e-01,
	-3.7115135853e-01,
	7.8450195947e-01,
	-7.7861593188e-01,
	6.9306652979e-01,
	-9.0637172102e-01,
	-7.9878697675e-02,
	9.4548831319e-01,
	2.3623511672e-02,
	4.1329989089e-01,
	5.2883175645e-01,
	-2.2033122704e-01,
	1.7130701392e-01,
	-1.8049967484e-03,
	2.9229950779e-01,
	4.7732765017e-01,
	2.1215123553e-01,
	-1.4192246326e-01,
	6.0403611213e-01,
	3.4154568396e-01,
	1.1649221606e-01,
	6.5208793881e-01,
	-5.0724915020e-01,
	2.3164938168e-01,
	-5.1468525339e-01,
	-5.6200443653e-01,
	6.5208348057e-01,
	9.5377172341e-01,
	-8.4275330223e-01,
	-1.2154413346e-01,
	-9.5259539501e-01,
	8.5152995673e-01,
	5.0730450894e-01,
	8.3190656539e-01,
	-9.2708597608e-01,
	2.0037103780e-01,
	9.2553484436e-01,
	-6.9646737571e-03,
	1.4585935005e-01,
	-5.0841643964e-02,
	-5.9366478380e-01,
	-3.2530889349e-01,
	3.9632420637e+00,
	2.2356175453e+00,
	2.0650730408e+00,
	-3.1517392919e-01,
	3.7460666021e-01,
	2.1515099487e+00,
	2.9623887856e+00,
	8.9023247211e-01,
	4.2999606023e-02,
	-1.5099928562e+00,
	-2.5620496303e+00,
	-5.4179497769e-01,
	-3.6287620302e-01,
	-1.7485423831e-01,
	7.1615426070e-02,
	9.4220683216e-01,
	-1.8513884057e-01,
	2.7087942759e-01,
	-2.8761071745e-01,
	-2.9343690619e-01,
	7.4719101552e-02,
	-1.0223034093e+00,
	-7.5306077802e-01,
	-3.3303991779e-02,
	2.5662477153e-01,
	-4.4497025443e-01,
	-7.9586031686e-01,
	-7.5141759123e-01,
	3.5994932479e-01,
	-4.0736857529e-01,
	2.5819535631e-01,
	2.0509613606e-01,
	-7.8396710930e-01,
	-4.1002773233e-02,
	-7.4586146779e-01,
	2.7100277099e-01,
	8.4403457113e-01,
	-8.6665729613e-01,
	9.3000876248e-01,
	-9.2938240149e-01,
	1.2903909158e-01,
	-7.5889730908e-01,
	-2.1004852336e-01,
	3.5638486098e-01,
	3.7511367834e-02,
	9.4728091822e-01,
	2.3581410909e-01,
	7.8769176723e-01,
	2.6185705758e-01,
	9.9369922466e-01,
	-4.1472322932e-01,
	-5.7203684820e-01,
	-7.4111115268e-01,
	2.1476834045e-01,
	6.6698327179e-01,
	7.2444950870e-01,
	7.6979475365e-01,
	8.9903871617e-01,
	-6.6413048080e-01,
	2.7397952195e-01,
	-4.6257062324e-01,
	6.2198063620e-01,
	-4.9300858169e-01,
	-2.4653773161e-01,
	-4.1902213796e-01,
	-2.3887004947e-01,
	-9.7553496155e-01,
	-5.7498756683e-01,
	-1.0552734561e-01,
	9.5447380094e-01,
	-5.0436996832e-01,
	-9.7648825495e-01,
	-8.0442350907e-01,
	2.8558150832e-01,
	3.7989660603e-01,
	2.3308785876e-01,
	2.3286242561e-01,
	-3.8428928488e-01,
	2.0779625057e-02,
	-5.0528051774e-01,
	-3.9059006115e-01,
	6.0605639667e-01,
	-7.7317365016e-02,
	-1.3170121290e-01,
	-1.7917526382e-01,
	-4.1033409415e-01,
	-4.0725170514e-01,
	-4.0938051111e-01,
	-5.1129537891e-01,
	-7.1382185943e-02,
	8.6459901084e-01,
	2.6133998775e-02,
	-4.4940154974e-01,
	-6.2840957177e-01,
	7.7959626717e-01,
	1.3157631230e-01,
	1.3272037875e-01,
	8.0406130562e-01,
	5.5658874547e-01,
	-9.7280696778e-01,
	7.5853510562e-01,
	-9.4778122378e-01,
	-9.4929522274e-01,
	9.5411159655e-01,
	3.3780028454e-01,
	4.3060138423e-01,
	1.8719945531e-01,
	-4.2933728985e-01,
	-9.5368790159e-01,
	-7.9202092057e-01,
	6.5382192407e-02,
	-3.4427796274e-01,
	8.1403547610e-01,
	9.8806482739e-01,
	5.2402082436e-01,
	-3.6513978865e-01,
	-4.2226926769e-01,
	-8.8323088078e-01,
	2.2547970024e-01,
	6.6435354327e-02,
	1.3902571160e+00,
	8.0287138964e-01,
	-3.2394215914e-01,
	3.6966935265e-01,
	4.6298354794e-01,
	1.8154754227e+00,
	5.8107637114e-01,
	1.0378492482e-01,
	1.0121563441e+00,
	-1.0502624792e+00,
	-9.6320001397e-01,
	2.9885095319e-01,
	-6.0856008462e-01,
	-2.9540450464e-01,
	2.6062644973e-01,
	6.3885083103e-01,
	-8.6836826534e-01,
	-4.3083025985e-01,
	-7.6822198318e-01,
	-8.7143761109e-01,
	-2.6051398235e-01,
	8.7931401404e-02,
	-4.2434557024e-01,
	-4.8606601754e-01,
	2.2646393945e-01,
	-6.7105508273e-01,
	1.4814833596e-01,
	4.0307845352e-01,
	-6.5873115359e-01,
	-5.4152332566e-01,
	-5.7554682074e-02,
	4.8002339610e-01,
	5.3522029551e-01,
	3.5014669893e-02,
	8.7085105985e-02,
	1.0175394365e-02,
	-9.2819711702e-02,
	8.1464680182e-01,
	6.0456491150e-01,
	-4.1659278861e-01,
	-9.0120275873e-01,
	-7.7385254101e-01,
	-9.8183076083e-01,
	-5.6483354120e-01,
	-1.0156521439e-01,
	4.0704286350e-01,
	-8.9066403913e-01,
	1.3234955265e-03,
	9.8311594314e-01,
	-6.4583182784e-01,
	1.5052430385e-01,
	-2.3283189872e-01,
	6.6438257679e-01,
	9.5544715037e-01,
	3.6525573552e-01,
	-3.7338192126e-02,
	-7.1560918061e-01,
	-4.0179641889e-01,
	-1.6132822873e-01,
	-2.6989639144e-01,
	5.6631127864e-02,
	7.8111708899e-01,
	-7.7879666992e-01,
	-3.9486261615e-01,
	-1.8386824205e-01,
	3.0828843606e-01,
	6.1531277821e-01,
	7.2331204625e-01,
	1.2293523695e-01,
	2.1987768878e-01,
	-6.9328074329e-01,
	2.2173247916e-01,
	4.4602514871e-01,
	-6.7511150412e-01,
	6.5689893796e-01,
	-6.5554006661e-01,
	7.3193135938e-01,
	7.6623489883e-01,
	3.4578342985e-01,
	7.1504730159e-01,
	-8.7959692901e-01,
	-5.0369226723e-01,
	-5.1778459806e-01,
	7.8478564778e-01,
	-5.4824511779e-01,
	8.4747113839e-01,
	-2.5255254528e-01,
	-2.6385429840e-01,
	-5.5432528143e-01,
	5.8611922599e-01,
	4.6624931016e-01,
	5.0230584643e-01,
	3.6723631405e-01,
	6.8745264117e-01,
	-8.9255677065e-01,
	-8.1663192893e-01,
	-4.2589237002e-03,
	7.2275600849e-01,
	9.0668011732e-01,
	-8.8132368675e-01,
	-5.7366303661e-02,
	-7.8660062691e-01,
	3.4040879241e-01,
	-6.1134115588e-01,
	-4.6171213103e-01,
	-2.6922705596e-03,
	-2.6688122156e-01,
	-7.2978077164e-01,
	-2.3645737173e-01,
	-9.2109779265e-01,
	9.8526652995e-01,
	-1.1605430074e-01,
	-4.2479005988e-01,
	-5.3251806811e-01,
	-3.3126865389e-01,
	2.6964823262e-02,
	-6.8504693065e-01,
	4.1617880176e-01,
	7.6311052486e-01,
	-2.3937221209e-01,
	6.3727211919e-03,
	2.3032206949e-01,
	-7.3701232587e-01,
	-6.3044471599e-01,
	-8.3088256295e-02,
	-6.2565265496e-01,
	-4.4696152561e-01,
	9.1270909460e-01,
	-9.0683335431e-01,
	-5.7651563033e-01,
	-1.0210301189e+00,
	2.6685592521e-02,
	-3.2698542089e-01,
	3.7164083138e-01,
	4.2443561708e-01,
	2.1128079310e-01,
	-6.3105361426e-01,
	-8.4245580986e-01,
	4.8148900060e-01,
	1.3248901401e-01,
	-7.6355360251e-01,
	4.5093452659e-01,
	-9.8356528766e-01,
	-1.8834366146e-01,
	9.1650410137e-01,
	-3.1483394155e-01,
	8.3862116180e-01,
	-7.5080947008e-01,
	-8.9865514073e-01,
	6.0173168574e-01,
	9.8183187702e-03,
	1.0364288702e-01,
	-1.6890848017e-01,
	2.7275195311e-01,
	4.7317722788e-01,
	7.4790399510e-01,
	6.4312881680e-01,
	-9.7392036113e-01,
	6.6045754666e-01,
	7.3626168898e-01,
	-5.1433783188e-01,
	6.9168741055e-01,
	-2.2797174343e-01,
	1.5864407139e-01,
	6.3326066855e-02,
	-8.0354633173e-01,
	-6.3008615730e-01,
	4.3227245260e-01,
	-6.4600214066e-01,
	8.5140284330e-01,
	-4.3523853432e-01,
	-4.0955574317e-01,
	3.1815837199e-01,
	-4.1880382198e-01,
	4.0210059537e-01,
	2.5239583349e-01,
	2.6636223647e-01,
	2.4072175624e-01,
	5.0158636342e-01,
	3.6770709668e-01,
	-1.5754655803e-01,
	-4.8859531874e-01,
	-5.2865001724e-01,
	6.7354496181e-01,
	7.8415663437e-01,
	9.4452721064e-01,
	4.2144895691e-01,
	4.2728545118e-01,
	9.7060684952e-01,
	8.1906502639e-02,
	1.6354713923e-01,
	-5.4373098237e-01,
	-2.2640608774e-01,
	9.3557539579e-01,
	6.1491308902e-01,
	8.3691997912e-01,
	-8.6797093687e-01,
	9.8482693172e-01,
	2.6919243078e-01,
	-5.1397307753e-01,
	8.3622977409e-01,
	8.3395389646e-01,
	7.6471180225e-02,
	1.5438814515e-01,
	-5.8484992645e-01,
	-5.2142822534e-01,
	-5.9321602229e-01,
	6.8151231095e-01,
	7.1929353183e-01,
	9.0837034206e-01,
	4.9219406698e-02,
	-4.3825302713e-01,
	-5.8022497761e-01,
	5.2056938946e-01,
	-7.6470806625e-01,
	-7.9606834324e-01,
	4.6509659917e-01,
	6.5674089066e-01,
	6.3121710794e-01,
	4.3570344776e-01,
	-2.6135260764e-01,
	-2.0523575377e-01,
	8.9197246539e-01,
	5.1224130556e-01,
	-2.6966035891e-01,
	5.0688555348e-01,
	3.4916128374e-01,
	-1.3763129578e-01,
	4.9171248427e-01,
	-3.8164628548e-01,
	3.4839562762e-01,
	3.2794225743e-01,
	-5.4769238995e-01,
	-5.7513319309e-01,
	-5.1766959742e-01,
	-1.3254231547e-01,
	-9.6561418426e-02,
	-1.1088561970e-01,
	-4.5103000545e-01,
	-3.7726788753e-01,
};

double mlpBiasesLayer1[] = {
	-1.6091925131e+04,
	-4.0394068768e-01,
	1.0313491511e-01,
	3.5022147733e-02,
	5.8344201016e-02,
};

double mlpWeightsLayer2[] = {
	-3.6704029887e-01,
	4.9459383401e-01,
	4.9660308046e+00,
	1.8665494996e+00,
	2.8790487178e-01,
double mlpBiasesLayer2[] = {
	0.0000000000e+00,
};

