// MLP Weights File

#define NUMBER_OF_LAYERS 2
#define LAYER_1_WEIGHTS_LENGTH 3200
#define LAYER_2_WEIGHTS_LENGTH 25

#define LAYER_1_WEIGHTS_ABS_MAX 6.0000000000e+00
#define LAYER_2_WEIGHTS_ABS_MAX 8.0000000000e+00

double          mlpWeightsLayer1[] = {
  4.9175590653e-01,
  8.0076543436e-01,
  -4.2652543500e-01,
  5.6472264124e-01,
  2.8820585841e-01,
  9.1324048606e-01,
  -8.6764054569e-01,
  6.2211548775e-04,
  -3.5341044071e-01,
  5.8656915533e-01,
  -1.6770514531e-01,
  -2.2450637749e-01,
  -3.1659869984e-01,
  -8.4123860157e-01,
  -5.5356306907e-01,
  -6.4639256337e-01,
  1.9904068888e-02,
  -2.7209083447e-01,
  -3.2814676614e-01,
  8.8156987134e-01,
  4.3087941879e-01,
  6.0805364106e-01,
  -1.7686826665e-01,
  -5.1588604333e-01,
  5.9398735330e-02,
  -1.1766646488e-01,
  -3.4764204719e-01,
  1.5880838714e-01,
  -2.7924156896e-01,
  -9.7224500171e-01,
  3.9145535836e-01,
  -4.7345268461e-01,
  -3.2276600747e-01,
  -6.2461087543e-01,
  2.7866865481e-01,
  -6.7242446851e-01,
  9.3117927447e-01,
  -9.1344012169e-01,
  -1.0114257067e+00,
  -9.7738748598e-01,
  -1.1336510242e-01,
  6.7512089041e-01,
  1.4886870906e-01,
  -9.8599764917e-01,
  7.6045947528e-01,
  7.7331188639e-01,
  -2.2456737021e-01,
  -3.6404824033e-01,
  -4.1671060113e-01,
  -1.7617276179e-01,
  -5.9682028019e-01,
  8.1352256206e-01,
  -2.9155833030e-01,
  -8.4646934369e-02,
  -8.3053589904e-01,
  -9.8436491409e-01,
  -4.7079363731e-01,
  1.2612291103e-01,
  1.3308089438e-01,
  -9.9042000912e-01,
  -4.1906403749e-01,
  -7.0108229190e-01,
  -5.7678034352e-01,
  -7.1706359590e-01,
  -1.3495300998e-01,
  4.4232921712e-01,
  5.4219528298e-01,
  -6.0703914389e-01,
  8.0310262795e-01,
  -2.1387253572e-01,
  8.6814296270e-01,
  -7.0324059797e-01,
  5.6914162947e-01,
  -6.9664879928e-01,
  -9.7306023669e-02,
  -5.1288366620e-01,
  2.3243882362e-01,
  -4.3289236177e-01,
  -3.0222258118e-01,
  -5.5808935311e-01,
  -7.6164583146e-01,
  -5.3539101706e-01,
  -9.7363034299e-01,
  -3.6180827770e-01,
  8.3906715050e-01,
  -1.8844458305e-03,
  -9.5707107719e-01,
  5.9579454791e-01,
  2.0960586969e-01,
  7.0372616924e-01,
  -2.0044593269e-01,
  -2.2712829869e-02,
  3.4998792555e-01,
  -5.0337427104e-01,
  -7.6419936227e-01,
  -6.1116640723e-01,
  9.3284793317e-01,
  9.4863600226e-01,
  2.3013483799e-01,
  -1.2843583425e-01,
  -8.4610486582e-01,
  -3.5983735657e-01,
  -7.0238555861e-01,
  -3.1548866077e-01,
  -5.4425769948e-01,
  -5.6695384120e-01,
  3.9861794135e-01,
  -5.6176376696e-01,
  -4.7627937884e-01,
  -3.9965175268e-01,
  -3.5925346639e-01,
  2.2332740831e-01,
  -7.3808753495e-01,
  3.2025336339e-01,
  -4.2806561025e-02,
  -5.4683651619e-01,
  6.3133875905e-02,
  8.1281790170e-01,
  1.2317804244e-01,
  6.6016933159e-01,
  -6.5147258607e-01,
  4.3282125940e-01,
  7.0243420794e-01,
  -5.7550929215e-01,
  -5.9797747274e-01,
  -7.1260124059e-02,
  -6.3244617464e-01,
  -1.6466341884e-01,
  -4.4603306409e-01,
  -6.9068638964e-01,
  4.3277995723e-01,
  -1.1004265280e-01,
  -8.8920215122e-01,
  -1.2040190942e-01,
  -8.8193359615e-01,
  1.3487077285e-01,
  -8.0151478571e-01,
  -2.9893917748e-01,
  3.6803589308e-01,
  -6.9526233888e-01,
  -3.7469908636e-02,
  -5.2257488365e-01,
  2.3830292389e-01,
  4.0716229605e-01,
  7.3504880265e-01,
  -3.6320302562e-01,
  -9.9878262683e-01,
  4.2904887780e-01,
  -6.5456028950e-01,
  8.2566718954e-01,
  -6.0876558660e-01,
  6.5461801507e-01,
  9.4247289733e-01,
  -3.3520409173e-01,
  1.5130297046e-01,
  -2.6561052590e-01,
  -1.0804643709e-01,
  -5.7311457775e-01,
  -4.3053067823e-01,
  -4.6531474026e-01,
  -7.6229021465e-01,
  -3.3783984961e-01,
  -2.7675378425e-01,
  7.5643284070e-01,
  -4.6370351598e-01,
  2.9157539738e-01,
  -4.6951022575e-01,
  -2.9777837772e-01,
  -7.6123576602e-01,
  2.4883060879e-01,
  -1.6575657244e-01,
  -4.3939975869e-01,
  6.3806271127e-01,
  3.5752382474e-01,
  5.0335663142e-01,
  -4.4281632628e-01,
  -4.3415783007e-01,
  2.2948697663e-01,
  2.4284769665e-01,
  7.8043469536e-01,
  4.9357983843e-01,
  -9.1119934547e-01,
  1.6104663369e-01,
  -8.2997509347e-01,
  -1.1911226021e-01,
  3.5351301702e-01,
  8.4170344763e-01,
  -5.5617447277e-01,
  8.6654078950e-01,
  -5.2565631548e-01,
  5.3456762925e-02,
  6.3529654657e-01,
  2.7996546881e-01,
  -5.0483227716e-01,
  -2.9047399706e-01,
  -3.9619789793e-01,
  -8.1410622827e-01,
  -7.8460674632e-01,
  -2.2924917121e-02,
  4.4863003983e-01,
  -1.3932526322e-01,
  8.4410899664e-01,
  1.4271599510e-01,
  7.6227955291e-01,
  5.2143431307e-01,
  -1.5632960358e-02,
  -2.9660523697e-01,
  2.4770264874e-01,
  4.6916940633e-01,
  4.5709518107e-01,
  -8.9396593448e-01,
  8.1842867442e-01,
  -8.6761328564e-01,
  -7.5760339351e-01,
  8.4582965205e-02,
  -2.0538506718e-01,
  -1.9899956459e-01,
  1.0994743744e-02,
  7.4944777204e-01,
  -9.0365972457e-01,
  -8.3379926536e-01,
  1.1655086679e-01,
  -7.2636633189e-01,
  2.2190896487e-01,
  -2.0417198362e-01,
  -2.3505133075e-02,
  -5.1981747602e-01,
  -2.1633708121e-01,
  5.7379394536e-01,
  -4.5691556329e-01,
  2.4489393756e-01,
  -4.9123896331e-01,
  1.0289484334e-01,
  7.3531445559e-01,
  -1.1437182609e-01,
  -5.6751025011e-01,
  2.9334875461e-01,
  6.5262009895e-01,
  -5.0748992764e-01,
  1.6318940302e-01,
  9.5562213570e-01,
  2.3812156217e-01,
  2.7002603103e-01,
  8.8635671973e-01,
  7.3442144515e-01,
  -5.0224485366e-01,
  -8.9296904503e-01,
  -7.7529794453e-01,
  -7.8386570586e-01,
  -2.7068190050e-01,
  -7.9638689003e-01,
  -6.5509445553e-01,
  -5.5243399310e-01,
  -6.8891621650e-02,
  9.7970834710e-03,
  5.2366294598e-01,
  1.6620828381e-01,
  1.2918367845e+00,
  1.2211374746e+00,
  2.1713562768e+00,
  -3.0332637798e-01,
  9.7372771635e-01,
  9.4683213114e-01,
  -5.7574387565e-01,
  -1.7509855647e-01,
  8.4745959531e-01,
  -4.7975531634e-01,
  8.0707120848e-01,
  5.9675308895e-01,
  -1.0885492450e+00,
  -6.0779388012e-01,
  -3.3206573647e-01,
  -8.7722251121e-01,
  -1.0843470777e+00,
  -3.1430075973e-01,
  -9.1738673990e-01,
  1.2926913419e-01,
  1.1146931003e-01,
  -1.0790826283e+00,
  -9.6874546620e-01,
  -7.5301571697e-01,
  -2.3862540942e-01,
  5.4342748428e-01,
  6.7883117375e-01,
  -1.3941507178e-01,
  -2.0613373535e-01,
  -5.1441527771e-01,
  1.0215095428e+00,
  1.1026518572e+00,
  -3.7071285930e-01,
  -7.1490309874e-01,
  -2.7211994703e-01,
  -1.6443756370e-01,
  1.0996530543e+00,
  1.1533836363e+00,
  7.7677323448e-01,
  1.6433414219e-01,
  -1.2079989044e-01,
  1.5233956985e+00,
  7.9589958122e-01,
  1.0840104756e-01,
  -1.1376914062e+00,
  1.6032938592e-01,
  -8.3285626534e-01,
  6.4379307647e-01,
  -2.2864907734e-01,
  1.0381843234e+00,
  6.9141737659e-01,
  -8.3735350647e-01,
  -3.8024490568e-01,
  -2.4566323479e-01,
  3.8877072810e-01,
  2.1520048412e-01,
  -7.0741111761e-01,
  -6.2903304166e-01,
  4.0373108642e-01,
  -2.4787183102e-01,
  6.0677959040e-01,
  9.7731473571e-01,
  -7.1523142316e-01,
  7.1662156567e-01,
  3.2974428837e-01,
  -2.3888625327e-01,
  3.9587926658e-01,
  -3.2852928943e-01,
  4.4197891387e-01,
  5.2052107029e-01,
  8.8178115001e-03,
  -5.4550511130e-01,
  5.3764765236e-01,
  -1.1493691436e-01,
  -8.2948987567e-01,
  -4.7813807562e-01,
  1.6500655959e-01,
  -1.0387058457e+00,
  -4.6530663057e-01,
  -1.0280230844e+00,
  -7.7330954729e-01,
  1.0887230739e-01,
  -4.2161730097e-01,
  8.3220758868e-01,
  1.1630623019e+00,
  8.1917074893e-01,
  8.9398979798e-01,
  -8.0256434084e-01,
  -7.5933696988e-01,
  3.8240813715e-01,
  7.4285800733e-01,
  -2.2880575294e-01,
  7.3107459170e-01,
  -1.8712377681e-01,
  -4.0034450853e-01,
  -5.3445333500e-01,
  -2.1930774280e-02,
  -3.1508894170e-01,
  7.6168135111e-01,
  -2.8676230842e-01,
  8.0415255133e-01,
  1.6768550399e-01,
  -1.0104751531e+00,
  -8.3715592364e-01,
  -2.5200414761e-01,
  1.0005305750e-01,
  -8.7978536338e-01,
  5.9730794619e-01,
  -8.5969793152e-01,
  -7.7529556722e-01,
  -1.6217405360e-01,
  -6.4778073762e-01,
  -8.3060783209e-02,
  1.3000243396e-01,
  5.7126670971e-01,
  4.8646324781e-01,
  3.8242531973e-01,
  -5.1820258300e-01,
  -8.8576714775e-01,
  -8.7018583097e-01,
  5.9302186288e-01,
  -5.3256245588e-01,
  7.7415705123e-02,
  -1.1628245526e-01,
  -6.9816865713e-01,
  -3.4471471102e-01,
  -9.1338735690e-01,
  3.0376886597e-01,
  -1.0020456458e+00,
  -5.5239063123e-01,
  -1.0291592278e+00,
  -6.4849516949e-01,
  -6.3935505438e-01,
  -8.6379614025e-01,
  -9.1816474955e-02,
  2.1393062181e-01,
  2.3143085588e-01,
  3.9856752377e-01,
  5.9595871041e-02,
  3.9681550311e-01,
  -5.3763380368e-01,
  -4.6121116078e-01,
  4.5837373259e-01,
  -4.2632437384e-01,
  -4.7603103028e-01,
  -1.2466255210e-01,
  6.3275274988e-01,
  1.7436833542e-01,
  -3.8191625222e-02,
  5.7515198607e-01,
  2.5617673505e-01,
  -2.7762533667e-02,
  -2.2786277102e-01,
  3.5978501525e-01,
  -8.5141134309e-01,
  -4.5042208798e-01,
  -2.3941402179e-01,
  7.6103417691e-01,
  -8.3682591171e-01,
  -2.6180966186e-01,
  -4.7366037009e-01,
  5.5944235536e-01,
  -7.6399044040e-01,
  -3.0757622091e-01,
  6.7406245998e-01,
  -4.9568114058e-01,
  3.9427004851e-01,
  6.0849052889e-02,
  3.2596600568e-01,
  -3.3732563993e-01,
  -5.4378303666e-01,
  3.7798711632e-01,
  7.4730987108e-02,
  2.8334775708e-01,
  1.1633056800e-02,
  1.1223858689e+00,
  7.3373834217e-01,
  -5.8547707998e-01,
  -2.3586883421e-01,
  1.1131989225e+00,
  -7.6825214464e-02,
  1.1035537851e-01,
  4.1399830787e-02,
  -2.5524704787e-01,
  -5.0367284718e-01,
  4.1860214903e-01,
  -8.4596289551e-01,
  2.4634639934e-01,
  -2.8750895435e-01,
  1.6369588340e-02,
  -8.3973358585e-01,
  2.0475998500e-01,
  3.3487341175e-02,
  8.9707999850e-01,
  -7.8990152032e-01,
  4.8895588717e-01,
  -3.8034167658e-01,
  9.1841254269e-01,
  -8.9823872227e-01,
  1.6636875348e-01,
  9.3375889149e-01,
  2.2901300609e-02,
  8.0328750421e-01,
  6.2877025737e-01,
  -5.1140913912e-01,
  -7.1673619109e-01,
  -2.6532038399e-02,
  -2.6396820871e-01,
  7.8308585631e-01,
  -6.8546365120e-01,
  -7.6949315466e-01,
  -4.4089793633e-01,
  -9.8256931594e-01,
  -6.5339024966e-01,
  -8.7670655171e-01,
  1.0050516726e+00,
  6.2008492705e-01,
  8.8250183838e-01,
  -3.6289755709e-02,
  4.7012040616e-01,
  -9.5372834244e-01,
  -9.3813757212e-01,
  7.4739842643e-01,
  -6.8051751594e-01,
  5.9775886981e-01,
  6.2788727985e-01,
  -8.3367270238e-01,
  4.1753210428e-01,
  -7.0789945331e-01,
  -3.9868951737e-01,
  -5.8426014029e-01,
  -4.7032166277e-01,
  -8.5597063038e-01,
  -1.8099886187e-01,
  9.7863978609e-02,
  -3.9464637606e-01,
  6.3802164934e-01,
  -6.6241261405e-01,
  9.1940428246e-01,
  -7.0371004288e-01,
  -7.1144056157e-02,
  2.0988468221e-01,
  -2.0585727150e-01,
  7.8430392311e-02,
  2.6326706408e-01,
  6.1752789761e-01,
  8.1244215943e-01,
  1.0399281688e+00,
  7.9390056831e-01,
  -2.4194021304e-01,
  8.0634427398e-01,
  -7.5512070117e-01,
  6.3965134473e-01,
  -6.7587790100e-01,
  1.2009670856e+00,
  1.1663126067e-01,
  2.4321916571e+00,
  3.3405941357e+00,
  1.4099232045e+00,
  -4.1355506988e-02,
  1.4870848148e-01,
  8.8299087001e-01,
  5.2747719316e-01,
  5.7175782679e-01,
  5.7235937758e-01,
  5.3720758796e-01,
  -1.9579884117e-01,
  7.3198286234e-01,
  1.8417904342e-01,
  -3.1755630086e-01,
  -1.0402867130e+00,
  1.6740360126e-01,
  -7.3738540479e-02,
  6.8693691212e-01,
  -1.9427527290e-01,
  -7.9407866316e-01,
  -4.3252101519e-01,
  -5.9261689485e-01,
  6.0882155408e-01,
  -1.1857507115e+00,
  3.8982664815e-02,
  -9.4671360702e-01,
  -1.0657583126e-01,
  4.2512719883e-01,
  -1.0299134764e+00,
  -2.8073567269e-01,
  -2.9545449330e-01,
  4.0837524936e-01,
  6.1980570212e-01,
  -4.1419201087e-01,
  -6.6368570584e-01,
  -6.2627634543e-01,
  1.2407671725e-01,
  -8.8674738323e-02,
  1.3706039054e+00,
  1.3188363236e+00,
  7.1078182344e-01,
  8.9591668050e-01,
  2.0194236818e+00,
  1.4358014072e+00,
  -6.5593031787e-01,
  -1.6760634899e+00,
  -1.3738400257e-01,
  -8.4271999942e-01,
  -1.0044102056e+00,
  -6.4267347087e-01,
  -3.5391918194e-01,
  2.7990513190e-02,
  -9.9538544093e-01,
  -3.4709843348e-01,
  8.8351530451e-01,
  -1.5451875975e-01,
  -9.0651652163e-01,
  8.7651409119e-01,
  -1.4853626236e-03,
  1.0568288407e+00,
  7.9277778942e-01,
  8.2675030840e-01,
  7.6039483137e-01,
  1.0785930166e+00,
  5.0498850794e-01,
  1.5113949239e-01,
  -6.5844491606e-01,
  -7.3102170938e-01,
  1.8958737653e-01,
  -8.1859930779e-01,
  8.8627070474e-01,
  -9.9160767248e-03,
  1.1424838087e-01,
  -9.3724782701e-01,
  5.2509725027e-01,
  1.9378805846e-01,
  -1.0830897802e-02,
  -1.0083224581e+00,
  -1.2013455931e+00,
  -1.9050145104e-01,
  -1.9775905213e-01,
  -5.9413194395e-02,
  -7.3311123524e-01,
  -3.2278238979e-02,
  -2.7746094989e-01,
  1.8765768718e-01,
  -5.4350962117e-01,
  -4.2940547235e-01,
  7.7057808281e-01,
  -6.1476863347e-02,
  -6.5879281792e-01,
  -5.8251743894e-01,
  -1.3137448368e-01,
  2.5370306515e-02,
  1.3146384372e+00,
  -8.9932600531e-01,
  7.9718685247e-01,
  2.6475202347e-02,
  7.2468210838e-02,
  9.6812993237e-01,
  9.2277076358e-01,
  3.5383030760e-01,
  -3.4308801119e-01,
  -9.2317852442e-01,
  8.3594470648e-01,
  -2.3762971244e-01,
  5.4339266258e-02,
  5.2775931502e-02,
  -1.1459120758e+00,
  -1.0162023349e+00,
  -1.0445521952e+00,
  5.6338673294e-02,
  -3.3988101137e-01,
  -1.2634531493e+00,
  9.4086153807e-02,
  2.7214741546e-01,
  -4.9409580373e-01,
  -1.0715321862e+00,
  -7.9452146023e-01,
  -9.4431904873e-01,
  4.1125765141e-01,
  3.3141652523e-01,
  -1.4211087540e+00,
  -4.9167572445e-03,
  -2.6798569722e-02,
  -6.5770816740e-01,
  -1.5796338868e+00,
  1.3556715745e-01,
  -7.8686400736e-01,
  7.9588624135e-01,
  5.0685585396e-01,
  -4.7264405565e-02,
  -1.5162423556e-01,
  -8.6463373176e-01,
  3.7388493969e-01,
  -2.3318105447e-01,
  -9.1543757437e-02,
  -4.3164982917e-01,
  1.7383594442e-01,
  2.3282030529e-01,
  6.9626770425e-02,
  -3.2872315955e-01,
  -4.5629121552e-01,
  6.7089720494e-02,
  5.8343612679e-01,
  6.4704989477e-01,
  -5.7681155530e-01,
  -1.5008030793e-01,
  -9.9790249558e-02,
  -6.7665433403e-01,
  1.9845440599e-01,
  -7.6921378180e-01,
  -7.0146359250e-01,
  8.9988391422e-01,
  -4.2252556367e-01,
  -7.2922605389e-01,
  -2.6258305713e-01,
  4.4005267548e-01,
  -1.0261444091e+00,
  6.5882111014e-01,
  1.7939541700e-01,
  -1.7527379251e-01,
  -6.4899609996e-01,
  6.1899840933e-01,
  -2.8965973046e-02,
  -5.5318497121e-01,
  -1.0365609969e+00,
  3.3504040972e-01,
  3.3359558105e-01,
  -4.1075476142e-01,
  6.4624219027e-01,
  9.2840015290e-01,
  -6.8848569621e-01,
  -1.1237930054e-01,
  -4.3829384423e-01,
  -1.7784268429e-01,
  -3.2038854284e-01,
  3.9201928812e-01,
  1.0943057520e-01,
  5.6963920906e-01,
  -2.3501124687e-01,
  4.8736033863e-01,
  5.1584105081e-01,
  3.5075864683e-01,
  7.9061805200e-01,
  -6.1410624792e-01,
  -1.5200816986e-01,
  -7.0348519558e-01,
  -7.8685812211e-01,
  -3.6011839349e-02,
  -1.7127890951e-01,
  -6.5541380189e-02,
  5.6477817311e-01,
  1.3555828747e-01,
  -1.0328972234e+00,
  4.6389778962e-01,
  5.5434324502e-01,
  -1.2867505656e-01,
  4.9807996457e-01,
  4.4081025954e-02,
  8.2395354748e-01,
  6.6947798314e-02,
  8.6646698706e-01,
  -1.2804935930e-03,
  -4.5984548766e-01,
  4.3251771182e-01,
  -8.0909629661e-01,
  -4.7823396747e-01,
  7.6419513334e-01,
  6.5077230806e-01,
  -3.6056453389e-01,
  -6.5139708027e-01,
  1.8969321756e-03,
  -6.7630094002e-01,
  -7.7251492124e-01,
  -4.0067948969e-01,
  -1.8131599737e-01,
  -7.4376772112e-01,
  -5.6616722941e-01,
  3.2324295283e-01,
  -9.6337245607e-02,
  4.4473695659e-04,
  -2.6076444385e-01,
  6.6345130106e-02,
  4.5184559277e-01,
  -2.9723358438e-01,
  -3.7583777086e-01,
  -9.2217660219e-01,
  -4.4768707515e-01,
  -7.9534518858e-01,
  -8.4778355257e-01,
  -9.6153448953e-01,
  -2.4301338173e-01,
  7.4382817440e-01,
  5.7008582987e-01,
  -7.2512856511e-01,
  1.5901667712e-02,
  -1.8071383133e-01,
  -9.6580177071e-01,
  -2.9406821914e-01,
  7.8142652627e-01,
  -7.8231854044e-01,
  -6.3659539243e-01,
  5.1405353733e-01,
  -2.5604154152e-01,
  7.9340173895e-01,
  -4.0300178852e-03,
  4.2634797784e-01,
  4.6781066251e-01,
  8.1113610895e-01,
  -1.8009689717e-02,
  5.2869431885e-02,
  -5.5051317596e-01,
  3.1874445154e-01,
  -1.7282226512e-01,
  1.7351619159e-01,
  -6.2992708025e-02,
  3.0057799197e-01,
  9.4635324289e-03,
  -2.0313531036e-01,
  -4.7495705841e-01,
  7.1884456595e-01,
  2.6763197117e-01,
  2.6494001731e-01,
  -9.4989306560e-01,
  6.8690671120e-01,
  -4.9021375897e-01,
  3.6148813968e-01,
  6.6288364699e-01,
  -9.1689265624e-01,
  9.2376507184e-01,
  -2.3139464553e-01,
  2.7743166876e-01,
  -8.5686920538e-01,
  7.3282004254e-01,
  4.1921014313e-01,
  8.2009667217e-01,
  1.8699987598e-01,
  -3.1883810085e-01,
  -7.4562352577e-01,
  4.5077116933e-01,
  -2.2480709618e-01,
  -6.9742706606e-01,
  3.6354578641e-02,
  1.2430015681e-01,
  -7.7334298900e-01,
  5.9469020364e-01,
  -4.0556188033e-01,
  -6.9115016748e-01,
  -5.5424750256e-01,
  -3.9826153642e-01,
  -1.7720864003e-01,
  -7.3525017663e-01,
  -5.9946198400e-01,
  -1.6248437129e-01,
  -6.6836110585e-01,
  -7.2051795743e-03,
  -1.3887725951e-01,
  1.1065300829e+00,
  4.9951662301e-01,
  -1.8264390153e-01,
  -6.9113856779e-01,
  -5.0630386693e-01,
  -2.8867949693e-01,
  -8.7533384168e-01,
  6.4885338513e-01,
  -8.1134916358e-01,
  -9.3791054331e-01,
  -4.3606533505e-01,
  -8.1944286397e-01,
  -7.5435097133e-02,
  -1.0084542519e+00,
  9.1817091532e-01,
  9.6470594314e-01,
  1.0184951233e+00,
  -4.8947552077e-01,
  5.7948276563e-01,
  8.2828133900e-01,
  9.6718417065e-01,
  -8.7458619608e-01,
  1.9594765806e-01,
  1.8757923671e-01,
  -1.8978307737e-01,
  -2.2651086162e-02,
  4.2996459540e-01,
  -7.7707448284e-01,
  -7.4061030509e-01,
  5.9793808043e-01,
  -5.9830472394e-01,
  -2.0544764007e-01,
  -9.7636072949e-01,
  7.0185671890e-01,
  5.2197237205e-01,
  2.8985734983e-01,
  7.3615424284e-01,
  5.5476515208e-01,
  -9.6649650798e-01,
  -6.7384085425e-01,
  2.4625520640e-01,
  4.3783024783e-01,
  7.9025854142e-01,
  -5.7660528429e-01,
  -3.6245853745e-01,
  -3.2441987132e-01,
  5.5939534962e-01,
  5.8554194550e-01,
  8.8444791223e-01,
  -6.3376404273e-01,
  -1.6083506514e-01,
  -1.3050374268e-01,
  -4.1896330433e-01,
  1.1572827110e-01,
  8.0481499726e-01,
  -4.1658744335e-01,
  -9.7097028005e-01,
  -8.1707042545e-01,
  -7.0340590458e-01,
  2.4861335124e-01,
  -9.6814272697e-01,
  -3.8627665054e-01,
  1.0164040569e-01,
  -2.9984867027e-01,
  -4.6528928833e-01,
  2.5871112007e-01,
  2.6718270547e-01,
  -3.8949622055e-01,
  -6.1726666186e-01,
  1.2349133779e-01,
  -7.5045896089e-01,
  3.7253508300e-01,
  -4.5666347846e-01,
  -1.5711035040e-02,
  -1.9476908874e-01,
  -8.5448753741e-01,
  6.7667157599e-01,
  -1.0304451254e-01,
  -3.4911498536e-01,
  9.4653053188e-02,
  7.3038654957e-01,
  5.3451432911e-01,
  -1.9724383948e-01,
  -6.9676095033e-01,
  -3.5933583138e-01,
  -3.1019957475e-01,
  -4.1706139172e+00,
  -3.8101930041e+00,
  -3.5213063935e+00,
  6.2096358949e-01,
  -7.4358535885e-02,
  -3.9316457818e-01,
  -2.2713167056e-01,
  4.3498863945e-01,
  -1.2053994950e-01,
  -1.5240076956e+00,
  -9.5257911108e-01,
  -3.9594106753e-01,
  -1.7984515710e-01,
  4.2624762099e-01,
  2.6024632917e-01,
  -5.2658349133e-01,
  7.4657426951e-01,
  1.0224431501e-01,
  1.3725099929e+00,
  1.8235068560e-01,
  1.7347823413e+00,
  6.7066279676e-02,
  4.0286923143e-01,
  -3.8009709286e-01,
  9.4179428772e-01,
  1.0093912025e+00,
  9.7596721494e-01,
  4.3619742170e-01,
  -4.7544848913e-01,
  3.1206409352e-01,
  -6.9249833470e-01,
  -7.5007055707e-01,
  -1.9139728315e-01,
  -2.9017549284e-01,
  8.3154794635e-01,
  5.1801630840e-01,
  -1.2289459361e+00,
  -9.7384533858e-01,
  -2.9931441311e-01,
  -7.6911152244e-01,
  -2.0981758373e+00,
  -2.4857618337e+00,
  -2.5595852681e+00,
  -1.1913012049e+00,
  4.5101834838e-01,
  2.1265163258e+00,
  1.1034184026e+00,
  9.3690797179e-01,
  1.4195946995e+00,
  -5.8091948739e-01,
  -1.6336964454e-01,
  7.3069559775e-01,
  5.4972369240e-01,
  -4.2427655617e-01,
  2.1411404932e-01,
  7.7728502372e-01,
  -2.3813984372e-01,
  1.2695521409e-02,
  4.4137645549e-01,
  -7.0172571793e-01,
  -6.2646450435e-01,
  -1.2521375274e+00,
  -2.3278985533e-01,
  -6.9530095907e-01,
  1.2712417562e-01,
  2.6459891381e-01,
  1.1063203776e+00,
  -2.5787061708e-01,
  -3.2280727799e-01,
  -6.3785254748e-01,
  4.2721101559e-04,
  2.0538482516e-01,
  1.0585543767e-01,
  8.3525572946e-01,
  8.2603071161e-01,
  -5.5617829669e-01,
  8.1064498960e-02,
  1.3864694299e-01,
  -1.3958020153e-01,
  1.7667190852e+00,
  1.5051916450e+00,
  1.1237003130e+00,
  1.6775950439e-01,
  4.7578882433e-01,
  -1.0632009626e+00,
  2.4584615230e-01,
  -3.9931136913e-01,
  7.4188519137e-02,
  -1.1400766484e+00,
  -3.1644962158e-01,
  3.1186987510e-01,
  4.0387613426e-01,
  -1.1173430583e+00,
  -6.2911403194e-01,
  -3.7821661910e-01,
  2.6626514665e-01,
  -8.1082596380e-01,
  -8.8033433708e-01,
  2.7068493621e-01,
  7.6197624821e-01,
  -3.2076872361e-01,
  -2.8403797522e-01,
  2.7295088191e-01,
  -5.9067245333e-01,
  2.4892586244e-01,
  -9.2679795751e-01,
  2.0219312284e-01,
  -1.3533458028e-01,
  9.3125648281e-01,
  6.8030232615e-01,
  1.5482239262e+00,
  1.5631758261e-03,
  1.4630330872e+00,
  6.5712213008e-01,
  -3.2058604072e-01,
  1.2162312670e+00,
  2.9201103530e-01,
  1.1851617013e+00,
  1.5857895626e+00,
  1.2773502968e+00,
  1.5917356007e+00,
  3.3062763327e-01,
  -1.0186733013e-01,
  -1.2599113509e-01,
  1.5492812228e+00,
  1.2289823061e+00,
  1.4271113257e+00,
  -1.5796622936e+00,
  -5.0905005969e+00,
  -5.7845766859e+00,
  -4.9108462523e+00,
  1.2473424658e+00,
  1.7716991698e-01,
  -1.4630658235e+00,
  -2.6531552665e-01,
  9.5465856435e-01,
  -6.6374705963e-01,
  -1.9461323863e+00,
  -9.8167964154e-01,
  -4.5091391273e-01,
  1.3957911185e+00,
  1.6330788583e+00,
  6.0538986018e-01,
  -3.2923754882e-02,
  1.0145792664e+00,
  1.1201711372e+00,
  9.2042178782e-01,
  1.8193695184e+00,
  9.1401216027e-01,
  1.3043190218e+00,
  -7.0302637110e-01,
  6.1211252719e-01,
  3.3226930509e-02,
  7.6660126973e-01,
  -3.5224401326e-02,
  7.4216780165e-01,
  2.9670426003e-01,
  8.1534046476e-02,
  -1.2292323931e+00,
  -1.2505849771e+00,
  -1.2046860691e+00,
  -1.0606247916e+00,
  -4.1698518755e-01,
  -7.4685395697e-01,
  -4.0417226636e-01,
  -3.1743608106e-01,
  -7.6131853589e-01,
  -1.7330134881e+00,
  -1.2084154608e+00,
  -1.5035983327e+00,
  -2.8434182939e+00,
  -5.9602047014e-01,
  1.3534710715e+00,
  1.1677423744e+00,
  1.1317543740e+00,
  3.7600811694e-01,
  1.2083083332e+00,
  -1.0175646681e+00,
  3.6744174652e-01,
  2.9889616130e-01,
  3.4174417191e-01,
  3.9400106426e-01,
  5.6467443563e-01,
  -3.0494343221e-01,
  -1.7115582536e-01,
  -3.0173485728e-01,
  5.2583218801e-01,
  -7.9674359111e-01,
  -9.2087393741e-01,
  -9.2244484130e-01,
  -1.0334288009e+00,
  -1.0798467345e+00,
  4.6387599026e-01,
  -7.0163549380e-02,
  8.6095164653e-01,
  -1.3493986545e-01,
  2.2221090512e-01,
  7.0792992904e-01,
  1.9783078296e-01,
  -6.5020245038e-01,
  -5.1997503922e-01,
  1.5332292609e-01,
  -2.8038669289e-01,
  1.1103423082e+00,
  8.3503626350e-01,
  9.1643502646e-01,
  3.9981767297e-01,
  1.2354214633e+00,
  1.9530278188e+00,
  3.1070288219e-01,
  -4.2918367200e-01,
  3.1148555599e-01,
  -5.5150150164e-01,
  5.9372668414e-01,
  4.9745181515e-01,
  -4.3244058041e-01,
  -3.2904010058e-01,
  3.9962539841e-01,
  -1.5453344205e+00,
  -3.0226774385e-01,
  -2.6470208212e-01,
  -5.8512766809e-01,
  -5.3735300324e-01,
  5.6288060025e-01,
  1.0490870894e+00,
  4.1161833713e-01,
  -1.3009055531e+00,
  4.1502897620e-01,
  -1.0118744809e+00,
  -8.7674072232e-02,
  1.9228296314e-01,
  8.4187529156e-01,
  5.9898419404e-01,
  -2.1921977290e-02,
  6.2998822369e-01,
  -7.2241059709e-01,
  4.3977894773e-01,
  1.1627806981e+00,
  1.6497331240e-01,
  1.5915156630e+00,
  1.7282760360e+00,
  1.0962613408e+00,
  -2.0437241341e-02,
  -3.2643743397e-01,
  3.3049352769e-01,
  1.7987342845e-01,
  5.8227688488e-01,
  1.6982110548e+00,
  1.3512867703e+00,
  8.0103849656e-01,
  1.5860974616e+00,
  1.5594729680e+00,
  1.8353827630e+00,
  1.5762776712e+00,
  1.7996032816e+00,
  9.9970162342e-01,
  2.4618418928e+00,
  2.9146140842e+00,
  2.3849837726e+00,
  -1.2602407182e+00,
  7.6511003764e-01,
  1.1220166550e+00,
  2.3418232757e-01,
  2.9631358097e-01,
  -3.4231668805e-02,
  1.4957058211e+00,
  5.3773061479e-01,
  -5.9978148727e-01,
  -5.2689306833e-01,
  -1.0350002079e+00,
  -7.6419393954e-01,
  1.0707043215e-01,
  5.8418742534e-02,
  -2.8700840002e-01,
  -8.0962036094e-01,
  3.3336002389e-01,
  -9.1049173540e-01,
  -1.1605930003e+00,
  -7.7855202947e-01,
  4.3538158034e-01,
  -7.4224504042e-01,
  -7.1487680048e-01,
  -4.2140941138e-01,
  -6.4091114233e-01,
  -1.1779025207e+00,
  3.4314243860e-01,
  -8.0841407032e-02,
  4.4603070145e-01,
  5.9450697665e-01,
  1.0842280382e+00,
  2.5489905333e-01,
  2.0071485344e-01,
  2.2182900367e-01,
  1.2133118489e-01,
  3.6060017845e-01,
  -1.5758543851e-01,
  3.3039450565e-01,
  1.3936593121e+00,
  1.5717191802e-01,
  7.7281692111e-01,
  -1.1626009540e+00,
  3.7133839741e-02,
  -1.2874693086e+00,
  -9.8276339602e-01,
  -7.4767473203e-01,
  -7.3488420287e-01,
  -9.3992316872e-01,
  -1.1861564643e+00,
  4.9521235339e-01,
  3.7151871449e-02,
  -1.6865532435e-02,
  -2.6147996664e-01,
  -5.7981170170e-01,
  8.6573860602e-01,
  -8.0580548895e-01,
  1.0282757911e+00,
  9.0506294983e-02,
  2.6916997732e-01,
  9.2477497128e-01,
  -9.1023449604e-02,
  8.8807891961e-01,
  6.6372107914e-01,
  -8.3544649818e-01,
  2.9815052979e-01,
  -1.7146391873e-01,
  -5.4111649038e-01,
  1.0545202017e+00,
  3.7746912235e-01,
  -1.1613756920e-01,
  5.2066990643e-01,
  -9.2461701047e-01,
  5.0537464506e-01,
  -5.9745109105e-01,
  -4.3604226273e-01,
  1.6584251108e-01,
  -5.9253448266e-01,
  -1.3938775995e+00,
  -4.1400367380e-01,
  6.7064547332e-01,
  3.5371019972e-01,
  8.0022171746e-01,
  9.4362558555e-01,
  -5.2313195905e-01,
  6.8609089414e-01,
  -3.7634931643e-01,
  7.7301645177e-02,
  -4.5940580297e-01,
  9.3102274785e-01,
  3.3568657135e-01,
  1.5224367163e-01,
  1.4694159828e-02,
  7.0005970027e-01,
  -3.3667606941e-01,
  -6.9961714884e-01,
  -7.2731206716e-01,
  3.6802515215e-01,
  -7.8164208235e-01,
  9.7779906272e-01,
  -7.7014492606e-02,
  2.3555575994e-01,
  -5.8930472921e-01,
  -7.2985696742e-01,
  5.9129784185e-01,
  -5.2430527695e-01,
  -7.3224841925e-01,
  -4.8197538153e-01,
  3.0232904722e-01,
  -5.0713835635e-01,
  6.3956992817e-01,
  -1.1375618763e+00,
  6.8346043853e-01,
  -1.1362895776e+00,
  -8.2379775751e-01,
  -3.9984046888e-01,
  -1.5603646685e-01,
  -1.3478669868e+00,
  3.3513313715e-01,
  -8.0647991023e-01,
  3.4654337953e-01,
  -4.6186061283e-01,
  3.3074442825e-01,
  3.4945827128e-01,
  -1.8591743003e-01,
  1.7347996672e+00,
  3.2270562846e+00,
  5.0657650440e+00,
  4.3749292161e+00,
  -4.9046164683e-01,
  -1.6275737054e-01,
  1.8486180327e+00,
  1.7576606759e+00,
  9.6689826792e-01,
  -3.8972100317e-01,
  1.9263448829e+00,
  1.1749640361e+00,
  -4.4852251852e-01,
  -9.9207985820e-01,
  -1.7323111489e+00,
  -1.5248673196e+00,
  -9.6297188619e-01,
  2.5356594286e-01,
  2.1171851487e-01,
  -1.0747574517e+00,
  -1.6727492395e+00,
  -8.5240947235e-01,
  -1.6292241773e+00,
  -7.1905890019e-02,
  2.9987957763e-01,
  -8.1993974544e-01,
  -1.3904378761e+00,
  2.0123386737e-01,
  -1.1864086055e+00,
  -7.8780312689e-01,
  7.7524184054e-01,
  6.3540441852e-01,
  1.4677771209e+00,
  -4.7861797161e-02,
  -7.2310757605e-01,
  -6.9386750019e-04,
  8.0342829029e-01,
  8.1846955085e-01,
  1.1661019761e+00,
  6.1118201006e-04,
  -5.3620002727e-02,
  1.3427154211e+00,
  1.9598546249e+00,
  1.8832825275e+00,
  1.8723876584e+00,
  -7.5567064073e-01,
  -1.6500666724e+00,
  -1.4163267501e+00,
  -3.3037101279e-01,
  4.9177838882e-01,
  -5.3066031634e-01,
  -6.2181976192e-01,
  -1.2585761425e+00,
  -3.3878590777e-01,
  2.8768924303e-01,
  -1.4094032387e-01,
  -1.2990047016e+00,
  -9.4157358376e-01,
  -5.3147122545e-02,
  1.1964426805e+00,
  1.5500096005e+00,
  1.1638881687e+00,
  3.0258874192e-01,
  1.0810868643e+00,
  5.3893143825e-01,
  -1.0396834580e-01,
  -1.1228519191e+00,
  1.5403873499e-02,
  -8.6934832999e-01,
  6.1279316501e-01,
  -6.3647638148e-02,
  -5.6845431365e-01,
  1.2930778971e-01,
  -3.3682876971e-01,
  5.6398691755e-01,
  -8.6802316018e-01,
  -8.9580713878e-01,
  -6.8172293709e-01,
  1.2103313278e-01,
  7.4663566240e-02,
  -1.4624101930e+00,
  -1.4353749087e-01,
  -5.2597563228e-01,
  -8.5607818169e-01,
  -5.4352852287e-01,
  1.2094090028e+00,
  8.9759355912e-01,
  -4.5680622026e-01,
  -2.1494265934e-01,
  3.5950534287e-01,
  -1.7172427924e-01,
  1.5264392741e+00,
  1.2099805145e+00,
  6.6715402270e-01,
  3.4489572070e-01,
  1.2333197831e+00,
  -3.9420376637e-01,
  6.2290602503e-01,
  -7.5065173540e-01,
  -3.3454663625e-01,
  -6.4794732765e-02,
  -1.3797400419e-01,
  -6.0937452542e-01,
  5.2540116601e-01,
  5.1775203446e-01,
  -6.7041129136e-01,
  -6.3539890985e-01,
  -7.3671893484e-01,
  -5.4645729755e-01,
  -7.0437011455e-01,
  -9.2741083846e-01,
  -1.1424562881e+00,
  -4.2156397571e-01,
  -3.7007365403e-01,
  -7.9592122703e-01,
  -5.9899161568e-01,
  3.1306275547e-02,
  2.9837423154e-01,
  -2.9786563138e-01,
  -1.0456659256e+00,
  -7.3088645640e-01,
  -5.4296374415e-01,
  -9.4369675402e-01,
  -1.3538825077e+00,
  -3.8294082568e-01,
  -8.8913421144e-01,
  -1.9105100526e+00,
  -1.5787457942e+00,
  -2.6707154133e-01,
  -6.3908102945e-01,
  9.4834675517e-01,
  5.1358275349e-01,
  -1.6272136845e-01,
  -8.9517719962e-01,
  5.6252438467e-01,
  -7.7351367803e-01,
  -4.7831727022e-01,
  5.6810373014e-01,
  -2.9035280345e-01,
  1.1971532632e-01,
  9.2499150193e-01,
  -8.9361455904e-01,
  -9.1543633763e-01,
  6.9653607258e-01,
  4.1181623971e-01,
  -9.2201428749e-01,
  4.5285907194e-01,
  -1.0100390237e+00,
  8.9435529767e-02,
  -6.7015999557e-01,
  6.1828401332e-01,
  6.7921988666e-01,
  8.2194313980e-01,
  4.5440803223e-01,
  -3.2462025048e-01,
  -4.2426730668e-01,
  3.1909473841e-01,
  5.0139707322e-01,
  4.7593757611e-01,
  8.1669446838e-01,
  -9.5318543448e-01,
  -1.6094237541e-02,
  -7.7845688076e-01,
  -5.0471956931e-01,
  -9.7523601729e-01,
  -9.1089660641e-01,
  8.8425020843e-01,
  -9.7970108151e-01,
  7.9625245755e-01,
  -2.0432331352e-01,
  3.9980281897e-01,
  -7.0040361121e-01,
  -6.7476241721e-01,
  -3.0693923642e-01,
  -1.1417088710e-01,
  -7.9553005093e-01,
  5.2453546484e-02,
  5.1616997107e-01,
  -6.9811855354e-01,
  9.5872316529e-02,
  4.2384683388e-01,
  -1.5127402969e-01,
  -6.1832436222e-01,
  -6.5057165707e-01,
  -8.0667853822e-01,
  -8.7343669797e-01,
  -3.5130911645e-01,
  3.5879735937e-02,
  -4.6799785032e-01,
  7.6903682195e-01,
  1.1965120452e-01,
  -4.9460253680e-01,
  1.8077265006e-01,
  7.8243001711e-01,
  4.1036603287e-01,
  2.1679983809e-01,
  4.2334863493e-01,
  5.1193948136e-01,
  4.2654747066e-01,
  4.5242039045e-01,
  -8.1710417240e-01,
  -7.4072552485e-01,
  -8.9174038824e-01,
  -3.7231536765e-01,
  5.7069199048e-03,
  -4.0497151809e-01,
  -2.2086053187e-02,
  3.7850873866e-01,
  4.6171774122e-01,
  -5.3520049242e-01,
  9.5353229116e-02,
  -2.1641015545e-01,
  -4.5038670365e-01,
  4.4967813708e-01,
  6.9249333766e-01,
  -1.4118668785e-01,
  -5.9854079057e-01,
  2.6280631014e-01,
  3.2529433150e-01,
  -3.3153312808e-02,
  -5.7065558730e-01,
  -6.1084961945e-01,
  -9.7252789394e-01,
  -9.4393780398e-01,
  7.4974087719e-01,
  -6.3598631281e-01,
  2.1990521707e-02,
  4.6580638328e-01,
  -9.0541469214e-01,
  8.0277539441e-01,
  -5.2194389365e-01,
  -8.1232118467e-01,
  2.9975491293e-01,
  8.0586178519e-01,
  -9.6026541031e-01,
  2.8257706971e-01,
  2.6606350188e-01,
  -4.0482894760e-01,
  -5.8707229156e-01,
  3.3750328207e-01,
  -3.2561733837e-01,
  3.6507206895e-01,
  9.4532661304e-02,
  9.1212955707e-01,
  -6.4974652929e-01,
  -2.1118725862e-01,
  -1.0004548663e+00,
  -6.3517457944e-01,
  3.9172959010e-01,
  -5.8038387281e-01,
  -5.2287060108e-01,
  4.7569056321e-01,
  -8.4436046524e-01,
  -5.5154758178e-01,
  4.5269755111e-01,
  1.0633557461e-01,
  -8.3328820799e-01,
  9.2970806189e-01,
  8.9641880382e-01,
  7.8878354356e-02,
  -1.5249797019e-01,
  -1.0205971766e-01,
  6.2049013769e-01,
  -8.4368864510e-02,
  5.0667416444e-01,
  -2.4724357613e-01,
  5.9840050263e-01,
  3.5679905382e-01,
  -8.8766031684e-01,
  -9.4688468927e-01,
  6.5310181014e-01,
  3.3847496322e-01,
  5.1890494150e-01,
  -8.0926081428e-01,
  -2.0560344599e-01,
  3.9262381973e-01,
  -3.8584208281e-01,
  -8.4531404670e-01,
  -9.1631827984e-01,
  1.3742778747e-01,
  -6.1885741410e-03,
  -2.3272237954e-01,
  2.6350438103e-01,
  7.9652746678e-01,
  -2.8546559432e-01,
  6.4781640033e-01,
  4.5504851233e-02,
  4.7818031002e-01,
  7.1238769508e-01,
  2.7143097568e-01,
  -7.5233997668e-01,
  -9.5600617206e-01,
  -6.1077094510e-01,
  3.6147308785e-01,
  7.8407852972e-01,
  4.2018217667e-01,
  -9.8228102583e-01,
  -9.6256411370e-01,
  -4.2546298262e-01,
  -9.0757417157e-01,
  -5.6423141099e-01,
  -9.4470177820e-02,
  4.3350510496e-01,
  6.5300797422e-01,
  6.4865094038e-01,
  -4.9736203933e-01,
  -9.5345082681e-01,
  -7.8122662531e-01,
  -9.0594287133e-02,
  3.5494211011e-01,
  7.3826305121e-03,
  -5.3966460435e-01,
  7.9055317240e-01,
  -1.7740005069e-02,
  -9.2284301775e-01,
  1.4538257923e-01,
  -1.5474863316e-01,
  -8.4573908373e-01,
  -3.4172061426e-01,
  9.4903936635e-01,
  -5.8419656692e-01,
  -2.9272968618e-01,
  5.6315427064e-01,
  -6.3816413367e-01,
  1.6084294724e-01,
  -7.3311807830e-01,
  -8.1712837767e-01,
  -4.7467831397e-01,
  -1.6822856631e-01,
  -8.7688020916e-01,
  -9.6830330514e-01,
  -2.4768232266e-01,
  -1.1007653577e-01,
  6.2649383116e-01,
  -1.9525859021e-01,
  6.2747228223e-01,
  5.1866553867e-01,
  4.1428527630e-01,
  -9.9809973055e-01,
  4.2504278407e-01,
  -3.9454489804e-01,
  -2.4106051676e-01,
  -8.5748363096e-01,
  -3.0445456913e-01,
  2.0098844556e-01,
  3.2124603238e-01,
  -3.5062037621e-01,
  -1.6860297707e-01,
  1.2408558621e-01,
  -2.7371459624e-01,
  -5.0107439106e-01,
  -5.9856314292e-01,
  1.4785134964e-01,
  -8.6248545491e-01,
  -3.4886052537e-01,
  -8.9406491866e-01,
  4.4724691652e-01,
  2.7197629187e-01,
  -6.4858240192e-01,
  -8.7925700808e-01,
  -2.3363056602e-01,
  4.2287702691e-02,
  -6.4718765593e-01,
  -3.2272501628e-01,
  9.6318171080e-01,
  2.5670289297e-01,
  1.2503582185e-01,
  6.6851399518e-01,
  -5.9016490218e-01,
  6.0666172034e-01,
  1.2700632228e-01,
  -8.8758833931e-01,
  -1.1761039503e-01,
  2.9536825878e-01,
  1.8010528579e-01,
  2.6510508366e-01,
  4.4679899478e-01,
  5.9906904661e-01,
  -9.7938094393e-01,
  -7.7986770855e-01,
  9.4161403425e-01,
  -3.0876049705e-01,
  9.0492479459e-02,
  7.7377348093e-01,
  1.5219931989e+00,
  3.1900943876e+00,
  4.5023485814e+00,
  3.5665389157e+00,
  -4.2137850613e-01,
  7.6398569145e-02,
  2.3598222515e-01,
  9.1741451072e-01,
  4.1526739149e-01,
  -4.7190979551e-01,
  1.2955322657e+00,
  1.4551643275e+00,
  1.1019481354e+00,
  -2.5508032086e-01,
  -1.7447708337e+00,
  -4.4587740091e-01,
  -1.1206123357e+00,
  -1.9107773150e-02,
  -1.2414791805e-02,
  -2.2066753243e-01,
  -1.0683323269e+00,
  -1.4702394436e+00,
  -1.9448200410e+00,
  -5.6810139715e-01,
  3.1469073935e-01,
  -4.9613078961e-01,
  -8.7543815498e-01,
  -5.1509900128e-01,
  4.7748252593e-03,
  5.3206093083e-01,
  7.0817634519e-01,
  -2.8471078746e-01,
  -7.3634360200e-02,
  1.4734730542e-01,
  1.0936343779e+00,
  -7.2677885399e-01,
  -1.1140662795e-01,
  4.8676964792e-01,
  1.0967036470e+00,
  1.2952301567e+00,
  1.0740803904e+00,
  1.3942396778e+00,
  2.1714594187e+00,
  2.8025098323e+00,
  1.1424104399e+00,
  -1.2324911140e+00,
  -7.1232508667e-01,
  -9.2295273063e-01,
  -1.0334908179e+00,
  -1.1623688866e+00,
  4.3677983576e-01,
  -6.2665003470e-01,
  -7.7544537631e-01,
  -9.3793597224e-01,
  4.0143381185e-01,
  -6.8997408431e-01,
  3.8702321729e-03,
  -3.6009208609e-03,
  9.7563685400e-01,
  1.1424370121e+00,
  1.4652838202e+00,
  1.1430953062e+00,
  1.2660148425e-01,
  -4.6962655893e-01,
  -2.7388898725e-01,
  3.3962748551e-02,
  -9.1230094974e-01,
  8.2698420797e-02,
  3.3450782751e-01,
  7.5132625821e-01,
  4.5611279887e-01,
  -2.3190042970e-01,
  5.7253576726e-01,
  -3.7979368793e-01,
  -9.2365948940e-01,
  -8.6705978213e-01,
  -2.4633844751e-01,
  -7.1444306878e-01,
  -1.1466132998e+00,
  -1.0492373652e+00,
  -1.7577646335e+00,
  -1.8838614613e+00,
  -2.6600274549e-02,
  -3.0148936803e-01,
  -3.9259252939e-01,
  9.8788690029e-01,
  4.8369162961e-01,
  1.7064613073e-01,
  6.7676375838e-01,
  8.9194248468e-01,
  5.2259707358e-01,
  7.1854562058e-01,
  2.6593953465e-01,
  5.0661409667e-01,
  9.7367228380e-01,
  3.6505070518e-01,
  -7.0617365494e-01,
  -6.7891138642e-01,
  -1.2057734403e-01,
  1.9201572837e-01,
  -1.8725094398e-02,
  1.3764988278e-01,
  -7.3665653850e-01,
  -5.5438277460e-01,
  -5.7456727719e-01,
  -5.8145979674e-01,
  -9.5219238930e-01,
  1.0609269459e+00,
  5.3936964774e-01,
  1.6126854140e-01,
  -1.5239433578e+00,
  1.3368411152e-03,
  -1.6923998576e+00,
  -2.5473935170e-01,
  -9.3687180247e-01,
  6.2763709858e-01,
  -3.6041837724e-01,
  -2.9036613968e-01,
  -4.8356467902e-01,
  -1.1918684463e+00,
  -3.7147273683e-02,
  -6.0014119277e-01,
  -1.5320799833e+00,
  -1.4644938336e+00,
  5.3669949945e-03,
  -1.2489905665e+00,
  -1.7078101008e+00,
  -1.4228332551e+00,
  2.9756908306e-01,
  2.6214007354e+00,
  3.0775000013e+00,
  2.7116647741e+00,
  -1.2839683751e+00,
  4.7729715382e-01,
  1.2817934870e+00,
  -2.8331208306e-01,
  -1.4337043815e-01,
  2.1680106737e-02,
  2.6980968113e-01,
  4.6663522137e-01,
  -4.0433880690e-01,
  -4.6585271179e-01,
  -1.0449750832e+00,
  8.5479802415e-03,
  1.6764855783e-01,
  -4.1381023543e-01,
  -7.2805982299e-01,
  -7.3527254499e-01,
  -1.5336768419e-01,
  -6.0017079648e-01,
  -1.8708004902e+00,
  1.9180697616e-01,
  -1.1295842305e+00,
  -4.1065528851e-01,
  -3.3391988024e-02,
  -1.3842951708e-01,
  -7.0402791066e-01,
  -5.0312870700e-02,
  7.7388892409e-01,
  1.2602285862e+00,
  7.0068743227e-01,
  1.3355793812e+00,
  1.9141959850e-01,
  -7.5240504137e-01,
  2.5216495554e-01,
  3.2550141412e-01,
  1.2402205739e+00,
  1.4356516423e+00,
  -8.4415031941e-02,
  1.0028507587e+00,
  1.7609092877e+00,
  2.1066018184e+00,
  8.9900099087e-01,
  2.2682237189e-01,
  -1.3190715067e+00,
  -1.5650910508e+00,
  -5.2334805545e-01,
  -9.6433366486e-01,
  9.5429190818e-01,
  -1.6574956024e-01,
  9.6516546953e-02,
  4.6923007005e-01,
  6.2342551421e-01,
  3.0664813090e-01,
  2.9015731505e-01,
  -2.5704783412e-01,
  -1.5956682750e-02,
  1.8700748174e-01,
  3.4377910814e-02,
  9.9553605980e-01,
  7.1383899460e-01,
  1.0123290955e+00,
  -1.0403595050e-01,
  6.5669464804e-01,
  2.7018196598e-01,
  1.7468700768e-02,
  -8.9180913626e-01,
  -8.8845741732e-01,
  6.5762995945e-01,
  2.3652113766e-01,
  2.2844053846e-01,
  -8.0573422610e-01,
  9.2614631263e-03,
  -9.8181442831e-02,
  -9.8716321079e-01,
  -1.0208032866e+00,
  -1.0087022355e+00,
  9.5688550970e-02,
  -9.4448738450e-01,
  4.8483729120e-02,
  -1.3034419311e+00,
  -9.8104116666e-01,
  8.9783188603e-01,
  1.0277388477e+00,
  6.5867132307e-01,
  4.4764118170e-01,
  -6.5577460717e-01,
  -1.6892449730e-02,
  7.2872759756e-01,
  1.2697038070e+00,
  -2.7958824622e-01,
  8.0554786038e-01,
  1.1803832209e+00,
  7.6250375158e-01,
  -5.7369309858e-01,
  -4.4853990722e-01,
  3.8027891097e-01,
  -1.7024079119e-01,
  -6.4677120150e-01,
  1.2913441794e-01,
  -2.7997959554e-01,
  -6.5099871977e-01,
  1.6592199442e-01,
  -4.0375084383e-01,
  7.5728028459e-01,
  -1.2605483795e-01,
  1.0677171222e-01,
  -1.0460993882e+00,
  -8.1248433769e-01,
  -1.6084292333e+00,
  -4.6591112272e-01,
  -1.3831427961e+00,
  -2.6255864849e-01,
  -1.1666601861e+00,
  -4.5605860532e-01,
  -9.3377454414e-01,
  -1.3084564214e+00,
  -1.5522663878e-01,
  -7.1815965398e-01,
  -2.1071715621e-02,
  -1.4936535515e+00,
  1.3557312869e-02,
  -7.0517467622e-01,
  -2.8968411323e-01,
  -1.4293848534e+00,
  -4.0377805377e-01,
  -8.0818828601e-02,
  1.8213744007e+00,
  2.3359925915e+00,
  1.4060024867e+00,
  5.4218688281e-01,
  -4.7154227886e-01,
  1.1664157922e+00,
  3.1773529607e-01,
  -6.1669765382e-01,
  -2.2697154198e-01,
  1.3954049159e+00,
  2.8465570606e-01,
  -2.1396090610e-01,
  6.6687989884e-01,
  -7.8119532542e-01,
  -8.2171090995e-01,
  -6.1580719232e-01,
  -9.2546901296e-01,
  -7.6402342688e-01,
  -1.1511543344e+00,
  -4.1266459418e-01,
  -1.2259226813e+00,
  -1.3923787394e+00,
  -5.7231682954e-01,
  -3.0992838295e-02,
  -2.2707055988e-01,
  -8.1197865671e-01,
  -6.2904083146e-01,
  1.8048292127e-01,
  -5.6751312129e-01,
  1.3776594696e-02,
  -2.6895674227e-02,
  1.3095514433e+00,
  7.9207776681e-02,
  5.2267917336e-01,
  -5.5101591323e-01,
  6.7802033903e-01,
  2.8566627565e-01,
  -1.1036816973e-01,
  6.3061630803e-01,
  8.2376285964e-01,
  1.3381694640e+00,
  6.3553979540e-01,
  5.2923061793e-01,
  9.8910115474e-01,
  7.6984391270e-01,
  -1.4423421400e+00,
  7.0791027273e-02,
  -6.7314309525e-01,
  -9.7385648231e-01,
  5.5884715086e-01,
  -9.6350938056e-01,
  -1.6459992375e-01,
  2.5016692878e-01,
  -9.0647300517e-01,
  -4.8754085110e-01,
  -2.5335756251e-01,
  -4.4030227272e-01,
  9.5546631591e-01,
  -8.5741857078e-01,
  1.2294206045e+00,
  8.9063221983e-01,
  -2.7269149720e-01,
  -2.3030197423e-01,
  -1.6837717992e-01,
  -7.4913485434e-01,
  -3.1478561146e-01,
  -6.0163518206e-01,
  5.0501502161e-01,
  1.7307869680e-01,
  2.9309297954e-02,
  1.6326933796e-01,
  -7.6287940239e-01,
  3.0298318585e-01,
  6.9059592863e-01,
  -4.6576888125e-01,
  5.6357937518e-01,
  4.4297308219e-01,
  -7.1718643483e-01,
  -1.0749952489e-02,
  -3.5898066090e-01,
  -1.3070954297e+00,
  1.1911448540e-01,
  7.4794232349e-01,
  -1.1236093559e-01,
  3.2391741944e-01,
  1.5089864259e-01,
  -2.8021133924e-01,
  7.9075372009e-01,
  2.5933548992e-01,
  -4.0084973875e-01,
  -2.9973329937e-01,
  1.4184664789e-01,
  4.7560781899e-01,
  1.7088746522e-01,
  -5.8731653186e-01,
  2.4130641334e-01,
  -8.4233048834e-01,
  1.0295437652e+00,
  9.9384287390e-01,
  8.1617033812e-01,
  2.8269930682e-01,
  9.4121949109e-01,
  3.1254881405e-02,
  4.0132957788e-01,
  9.0062854822e-01,
  -6.0803479119e-01,
  -7.1639883359e-02,
  7.0192174920e-01,
  -7.3562108245e-01,
  -1.0395295564e+00,
  -8.1961734081e-01,
  -7.7422133891e-02,
  2.4789144362e-02,
  -4.9973153098e-01,
  1.0288752239e-01,
  -7.5208498984e-01,
  -2.2175727869e-01,
  -6.3684039250e-01,
  -2.1647687291e-01,
  1.3573209380e-01,
  -3.2086841921e-02,
  -9.2944938221e-01,
  4.6643514447e-01,
  -1.0008502866e+00,
  5.0819190663e-01,
  -7.8190532986e-01,
  -8.5075276509e-01,
  -1.8918588108e-01,
  -2.5253716447e-01,
  -5.1808273202e-01,
  -1.9582580980e-01,
  -8.5865523636e-01,
  -9.8892912050e-01,
  -2.2063667552e-02,
  -3.3445090197e-01,
  -5.6407942129e-01,
  -8.7567715437e-01,
  -7.4506868243e-01,
  3.3620497034e-01,
  6.3979743668e-01,
  9.3138383788e-02,
  3.9165600066e-01,
  -7.3855757338e-01,
  9.8274325160e-02,
  -1.3803395306e-01,
  -3.7154454222e-01,
  -7.7044925997e-01,
  2.4825699157e-01,
  6.0414129773e-01,
  -2.0879282297e-01,
  2.1890372515e-01,
  9.5601625017e-02,
  4.5843369500e-01,
  -4.7015513280e-01,
  -3.8412494403e-01,
  -3.4278459870e-01,
  -1.3381226042e-01,
  -4.2711046069e-01,
  -1.4922330210e-01,
  -8.7788554083e-01,
  -4.1009970121e-01,
  -2.2011886931e-01,
  5.1332633215e-01,
  -8.7909849827e-01,
  1.5611830743e-01,
  -7.5111438471e-01,
  -8.6086300650e-02,
  1.7902604359e-01,
  6.1407594527e-01,
  -6.8174028397e-01,
  -5.8906812850e-01,
  1.8336428256e-01,
  -7.3128571121e-01,
  3.1879774181e-01,
  1.9647303912e-01,
  9.3560864902e-03,
  2.0201602593e-01,
  9.3484875416e-01,
  -4.3102555198e-01,
  4.7444409339e-01,
  2.6504938540e-01,
  -4.8794300883e-03,
  3.1750256210e-02,
  9.2657552936e-01,
  -1.8057385166e-01,
  6.2303571509e-01,
  -3.7573342664e-01,
  -3.8973328425e-02,
  -5.0898163831e-01,
  2.2986818477e-01,
  -1.3576424200e-01,
  9.5340354312e-01,
  -8.7602894652e-01,
  -9.2275903239e-01,
  8.7228242772e-01,
  4.7786049379e-01,
  -2.0622488275e-01,
  8.0180726543e-01,
  6.2693362654e-01,
  6.8551625871e-02,
  -7.5172576447e-01,
  -2.0821189836e-01,
  -3.5570640468e-01,
  -6.2002417306e-01,
  5.1495213105e-01,
  9.5454851288e-01,
  7.4192175490e-01,
  -4.1811400147e-01,
  -4.9183385393e-01,
  4.9866490213e-02,
  -5.0803561435e-01,
  4.6668049452e-01,
  6.0443519562e-01,
  -8.7145967230e-01,
  -9.4294698931e-01,
  -5.4546596945e-01,
  -2.0526494546e-02,
  -2.7847631516e-01,
  -5.2907480070e-01,
  3.6516983753e-01,
  1.7175945263e-01,
  -9.6696182859e-01,
  3.0181866035e-01,
  -8.1315153623e-01,
  -5.0660278222e-01,
  -4.8116652085e-01,
  2.0601896192e-01,
  2.9367268574e-01,
  4.1208799471e-01,
  -8.5497793483e-01,
  5.5996376227e-01,
  6.0751301561e-01,
  -3.1585269621e-01,
  -3.7394946355e-01,
  7.7431884167e-01,
  -7.2063777276e-01,
  -5.7788746016e-02,
  1.0428166311e+00,
  5.3379531748e-01,
  1.0059599818e+00,
  -6.3342968173e-01,
  1.0738156913e-01,
  1.0518566031e+00,
  7.6609454426e-01,
  -2.5099196954e-01,
  -1.6765098758e-01,
  -1.9006872787e-01,
  1.0916072957e+00,
  -1.9375092776e-01,
  9.8891060423e-01,
  -4.1515619970e-01,
  1.9094451763e-01,
  1.1406380457e-01,
  -4.2181305429e-01,
  -5.7506809693e-01,
  2.5477171144e-02,
  -2.3355386265e+00,
  -1.4152743065e+00,
  -1.5649818808e+00,
  6.8611471066e-02,
  -9.0111980678e-01,
  -1.3717050442e+00,
  -6.4686775268e-01,
  5.1064704450e-01,
  5.5322506718e-01,
  -7.5775417681e-01,
  -1.0236160811e+00,
  -7.3625916212e-01,
  3.1309994653e-01,
  1.2572412503e+00,
  -1.5506288000e-02,
  -4.8425869670e-01,
  1.1431383744e+00,
  1.0383070044e-01,
  6.4605690237e-01,
  1.3544047768e+00,
  2.2828769683e-01,
  1.3125384296e+00,
  -4.2660721312e-01,
  -3.7026510466e-01,
  -3.5509589369e-01,
  -4.7206256192e-01,
  8.7401753794e-02,
  4.5291294408e-01,
  -9.9543586115e-02,
  -1.0159544854e+00,
  -5.8752359704e-01,
  5.9098636345e-02,
  -2.8481895137e-01,
  -1.8550024483e-01,
  9.6423607708e-01,
  -3.2670516270e-01,
  1.1021134168e-01,
  -1.9292254352e-01,
  -1.2013018040e+00,
  -1.0764717707e+00,
  -1.6714637309e-01,
  -5.5752385949e-01,
  -5.2062441190e-01,
  2.0349157548e-01,
  3.3061907523e-01,
  4.2471744279e-01,
  4.6106592239e-01,
  8.0087434511e-01,
  -3.3447870878e-01,
  -6.6255253590e-02,
  -9.0403533222e-02,
  -4.2852022676e-01,
  2.4829588151e-01,
  -3.3079341171e-01,
  9.4879923382e-01,
  1.0132419806e-01,
  8.6907114404e-01,
  -2.0864051068e-01,
  -5.9266155297e-01,
  -3.8081862467e-01,
  4.0537857914e-01,
  5.5558752396e-02,
  -4.5324699067e-01,
  -1.0168268562e+00,
  -1.9110100983e-01,
  8.4106448109e-02,
  8.1663562998e-01,
  1.0039067496e+00,
  -2.0546287724e-01,
  -7.9275815946e-01,
  8.0660901366e-01,
  -8.3550530359e-01,
  4.2126482443e-01,
  8.9883421672e-02,
  -2.5869682484e-01,
  3.8056079381e-01,
  -4.0654366699e-02,
  1.1174864801e+00,
  3.3759318993e-01,
  -1.1953663964e-01,
  1.3268984427e+00,
  -2.5420569752e-01,
  -3.0415523786e-01,
  8.4516779464e-01,
  5.3809446081e-02,
  -3.4281605484e-02,
  -3.8548938757e-01,
  -1.3068262113e-01,
  -3.3671522526e-01,
  1.4491072640e-01,
  5.0819215764e-01,
  -2.7152294445e-01,
  -7.1155980379e-01,
  -5.3404673428e-01,
  -5.3148307337e-02,
  -1.4446193547e-01,
  -1.1485678818e-01,
  -3.5464527392e-01,
  2.5682098011e-01,
  -9.8840996412e-02,
  4.5081291323e-01,
  5.3324838922e-01,
  6.1921516785e-02,
  -8.0653517951e-01,
  2.6468332620e-01,
  2.6817610554e-01,
  1.1158716920e-01,
  8.3603758701e-01,
  -3.1991946148e-01,
  3.1029608021e-01,
  8.8824516838e-02,
  -1.3700426836e-01,
  -3.5057068008e-01,
  1.0381193875e+00,
  1.2526145547e-01,
  -1.2358799072e-01,
  5.7431064787e-01,
  -9.2236001218e-03,
  6.0758177658e-01,
  1.7567490239e-01,
  -5.8448441852e-01,
  5.1117929368e-01,
  4.8212927126e-01,
  1.3613684412e+00,
  8.2229677097e-01,
  3.0664391704e-01,
  4.3083671677e-02,
  2.4807974911e-01,
  -6.3134354366e-01,
  -2.1175504851e+00,
  -1.6625610695e+00,
  -6.5974474374e-01,
  -1.8737598408e-01,
  -4.2791062506e-01,
  6.8767991049e-01,
  -8.0473190981e-01,
  5.1335177989e-01,
  2.9563060335e-01,
  2.9383525843e-02,
  7.4768910064e-01,
  2.0601680276e-01,
  1.0524170327e+00,
  -5.1295332820e-01,
  1.1539269234e+00,
  3.2821747281e-01,
  4.5726115576e-01,
  -2.6621530740e-01,
  9.0277409657e-01,
  -4.9830678118e-01,
  1.4128990644e+00,
  6.9200028870e-01,
  -8.8105367168e-01,
  -2.9538425497e-01,
  -3.8316303023e-02,
  4.6796010555e-01,
  -3.9358062125e-01,
  4.5269156250e-01,
  -3.7948336273e-01,
  -1.0666896723e+00,
  -2.2612203802e-01,
  -2.1956307878e-03,
  4.8542238489e-01,
  -5.1399032230e-01,
  4.3267606213e-01,
  1.5360560758e-01,
  -6.5033058268e-02,
  5.4856429773e-01,
  -2.8545542716e-01,
  -4.3990685112e-01,
  -1.1864032561e-03,
  -1.3633388867e+00,
  2.7009890539e-01,
  8.8064417929e-01,
  7.1512743172e-02,
  9.8687473259e-01,
  -7.6430406508e-01,
  8.1424754144e-01,
  -6.0053183399e-01,
  7.4599591945e-01,
  1.1372568888e+00,
  1.3146911475e-01,
  4.5421748923e-01,
  -5.5167250224e-01,
  -2.0730414731e-01,
  -8.5226971943e-01,
  -7.0942257144e-01,
  2.0631830450e-01,
  -6.4964939233e-01,
  -1.2738456194e+00,
  6.4388569784e-01,
  -9.6233515317e-01,
  -4.6924894202e-01,
  7.8165514869e-01,
  5.0600717603e-01,
  -1.0535587332e-01,
  1.6687987129e-01,
  1.2517364011e-01,
  -4.2667807182e-01,
  -9.1796646316e-02,
  -9.0531679917e-01,
  2.7667185863e-01,
  4.2101098478e-01,
  -4.9035283292e-01,
  6.2609809171e-01,
  -2.9382114709e-01,
  1.0771729133e+00,
  9.5478584874e-01,
  3.0043395129e-02,
  -4.8969682964e-01,
  9.4480653799e-01,
  2.3091221317e-02,
  -8.6388667971e-01,
  6.7731858409e-01,
  -9.9200422455e-01,
  5.9529443697e-01,
  6.1608957520e-01,
  -2.0919486371e-01,
  -2.3652874084e-01,
  5.8511103923e-01,
  -6.1412459594e-01,
  -1.1159051952e+00,
  -1.1199428617e+00,
  6.1864384743e-01,
  -1.5080072267e-01,
  -2.1483745928e-01,
  -7.4932133450e-01,
  -1.0603661316e-01,
  -2.4872090657e-01,
  3.7571355050e-01,
  -5.6276787198e-01,
  -2.4070200487e-01,
  7.4023402534e-01,
  -9.0804383367e-01,
  1.7028104984e-01,
  -3.2836161994e-01,
  4.5868219335e-01,
  -5.8699191019e-01,
  4.3769713875e-02,
  -3.4721065422e-02,
  1.5177077948e-03,
  2.6483611226e-01,
  8.0713123068e-02,
  7.2317545464e-04,
  6.1693407244e-01,
  1.5176947348e-01,
  1.0341208479e-01,
  -6.9149869440e-01,
  -1.1221722486e-01,
  1.1655809087e+00,
  3.7375587461e-01,
  7.7749213159e-01,
  -4.9475490565e-01,
  -5.1054070324e-01,
  6.3204212342e-01,
  1.1207570497e+00,
  3.9284297176e-01,
  1.4149549869e+00,
  2.5483296959e+00,
  1.2918833912e+00,
  -1.2638760030e+00,
  1.2315457710e+00,
  1.4945567604e+00,
  1.0387988899e+00,
  -8.5333166554e-03,
  -4.8553866553e-01,
  -4.1114918335e-01,
  1.5802642037e+00,
  2.0836708136e-01,
  4.8691497192e-01,
  -1.1870703100e+00,
  -3.0605726932e-01,
  4.0334661102e-01,
  7.5288012615e-01,
  4.2947426793e-01,
  -1.0687188390e+00,
  -1.3375984238e+00,
  5.0630248628e-03,
  -7.0040265361e-02,
  6.0940013300e-01,
  -9.6516937693e-01,
  -1.1757720877e+00,
  -5.2067934066e-01,
  3.2027998308e-01,
  -3.8456267015e-02,
  2.9672930116e-01,
  9.3277543705e-01,
  8.0368054354e-01,
  5.9703422457e-02,
  9.6034939720e-02,
  -3.8018216605e-01,
  7.0049664886e-01,
  -5.0638712562e-01,
  3.9386683031e-01,
  1.0754909899e-01,
  5.9179416321e-01,
  -6.3767005148e-01,
  5.9027695156e-01,
  2.9899633732e-01,
  1.1970393124e+00,
  -1.9986802859e-01,
  -3.8369760602e-01,
  6.4904091884e-02,
  -3.5279250804e-01,
  6.9042000142e-01,
  -1.0975464322e+00,
  -8.2405411537e-01,
  6.1204295025e-01,
  -1.0898699563e+00,
  -2.6324520983e-01,
  6.9162847120e-01,
  6.8722750479e-01,
  4.4784475670e-01,
  -9.2841139572e-01,
  -4.2139480683e-02,
  -1.7557073622e-01,
  4.4068461715e-01,
  -2.3224650777e-01,
  -4.1285731688e-01,
  5.6692968837e-01,
  2.7239956702e-01,
  -4.5597086114e-01,
  6.7603912373e-02,
  6.1727622529e-01,
  -4.4880911985e-02,
  6.5543107635e-01,
  1.7729384061e-01,
  -8.7796870716e-01,
  3.3934543279e-01,
  -8.1754534315e-01,
  -4.6807436784e-01,
  5.2585960152e-01,
  -9.1921529366e-01,
  5.6128261625e-01,
  2.6142580889e-03,
  6.5708157591e-01,
  -7.2548191925e-01,
  -8.5907080808e-01,
  -8.7412255092e-01,
  -9.9459294982e-01,
  -5.2798015735e-01,
  5.2747476977e-01,
  5.9441172693e-01,
  -8.4316200243e-01,
  2.1791467255e-01,
  7.9651362855e-01,
  -5.3811886372e-01,
  -5.3290488317e-01,
  5.0857244740e-01,
  1.0103963060e-01,
  8.0260032237e-01,
  6.9647978326e-01,
  7.5181827216e-01,
  5.6926117200e-01,
  1.2891899269e-01,
  -1.7086027224e-01,
  -7.9968144503e-02,
  1.1095231346e-01,
  9.1740753369e-02,
  7.7326576868e-01,
  -2.9900518586e-01,
  5.2846297809e-01,
  1.0551851066e-01,
  -8.8188902086e-01,
  -8.4716781410e-01,
  -1.1574598001e-01,
  -7.6601088745e-01,
  -8.7940521727e-03,
  -1.3259333051e+00,
  3.7071622598e-01,
  -1.1777249136e+00,
  -7.9352965956e-01,
  -1.1190281581e+00,
  2.2091696513e-01,
  2.4220665582e-01,
  -1.2028153935e+00,
  4.6681160482e-01,
  -8.0560476586e-01,
  -9.3793288686e-01,
  -1.9281180030e-01,
  -6.5790583798e-01,
  -1.3269356762e+00,
  -5.2689960260e-01,
  4.9074266659e-01,
  -2.4986969741e-01,
  2.2732588600e-01,
  -9.4336290723e-02,
  -9.3608890652e-01,
  -2.2828957810e-01,
  1.1566008602e-01,
  1.8939326179e-01,
  -4.2138435779e-02,
  -5.3348871380e-01,
  -4.9796830578e-01,
  -4.7578917289e-01,
  6.5085836355e-01,
  2.1438667119e-01,
  -6.7947687495e-01,
  -5.9018546263e-01,
  1.2501464445e-01,
  -2.5346372243e-01,
  3.6862389963e-01,
  1.2353146876e-01,
  2.1512783233e-01,
  2.7896290654e-01,
  -4.1620781182e-01,
  -5.1079111567e-01,
  -1.0378773441e+00,
  3.2521569982e-01,
  7.9610393106e-01,
  -3.2319675262e-01,
  -2.0588582353e-01,
  -4.3854020779e-01,
  -8.8732430376e-01,
  -8.3266998259e-01,
  -2.8206164821e-01,
  8.7066442045e-01,
  -2.5784987996e-01,
  5.9605432970e-01,
  -4.7082829278e-01,
  4.8541514166e-01,
  -4.3554694363e-01,
  -4.3900336765e-01,
  5.5831550859e-01,
  7.1703142934e-01,
  -1.0221631841e+00,
  -1.3678395076e-01,
  7.9282301255e-01,
  -7.2820561412e-01,
  4.6224029501e-01,
  5.0136607815e-01,
  2.7273960375e-01,
  -4.4011357904e-01,
  3.0397370938e-01,
  6.5595910898e-01,
  7.4131729151e-01,
  5.4811939978e-01,
  -5.4782500201e-01,
  3.2662899800e-01,
  -7.9364426061e-02,
  -7.0139070291e-01,
  -9.3473156686e-01,
  2.9376129298e-01,
  -7.8557346231e-01,
  4.0927925662e-01,
  -1.9857275167e-01,
  9.9344663707e-02,
  -1.7803145785e-01,
  -1.0282939761e-01,
  9.0868536263e-01,
  9.2828461322e-01,
  4.9677198909e-01,
  5.0442865946e-01,
  -5.5512999003e-01,
  -6.9336527830e-01,
  -6.0187508634e-01,
  -3.4764002697e-01,
  -4.0620943692e-01,
  2.0764641660e-01,
  8.5308367864e-01,
  -9.0240475673e-01,
  -8.9994136852e-02,
  -2.7547827132e-01,
  1.1083721901e-01,
  8.8195276181e-01,
  -4.4851400589e-01,
  -1.3423442476e-01,
  2.7003582078e-04,
  -8.2640771107e-01,
  4.8993359588e-01,
  5.9484939528e-01,
  3.8236727684e-01,
  -8.6048536857e-01,
  7.0208799759e-01,
  -9.1270142934e-01,
  -1.4892235118e-01,
  -9.8885430738e-01,
  1.1721267794e-01,
  -1.0726625379e+00,
  -1.0658177244e+00,
  -2.9152677911e-01,
  -2.3383354020e-01,
  -1.1078239360e-01,
  1.6829481712e-01,
  1.8704875924e-02,
  -6.6883875708e-01,
  9.3433027826e-01,
  2.6921727631e-01,
  9.1015906065e-01,
  -8.4460076993e-01,
  6.9125979167e-01,
  -1.3425902948e-01,
  -3.0154386767e-02,
  7.3501659137e-01,
  6.2243899135e-01,
  1.6432317943e-01,
  9.7895844017e-01,
  7.4877524668e-01,
  5.4327192356e-02,
  -9.4035618471e-01,
  -5.1175942267e-01,
  -3.0947523216e-01,
  -5.3631236300e-02,
  -1.9866352209e-01,
  1.4013395871e-01,
  -4.7211810897e-01,
  -8.5859821757e-01,
  -9.2240905413e-01,
  -2.7704790606e-01,
  -6.5740680376e-01,
  2.3813805097e-01,
  1.6000993311e-01,
  -6.3182391217e-01,
  -2.3226368358e+00,
  -2.8858295715e+00,
  -1.2887046490e+00,
  -2.9870562198e-01,
  -7.9053733234e-01,
  -3.9686763805e-01,
  -2.8117760019e-01,
  2.6282185536e-01,
  -7.0774333377e-01,
  -1.5236169836e+00,
  -1.3533492713e+00,
  2.0731506425e-01,
  9.5807609459e-01,
  1.2679470140e+00,
  2.2157833425e-01,
  2.5203043549e-01,
  3.6583760688e-01,
  -7.6179284067e-01,
  -4.5307534018e-01,
  9.1010354029e-01,
  1.0698957747e+00,
  1.0577852240e+00,
  7.4313048243e-01,
  -6.0731093669e-01,
  1.2953568416e+00,
  9.5968695848e-01,
  3.7091021561e-01,
  9.4604458556e-01,
  -5.3682065125e-01,
  3.6938740189e-01,
  -1.1404879459e+00,
  -1.1669386541e+00,
  -4.9922908875e-01,
  -4.2914269027e-01,
  5.8707941729e-01,
  -1.8445749015e-01,
  4.2502633561e-01,
  -6.4553551778e-01,
  -1.3199170032e+00,
  -5.1526731268e-01,
  -1.2790259814e+00,
  -3.7431640272e-01,
  -3.0052373115e-01,
  -5.7474158928e-01,
  -1.7490637696e-01,
  1.0470618713e+00,
  1.1044999591e-01,
  9.6633072274e-01,
  -4.3793718279e-02,
  -8.4866748387e-03,
  -4.3390445429e-01,
  1.2120737412e+00,
  1.0156768928e+00,
  -2.9404456029e-02,
  3.6524105715e-01,
  5.6846805375e-01,
  -3.5365857411e-01,
  -6.2723798361e-01,
  5.8829154784e-01,
  -6.5558596953e-01,
  -5.1769854847e-01,
  -1.1431793507e+00,
  -6.3410346959e-01,
  5.7437653525e-01,
  7.7029581611e-01,
  7.5836401079e-01,
  -2.1317083770e-01,
  -9.0979523712e-02,
  4.3336701280e-01,
  -6.3468824672e-01,
  1.4315621326e-01,
  -4.4982590719e-01,
  9.4774056115e-03,
  -6.4995979606e-01,
  2.1780363238e-02,
  -3.6499013210e-01,
  4.8516783730e-01,
  -6.9212060649e-01,
  -7.1871278416e-01,
  1.4399174787e+00,
  1.0889019766e+00,
  -3.3590198711e-02,
  -6.4318975753e-01,
  -1.1602734888e+00,
  -7.7225751484e-01,
  -3.2523400271e-01,
  -3.9598379823e-01,
  8.5860245618e-02,
  2.7837260846e-01,
  1.2764477810e-01,
  1.1453273751e-01,
  -1.2557429309e+00,
  -9.6782935134e-01,
  -3.5693526954e-01,
  4.8088899689e-01,
  6.2473297405e-01,
  8.4424049459e-01,
  5.5108305482e-01,
  3.5854803565e-02,
  4.6633635998e-01,
  2.1508939368e-01,
  2.8099951944e-01,
  -4.7552286818e-01,
  8.4225117404e-01,
  -5.9826989114e-01,
  9.3966229014e-01,
  -1.5026225380e-01,
  5.8723346522e-02,
  5.4874132201e-01,
  7.1820965796e-01,
  -3.7066434975e-01,
  -3.9204974277e-01,
  8.5223977367e-02,
  1.0687429604e+00,
  -6.1425863920e-02,
  1.1475662766e-01,
  -2.4655705603e-02,
  8.4761965828e-01,
  6.3893416955e-01,
  5.1968779132e-01,
  -3.0223390122e-01,
  4.1514365210e-01,
  1.2248614876e+00,
  6.7549610767e-01,
  1.2498410311e+00,
  1.0169413606e+00,
  1.2634151207e+00,
  -1.2780327332e-01,
  -9.0610403718e-01,
  7.6089447482e-01,
  7.7709240371e-01,
  -5.8046107330e-01,
  8.8688545175e-01,
  -7.1503295749e-01,
  2.5949090995e-01,
  6.6996586167e-01,
  -6.8333304567e-01,
  4.3451112044e-01,
  5.9348166947e-01,
  -7.3509342904e-01,
  -6.8176913089e-01,
  4.7673560646e-01,
  -8.9899111020e-01,
  6.4409525734e-01,
  -4.0874419858e-01,
  -8.5900257300e-01,
  5.7706940053e-01,
  -6.0433117174e-01,
  9.9227430689e-01,
  -6.7583318590e-01,
  6.2579893491e-01,
  2.7757488130e-01,
  -3.3896071297e-01,
  -6.1405574388e-01,
  -8.1219054006e-01,
  3.1792580463e-01,
  -4.4546789960e-01,
  2.1813292204e-01,
  -9.5308953272e-01,
  2.0511747069e-01,
  -4.1878264561e-01,
  3.5955849669e-01,
  1.4354399603e-01,
  -4.6902384498e-01,
  -6.5388790845e-01,
  1.3912089999e-01,
  7.7307725036e-01,
  -1.0400426820e+00,
  -6.1056014124e-01,
  8.4599805747e-02,
  -2.4965207771e-01,
  6.1584705350e-01,
  -1.9755007378e-01,
  -9.2237297048e-01,
  8.9373044936e-02,
  -2.9355968649e-01,
  4.4257992726e-01,
  -1.0387147887e+00,
  -8.1692295328e-01,
  -2.6027515301e-01,
  -1.8271490475e-01,
  -1.2022594263e-01,
  8.8386566483e-01,
  1.1780152811e-01,
  -1.0212205566e+00,
  -7.7736339142e-02,
  -2.1943901972e-01,
  -1.0436623098e+00,
  -8.9890782985e-01,
  1.9666158411e-01,
  -5.6741996504e-01,
  1.2816595664e-01,
  6.7938489396e-01,
  8.8543751621e-01,
  4.0511434000e-01,
  -6.7179753848e-02,
  -7.8274010010e-01,
  4.0760193046e-01,
  4.1376761540e-01,
  2.2040981438e-01,
  6.1208252141e-01,
  -4.5024808815e-01,
  -7.6740071028e-01,
  -6.8224009534e-01,
  7.0491148594e-01,
  -4.9585998143e-01,
  -1.9447902739e-01,
  -7.9066090136e-01,
  -2.2453688547e-01,
  -9.6613314773e-02,
  -9.0872711567e-01,
  7.0849378653e-01,
  -9.5060910333e-01,
  1.3497916073e-01,
  -2.0347934401e-01,
  -5.9131567496e-01,
  -3.5857689867e-02,
  -2.6206065118e-01,
  3.0302604450e-01,
  -7.8406565255e-01,
  6.0899104971e-01,
  -1.0303631202e+00,
  1.1583071012e-01,
  -9.6655642923e-01,
  9.0099175088e-01,
  -2.2099554933e-01,
  2.2209531110e-01,
  -6.5961916084e-01,
  5.9572046824e-01,
  1.0189925576e-01,
  -5.0682999729e-01,
  -3.6119534861e-01,
  -6.4970754834e-01,
  -4.6881467706e-01,
  6.6897202105e-01,
  2.2457402767e-01,
  -4.0691201005e-01,
  -2.6184783225e-01,
  -7.6654792461e-01,
  9.3906050642e-01,
  7.4872082876e-01,
  8.2471130335e-01,
  -1.1431149848e-01,
  8.7995675603e-02,
  1.5064895880e-01,
  2.4280177418e-01,
  -7.0696393746e-01,
  8.9741402611e-01,
  9.1131165944e-01,
  3.7246313670e-01,
  5.8519694439e-01,
  -6.8848334479e-02,
  -1.4529920941e-01,
  -3.9376415173e-01,
  6.4476464104e-01,
  -1.9969236019e+00,
  -3.6033364489e+00,
  -4.9446240583e+00,
  -3.4712258478e+00,
  1.4126932558e+00,
  -2.4945260827e-01,
  -1.6710222557e+00,
  -1.2945241121e+00,
  -4.2105209296e-01,
  -2.8303158778e-01,
  -8.6421530786e-01,
  -1.2697259211e+00,
  1.0586658640e-01,
  1.4371707281e+00,
  9.2404084280e-01,
  1.1677436073e+00,
  1.5387271317e-01,
  5.7257127439e-01,
  4.0410475519e-01,
  1.4106005596e-01,
  3.7816631204e-01,
  3.0925325129e-01,
  2.1195217118e+00,
  7.0305617258e-01,
  4.6579437932e-01,
  6.1758905885e-01,
  1.2435445765e+00,
  9.2042874937e-01,
  4.5570907092e-01,
  -2.6973061330e-01,
  -1.1418198468e+00,
  -1.3243689431e+00,
  -1.3892023980e+00,
  -6.9629251049e-01,
  4.6232118581e-01,
  -4.3044485199e-01,
  -5.7522985922e-01,
  -1.0644362870e+00,
  -8.9517355320e-01,
  2.1830323889e-01,
  -3.4979313540e-01,
  -1.5775303228e+00,
  -2.2438804009e+00,
  -2.7335952456e+00,
  -1.4384871524e+00,
  1.0109276942e+00,
  2.1681139184e+00,
  1.0617146011e+00,
  8.5448942630e-01,
  9.0641536811e-01,
  -8.5484615535e-01,
  1.3654362507e+00,
  7.6689959275e-01,
  7.7834934671e-01,
  2.0610036263e-01,
  1.1326178442e+00,
  -1.4361053020e-01,
  -1.6127570385e-01,
  6.5376147863e-01,
  -1.7420804262e-01,
  -1.5210723332e+00,
  -1.8823908778e+00,
  -1.2657241464e+00,
  -1.8712245564e-01,
  -7.8184716366e-01,
  -4.8586428198e-01,
  -3.3372497317e-02,
  5.4980968794e-01,
  1.0355449638e+00,
  2.2802052791e-01,
  1.0504190810e+00,
  -5.9479358024e-01,
  8.1046904089e-01,
  1.4564548554e-01,
  -1.4525517781e-01,
  1.0231832845e+00,
  -5.9092305815e-02,
  4.3809057593e-01,
  6.5620983263e-01,
  8.7687005434e-01,
  5.1970695216e-01,
  2.0820284603e+00,
  3.3306125933e-01,
  1.1685184367e+00,
  1.1679763818e-01,
  -1.2809523803e+00,
  7.7019697696e-03,
  3.3926380074e-01,
  -1.4698719084e-01,
  -1.0277290014e-01,
  -3.7083574900e-01,
  -1.0269196688e+00,
  1.4448191925e-01,
  -4.4501590598e-01,
  -1.7351351842e+00,
  -1.6553431014e+00,
  2.5698190457e-01,
  -1.3915627723e-01,
  -5.6941479214e-01,
  -1.1184052883e+00,
  3.7444537531e-01,
  3.5465982554e-01,
  1.2072325382e+00,
  -3.7880758315e-01,
  5.5029869661e-01,
  -2.9779374291e-02,
  -7.0489580563e-01,
  -7.7328173094e-02,
  -1.6768559035e-01,
  7.9553021641e-02,
  1.2753738255e+00,
  2.0250031600e+00,
  1.0241539261e+00,
  3.9350472903e-01,
  8.3031553758e-01,
  7.9764068774e-01,
  8.8621702243e-01,
  -1.1888971567e-01,
  5.3374435077e-01,
  1.4768923656e+00,
  5.2202585332e-01,
  1.9873015820e-01,
  6.4207578597e-01,
  1.7281849316e+00,
  1.3945822129e+00,
  1.2838097512e+00,
  5.9270932610e-01,
  1.3619921115e+00,
  -1.6073563000e+00,
  -2.4036543203e+00,
  -3.2860902828e+00,
  -2.8969569137e+00,
  9.1592793523e-01,
  -8.7976714087e-01,
  -1.4545909212e+00,
  4.2927380416e-01,
  1.0595899657e+00,
  -8.5051977951e-01,
  -1.2703211758e+00,
  -1.5058449287e+00,
  7.2872513582e-02,
  -2.1103920108e-01,
  9.2112242820e-01,
  1.2542241158e-02,
  3.6651107525e-01,
  -5.8116872195e-01,
  -1.3135539938e-01,
  4.0244417826e-01,
  9.1212324285e-01,
  1.4469556905e+00,
  1.6835613534e+00,
  1.0230566252e+00,
  -6.4390020563e-01,
  -9.5901582280e-02,
  -4.4407881715e-01,
  1.9741196037e-02,
  3.6422234786e-01,
  1.2244685274e+00,
  -1.2117324776e+00,
  -1.7273566694e-01,
  -3.3316826292e-01,
  3.5657472227e-01,
  -7.0398844240e-02,
  6.7200074723e-01,
  -2.6070405554e-01,
  5.0050084276e-01,
  -2.8381738679e-01,
  1.2270680858e-01,
  3.1580622205e-01,
  -4.9157875452e-01,
  -1.8449115628e+00,
  -2.1733334312e+00,
  -6.0652572538e-02,
  3.8102327351e-01,
  7.3530638769e-01,
  1.0689589225e-01,
  1.4272101108e-01,
  7.4213891048e-01,
  4.9393513046e-01,
  -5.4590379988e-01,
  1.3435965009e+00,
  6.0669987687e-01,
  -6.8792152662e-01,
  -3.4641489735e-01,
  7.2595736401e-01,
  1.7765661806e-01,
  3.8971845876e-01,
  -9.5555397098e-01,
  -1.0826429417e+00,
  -7.5273253303e-01,
  -1.3152967016e+00,
  -9.7535688245e-01,
  2.9926999430e-01,
  -7.7822607424e-01,
  7.4675666641e-01,
  1.0943010045e+00,
  7.1598465033e-01,
  7.3576917879e-01,
  -8.4778358429e-01,
  1.7932139157e-01,
  1.1081757787e+00,
  5.7534006817e-01,
  6.7787705620e-01,
  1.6402837564e-03,
  -3.8097315843e-01,
  -5.5258445246e-01,
  7.9107083125e-01,
  -5.7775684132e-01,
  1.7017065227e+00,
  -8.4592911721e-02,
  1.7500592686e+00,
  7.1966772747e-01,
  -1.7767338548e-01,
  -6.3954464782e-01,
  -2.0471156916e-01,
  8.3489571990e-02,
  -3.4111728530e-01,
  7.1972862568e-01,
  -2.8828571756e-01,
  -1.0638381667e+00,
  -3.9237539029e-02,
  -8.3912104001e-01,
  -1.1110380846e+00,
  -9.0130925185e-01,
  8.9415519373e-04,
  4.8810563098e-01,
  -8.6192777614e-01,
  -8.3594662196e-01,
  -1.3232588645e-01,
  -6.3068646005e-01,
  -7.6462351300e-01,
  6.7671565331e-01,
  -7.5118818561e-01,
  9.7983620499e-01,
  8.9239235055e-01,
  -7.3086682073e-01,
  -5.1740901981e-01,
  -6.0926613831e-01,
  -4.7134787321e-02,
  8.5120015651e-01,
  5.0483765690e-01,
  -1.5983126980e-01,
  8.7458578755e-01,
  -1.1532910958e-01,
  8.6590576600e-01,
  1.0425930959e+00,
  1.5664610662e+00,
  1.4230515170e+00,
  8.2467968922e-01,
  9.6972065719e-01,
  7.5916825528e-01,
  9.9370594649e-01,
  8.2249941498e-01,
  7.7809174404e-01,
  1.4994146203e+00,
  2.6649962048e-01,
};

double          mlpWeightsLayer2[] = {
  -2.0036355066e-01,
  -1.1355553479e-01,
  2.8342581886e+00,
  -1.0590919238e+00,
  3.8153286951e+00,
  4.4661241466e-01,
  1.2958249447e+00,
  -5.7568323566e+00,
  -7.2974022540e+00,
  3.7428420555e+00,
  6.8712370379e+00,
  5.8275758342e-01,
  2.4814994363e-01,
  6.2232560388e+00,
  4.9970147701e+00,
  3.2284418692e+00,
  -7.8433782883e-01,
  -2.4130327116e+00,
  -1.8682267134e+00,
  2.9093381467e+00,
  -1.0499151127e-01,
  -3.5742050307e+00,
  2.0167933369e-01,
  -6.7822407147e+00,
  -4.6917093449e+00,
};
