// MLP Weights File

#define NUMBER_OF_LAYERS 2
#define LAYER_1_WEIGHTS_LENGTH 600
#define LAYER_2_WEIGHTS_LENGTH 5

#define LAYER_1_WEIGHTS_ABS_MAX 4.0000000000e+00
#define LAYER_2_WEIGHTS_ABS_MAX 1.1000000000e+01

double mlpWeightsLayer1[] = {
	1.0755978923e+00,
	1.7618176488e-01,
	-3.4085096791e-02,
	-1.1811271112e+00,
	-3.6271193889e-01,
	-2.4185260792e+00,
	-2.1072561170e+00,
	-1.2772325238e+00,
	-1.8538380778e+00,
	-3.1412717029e+00,
	-1.4777444652e+00,
	-1.3182548337e+00,
	1.6635475242e-01,
	8.3090805225e-01,
	1.6612535869e+00,
	1.0419489730e-01,
	4.7947630238e-01,
	-8.3568808845e-01,
	3.5199073506e-01,
	1.3650929289e-01,
	6.9029816584e-01,
	4.5781755226e-01,
	1.5689565722e-01,
	-8.0962553789e-01,
	-7.0995208594e-01,
	-3.8743247780e-01,
	-8.8464003418e-01,
	-8.0938138981e-01,
	2.2849208045e-01,
	-7.1953489792e-01,
	7.5981933042e-01,
	2.0294808802e-02,
	-6.6985076449e-01,
	5.6688131352e-01,
	-9.6331675161e-01,
	-9.4878994110e-01,
	-1.5640736106e-01,
	6.3341166417e-01,
	7.3924985504e-01,
	6.9429609058e-02,
	9.1607409894e-01,
	-4.7630237739e-01,
	2.8043458357e-01,
	-7.9650257881e-01,
	-9.4341868343e-01,
	2.3895992920e-02,
	-6.3823358867e-01,
	1.7069002350e-01,
	-3.4977263710e-01,
	-6.2932218390e-01,
	-9.0179143651e-01,
	1.5048677023e-01,
	5.8500930815e-01,
	6.1998352000e-01,
	-8.3709219642e-01,
	6.0081789605e-01,
	-9.4537186804e-01,
	4.8771629994e-01,
	-4.8564104129e-01,
	3.2712790307e-01,
	-3.9951780755e-01,
	-5.2360606708e-01,
	-7.3277993103e-01,
	-8.8116092410e-01,
	4.5304727317e-01,
	-9.0136417737e-01,
	2.7115695669e-01,
	-7.3583178198e-01,
	2.3722037416e-01,
	3.1581191420e-02,
	-3.7144724377e-02,
	-7.3383707103e-01,
	2.5623789401e-01,
	-4.1742639304e-02,
	-5.4482353912e-01,
	-3.5905500129e-01,
	-5.4159406963e-01,
	7.3400084731e-01,
	5.0258364726e-01,
	8.5393841365e-01,
	-4.1630298776e-01,
	7.7745902890e-01,
	-2.1201208533e-01,
	-2.4271370586e-01,
	-4.8228400525e-01,
	2.1872615741e-01,
	2.0700704978e-01,
	8.5424359874e-01,
	-5.8110293893e-01,
	1.7715994751e-01,
	-3.6948759423e-01,
	-1.6867580187e-01,
	-6.8944364757e-01,
	3.3408612323e-01,
	7.6201666311e-01,
	3.3750419630e-01,
	-3.0426953948e-02,
	1.8765831477e-01,
	6.1949522385e-01,
	-2.1994689779e-01,
	7.8832361827e-01,
	-2.8183843501e-01,
	-2.0975371563e-01,
	-1.8771935179e-01,
	-4.3833735160e-01,
	2.7622302927e-01,
	-9.8321481979e-01,
	8.2494582965e-01,
	2.6297799615e-01,
	-4.9455244606e-01,
	-3.2242805261e-01,
	7.5414288766e-01,
	-1.2991729484e-01,
	-8.8634907071e-01,
	-2.7536851100e-01,
	-4.8216193121e-01,
	3.0545976135e-01,
	-6.9670705283e-01,
	-3.5898922697e-01,
	-6.0539567248e-01,
	1.7241511010e+00,
	9.5378975468e-01,
	-5.7118107212e-01,
	-7.8912492269e-01,
	-2.0377659382e+00,
	-2.2915227449e+00,
	-2.5902695357e+00,
	-1.6385038023e+00,
	-3.6376410143e+00,
	-2.8567449402e+00,
	-1.9443630147e+00,
	-2.0074195681e+00,
	-3.2543698873e-01,
	3.2439373421e-02,
	8.8830845209e-01,
	5.1910477060e-01,
	1.1398663289e-01,
	7.5908717563e-01,
	6.9238365055e-01,
	-9.6469008454e-02,
	5.9959715567e-01,
	4.3462496495e-01,
	-8.9556566057e-01,
	-2.6297799615e-01,
	-5.8775597400e-01,
	1.7075106052e-01,
	3.3722952971e-02,
	5.5583361309e-01,
	7.7547532579e-02,
	9.8565630055e-01,
	6.2968840602e-01,
	-7.7172154912e-01,
	-6.7232276376e-02,
	3.9948728904e-02,
	8.9159825434e-01,
	3.1241798151e-01,
	6.3725699637e-01,
	-6.4299447615e-01,
	7.4669637135e-01,
	-9.6465956603e-01,
	4.8277230140e-01,
	-8.5967589343e-01,
	-6.5294351024e-01,
	-3.4757530442e-01,
	5.6797997986e-01,
	-4.9864192633e-01,
	-8.6321604053e-01,
	-5.0315866573e-01,
	-1.0202337718e-01,
	-5.9001434370e-01,
	2.5016022217e-01,
	3.3783989990e-02,
	-5.2732932524e-01,
	6.8010498367e-01,
	-1.9498275704e-01,
	-7.6921903134e-01,
	4.2558061464e-01,
	-1.9724112674e-01,
	-3.4684286019e-01,
	5.5711539048e-01,
	2.7585680715e-01,
	-5.6010620441e-01,
	-8.5009308145e-01,
	9.2413098544e-01,
	3.5679189428e-01,
	3.9005706961e-01,
	5.0621051668e-01,
	8.8006225776e-01,
	4.8142948698e-01,
	-1.3013930312e-01,
	-7.0947446124e-01,
	-6.1585520560e-01,
	1.0827531261e-01,
	8.2623417647e-01,
	1.5128908303e-01,
	1.2389734166e+00,
	8.2936846926e-01,
	-7.3396803644e-02,
	6.0829851370e-01,
	-2.3722037416e-01,
	3.6344492935e-01,
	3.7986388745e-01,
	-2.2690511795e-01,
	-4.2643513291e-01,
	3.0857264931e-01,
	4.6305734428e-01,
	-3.8431958983e-01,
	2.2629474776e-01,
	4.3778801843e-01,
	-7.3763237403e-02,
	-6.6655476547e-01,
	-2.2965178381e-01,
	6.5489669485e-01,
	-9.6957304605e-02,
	-8.5757011628e-03,
	6.1339152196e-01,
	-7.0711386456e-02,
	-9.2013306070e-02,
	7.7752006592e-01,
	9.9713126011e-01,
	-8.8134403516e-01,
	-3.8114566485e-01,
	9.0527054659e-01,
	-4.6037171545e-01,
	5.9239478744e-01,
	2.5699636830e-01,
	7.2350230415e-01,
	1.5665150914e-01,
	7.1770378735e-01,
	-6.2254707480e-01,
	5.9526352733e-01,
	-3.2615131077e-01,
	2.7256080813e-01,
	-1.1795403912e-01,
	-8.9074373608e-01,
	-5.5668813135e-01,
	8.4594256417e-01,
	-9.3279824213e-01,
	-8.1463057344e-01,
	-7.2338023011e-01,
	-4.9421473878e-01,
	2.5603461653e-01,
	-9.0650150135e-01,
	-1.4749222050e+00,
	-1.4103465000e+00,
	-4.5260794996e-01,
	-2.4178045907e-01,
	-8.8040714642e-01,
	-1.2171593894e+00,
	-7.6933034884e-01,
	-1.4046143492e+00,
	-1.1393918405e+00,
	-8.9871402425e-01,
	7.0038592873e-01,
	9.0397946883e-01,
	5.1767544100e-01,
	-9.7375408185e-01,
	7.8527191021e-01,
	1.8413526230e-01,
	-9.2828150273e-01,
	9.0325632496e-01,
	-3.1540439017e-01,
	1.1374248482e-01,
	7.0506912442e-01,
	-2.9996642964e-01,
	1.9241920225e-01,
	-6.9063386944e-02,
	-8.7408062990e-01,
	-8.6388744774e-01,
	8.3880123295e-01,
	-2.4384289071e-02,
	4.9766533403e-01,
	1.3296914579e-01,
	-3.7406537065e-01,
	9.4122135075e-01,
	-3.6075930052e-01,
	5.3489791559e-01,
	-8.8445692312e-01,
	-1.4139225440e-01,
	3.1022064882e-01,
	-4.9400311289e-01,
	-5.1170384838e-01,
	1.6714987640e-01,
	-7.5133518479e-01,
	6.6502883999e-01,
	-6.1082796716e-01,
	4.2918179876e-01,
	2.7610095523e-01,
	-9.7906430250e-01,
	-6.3035981323e-01,
	-7.4755088961e-01,
	-2.1897030549e-01,
	-2.2739341411e-01,
	-2.5901058992e-01,
	9.8199407941e-01,
	-1.0592974639e-01,
	3.3051545763e-02,
	-3.5062715537e-01,
	-2.7689443648e-01,
	6.6685995056e-01,
	-4.5713675344e-01,
	-8.1359294412e-01,
	2.6023133030e-01,
	-4.3259987182e-01,
	-5.6596575823e-01,
	-6.5227210303e-01,
	-5.6797997986e-01,
	-3.9561143834e-01,
	-8.9281899472e-01,
	-3.4070745977e-01,
	5.2809420614e-01,
	3.9772428508e-01,
	3.6734314884e-01,
	2.7549968745e-01,
	5.4108045899e-01,
	-1.4845973725e-01,
	3.6441540940e-01,
	1.9766849288e-01,
	8.8120968248e-01,
	2.0041505173e-01,
	-3.0210272530e-01,
	-8.5460982086e-01,
	-9.6362193670e-01,
	-4.9821466720e-01,
	1.7398602252e-01,
	-4.9772637104e-01,
	-1.6672261727e-01,
	-1.5903195288e-01,
	-2.8595843379e-02,
	6.5379802850e-01,
	-2.1701712088e-01,
	6.7394024476e-01,
	7.4248481704e-01,
	5.8134708701e-01,
	-8.7432477798e-01,
	-2.7329325236e-01,
	9.7045808283e-01,
	-1.4804528947e-01,
	-8.8933988464e-01,
	-5.9935300760e-01,
	2.7771843623e-03,
	-2.3233741264e-01,
	7.9766228217e-01,
	6.1961729789e-01,
	-2.3929563280e-01,
	-5.1200903348e-01,
	9.3939024018e-01,
	-5.6956694235e-01,
	1.8637653737e-01,
	-6.2593462935e-02,
	-4.9021881771e-01,
	6.7058320872e-01,
	-5.0871303446e-01,
	-6.8968779565e-01,
	4.3815424055e-01,
	1.3824884793e-02,
	-7.3204748680e-01,
	-1.3458662679e-02,
	1.1343729972e-01,
	7.0830408643e-01,
	-7.2927916254e-01,
	-2.0929460424e-01,
	-1.1250292727e-01,
	1.3323271799e+00,
	6.0516067212e-01,
	1.8059927595e+00,
	1.5754881640e+00,
	1.1655760857e+00,
	2.2832870082e+00,
	1.2892394414e+00,
	9.4996908522e-01,
	1.2077882039e+00,
	8.5417609078e-01,
	-3.4061666399e-01,
	-1.1500268122e+00,
	8.6198721211e-01,
	6.0246589557e-01,
	-2.3551145659e-01,
	-7.7003595116e-01,
	5.6962797937e-01,
	4.6427808466e-01,
	6.7344573458e-01,
	6.2334055605e-01,
	-7.2899563585e-01,
	1.4761803034e-01,
	-8.7542344432e-01,
	1.7679372539e-01,
	-3.4061708426e-01,
	5.2769554735e-01,
	-7.2576067385e-01,
	8.0721457564e-02,
	2.2122867519e-01,
	2.5177770318e-02,
	-7.7904599139e-01,
	9.5812860500e-01,
	-6.6917935728e-01,
	-2.1225623341e-01,
	-2.8977324747e-01,
	-9.9273659474e-01,
	8.9388714255e-02,
	4.2283394879e-01,
	1.8619342631e-01,
	-9.0404980621e-01,
	-7.0702230903e-01,
	3.4366893521e-01,
	3.8758507035e-03,
	3.7491988891e-01,
	8.4240241707e-01,
	7.9100924711e-01,
	-3.8596758934e-01,
	-2.6764732810e-02,
	9.0575884274e-01,
	-4.0708639790e-01,
	-4.6684163945e-01,
	-6.6148869289e-01,
	-8.5131382183e-01,
	7.2600482192e-01,
	-8.8961455123e-02,
	7.8423413800e-01,
	-6.5672780541e-01,
	-2.6114688559e-01,
	5.0852992340e-01,
	8.0596331675e-01,
	-3.3268227180e-01,
	1.0257271035e-01,
	-1.0196234016e-01,
	-2.6950895718e-01,
	8.9419232765e-03,
	5.4844813379e-01,
	-3.1607438915e-01,
	2.5646158211e-01,
	5.8091180993e-01,
	3.7735238739e-01,
	6.1682237702e-01,
	2.4353255470e-01,
	-1.1491701639e+00,
	-7.0530443552e-01,
	4.0964987226e-01,
	-1.7892107667e-01,
	-5.8629108554e-01,
	-3.8035218360e-01,
	-3.4366893521e-01,
	-2.0743430891e-01,
	-9.8467970824e-01,
	3.4226508377e-01,
	7.0659504990e-01,
	-4.1459395123e-01,
	-9.8681600391e-01,
	-4.0208136235e-01,
	-9.4512771996e-01,
	6.0460219123e-01,
	5.3282265694e-01,
	9.9957274087e-01,
	-1.0501419111e-01,
	1.7246009705e-01,
	-1.0330515458e-01,
	-2.9093295083e-01,
	3.5111545152e-01,
	8.5177159948e-02,
	-7.9015472884e-01,
	-6.7964720603e-02,
	-7.5493636891e-01,
	5.6181524094e-01,
	7.6134525590e-01,
	9.6282845546e-01,
	-7.8923917356e-01,
	-8.4905545213e-01,
	5.5455183569e-01,
	-1.5732291635e-01,
	9.6881008332e-01,
	-8.4313486129e-01,
	-7.2075563829e-01,
	-3.0552079836e-01,
	5.7347331156e-01,
	-8.5253456221e-01,
	3.7690359203e-02,
	-2.0511490219e-01,
	-5.5406353954e-01,
	1.0678426466e-01,
	-8.6358226264e-01,
	-1.0225722374e+00,
	-3.0293368316e-01,
	3.1967293526e-01,
	5.5332557169e-01,
	1.5005362480e+00,
	1.8956016922e+00,
	1.8964854834e+00,
	1.0684029844e+00,
	2.0795029811e+00,
	1.6741285886e+00,
	1.6684854767e+00,
	1.6823670735e+00,
	5.5569083882e-01,
	-3.9659265200e-01,
	-1.8136307132e+00,
	-4.0604943809e-01,
	-7.1947386090e-01,
	3.1229574559e-01,
	2.0582414381e-01,
	6.7162083804e-01,
	3.5782952361e-01,
	4.8056664477e-01,
	4.8130741295e-01,
	6.3298440504e-01,
	9.3395794549e-01,
	-8.8995025483e-01,
	3.0417798395e-01,
	-3.2554094058e-01,
	-6.5428632466e-01,
	6.6438795129e-02,
	4.5774712363e-01,
	-6.4714499344e-01,
	2.7164525285e-01,
	2.6822717978e-01,
	3.2370983001e-01,
	1.1038544877e-01,
	-3.7540818506e-01,
	-7.4101992859e-01,
	4.2497024445e-01,
	-8.1881160924e-02,
	-1.2936796167e-01,
	-4.9888607440e-01,
	7.9314554277e-01,
	-5.7560960723e-01,
	-1.6440321055e-01,
	-7.9467146825e-01,
	-2.6938688314e-01,
	-8.1514938810e-02,
	6.3081759087e-02,
	5.0773644215e-01,
	5.2946562090e-01,
	-5.7658619953e-01,
	-2.1494186224e-01,
	8.0681783502e-01,
	7.0995208594e-01,
	-7.6897488327e-01,
	5.6895657216e-01,
	7.3335978271e-02,
	-6.5886410108e-01,
	1.8973357341e-01,
	7.0232245857e-01,
	-5.4658650472e-02,
	-9.9401837214e-01,
	-9.4048890652e-01,
	-6.2102114933e-01,
	-5.7927182836e-01,
	-2.6581621754e-02,
	2.4546037172e-01,
	7.4785607471e-01,
	9.3493914944e-01,
	-8.6402418187e-01,
	-7.8506308203e-01,
	7.8403629722e-01,
	-2.4869596591e-01,
	-9.9609585777e-01,
	5.4419853394e-01,
	-3.1452123611e-01,
	3.7455355971e-01,
	-6.6966606001e-01,
	-3.0521561327e-01,
	-7.2435682241e-01,
	4.0116580706e-01,
	7.8661458174e-01,
	-7.5389873959e-01,
	-6.8376720481e-01,
	8.7188329722e-01,
	-4.3021942808e-01,
	3.9249855037e-01,
	-8.5711233863e-01,
	3.3280434584e-01,
	1.4957121494e-01,
	4.1026032289e-01,
	-1.1526841029e-01,
	-4.7740104373e-01,
	9.3169957579e-01,
	-7.8423413800e-01,
	-6.0869167150e-01,
	-9.0331736198e-01,
	3.3811456648e-01,
	-6.1973937193e-01,
	-5.6187627796e-01,
	2.6084170049e-01,
	1.5457625050e-01,
	3.3634449293e-01,
	3.5764641255e-01,
	-8.7194433424e-01,
	-2.8910184027e-01,
	8.7740714743e-02,
	-8.4142582476e-01,
	6.1058381909e-01,
	-5.4484694967e-01,
	7.3650318918e-01,
	1.9626453444e-01,
	6.5910824915e-01,
	-5.1457258827e-01,
	-8.6193426313e-01,
	4.5585497604e-01,
	6.6258735923e-01,
	-3.9957884457e-01,
	9.9859614856e-01,
};

double mlpWeightsLayer2[] = {
	8.6929604102e+00,
	1.0568523501e+01,
	5.9461623088e+00,
	-3.5063861581e+00,
	-4.4583407638e+00,
};

