// MLP Weights File

#define NUMBER_OF_LAYERS 2
#define LAYER_1_WEIGHTS_LENGTH 2400
#define LAYER_2_WEIGHTS_LENGTH 80

#define LAYER_1_WEIGHTS_ABS_MAX 7.0000000000e+00
#define LAYER_2_WEIGHTS_ABS_MAX 6.0000000000e+00

double mlpWeightsLayer1[] = {
	-1.4230819385e+00,
	1.6629921887e+00,
	5.5316903049e-02,
	4.9925107395e-01,
	2.0755454483e+00,
	2.2856934899e+00,
	1.0855557733e+00,
	6.2699921800e-01,
	5.9171354525e-01,
	4.1978187843e-01,
	4.5534115656e+00,
	6.0642039515e+00,
	2.4953937452e+00,
	7.5103903781e-01,
	8.1064445495e-02,
	-7.7898888613e-01,
	1.0323956202e+00,
	2.8666578238e-01,
	8.1342291096e-01,
	4.1527161783e-01,
	-3.4595632875e-01,
	8.0324280942e-01,
	1.2110786904e+00,
	4.9740394534e-01,
	9.3858907074e-01,
	6.4155709639e-01,
	-7.6037092568e-01,
	1.0091660446e+00,
	1.1845559311e+00,
	-3.7453772189e-01,
	6.3436336715e-01,
	9.4569676460e-01,
	-7.8800833387e-01,
	8.3935895771e-01,
	5.2526193369e-01,
	-5.8118547480e-01,
	4.8437075572e-01,
	3.9113521827e-01,
	5.0897988282e-01,
	-6.2695019489e-01,
	-4.1290338496e-01,
	3.0965234214e-01,
	8.5267336660e-01,
	-8.5087019664e-01,
	-2.9784490601e-01,
	-6.7530540315e-02,
	-7.0195255694e-01,
	-3.8357301680e-01,
	-7.8374549271e-01,
	-8.8915839879e-01,
	-9.6845548226e-01,
	-1.3501807634e-01,
	8.5435470466e-01,
	8.0160228806e-01,
	-8.6267752473e-01,
	7.5749243040e-01,
	3.6887668696e-01,
	-6.3826154062e-01,
	7.5422617130e-01,
	-9.3916805039e-02,
	-2.8528574342e-02,
	3.5230871929e-01,
	-1.4890610312e-01,
	1.8316895239e-01,
	1.8442789395e-01,
	-6.6649673367e-01,
	1.8715828532e-02,
	-3.2261780350e-01,
	7.6817710966e-01,
	1.1166541516e-01,
	5.0326628998e-02,
	-6.4472627623e-01,
	-5.7868224363e-01,
	-1.0434112315e-01,
	-5.1474580358e-01,
	1.0293613793e-01,
	8.3269262234e-01,
	-2.0079246846e-01,
	7.1515769968e-01,
	-1.0132954404e+00,
	-4.4646477566e-01,
	-1.3103984621e-02,
	-3.9472024110e-01,
	-3.1001405428e-01,
	4.2330146460e-01,
	-3.6022091375e-02,
	-4.9015256707e-01,
	-1.0704873295e-01,
	7.3475195299e-02,
	-7.8402350291e-01,
	3.5547494379e-01,
	-6.1444622389e-01,
	6.3262993482e-01,
	-3.0021352009e-01,
	5.7236558974e-01,
	-1.7247137482e-01,
	7.6828371304e-02,
	1.7505212555e-01,
	5.0565630454e-01,
	-1.5499451903e-01,
	-7.1328246021e-01,
	-4.4316621288e-01,
	2.0022430098e-01,
	-2.9223654338e-01,
	4.5335344279e-01,
	7.0360578588e-01,
	8.3106075111e-01,
	2.9700494804e-01,
	-4.9286629795e-01,
	5.6917885529e-01,
	3.3887209910e-01,
	3.9649642873e-01,
	3.0891527848e-01,
	-7.4206765859e-01,
	-8.1192651524e-01,
	-8.4101028314e-02,
	3.2196065473e-01,
	-2.8920985603e-01,
	8.4727083571e-01,
	-2.6388557620e-01,
	2.1026551052e+00,
	2.1663512569e-01,
	-3.3490978169e-01,
	-6.2834298957e-01,
	-2.1362013354e+00,
	-1.4567117624e+00,
	-2.5704608101e-01,
	-4.8387212508e-01,
	-2.8141187108e-01,
	-5.5974805678e-01,
	-1.4617254862e+00,
	-2.0467204930e+00,
	-5.7597519544e-01,
	1.8218156040e-01,
	-1.4908843634e-01,
	-8.2595935671e-02,
	5.1269888194e-02,
	-3.1855975468e-01,
	-7.2700969365e-01,
	7.3954478919e-01,
	-7.2778333832e-01,
	5.9683994763e-01,
	9.8253453346e-02,
	6.1506899615e-01,
	8.9077540668e-01,
	3.4804461307e-01,
	-4.6905015691e-01,
	2.1279112679e-01,
	-9.3874213190e-01,
	-6.1120973509e-01,
	9.5091574353e-01,
	5.3837000883e-02,
	-9.0538091674e-01,
	7.8553503881e-02,
	6.8018783428e-01,
	-4.9976561847e-01,
	7.7804907867e-01,
	1.3406729285e-01,
	9.8267805203e-01,
	6.5259677901e-01,
	-9.0639694403e-01,
	-6.8987279930e-01,
	8.1386202006e-01,
	6.0997260809e-01,
	8.3785555597e-01,
	-3.1683744365e-01,
	-4.1297320342e-01,
	7.0266642175e-02,
	3.8397124008e-01,
	-1.3891406597e-01,
	-1.9018856864e-01,
	6.5618790391e-01,
	-5.1527516521e-01,
	9.6978249493e-01,
	2.7125689912e-01,
	-6.2449975853e-01,
	3.1782710707e-01,
	8.0222486695e-01,
	5.8829136826e-01,
	3.7908497610e-01,
	-8.0904219838e-01,
	5.3917374770e-01,
	-5.6707806099e-01,
	-7.1436578496e-01,
	-3.8368541250e-01,
	-8.9223719446e-01,
	-2.1991146778e-01,
	-6.0368153016e-01,
	2.4717710318e-01,
	-2.3145335132e-01,
	-9.5116351545e-01,
	3.4078014386e-01,
	7.8673849319e-02,
	8.5533761529e-01,
	-6.0969278595e-02,
	-9.2709423707e-02,
	-4.5711200553e-01,
	5.3376187927e-01,
	9.6991204145e-01,
	8.9473820749e-01,
	-6.5298424639e-01,
	-2.7086753448e-01,
	5.0276472771e-01,
	-1.4299768459e-01,
	-2.4302684143e-01,
	-1.4942341983e-01,
	2.5328581464e-01,
	-9.1692407514e-01,
	-3.5368089149e-01,
	-1.9719806334e-01,
	4.0658832031e-01,
	-1.5163140806e-01,
	-6.1315531091e-01,
	8.9622403118e-01,
	1.3622932206e-01,
	5.3672236415e-03,
	-9.9066616036e-01,
	9.2209867850e-01,
	4.0168569579e-01,
	2.5651094283e-01,
	-3.0935467375e-01,
	4.5060094607e-01,
	-4.0270847908e-01,
	7.6928260410e-01,
	3.1138556366e-01,
	5.4782694790e-01,
	-3.1417517060e-01,
	8.5931804118e-01,
	8.5823430258e-02,
	-3.2825597229e-01,
	7.8317398785e-01,
	4.7196391426e-01,
	4.5604211124e-01,
	3.6952329177e-01,
	-6.3212903843e-01,
	-7.6435792249e-01,
	-7.6740918692e-01,
	6.2513106286e-01,
	-6.8311849065e-01,
	-1.0899706465e-01,
	-1.6187196629e-01,
	4.6622316101e+00,
	2.7040612493e+00,
	9.8763009934e-01,
	2.4213777341e+00,
	1.4715731226e+00,
	2.8621958500e+00,
	3.1440994041e+00,
	2.1151503799e+00,
	1.4729816836e+00,
	2.6851514744e-01,
	6.4538675028e-01,
	1.1616779682e+00,
	1.0935980561e+00,
	3.1587330189e-01,
	-8.6426632830e-01,
	4.3211218578e-01,
	9.8867241688e-01,
	8.9548263375e-01,
	-8.2363083345e-01,
	-3.8259120263e-01,
	7.1080213350e-01,
	5.8543902838e-01,
	-1.0143869662e+00,
	4.4330155037e-02,
	-9.8973521949e-01,
	-6.7824818830e-01,
	2.8633419830e-01,
	1.3258051931e-01,
	-3.6381924119e-01,
	-8.2649894544e-01,
	-8.6852179368e-01,
	-5.7243683768e-01,
	9.2455798810e-01,
	-6.6721928337e-03,
	-8.9305319818e-01,
	-1.9634332750e-01,
	-1.3945536834e-01,
	7.9566588430e-01,
	6.0484597162e-01,
	-8.7055284896e-01,
	-2.5910409133e-01,
	9.6680596050e-02,
	-1.5104938352e-01,
	-7.1658296591e-01,
	-6.4216560388e-01,
	-1.1816770356e-01,
	3.7398202688e-01,
	-6.9516322282e-01,
	-2.2596798335e-01,
	5.5037044992e-01,
	-7.5516214164e-02,
	-5.4453915802e-01,
	2.1144779828e-01,
	1.3382900978e-02,
	5.1221774123e-01,
	2.4080440367e-01,
	3.3792409363e-01,
	-1.9834141955e-01,
	-1.0246916073e-01,
	9.8246837287e-01,
	-1.6471514235e-02,
	2.9040500585e-02,
	-5.9011399730e-01,
	-9.3411454523e-02,
	-9.8113845389e-01,
	-4.8572469546e-01,
	7.1158681890e-01,
	-1.1711851559e-01,
	-6.8750131116e-01,
	3.1643278958e-01,
	1.2328636373e-02,
	5.3394597514e-02,
	-5.8919820725e-01,
	8.5452038503e-01,
	3.3313209254e-01,
	-2.2896954227e-01,
	-2.5680480126e-01,
	-2.9047786541e-01,
	6.8767922541e-02,
	3.9468857534e-01,
	-7.5429392192e-01,
	-1.0031595621e+00,
	9.4952621348e-01,
	4.0366993048e-01,
	-2.6781110071e-02,
	4.7501003857e-01,
	-2.9546517274e-01,
	-6.5970758055e-01,
	-7.1459394467e-01,
	5.1052113952e-01,
	-6.6631630963e-01,
	2.6968820046e-01,
	-3.6004380666e-01,
	-2.5621421787e-01,
	-8.2222503229e-01,
	-3.3770695391e-01,
	2.6061858761e-01,
	8.8936178660e-01,
	5.4517453143e-01,
	5.7311727739e-01,
	2.0579457525e-01,
	-4.4249683313e-01,
	-3.7348824622e-01,
	6.1866813743e-01,
	-5.8121771028e-01,
	9.6314051402e-01,
	-6.1014426016e-01,
	1.6189395425e-01,
	-3.2597226398e-01,
	4.6310318176e-01,
	-3.2379366085e-01,
	-6.7974686023e-02,
	4.6393843221e-01,
	-3.4871242542e-01,
	-5.9210682362e-01,
	-5.2044012224e-01,
	-8.6395997215e-01,
	1.1921699909e-01,
	-1.6894794377e-01,
	-1.1190275440e+00,
	-8.0763883901e-01,
	-1.4633043009e-01,
	4.3174354694e-01,
	1.3469644738e+00,
	1.3963128726e+00,
	5.7296437267e-01,
	-1.2186489013e+00,
	-6.5653286688e-03,
	5.8972142072e-01,
	2.2283236152e+00,
	2.3481411024e+00,
	6.4704332116e-01,
	-7.6911490844e-01,
	3.6691386865e-01,
	-3.9369041549e-01,
	-4.4445570346e-01,
	3.3083894483e-01,
	-2.5548799378e-02,
	7.1793001649e-01,
	-9.9253104121e-01,
	-5.4938834919e-01,
	-4.1823294919e-01,
	6.4557967927e-02,
	9.2337531744e-01,
	8.2540471591e-02,
	3.5650656651e-01,
	-6.0941842592e-01,
	6.1585426214e-01,
	-5.2063407290e-01,
	2.3186924790e-01,
	6.0794834309e-01,
	2.0324901057e-01,
	-6.1823190950e-01,
	3.0073798415e-01,
	-4.2453741814e-01,
	-7.0941550457e-01,
	1.7130259386e-01,
	-3.9003154607e-01,
	4.6002386578e-01,
	-6.8771011694e-02,
	-8.1035114257e-01,
	-7.9741948740e-01,
	8.9694995894e-01,
	-6.7316757314e-01,
	5.7164903431e-01,
	-5.1842111327e-01,
	-1.1720158398e-01,
	-9.5958939332e-02,
	4.5606355623e-01,
	-3.9934162674e-01,
	-8.9449748904e-02,
	8.9618852171e-01,
	-2.4441364233e-03,
	8.5234071307e-01,
	8.0222212793e-01,
	-9.5390470417e-01,
	2.0202435050e-01,
	-8.1218438214e-01,
	2.3109881917e-01,
	6.7301747276e-01,
	4.0454432171e-01,
	-1.6095283868e-01,
	-1.2373277225e-01,
	7.8627366393e-01,
	-8.6491573682e-01,
	2.8730415332e-01,
	-9.2310746197e-01,
	3.1108773840e-01,
	-9.3830173646e-01,
	5.3691640382e-01,
	-7.5768327329e-01,
	-7.4865287903e-01,
	7.3870122898e-01,
	-8.6076910509e-01,
	-4.2240911048e-01,
	3.1056183903e-01,
	-3.7915442855e-01,
	4.6091761353e-01,
	-7.8495037191e-01,
	-9.3400754825e-01,
	-9.6017829293e-01,
	-3.3287692350e-03,
	9.3287136811e-01,
	4.0716994103e-02,
	-3.2238967254e-02,
	7.5411055053e-01,
	9.8182837502e-02,
	-8.5474754228e-01,
	7.6775830533e-01,
	-7.1181251245e-01,
	8.5201021759e-01,
	3.6765513601e-01,
	1.7543347607e-01,
	-2.7061297711e-01,
	1.5398776771e-01,
	3.1521862155e-01,
	-8.1888316750e-01,
	2.3088030574e-01,
	-3.7369364098e-01,
	-7.5718490396e-01,
	-2.3220329137e-01,
	-1.3137691428e-01,
	-5.0583778299e-01,
	-4.9270637496e-01,
	7.8897704407e-03,
	7.2341764845e-02,
	8.1843957483e-01,
	6.2873534282e-01,
	-4.6668027130e-01,
	-9.6695698301e-01,
	7.0475052431e-01,
	-4.0615385682e-01,
	1.5848711037e-01,
	6.7815855067e-01,
	6.5414826742e-01,
	-8.6255818226e-01,
	4.5406021046e-01,
	-2.4056899372e-01,
	-6.8245585993e-01,
	-8.7715922063e-01,
	5.4373410990e-01,
	-4.8218702913e-02,
	1.5518027683e-01,
	-1.1097071447e-01,
	3.1481853163e-01,
	1.4580510372e+00,
	1.2672102065e+00,
	8.2394810803e-01,
	5.3843711168e-01,
	-8.5863496700e-01,
	-5.3014306533e-02,
	9.7365758630e-01,
	1.6564057905e-01,
	8.2648475693e-01,
	-5.1716577215e-01,
	-8.3356869813e-01,
	-9.9788294736e-02,
	-7.3576980216e-01,
	7.1794432008e-01,
	4.2098111668e-01,
	-6.9713579844e-01,
	3.4783258165e-01,
	-9.8653570210e-01,
	4.4724976902e-01,
	8.1401454660e-02,
	6.6599309541e-01,
	5.8699475704e-01,
	-4.4409620945e-01,
	-5.6765714518e-01,
	8.9662193708e-01,
	9.7367450221e-01,
	5.2816999256e-01,
	-9.1808744836e-01,
	-2.4144848587e-01,
	7.9942432595e-01,
	-1.8033725684e-02,
	-3.0258370624e-01,
	3.8589850133e-01,
	-9.3686593507e-01,
	8.6716137913e-01,
	5.9867903572e-01,
	3.8711695251e-01,
	8.0470317221e-01,
	-3.1991734510e-01,
	2.0526205618e-01,
	-7.5046140968e-01,
	-2.3062395455e-01,
	-9.0425107531e-01,
	-4.8718641674e-01,
	-5.1259522210e-01,
	5.1955552284e-01,
	-1.9028483945e-01,
	9.1107798084e-01,
	5.3831818585e-01,
	-7.3401941812e-01,
	1.3493299956e-02,
	2.1122911629e-01,
	8.5968782281e-01,
	5.6997051349e-01,
	6.4461939243e-01,
	7.7517080650e-01,
	5.4524633829e-01,
	1.7311843149e-01,
	9.3703519890e-01,
	1.3524075642e+00,
	2.2617744711e+00,
	-1.6099018477e-01,
	-3.8717826846e-04,
	-6.4293259366e-01,
	-9.8537471235e-02,
	-1.3322562810e-01,
	9.5575258723e-01,
	-6.5579683816e-01,
	-1.9678828528e-01,
	-2.5561413063e-01,
	5.0279507115e-01,
	-6.5705988184e-02,
	5.1269322108e-01,
	1.0323152343e+00,
	3.2092377566e+00,
	4.8817294399e+00,
	2.9551005154e+00,
	-1.2765397373e-01,
	1.2602520691e+00,
	-5.1737999163e-02,
	1.8329567528e-02,
	1.0044285887e-01,
	2.3931190540e+00,
	1.1194299875e+00,
	6.7725296621e-01,
	5.3713048674e-01,
	-8.5473901968e-01,
	9.3079672751e-01,
	-3.2888212120e-01,
	9.9300682917e-01,
	-7.6700674545e-01,
	6.4167490957e-01,
	-1.7217237919e-01,
	2.3260607628e-01,
	9.9874231685e-01,
	7.2578248020e-01,
	-9.0050597737e-01,
	9.5534713505e-01,
	-9.6273842524e-01,
	-2.2698424590e-01,
	-4.0887490623e-01,
	5.0118815413e-01,
	6.9187369898e-01,
	1.0051923734e+00,
	1.3980461494e-01,
	2.6654572164e-01,
	1.0542895826e+00,
	-7.2994115211e-01,
	3.7497001118e-01,
	6.9182081786e-01,
	-1.6243069217e-01,
	8.9276129047e-01,
	-4.4923456042e-01,
	-2.9952665058e-01,
	-7.5201374653e-01,
	-1.0384627017e-01,
	-8.0918720821e-01,
	-6.1186143552e-01,
	-1.7291620832e-01,
	-1.3854786902e-01,
	-6.1885446001e-01,
	5.9943858502e-02,
	-4.9700629473e-01,
	2.0897301908e-01,
	-7.0674319456e-01,
	-4.9743087416e-01,
	-6.4903235459e-02,
	-6.0806993843e-01,
	-5.4377522205e-01,
	-5.4390219531e-02,
	1.6278770806e-01,
	4.6542632881e-02,
	-5.5320206636e-01,
	-1.4533868392e-01,
	4.2065629292e-02,
	5.3439817894e-01,
	9.8109232462e-01,
	-6.9683324032e-02,
	7.2697814083e-01,
	3.4961613133e-01,
	-3.7798063707e-01,
	-4.3615610964e-01,
	2.2882215133e-01,
	1.3102138002e-01,
	2.5595025391e-01,
	4.7637172485e-01,
	-9.7282489109e-01,
	4.4670805216e-01,
	8.6451028933e-01,
	-1.4587443468e-01,
	-6.9197315243e-01,
	-7.5434431888e-01,
	9.1406927626e-01,
	-1.8897944744e-01,
	4.5462869548e-01,
	-7.9338093837e-01,
	3.1275657346e-01,
	-6.1061581299e-01,
	-4.0145087680e-01,
	7.6898135141e-01,
	3.3499396748e-01,
	7.6133683126e-01,
	-1.8447601664e-01,
	7.8179190205e-01,
	-3.8400185266e-01,
	8.5758961265e-01,
	3.1586077964e-01,
	-4.0363738379e-01,
	-2.1221184228e-01,
	4.2838914805e-02,
	9.4597494320e-01,
	4.0980752064e-01,
	6.0668280609e-01,
	1.7436041365e-01,
	-4.5899049372e-01,
	-1.3685434312e-01,
	-3.4881534943e-01,
	-4.3160107094e-01,
	-6.8520395074e-01,
	-2.5706680187e-01,
	9.9639494006e-01,
	-3.8161461215e-01,
	-2.3910189291e-01,
	3.3619884929e-01,
	4.2892502838e-01,
	-7.8447316361e-01,
	5.4281904994e-01,
	-2.5020516463e-01,
	-3.7563359314e-01,
	-8.4372247074e-01,
	-4.9072555016e-01,
	9.3771113563e-01,
	9.1207353576e-01,
	3.9390621435e-01,
	1.3324340537e+00,
	3.5403760277e-01,
	7.9650682394e-01,
	1.6008467441e-01,
	2.2602519823e-01,
	1.2348767033e+00,
	-8.5709572979e-01,
	1.2921826966e-01,
	6.7441087828e-01,
	1.0815660926e+00,
	-6.3217068527e-01,
	9.2817521111e-01,
	-4.4970349233e-01,
	-1.1386787943e-01,
	-5.1025127464e-01,
	-1.4105645993e-01,
	4.0137454653e-01,
	9.1174319755e-01,
	4.7625650536e-01,
	-8.3772734731e-01,
	2.4794204684e-01,
	-9.5409978443e-02,
	-6.2214479625e-01,
	-2.0898005424e-01,
	6.5069753439e-01,
	-1.6759581565e-02,
	-6.7632256345e-02,
	-8.4424844842e-01,
	-7.7384573119e-02,
	-1.6358560297e-01,
	4.9095199403e-01,
	-3.3414570605e-01,
	3.8037621202e-01,
	-3.2401707390e-01,
	6.8269379218e-01,
	-5.3140250572e-01,
	-3.6442747691e-01,
	7.6334408556e-01,
	5.3559145567e-01,
	-9.8367977880e-01,
	2.3167900032e+00,
	2.8917547098e-01,
	5.0970285117e-01,
	8.0102412123e-01,
	-1.7457429262e+00,
	-1.5753658810e+00,
	-6.5232817497e-01,
	-1.6931284882e+00,
	-1.5999160147e+00,
	-1.0934812084e+00,
	-1.3876184964e+00,
	-3.2241744830e-01,
	-6.4992877638e-01,
	-6.9456005156e-01,
	-6.3154998884e-01,
	-1.6749424726e-01,
	4.1307618105e-01,
	2.9475576821e-01,
	3.9142875368e-02,
	-5.0205833069e-01,
	-8.5508779616e-01,
	-5.0190747915e-01,
	1.0078714377e-01,
	5.0493424473e-01,
	1.8896204655e-01,
	-1.7100990997e-01,
	9.6839385462e-01,
	8.2303899299e-01,
	-4.1264610075e-01,
	4.9702262520e-01,
	8.4057467881e-01,
	-9.6426391227e-01,
	2.6171651888e-01,
	7.7579167568e-01,
	-9.6526067982e-01,
	9.1288584280e-01,
	-7.9670023257e-01,
	-1.0731390729e-01,
	9.6542955561e-01,
	-4.5744787690e-01,
	2.2688936965e-01,
	-8.1975407890e-01,
	-8.7025347532e-01,
	-5.3431733303e-01,
	-2.2713825723e-01,
	-4.9229911598e-01,
	3.5015607688e-01,
	-6.5181199072e-01,
	8.1778223338e-01,
	-6.0961896349e-01,
	-1.5387032142e-01,
	9.6269443816e-01,
	-8.8047027163e-02,
	9.8838360886e-01,
	4.6113950827e-01,
	-9.0194307915e-01,
	-1.8749256394e-01,
	4.2818207360e-01,
	9.1966607511e-01,
	3.9889771556e-01,
	-7.5138298364e-02,
	7.5756114989e-01,
	4.3463380331e-01,
	-8.1342175092e-01,
	5.3044542097e-01,
	3.8023737625e-01,
	-9.0478301843e-01,
	7.3665152664e-01,
	-6.3794078382e-01,
	-9.3510622528e-01,
	-7.2079635026e-01,
	5.8894858583e-01,
	-7.5486030418e-01,
	-5.9105127601e-01,
	-9.4562090176e-01,
	1.7389729756e-02,
	-8.3436743550e-02,
	4.0460239124e-01,
	3.6528817798e-01,
	-2.6895773964e-01,
	7.6917312726e-01,
	-8.0018622226e-01,
	-3.1278832127e-01,
	-2.9281363547e-01,
	-7.9946821323e-01,
	-8.4195182245e-01,
	-1.9725435188e-01,
	1.3306215258e-02,
	5.6501879190e-01,
	-3.0044223195e-01,
	-5.8850921663e-01,
	-4.8869473336e-01,
	-5.1759864313e-01,
	8.4674168930e-01,
	-3.0211065408e-01,
	-9.8424275871e-01,
	3.1611481277e-01,
	-2.0264639203e-01,
	7.5240876794e-01,
	6.7817402895e-01,
	-1.3775261731e-01,
	-9.6838758326e-01,
	2.6712261386e-01,
	1.0738707790e-01,
	-5.5944449074e-01,
	3.2175303020e-01,
	-8.7461148383e-01,
	3.5721365053e-01,
	-2.7345880553e-01,
	4.9157559140e-01,
	-9.0838407287e-01,
	-4.7859513193e-01,
	7.0187091340e-01,
	-2.1218861269e-01,
	2.2880056274e-01,
	9.0459982301e-01,
	-5.2958096455e-02,
	-9.6607837526e-01,
	-8.2468677912e-02,
	-4.6650884087e-01,
	1.1290125050e-01,
	8.8497346339e-01,
	2.6205904528e-01,
	3.5322977915e-01,
	3.4903977396e-01,
	8.9715734331e-01,
	4.6605852785e-01,
	-2.6164328308e-01,
	-2.4784429067e-01,
	1.2199647627e-01,
	-7.1898841959e-01,
	5.1930227490e-01,
	2.1084134009e-01,
	4.9490489800e-01,
	-4.8435110103e-01,
	4.9135218934e-01,
	-2.0897594749e-01,
	-3.6062579674e-01,
	-1.6087730748e-01,
	4.8636770016e-01,
	-8.7346830789e-01,
	-6.5724530170e-02,
	-9.8331568641e-01,
	8.2176307287e-01,
	7.1795340863e-01,
	2.3589525040e-01,
	7.3493680471e-01,
	-3.3376636941e-01,
	2.3121670022e-01,
	-3.4753582681e-01,
	1.9928847250e-01,
	-9.7023081685e-01,
	9.8287111800e-01,
	-7.5542939380e-01,
	2.7102815698e-01,
	1.5953051353e-01,
	9.8726222477e-01,
	-4.7195562882e-01,
	6.5230489133e-01,
	-4.7269255085e-01,
	5.3746935331e-01,
	8.2325329716e-01,
	9.2960005716e-01,
	-4.2149324781e-01,
	2.6132431592e-01,
	-5.6072025726e-01,
	-9.3989325684e-01,
	-9.7885080053e-01,
	7.4347946362e-02,
	-1.0107961441e-01,
	5.0751527935e-01,
	2.0099411309e-01,
	8.2938096944e-01,
	5.1559091709e-01,
	3.1537368443e-02,
	5.4861622283e-01,
	-2.4750254734e-01,
	-2.3331955319e-01,
	-7.8510661599e-01,
	-9.7658685501e-01,
	4.1952069706e-01,
	4.1419927175e-01,
	-9.4681767188e-01,
	4.0241289745e-01,
	6.5042994389e-01,
	2.4504726080e-01,
	-4.4331137269e-01,
	6.4648883699e-01,
	8.5225485631e-01,
	-7.8566013173e-01,
	-8.2619795847e-01,
	3.8972420958e-01,
	-9.6240683554e-01,
	-9.0132428683e-01,
	9.5271423943e-01,
	2.8839887288e-01,
	-4.5876300820e-01,
	-9.7319443669e-01,
	3.0858125145e-01,
	5.8023799329e-01,
	-1.3456484728e-01,
	-2.3705939878e-01,
	-2.1594314797e-01,
	-2.5376540726e-01,
	-6.6926003615e-01,
	7.9858400764e-01,
	-6.9658348294e-01,
	9.3485564515e-02,
	-3.8972684754e-01,
	-4.8450597826e-01,
	8.0597928393e-02,
	-9.6457224088e-01,
	9.3450447152e-01,
	1.7226580306e-01,
	4.3837905613e-01,
	5.9404279738e-01,
	-5.0352371275e-01,
	-9.9958532397e-01,
	2.4053738975e-01,
	-6.5126885644e-01,
	-7.8524545570e-01,
	4.1433943222e-01,
	7.3845518072e-01,
	-7.4765299244e-01,
	5.1436436666e-01,
	7.0636171475e-01,
	5.5118475538e-01,
	-9.3957662859e-01,
	7.3502401267e-01,
	-1.2922438605e-01,
	6.7176721475e-01,
	-3.5070248371e-01,
	6.8134433010e-01,
	-5.1132914077e-01,
	4.1854178207e-01,
	-9.5791329535e-01,
	-6.5497140327e-01,
	7.2226759386e-01,
	1.3417695594e-01,
	-4.0442864685e-02,
	-7.5601793057e-01,
	-7.4365324913e-01,
	-3.2720194402e-03,
	-8.2105693188e-01,
	4.5449298501e-01,
	-5.5395855547e-01,
	7.7267455504e-01,
	9.2505189345e-01,
	-5.6414895101e-01,
	1.3658786840e-02,
	-7.2520265484e-01,
	-3.3414619632e-01,
	-5.7152402396e-01,
	-9.8718589770e-01,
	-9.6948118223e-02,
	9.4637272530e-01,
	7.1978002219e-01,
	-5.4567892971e-01,
	-9.9377993867e-01,
	4.5447942589e-01,
	3.2564896500e-01,
	6.8367322147e-01,
	-8.8323840842e-01,
	2.4827133600e-02,
	-8.2084972031e-01,
	5.3568270222e-01,
	6.6649497229e-02,
	-4.7581139182e-01,
	2.7614533403e-01,
	-7.9559346931e-01,
	4.8546865186e-01,
	5.0418426446e-01,
	-5.3875296169e-01,
	-5.1737607248e-01,
	6.8331980597e-01,
	8.9035334806e-01,
	-8.1841098648e-02,
	4.5649814394e-01,
	8.1593594505e-01,
	3.5410855215e-01,
	-5.2978612833e-01,
	-9.0975031532e-01,
	-9.9518725369e-01,
	-1.0173096932e-01,
	-8.9698122251e-01,
	-9.2135348866e-02,
	-1.5593427939e-01,
	8.2247418529e-01,
	3.6218174517e-01,
	-1.4971421806e-01,
	2.7695361025e-01,
	-3.1216929076e-01,
	-4.6604099752e-01,
	3.9371514385e-01,
	7.1239350350e-01,
	-2.8689071782e-01,
	-7.0602154858e-02,
	-2.2095699945e-01,
	2.3729789035e-01,
	-8.1074300493e-01,
	-1.6509353774e-02,
	-2.7639831405e-01,
	6.9370435777e-01,
	4.4493299988e-01,
	2.1550635900e-01,
	5.8586432757e-01,
	5.5426614753e-01,
	-8.7644017595e-01,
	-1.6674079055e-01,
	1.5098586266e-01,
	4.7780922554e-01,
	3.0347308112e-01,
	2.4123632477e-01,
	4.8820529787e-01,
	-7.8614900811e-01,
	3.5624939895e-01,
	-6.0642404125e-01,
	4.8881414440e-02,
	1.8403269132e-01,
	8.1952553300e-01,
	1.2128513786e+00,
	-3.1040162229e-01,
	-4.4440100528e-01,
	-5.3652972558e-01,
	8.8563236852e-01,
	-8.2731085332e-01,
	1.7776227903e-01,
	-2.2420975177e-01,
	-1.4731506767e-02,
	-5.8611365242e-01,
	-1.4560732090e-02,
	9.1949131105e-01,
	1.0377111397e-01,
	-3.5050663694e-01,
	3.5998333893e-01,
	-6.9138320242e-01,
	-9.7374557144e-01,
	-3.0501970430e-01,
	-5.6783383226e-01,
	-1.4048636199e-01,
	8.4596615836e-01,
	9.0982409038e-01,
	-8.3691951418e-01,
	8.7349963296e-02,
	3.9507569475e-01,
	-6.3501772561e-01,
	-5.6844305908e-01,
	7.8263007653e-01,
	4.1053667276e-01,
	5.9937995764e-01,
	5.4119510316e-01,
	3.2185264964e-01,
	-9.4084030424e-01,
	9.8397129950e-01,
	7.3727182058e-01,
	8.7926392252e-01,
	-8.7169278181e-01,
	-1.1796986899e-01,
	-3.4915465425e-01,
	6.1921333799e-02,
	4.1902932020e+00,
	9.0892678206e-01,
	-3.1455929799e-01,
	-6.7310241364e-01,
	-2.5153871796e+00,
	-1.8702082457e+00,
	-7.4516684838e-01,
	-1.4864125914e+00,
	-1.1633211322e+00,
	-3.9805377502e-01,
	-6.4436537274e-01,
	-1.3763108479e+00,
	-1.1185277480e+00,
	-6.8262183347e-02,
	9.5234180066e-01,
	-6.5462784298e-01,
	4.6575432528e-01,
	-6.2204458053e-01,
	-8.1185099345e-01,
	7.5624770986e-02,
	9.9242458806e-01,
	6.8693349209e-01,
	-7.0151667247e-01,
	-9.6574166037e-01,
	6.9839963279e-01,
	-8.8106206613e-01,
	9.1376080662e-01,
	8.2594263352e-01,
	-1.2172791181e-03,
	-4.3983701218e-01,
	-1.1241218264e-01,
	-7.4091270554e-01,
	-8.3772587862e-01,
	8.6321577237e-01,
	-3.7738180132e-01,
	-5.8612138200e-01,
	-8.0159957698e-01,
	2.9476590049e-01,
	-3.0826245682e-01,
	2.2856536937e-01,
	-6.0092023090e-01,
	8.2911010637e-01,
	-8.9530352684e-01,
	4.1321772868e-01,
	1.2946938683e-01,
	-9.3197071829e-01,
	8.1965044598e-01,
	-2.0544250366e-01,
	-5.3718188011e-01,
	-9.9128676205e-01,
	8.7018226826e-01,
	-5.4420850218e-01,
	7.3292317136e-01,
	-7.4756268773e-01,
	-5.0936846505e-01,
	4.3262801665e-01,
	-6.2862475385e-01,
	-5.9526450727e-01,
	2.6056905056e-01,
	3.7015796703e-01,
	-3.5101033849e-02,
	-8.5146762093e-01,
	6.2924526305e-01,
	1.2717260697e-01,
	-9.9129685370e-01,
	-7.7607737636e-01,
	4.0029917193e-01,
	-7.8985720199e-01,
	5.4662935973e-01,
	-7.6721123688e-01,
	4.3797849165e-01,
	9.4570912381e-01,
	-9.3810113144e-01,
	5.3178061387e-01,
	3.4048702530e-01,
	1.7324078107e-01,
	6.0406163040e-01,
	1.6979847426e-01,
	9.4695326254e-01,
	-1.0105139623e+00,
	-4.5228057851e-02,
	5.7932079381e-01,
	-6.5496658189e-01,
	-1.4227847017e-01,
	-9.1826747462e-01,
	-1.9520382779e-03,
	-6.6631552457e-01,
	-5.3754132463e-01,
	3.5181262652e-01,
	4.1055842588e-01,
	7.3574326335e-01,
	-6.1387285679e-01,
	7.6071809236e-01,
	4.7932380507e-01,
	5.1737229474e-01,
	7.7368764755e-01,
	7.3118726431e-01,
	5.8536817813e-02,
	9.8383439145e-01,
	2.7781662404e-01,
	2.9132558093e-01,
	4.2254650422e-01,
	2.2342419623e-01,
	3.5303368037e-01,
	-3.5274853965e-02,
	-4.1754713410e-01,
	-4.5540729416e-01,
	-4.2260704256e-01,
	7.6102991318e-01,
	-4.7042688965e-01,
	-3.5504248273e-01,
	-6.8901427967e-02,
	-6.3270344284e-01,
	1.7256962694e-01,
	8.6746421739e-01,
	-5.0482819579e-01,
	-7.9779471036e-01,
	-7.8172593286e-01,
	-3.0485097741e-02,
	6.2385061438e-01,
	2.7902116031e+00,
	7.3733728810e-02,
	-8.8652779885e-01,
	5.3911609869e-01,
	-1.0952108491e+00,
	1.1217323507e-01,
	5.8631359907e-02,
	-1.4346382664e+00,
	-1.0758949784e+00,
	4.4283455564e-02,
	7.0833229438e-01,
	1.4108952796e+00,
	-5.6946427966e-01,
	-6.4667665264e-01,
	2.2887856753e-01,
	7.1954131373e-01,
	1.3052419624e-03,
	7.6918418781e-01,
	-6.8011127452e-01,
	-1.1945095114e-01,
	-6.8577018341e-01,
	-4.0203166726e-02,
	8.7934247817e-01,
	-2.2469959422e-01,
	-8.4115731543e-01,
	7.1164269541e-01,
	1.9804382985e-01,
	-6.4124275932e-01,
	1.1810267999e+00,
	-8.2502013916e-01,
	9.8961322281e-01,
	7.5352406490e-01,
	-4.1518504976e-03,
	-9.9824097513e-01,
	3.5025205805e-01,
	3.0034287614e-01,
	5.3734689743e-01,
	-2.7933230218e-01,
	3.3602486892e-01,
	-8.6852772714e-01,
	-9.2508227188e-01,
	-3.5047651518e-01,
	-9.8307677171e-01,
	-1.4828573686e-01,
	1.8654785361e-01,
	2.5559863413e-01,
	-4.0553411348e-01,
	-6.9397516814e-01,
	3.8866742067e-02,
	-8.5389531723e-02,
	1.8653172217e-01,
	3.5265330568e-01,
	8.8640399644e-01,
	1.5359065037e-02,
	-9.4693365784e-01,
	-9.6010604592e-01,
	-2.8727942858e-01,
	2.4865118472e-01,
	-6.0424063429e-01,
	-3.6854203109e-01,
	4.1955324922e-01,
	-6.2030544050e-01,
	-6.1500460690e-01,
	-5.8471666204e-01,
	-6.1160192296e-01,
	8.7765634535e-01,
	8.7130725552e-01,
	9.1849568590e-01,
	-5.4409821124e-01,
	5.1544298908e-02,
	-9.4963086196e-01,
	-4.6918047631e-01,
	7.0106863144e-01,
	-9.3006552320e-01,
	3.9676873380e-01,
	-1.0095253607e-01,
	3.2511450899e-01,
	9.8125052862e-01,
	2.0604590519e-01,
	-5.9439190974e-01,
	1.7116661178e-01,
	-3.0014786894e-01,
	1.0493236919e+00,
	-1.5003033578e-01,
	4.6547665499e-01,
	8.9096389776e-01,
	-1.6012373362e-01,
	-8.7364933663e-01,
	1.4030099743e-01,
	3.4318538513e-01,
	-2.1231449445e-01,
	-5.6118933744e-01,
	5.9322054706e-01,
	1.2469182961e-01,
	-1.4969419952e-01,
	9.7425527869e-01,
	-1.4007407946e-01,
	-4.3422391984e-01,
	8.9277525800e-01,
	3.1582771024e-01,
	6.1732038000e-01,
	9.4276751174e-01,
	8.4664782707e-01,
	3.1846125560e-01,
	-9.8728600295e-01,
	2.2918944287e-01,
	-7.9399717128e-01,
	3.3219710706e-01,
	2.0618068592e-01,
	4.0114888109e-01,
	7.0199795773e-01,
	-8.8921956321e-01,
	8.0373268855e-01,
	4.1741833080e-01,
	-1.2377608173e-01,
	1.7534771709e-01,
	1.7498555393e-01,
	6.9474250365e-01,
	2.8949782776e-01,
	-8.0912816303e-01,
	-9.2824161898e-02,
	-9.7681185907e-01,
	-3.7450524380e-01,
	-4.9959479243e-01,
	5.7398126582e-01,
	7.4278093995e-01,
	-5.2530306219e-01,
	-9.9209043179e-01,
	-9.5839946344e-01,
	-6.3244895693e-01,
	6.5108829159e-01,
	1.2325517558e+00,
	-4.2679781523e-01,
	2.2102518645e-01,
	-2.1680208152e-02,
	-6.7058144739e-01,
	-5.9706409843e-01,
	1.8353220168e-01,
	6.5215981636e-01,
	6.0573609694e-01,
	-4.1657345831e-01,
	3.4978398114e-01,
	7.3168168979e-01,
	-6.0063684586e-01,
	-2.4275155421e-01,
	-4.1670313272e-01,
	5.3780211606e-01,
	9.2811335229e-01,
	-4.9841641744e-01,
	-1.7528833377e-01,
	-8.7845876972e-01,
	1.8045296482e-01,
	-1.5499317700e-01,
	-2.5594730452e-01,
	6.8091563772e-01,
	9.9300799425e-01,
	-7.8014666111e-01,
	-8.4436641254e-01,
	-9.9906491488e-01,
	-7.3856951377e-01,
	-4.7687320480e-01,
	3.2468988622e-01,
	9.2032801263e-01,
	-1.6661248597e-01,
	-5.0490808557e-01,
	-1.0238629817e-01,
	1.5333122348e-01,
	-1.0532505024e-01,
	-9.1909680884e-01,
	-1.9452796001e-01,
	-4.9956134032e-01,
	-3.3616304925e-01,
	-8.4880918071e-01,
	-7.9600682007e-01,
	2.6587171027e-02,
	-9.5478275370e-02,
	-2.1664735918e-01,
	-4.3531489253e-01,
	-1.6743473856e-01,
	5.6425127693e-02,
	3.8755503996e-01,
	-4.4012446228e-02,
	-7.6105527498e-01,
	-7.6687204827e-01,
	7.9186066514e-01,
	3.4964830368e+00,
	1.6535498460e+00,
	9.1960256875e-01,
	-9.2657268416e-01,
	-7.7466750880e-01,
	-8.1978337519e-01,
	-4.0344572551e-01,
	5.5002828134e-01,
	-8.4145185059e-01,
	5.6924703328e-01,
	-8.3963358638e-01,
	7.5912939732e-03,
	-4.0385390686e-01,
	5.3191546377e-02,
	5.6739395090e-01,
	3.4842306260e+00,
	4.9544977655e+00,
	3.9606955784e+00,
	1.2340146831e+00,
	1.1900232730e+00,
	9.5189430606e-01,
	5.4199434371e-02,
	-2.2297200609e-01,
	2.1204999047e+00,
	2.3264289520e+00,
	2.1534855590e+00,
	-2.4331257546e-01,
	-7.6651042007e-01,
	7.2087694133e-01,
	-5.1207548848e-02,
	9.2322120160e-01,
	6.3867066970e-01,
	1.7253275829e-01,
	8.3819993122e-01,
	7.1209798554e-01,
	3.9786524949e-01,
	-9.8539085290e-01,
	-6.9111295998e-01,
	-5.0893299426e-02,
	-8.6063304557e-01,
	7.4084541316e-01,
	-6.0916527254e-03,
	1.0569730362e-01,
	-6.7813333475e-01,
	9.4288876853e-01,
	-7.6350616996e-01,
	8.6092431056e-01,
	5.5161339671e-01,
	1.0009415650e+00,
	2.5650388494e-01,
	1.7240143858e-02,
	-3.1358410762e-01,
	7.0962840144e-01,
	4.9008058479e-01,
	-9.7410920971e-01,
	-3.9320796559e-02,
	-7.8975384956e-02,
	-2.7036984762e-01,
	1.9905067578e-01,
	-4.3452956719e-01,
	5.9412592800e-01,
	1.2110243206e-01,
	-7.1155618515e-01,
	-1.4646869176e-01,
	-3.8272056516e-02,
	-9.9963403335e-01,
	-7.5108240164e-01,
	-2.3855726167e-02,
	-6.9088959586e-01,
	1.9924616742e-01,
	8.7499750353e-02,
	-9.5229587515e-01,
	-8.0774707245e-01,
	-8.0680287583e-01,
	-6.3042930590e-01,
	-8.7495591206e-01,
	-6.2585152389e-01,
	-9.1981784903e-01,
	4.9561729817e-01,
	-7.0580902961e-01,
	3.3072931568e-01,
	-4.8469670652e-01,
	-2.0088293133e-02,
	4.7812079491e-05,
	9.6002481754e-01,
	-4.0042088386e-03,
	9.9776120111e-01,
	-1.1107012681e-01,
	7.2882581490e-01,
	1.9788429942e-01,
	5.3861952831e-01,
	4.0979118990e-01,
	-6.7877140067e-01,
	8.2697985220e-01,
	-7.3671067866e-01,
	2.8277282942e-01,
	8.2743816070e-01,
	-4.8534729680e-01,
	-7.4107379454e-01,
	-8.6345143610e-01,
	7.1390371291e-01,
	3.4642595581e-01,
	-8.1574731032e-01,
	9.0615664046e-01,
	5.3962300883e-01,
	-4.4617661622e-01,
	-9.6879927254e-01,
	9.1377148494e-01,
	-3.6599446431e-01,
	5.2926387802e-01,
	-7.9203754468e-01,
	9.6473485137e-01,
	-9.5543282943e-01,
	1.8787416219e-01,
	-9.5312376551e-03,
	-9.9443024899e-01,
	-8.1227268721e-01,
	-1.0403284511e-02,
	-1.0526815317e-01,
	9.5763676656e-01,
	-4.6507124032e-01,
	-2.5693462659e-01,
	3.2483048615e-01,
	-4.9265713873e-01,
	-7.4078641913e-01,
	5.8825282806e-01,
	7.9011579011e-01,
	-9.1334456683e-01,
	-8.8247620410e-01,
	-9.0128982019e-01,
	-7.2744862882e-01,
	8.2443757926e-01,
	4.0718320239e-01,
	-5.2348822896e-01,
	1.0133598867e+00,
	1.6259968413e+00,
	2.3821680257e+00,
	2.4593052317e+00,
	2.3371939326e-01,
	8.7462038147e-01,
	8.6639208819e-01,
	3.5037472159e-01,
	7.3017516837e-01,
	1.1894346250e+00,
	-2.2966802993e-01,
	-9.7923727578e-02,
	3.5300856616e-01,
	-5.6906314068e-01,
	5.3871548993e-01,
	-7.7581033540e-01,
	-6.5873531981e-01,
	7.2482975187e-01,
	-3.4394663076e-01,
	6.6375163747e-01,
	-7.6782738779e-01,
	-8.4733049890e-02,
	2.4952791686e-01,
	-9.7757406346e-01,
	2.6798880106e-03,
	3.6368060880e-01,
	-9.2815374373e-01,
	2.2562223121e-01,
	1.6428959146e-01,
	4.6679810582e-01,
	6.3827777616e-01,
	-9.0544739218e-02,
	-5.3341031189e-01,
	-3.2366856251e-01,
	-3.3019998366e-01,
	2.5248754368e-01,
	-8.1086971788e-01,
	9.1787460928e-01,
	-6.8524900752e-01,
	7.7397292785e-01,
	2.4950235950e-01,
	-3.9798240859e-01,
	-6.5372412817e-01,
	-3.9839634790e-01,
	8.9055327490e-03,
	7.6163956346e-01,
	-2.3947222323e-01,
	3.6061249452e-01,
	6.0499313188e-01,
	4.7988055240e-01,
	9.0863760247e-04,
	6.8887569139e-01,
	-7.7809449064e-01,
	-7.9233544621e-01,
	8.0967128574e-01,
	3.7217061822e-01,
	5.8542784876e-01,
	8.9410015441e-01,
	-4.0386326575e-01,
	-2.5011994106e-01,
	3.5576687651e-01,
	-7.7248219690e-01,
	6.3130203618e-01,
	7.2823736673e-01,
	-1.8570282928e-01,
	-7.2912241241e-01,
	7.1599762789e-03,
	1.0784765777e-02,
	-8.1169422690e-01,
	2.8542784448e-01,
	-2.4102963928e-01,
	4.3042175484e-01,
	8.6825820052e-01,
	5.9657373959e-02,
	-9.9560102075e-01,
	-1.5089787596e-01,
	-1.0199456248e-01,
	-1.9863191117e-01,
	-8.2878927133e-01,
	-5.3881674704e-01,
	-7.4560943327e-01,
	1.5707097070e-01,
	-7.4346631940e-01,
	-3.7732000527e-01,
	3.9245912777e-01,
	-9.2582758885e-01,
	9.9288811348e-01,
	-2.2195818379e-02,
	9.6314134075e-01,
	-4.1178477435e-01,
	7.2743882692e-01,
	3.1890831949e-01,
	-1.8388567082e-01,
	3.6185239598e-01,
	7.6564206312e-02,
	6.3786180021e-01,
	6.3273495046e-01,
	-9.1502865586e-01,
	-3.5126044664e-01,
	8.2104042816e-01,
	4.0095453402e-01,
	4.0932911161e-01,
	2.5473929616e-01,
	2.7011878895e-01,
	-5.3090031834e-01,
	2.7129556900e-01,
	-7.0407734387e-01,
	9.7159224034e-01,
	-9.4140763667e-01,
	-7.1047441368e-01,
	8.2761041812e-01,
	-6.8699711804e-01,
	4.4659661092e-01,
	-9.1585584812e-01,
	-4.9449407338e-02,
	-1.2312667328e-01,
	-8.1357953850e-01,
	-6.5941581120e-02,
	8.2442126040e-01,
	-8.3736117378e-01,
	6.8783528462e-01,
	1.4953872448e+00,
	1.7812199079e+00,
	-6.9753946065e-02,
	6.3445537069e-02,
	-3.7845355028e-01,
	1.3094853693e+00,
	-3.9439496656e-01,
	-3.4358430392e-01,
	-2.5002870972e-01,
	-4.9508198596e-01,
	-9.2107917229e-01,
	-9.6951783727e-01,
	6.1420281982e-01,
	2.7206898633e-01,
	-5.0365710773e-01,
	-1.3109468349e-01,
	3.9038384491e-01,
	8.6255983071e-01,
	-7.3037678841e-02,
	6.7990943123e-01,
	6.9017024789e-01,
	2.3940989297e-01,
	1.2660763000e-01,
	7.7482372043e-01,
	-8.1631651408e-01,
	9.6584320564e-01,
	9.3290720949e-01,
	1.0255313624e-01,
	7.8242156714e-01,
	-9.4452843719e-01,
	-3.6601403533e-01,
	3.7481197283e-01,
	5.5050676498e-01,
	-2.5789004483e-02,
	-7.6620364236e-01,
	-9.8861475474e-01,
	-7.8365078816e-02,
	-2.2364183772e-01,
	-3.7492861852e-01,
	5.4471809820e-01,
	5.8872314247e-02,
	-3.8957941243e-01,
	4.8539996916e-01,
	-3.1455588124e-01,
	8.1722827251e-01,
	-9.2868035549e-01,
	6.0007724461e-01,
	2.7538992290e-01,
	9.8086282512e-01,
	-4.6578561611e-01,
	-3.5636955620e-01,
	1.4727158454e-01,
	6.1298593782e-01,
	-9.2810580193e-01,
	3.8790746595e-01,
	9.4985192153e-01,
	-9.5090727607e-01,
	3.2561801498e-01,
	5.6104768081e-02,
	8.3298242315e-01,
	3.7608436421e-01,
	6.7082841535e-01,
	1.2402865184e-01,
	-1.5104373395e-01,
	-3.8371923005e-01,
	3.7863815345e-01,
	-1.1854123139e-01,
	5.4527147130e-01,
	-8.4887112791e-01,
	4.9569954915e-01,
	8.1745317923e-02,
	2.9602738158e-01,
	-8.8683936699e-01,
	-3.4420466774e-01,
	-9.6007240469e-01,
	-9.9862702470e-01,
	-2.8007882334e-01,
	6.5273312742e-01,
	2.7996902227e-01,
	-3.5339249734e-01,
	-8.0749902027e-01,
	-7.6152550139e-01,
	-7.3653592343e-01,
	9.7167872543e-01,
	-6.7651403587e-01,
	6.5463499709e-01,
	9.2539392781e-01,
	-6.2594089919e-01,
	-2.1563229627e-02,
	-1.8337733586e-02,
	-7.9294622587e-01,
	-6.4367275296e-01,
	-3.4328535448e-01,
	3.6676867556e-01,
	2.2867259534e-01,
	2.8289629858e-01,
	-2.4064510839e-01,
	-8.8759681112e-01,
	-1.6958574353e-01,
	-7.6301541681e-02,
	6.0901131512e-01,
	9.1705947177e-01,
	-7.8080030641e-01,
	7.2193549482e-01,
	-4.2730822942e-01,
	-7.4583610586e-01,
	6.6486907757e-01,
	2.9378795961e-01,
	9.1238656263e-01,
	3.9235162567e-03,
	9.4032643002e-01,
	-8.9511245857e-01,
	2.4239801580e-01,
	-7.9614892833e-01,
	-9.2412794927e-01,
	5.6308402614e-01,
	8.5795374458e-01,
	-9.9922521758e-01,
	9.3407575020e-01,
	-1.7901510188e-01,
	-7.1190821004e-02,
	-9.0486964578e-01,
	9.7342832567e-02,
	6.0226004827e-01,
	4.8932669446e-01,
	-5.8012692886e-01,
	-8.2688392508e-02,
	-7.2945853584e-01,
	-4.9223690447e-01,
	6.7101067447e-01,
	1.4548547996e-01,
	-8.5714666467e-01,
	6.7128096106e-01,
	4.1654471746e-01,
	8.6647960406e-01,
	-7.5412744924e-01,
	6.7619815267e-01,
	5.9043409936e-01,
	5.3980351404e-01,
	5.8858471438e-01,
	-4.0564238439e-01,
	4.8034197906e-01,
	6.9347225581e-01,
	8.3673638275e-01,
	6.8360844343e-01,
	7.6997392261e-01,
	4.0263831300e-01,
	5.4298205932e-01,
	7.7199870459e-01,
	3.4252306993e-01,
	-6.2002891913e-01,
	-2.4666480153e-01,
	4.8221790625e-01,
	5.7053748514e-01,
	-6.0406744544e-01,
	3.3450727365e-03,
	9.9536164911e-01,
	3.1877107881e-01,
	2.7475905765e-01,
	-4.7036112354e-01,
	1.5007705966e-01,
	-4.6538467932e-01,
	-2.9580914127e-01,
	-2.4734769911e-01,
	7.8552560846e-01,
	-5.3505481413e-01,
	2.1673202508e-02,
	5.9759056572e-01,
	-8.6899272550e-01,
	-4.6959188972e-01,
	1.0155948219e-01,
	-3.7662968604e-01,
	-9.9130862360e-01,
	-1.5169476329e-01,
	-4.3806378430e-01,
	6.9429435223e-01,
	-3.8164638494e-01,
	9.6480283675e-01,
	2.3804632843e-01,
	-6.0987855569e-01,
	3.0713758196e-01,
	6.2219340220e-01,
	1.4741700105e-01,
	-2.0879832897e-01,
	1.9142951202e-01,
	5.3973325675e-01,
	7.9974898780e-01,
	1.8703224540e-01,
	-1.7973771526e-01,
	7.5806604569e-02,
	7.1559538145e-01,
	9.3373192285e-01,
	5.4983122719e-01,
	-6.0899000224e-01,
	-3.2156597046e-01,
	4.3966031607e-01,
	-6.8602901450e-02,
	6.6900868885e-01,
	5.6875566978e-03,
	6.2218298699e-02,
	-8.0061314059e-01,
	-8.3970048923e-01,
	7.8739711446e-01,
	-7.8989299004e-01,
	8.3837206514e-03,
	-6.5066844022e-01,
	9.0517168115e-01,
	6.2650645134e-01,
	-6.8609438449e-01,
	1.4321840980e-01,
	-9.8337210528e-01,
	6.2106236146e-01,
	-2.3867849505e-01,
	1.6237051373e-01,
	-5.8220135029e-01,
	9.5288252363e-01,
	-2.9592858874e-01,
	-7.8211998836e-01,
	1.3997561258e-01,
	5.6496399248e-01,
	2.9442686648e-01,
	-1.4300967871e-01,
	4.9860812394e-01,
	-1.5582849150e-01,
	2.4815014887e-01,
	-8.2196689057e-01,
	-7.1534981903e-01,
	-8.2051479063e-01,
	8.4613863278e-01,
	2.8960596458e-01,
	2.4163634733e-01,
	-9.5447450871e-01,
	4.4990564754e-01,
	2.9466788246e-02,
	-7.4417138960e-01,
	-5.4146571709e-01,
	3.7828421162e-01,
	-8.3935695376e-01,
	-9.1594975499e-01,
	6.9013951355e-01,
	3.4396119494e-01,
	-8.9477621259e-01,
	3.7318936339e-01,
	-9.3313051330e-01,
	2.7676867388e-01,
	7.9565250047e-01,
	-9.6543909781e-01,
	9.7525593025e-01,
	1.0217776538e+00,
	2.6138782217e-01,
	6.1844001217e-01,
	2.4357859733e-01,
	-9.8471920925e-01,
	3.1525372077e-02,
	-9.1223622012e-01,
	2.6336845628e-01,
	2.0865531601e-01,
	-6.2831781135e-01,
	4.4285366658e-01,
	5.4793947867e-02,
	6.6128815322e-01,
	-3.1544282535e-01,
	1.0031858955e-01,
	1.1119371400e-01,
	7.1371513816e-01,
	3.5597779165e-01,
	5.6951071009e-01,
	9.2089979487e-02,
	5.1675612562e-01,
	6.5430076246e-01,
	-2.1561135150e-01,
	-1.7922936849e-01,
	7.5521111257e-01,
	-9.0195528711e-01,
	-1.1387692332e-01,
	1.9496065108e-02,
	8.2902482993e-01,
	-9.5645661066e-02,
	-1.2679151741e-02,
	7.7784150540e-01,
	-1.2073103263e+00,
	-7.2095731655e-01,
	-9.7299075127e-02,
	-9.7181890084e-01,
	1.6014003441e+00,
	7.0646676404e-01,
	2.3288376845e-01,
	-3.5770155851e-01,
	4.0163994922e-01,
	-2.7111663394e-01,
	2.2409539408e+00,
	2.3868103232e+00,
	1.1180693259e+00,
	7.0040706366e-03,
	-7.4484680685e-01,
	2.0567007957e-01,
	-7.2359638922e-01,
	8.1782521296e-01,
	-7.2561496536e-01,
	7.8821915256e-01,
	4.7912455362e-01,
	7.1732710384e-02,
	-2.3904107675e-01,
	3.4664792234e-01,
	1.7063286415e-01,
	5.2128206011e-01,
	-7.4308528402e-01,
	-1.0299544060e-02,
	-1.2284201874e-01,
	2.4771882298e-01,
	-2.2302999893e-01,
	-5.3800425750e-01,
	7.6005050867e-01,
	7.8536124305e-01,
	-4.6017225248e-01,
	3.1176725557e-01,
	-1.0526659950e-01,
	8.8102820976e-01,
	-9.2786106836e-01,
	-6.2420937588e-01,
	-3.3491766329e-01,
	8.8730455743e-01,
	5.1813600190e-01,
	-8.6630636168e-01,
	-1.9721037857e-01,
	7.7167500731e-01,
	3.1596273804e-01,
	7.4226627627e-02,
	5.9469683636e-01,
	5.9032181631e-01,
	-1.3758024440e-01,
	7.1997133583e-02,
	-3.5089132811e-01,
	4.7139159845e-01,
	-6.9500055802e-01,
	8.0572346589e-01,
	-3.3513748568e-02,
	-4.4250218451e-01,
	-2.0863499456e-01,
	3.6593033344e-01,
	7.9845295654e-01,
	5.6011259839e-01,
	8.2998321615e-01,
	5.5896410855e-01,
	4.2138723117e-01,
	1.2294108763e+00,
	1.9553800961e+00,
	-7.6098098073e-01,
	-7.5121796771e-01,
	-5.8685198919e-02,
	-3.8543369723e-01,
	-8.6135516044e-02,
	-1.7137648792e-01,
	-8.1541079525e-01,
	1.6932634292e-01,
	7.3361205085e-01,
	9.1679261728e-01,
	-6.1979600246e-01,
	-1.7984043659e-01,
	9.6442627191e-01,
	3.5086578340e+00,
	4.2730384994e+00,
	2.2144094636e+00,
	1.9871053912e-01,
	5.0021191372e-01,
	8.8304839028e-01,
	-9.8300764098e-02,
	-6.9633633833e-01,
	1.8482665563e+00,
	1.8150678368e+00,
	1.6387395689e+00,
	2.6354646738e-01,
	-2.4021245141e-01,
	1.9978961963e-01,
	-2.1469515901e-01,
	-9.0437770444e-01,
	5.6754344216e-01,
	6.5393894057e-01,
	-6.6917382623e-01,
	8.1632547444e-01,
	-4.0474625929e-01,
	-5.8179322290e-02,
	-2.6956422920e-01,
	4.2502670215e-01,
	9.6179952791e-02,
	7.7964901561e-01,
	5.5980085810e-02,
	-2.8243306555e-02,
	-8.5873133687e-01,
	7.7009586055e-01,
	-4.8279635904e-01,
	-7.6861173952e-01,
	4.9006276948e-01,
	1.0529456118e-01,
	-2.9684868650e-01,
	-6.3157999405e-01,
	9.0791494163e-01,
	1.2119074249e-01,
	-5.8491728871e-01,
	3.4766988953e-01,
	-6.7906541369e-01,
	1.1053177109e+00,
	-2.8635832744e-01,
	1.1797386345e-01,
	3.5677340621e-02,
	4.1726174575e-01,
	3.1199274404e-01,
	-3.4461124346e-01,
	1.9211438605e-01,
	5.8541629741e-01,
	-6.6190766724e-01,
	5.5627599782e-01,
	-4.9464056364e-01,
	9.8333251711e-02,
	2.4656948775e-02,
	5.0679975557e-01,
	-1.4798445938e-01,
	-9.2135954533e-01,
	-5.2702004852e-01,
	-2.0918413603e-02,
	8.3770120786e-01,
	-5.7756538176e-02,
	7.2191958909e-02,
	1.5333865938e-01,
	9.6965748320e-01,
	7.6407373151e-01,
	5.3451893821e-01,
	8.8100145377e-01,
	-1.6334103633e-01,
	9.0855244449e-01,
	2.1762532372e-01,
	1.8576900809e-01,
	6.5660049844e-01,
	7.8404217727e-01,
	-7.5230238575e-01,
	-3.9739334183e-01,
	1.3341516123e-01,
	4.0524851689e-01,
	1.1615648079e-01,
	-8.6327418958e-01,
	-1.0637440677e-01,
	4.4603177693e-01,
	7.3529020126e-01,
	3.2382334644e-01,
	-4.9390308442e-01,
	-2.4227231054e-01,
	-1.7502771931e-01,
	3.4390990592e-01,
	-1.6455274502e-01,
	2.9787790836e-01,
	-6.7700850855e-01,
	-3.2591549648e-01,
	-7.6195742458e-01,
	3.9718423476e-01,
	8.4169479918e-01,
	-7.8703423673e-01,
	1.6943936663e-01,
	3.7772509892e-01,
	-9.0485360469e-01,
	-9.5156841537e-01,
	2.8813120127e-01,
	3.1461440677e-01,
	2.3420250645e-01,
	-5.5287687738e-02,
	1.0145257879e-01,
	6.0593465503e-01,
	6.7374168261e-01,
	-7.6795728690e-01,
	-1.1285327613e-01,
	-3.3652796659e-01,
	-6.3122485300e-01,
	7.8077232469e-01,
	-8.9049585204e-01,
	-8.9610344757e-01,
	1.0431820884e-01,
	-3.8502095996e-01,
	-1.3902964153e-01,
	9.2851497544e-01,
	9.5634644950e-01,
	6.9109063871e-01,
	2.7196900803e-01,
	-7.1627701441e-01,
	-6.2521140382e-01,
	4.6785097755e-01,
	6.8708856469e-01,
	-7.8548751611e-01,
	6.9781194819e-01,
	-1.4417327992e-01,
	6.7172222187e-01,
	8.8054682115e-01,
	-6.3675099964e-02,
	-1.2094032534e-01,
	8.8170921523e-02,
	-8.6824210168e-01,
	8.2355490630e-01,
	-8.1319354838e-01,
	6.1365610623e-01,
	3.7086824019e-01,
	-5.8115372787e-01,
	-4.9919716991e-01,
	-9.6565972733e-01,
	-2.1238809601e-01,
	-7.1842498130e-01,
	-8.5615551252e-01,
	-1.0845506577e-01,
	3.8613570269e-01,
	-2.4055503246e-01,
	7.5345125783e-01,
	3.1573875504e-01,
	-2.8102312130e-01,
	4.5057537253e-01,
	-4.5736169523e-01,
	1.1218686820e-04,
	8.2173738207e-01,
	-9.9132568988e-01,
	-3.1885608626e-01,
	-9.6498997515e-01,
	6.8677086181e-01,
	5.2995591918e-01,
	6.2503954575e-01,
	2.0565582911e+00,
	-4.9004115741e-01,
	-4.8821763139e-01,
	-6.2734680800e-01,
	-2.3648550468e-01,
	-8.2868801561e-01,
	-6.4146634242e-01,
	-1.4099985463e+00,
	-1.3585410434e-01,
	-2.8015714943e-01,
	1.3534161251e+00,
	3.2108416895e+00,
	1.0393705929e+00,
	-1.8165350151e-01,
	8.5576328668e-01,
	-1.7924730517e-01,
	-7.7594838107e-01,
	-3.8068543606e-01,
	-4.1337788720e-01,
	6.5762508037e-01,
	3.5902702322e-01,
	-9.4234549718e-01,
	-5.4284714343e-01,
	-4.8333486487e-01,
	8.8108611641e-01,
	-7.4538372942e-01,
	4.7147391382e-02,
	9.0267402780e-01,
	1.4325419239e+00,
	-4.2050188631e-01,
	5.4022510521e-01,
	3.5724113665e-01,
	-3.7112141177e-03,
	-9.7468416900e-01,
	9.0615073215e-01,
	5.5587477682e-01,
	-6.4655207547e-01,
	-3.5813322075e-01,
	7.2911572257e-01,
	-9.4754478892e-01,
	7.9642910035e-01,
	-5.9684050158e-01,
	7.8580277217e-01,
	7.3860332358e-01,
	3.5877842147e-01,
	6.6299441441e-01,
	-4.2755471702e-01,
	7.0056815338e-01,
	-7.0036913720e-01,
	1.5973849928e-01,
	3.5809663653e-01,
	6.5522275011e-01,
	1.9771374911e-01,
	5.5880972350e-01,
	-9.8772780504e-01,
	5.7686310754e-02,
	7.6819583856e-01,
	5.0465554488e-02,
	-4.7333737392e-02,
	6.6470917112e-01,
	6.1892854870e-01,
	-5.2661121894e-01,
	2.1950306847e-02,
	-3.8478151587e-01,
	-5.0132631395e-01,
	-9.8491711194e-02,
	-8.2890719297e-01,
	-1.4785441623e-01,
	5.6996781825e-01,
	9.0020898352e-01,
	-9.5399204220e-02,
	3.6639691767e-01,
	-6.9663151898e-01,
	-3.0959643310e-01,
	1.0454515197e-01,
	6.6119925124e-01,
	-6.4660201950e-01,
	6.7744552422e-01,
	3.6267150359e-01,
	-3.4770683134e-01,
	-1.8744219479e-01,
	-2.9939228637e-01,
	-6.9432482059e-01,
	-9.6510943125e-01,
	-7.2037858689e-01,
	-6.7947621262e-01,
	4.9126675202e-02,
	-9.5218274926e-01,
	1.6256888516e-01,
	-9.6177233428e-01,
	4.4001710186e-01,
	-1.0084105115e-02,
	-4.8136087576e-01,
	-2.6552327129e-01,
	6.0513637569e-01,
	1.7336783473e-02,
	6.6257776770e-01,
	7.7622963571e-01,
	8.6948236817e-01,
	2.3254558595e-01,
	6.7643861830e-01,
	-2.2591683698e-01,
	-4.0105749732e-01,
	9.7980709932e-01,
	4.6393746136e-01,
	7.0373069281e-01,
	6.4195400087e-01,
	8.1788471053e-01,
	3.8138826721e-01,
	4.6690548792e-03,
	-5.2908646269e-01,
	-7.8165772564e-01,
	7.2424182193e-01,
	-2.2095768585e-01,
	-7.4652993947e-01,
	-9.9489784147e-01,
	9.9688934674e-02,
	3.4604571466e-01,
	-9.4708080446e-01,
	-5.2932172340e-01,
	2.7281131536e+00,
	1.8276793004e+00,
	7.5351714880e-01,
	1.1058716901e+00,
	-8.6543863848e-01,
	-1.1758634023e-01,
	9.1103952822e-02,
	-7.5417751023e-01,
	-3.4530808690e-01,
	-2.3461153758e-01,
	1.3060076780e-01,
	-9.2760584748e-01,
	2.3607771318e-01,
	8.5110577265e-01,
	-4.9546912455e-01,
	1.9608977901e-02,
	6.5377593048e-01,
	-8.5906965986e-01,
	-1.4657182744e-01,
	7.9319205273e-02,
	1.4233505939e-01,
	3.0153507817e-01,
	2.0899092202e-01,
	-1.4082025457e-01,
	-8.9810352028e-01,
	5.3464802704e-01,
	-1.2638613301e-01,
	2.0001529310e-01,
	-1.0642188156e-01,
	-7.1817894439e-02,
	6.6523113822e-01,
	-7.1127959420e-01,
	-3.0621988386e-01,
	1.3425944146e-01,
	-8.0133598382e-01,
	1.9370165802e-01,
	-8.0000801655e-01,
	1.2594441098e-01,
	3.5620198648e-01,
	4.1954162084e-02,
	9.2270717207e-01,
	-2.4875210004e-01,
	5.6035495808e-01,
	4.9355309619e-01,
	-2.5476368296e-01,
	-9.4143714846e-01,
	-4.7111425152e-01,
	-5.5683252288e-01,
	-8.0127525320e-01,
	3.8210311224e-01,
	5.2248690441e-01,
	3.4355569787e-01,
	-2.9376597204e-01,
	-1.7962137851e-01,
	-7.8613260751e-01,
	-1.9046991001e-01,
	-6.2825960090e-01,
	8.9281247505e-02,
	-9.8748491331e-01,
	2.6915631968e-01,
	-9.8232591248e-01,
	6.8782709500e-01,
	5.5886886016e-01,
	-2.8810627064e-01,
	-1.5676876355e-01,
	1.2330454808e+00,
	1.3899759122e+00,
	2.0886129124e-02,
	-1.1751484737e-01,
	2.6129725355e-01,
	-9.3649677077e-01,
	-1.9480762212e-01,
	-9.8745227554e-01,
	6.3884767953e-01,
	-6.6265710849e-01,
	-2.0712956301e-01,
	6.8654609365e-01,
	-1.6775396793e-01,
	2.3418371150e-01,
	1.0208781428e+00,
	-2.4895737865e-01,
	7.4879040573e-01,
	9.4157940742e-01,
	8.9943676298e-02,
	6.7807958671e-01,
	6.9796584174e-01,
	8.5260997389e-01,
	9.9086704449e-01,
	-2.0076083182e-01,
	1.1951755445e+00,
	5.7508062640e-01,
	-4.4219632142e-01,
	4.2593646731e-01,
	-2.5741208403e-01,
	2.5588368554e-01,
	-7.5537035230e-01,
	-5.0087134237e-01,
	1.6083423102e-01,
	2.6505943449e-01,
	3.8161381026e-01,
	-5.7786851636e-01,
	3.2744338337e-01,
	-8.1317516178e-01,
	-5.6517119250e-01,
	-4.0461349459e-02,
	-5.1353024351e-01,
	1.9272309017e-01,
	-3.6851595498e-01,
	3.1318275771e-01,
	-6.0344271697e-01,
	-4.7550294545e-01,
	5.6774668937e-01,
	1.7099253378e-01,
	7.5883216767e-01,
	-5.5935299699e-01,
	-3.3934262178e-01,
	1.7272664518e-01,
	-8.3217138253e-01,
	-4.1185859164e-01,
	7.0291187235e-01,
};

double mlpWeightsLayer2[] = {
	4.9937186726e+00,
	-1.5098196724e-01,
	-2.9539984108e+00,
	2.0723182809e+00,
	-4.8289962127e+00,
	-5.5614134138e-01,
	-5.6320390163e-01,
	-3.2139699030e-01,
	-7.8684538638e-01,
	-2.0758214426e+00,
	-1.1908803790e+00,
	-3.5513796164e+00,
	-2.6983396870e+00,
	-1.4256436722e+00,
	4.8970077147e-01,
	-1.7771366959e-01,
	-1.2318073069e+00,
	-7.3987792648e-01,
	2.5463180631e+00,
	-3.8774933577e+00,
	7.9766637578e-01,
	-3.2687630938e+00,
	5.4680396297e+00,
	-2.7268190450e+00,
	-9.7169317971e-01,
	-1.5038611068e+00,
	-2.9977872439e+00,
	5.0580976223e-01,
	-8.8514682568e-01,
	-3.3690444738e+00,
	-3.0527196378e+00,
	-5.4863948631e+00,
	-1.2693149575e+00,
	-9.2210044338e-01,
	6.9521216852e-01,
	4.0316194744e-01,
	-5.8511657411e+00,
	2.8193671047e-01,
	-2.4469546290e+00,
	-1.1187797425e+00,
	-4.7550357432e+00,
	-5.6987835718e-01,
	-3.6152464952e+00,
	-1.8648348062e+00,
	4.1407477632e+00,
	1.8921110644e+00,
	-7.1269219053e-01,
	-6.4975038518e-01,
	4.6499969793e-02,
	-9.1696784111e-01,
	-1.5771730993e+00,
	4.7432960316e+00,
	2.2026722745e+00,
	9.8932902483e-01,
	7.6048524542e-01,
	7.2233007650e-01,
	2.4454779640e+00,
	1.4773737753e-01,
	-2.3872794456e+00,
	1.4793049951e-01,
	-5.5896931128e+00,
	2.2236977570e+00,
	-3.4672957228e+00,
	-4.1384983831e-01,
	-4.3241588012e+00,
	-3.8820571821e-02,
	2.4792017639e+00,
	-2.9101446530e-01,
	-1.9500938096e-01,
	4.2032590663e+00,
	5.2886741422e-01,
	-4.4181132055e+00,
	-1.5841750757e+00,
	-1.2731686928e+00,
	-1.6887192020e-02,
	-6.6846839754e-01,
	-4.6596513674e+00,
	-8.4045874761e-01,
	5.8481089433e-01,
	1.0050263495e+00,
};

