// MLP Weights File

#define NUMBER_OF_LAYERS 2
#define LAYER_1_WEIGHTS_LENGTH 600
#define LAYER_2_WEIGHTS_LENGTH 5

#define LAYER_1_WEIGHTS_ABS_MAX 3.0000000000e+00
#define LAYER_2_WEIGHTS_ABS_MAX 6.0000000000e+00

double mlpWeightsLayer1[] = {
	9.7345394845e-01,
	1.0339371571e+00,
	4.6050809727e-01,
	1.0938001857e+00,
	4.4533625820e-01,
	1.2120921874e+00,
	1.2636234406e+00,
	-2.4497743729e-01,
	6.6813197643e-01,
	-4.9612055514e-01,
	8.1189619631e-01,
	2.8362833969e-01,
	-9.6202273829e-01,
	-7.3896822489e-01,
	-4.3823087420e-01,
	5.5825985056e-01,
	-5.7652516251e-01,
	9.5861897293e-01,
	4.9763056165e-01,
	-1.9309060945e-01,
	2.5116733299e-02,
	1.5641340012e-01,
	7.2789696951e-01,
	-8.5222937712e-01,
	-6.0582293161e-01,
	-5.9111301004e-01,
	2.8586687826e-01,
	3.4397412030e-01,
	7.4626911222e-01,
	8.7914670248e-01,
	2.5345622120e-01,
	4.3534653768e-01,
	-8.9715262307e-01,
	7.7242347484e-02,
	-6.2547685171e-01,
	3.6722922452e-01,
	-9.0221869564e-01,
	-3.0710776086e-01,
	8.0773339030e-01,
	-1.9196142460e-02,
	2.5553147984e-01,
	-9.9060029908e-01,
	1.3388470107e-01,
	-7.5817133091e-01,
	-4.4529557176e-01,
	-5.3746147038e-01,
	9.2925809503e-01,
	7.7025666066e-01,
	8.9877010407e-02,
	-9.3295083468e-02,
	-7.8215887936e-01,
	-2.6731162450e-01,
	-3.5728019044e-01,
	1.4981536302e-01,
	-8.8433484909e-01,
	1.6177861873e-01,
	-2.3529770806e-02,
	3.2120731223e-01,
	9.7796563616e-01,
	-2.3789179469e-01,
	6.6429238415e-01,
	6.3347270119e-01,
	3.6315049674e-01,
	2.5861992301e-01,
	1.5083636172e-01,
	-9.6894117449e-01,
	-8.7453257603e-01,
	-5.8238471633e-01,
	6.7961668752e-01,
	-2.1310090202e-01,
	9.5539650574e-01,
	-4.0746265365e-01,
	-5.8609359207e-01,
	-9.2041392129e-01,
	6.1672333583e-01,
	-7.9088148546e-01,
	-2.7303858944e-01,
	7.4682068491e-01,
	-6.3566139323e-01,
	-6.7886641781e-01,
	-1.4741760947e+00,
	-1.4952025424e+00,
	-2.5017781896e-01,
	-5.8076194883e-01,
	-8.4115171361e-01,
	5.5747290757e-01,
	1.4128519125e-01,
	1.3079485831e-01,
	5.4966986160e-01,
	8.0709008804e-01,
	-5.9324176484e-01,
	-3.3988464003e-01,
	7.0345164342e-02,
	-8.4826197089e-01,
	5.1329081088e-01,
	9.8541215247e-01,
	-2.2305978576e-01,
	1.4462721641e-01,
	-2.8415784173e-01,
	-7.2490615558e-01,
	-1.0922574541e-01,
	8.2659382916e-01,
	6.8181379003e-01,
	-9.0374646874e-01,
	-9.9127170629e-01,
	-4.8673970763e-01,
	-8.5570848720e-01,
	2.0694601276e-01,
	-1.7260937252e-02,
	2.7066920998e-01,
	2.7272686995e-02,
	-6.3862289589e-01,
	6.3641802280e-01,
	-6.4394054994e-03,
	5.2031006806e-01,
	6.9884334849e-01,
	-5.6322311462e-01,
	7.5261712521e-01,
	-8.3605456709e-01,
	-9.9163792840e-01,
	-2.0218467070e+00,
	-2.5774228491e-01,
	-9.9580785416e-02,
	-1.0641372633e+00,
	-4.8582713224e-01,
	-7.0876808277e-01,
	-2.5796591313e-01,
	-2.0450644436e-01,
	2.8387366911e-01,
	-5.3949213244e-01,
	6.3320811679e-03,
	-5.5703344564e-01,
	6.9671026519e-01,
	-8.0706651801e-01,
	5.8715942865e-01,
	9.3228046680e-02,
	-2.7253028962e-02,
	-6.8685702000e-03,
	9.9479711029e-01,
	5.6535538804e-01,
	-1.6708883938e-01,
	-2.4084621566e-02,
	-9.3566698202e-01,
	1.8308053835e-01,
	-1.3486129337e-01,
	1.3333536790e-01,
	-9.0069277017e-01,
	7.4791711173e-01,
	-4.1306802576e-01,
	4.4132816553e-01,
	5.8720664083e-01,
	5.5296487320e-01,
	8.5467085788e-01,
	1.2479018525e-01,
	4.7135837886e-01,
	-8.6764122440e-02,
	2.8666035951e-01,
	-3.6167485580e-01,
	-5.4069643239e-01,
	-5.0779747917e-01,
	5.3392132328e-01,
	1.0397656178e-01,
	-4.0437025056e-02,
	-2.5840021973e-01,
	2.1121860408e-01,
	7.6842555010e-01,
	-4.0620136113e-02,
	5.1670888394e-01,
	-6.9957579272e-01,
	4.2329172643e-02,
	1.5726187933e-01,
	9.3023468734e-01,
	-1.6061891537e-01,
	6.8449964904e-01,
	6.6112247078e-01,
	5.0688192389e-01,
	7.0818201239e-01,
	6.9212927641e-01,
	5.6590472121e-01,
	-2.9898982942e-01,
	3.2655588810e-01,
	4.6165349284e-01,
	7.2242087870e-01,
	8.5386179812e-01,
	2.6465704088e-01,
	-1.2212981805e-01,
	-9.8850033440e-01,
	-4.4163335063e-01,
	2.2769859920e-01,
	-7.9519102797e-01,
	4.2428987216e-01,
	-2.2451953744e-01,
	-6.9359604146e-01,
	-5.0620649703e-01,
	-6.3533464964e-01,
	3.0171508567e-01,
	4.9405285303e-01,
	-7.2106495555e-01,
	3.7825298510e-01,
	1.2058035773e+00,
	1.4184110774e+00,
	1.9328006168e+00,
	-4.0896658945e-01,
	5.1935062599e-01,
	-1.9048332926e-01,
	1.0549702043e-01,
	5.8530038036e-01,
	2.8439689562e-01,
	1.3350826930e+00,
	8.1499883541e-01,
	3.2493628661e-01,
	-1.5616321299e-01,
	-7.0372631001e-01,
	3.8444166387e-01,
	-6.4299447615e-01,
	-9.9176000244e-01,
	-4.9363689077e-01,
	-8.2073427534e-01,
	-9.0838343455e-01,
	2.6346629231e-01,
	-8.5299233985e-02,
	7.8026673177e-01,
	-2.3252036176e-01,
	-7.1625549764e-02,
	-5.4417554247e-01,
	-2.9093295083e-01,
	8.4392834254e-01,
	-4.4828638569e-01,
	7.0382502022e-01,
	-4.1510445919e-01,
	4.7505422267e-01,
	9.2531578653e-01,
	-6.3620466086e-01,
	-2.4445326090e-02,
	-9.6417126988e-01,
	-1.7807550279e-01,
	-1.0623160047e-01,
	3.9730292660e-01,
	-2.7994628742e-01,
	-6.8041016877e-01,
	3.5201892349e-01,
	-1.0795888960e+00,
	2.9944996608e-01,
	-2.4002750537e-01,
	-8.2502932122e-01,
	5.3884745885e-01,
	-2.1680675701e-01,
	-4.9857837298e-01,
	3.1737574877e-01,
	-6.5578037385e-01,
	6.2062653340e-02,
	4.5476725267e-01,
	5.6466237533e-01,
	-8.5798443667e-01,
	-5.1972010564e-01,
	4.8162520363e-01,
	-9.7262489700e-02,
	6.0661649334e-01,
	-1.5701650457e-01,
	2.6078066347e-01,
	-8.8573870052e-01,
	-2.2861396256e-01,
	5.3270058290e-01,
	-1.0654011658e-01,
	3.4891811884e-01,
	-4.5686208686e-02,
	-5.3196813868e-01,
	-7.9869991150e-01,
	3.8407544176e-01,
	-9.2992950224e-01,
	-8.3629871517e-01,
	8.6419263283e-01,
	-4.9052400281e-01,
	2.6248970000e-01,
	-8.4948271126e-01,
	4.0360728782e-01,
	-1.8271431623e-01,
	2.8318124943e-01,
	-9.1192358165e-01,
	9.5614490188e-02,
	-2.8489028596e-01,
	-7.9674672689e-01,
	-1.1856440931e-01,
	8.7096774194e-01,
	4.7410504471e-01,
	1.8951994385e-02,
	-8.8653218177e-01,
	-7.3339030122e-01,
	-3.7528611103e-01,
	-2.8604998932e-01,
	1.0721152379e-01,
	-5.0926236763e-01,
	-9.8736533708e-01,
	3.4220404675e-01,
	9.2852565081e-01,
	-3.3732108524e-01,
	3.2731101413e-01,
	-3.0820642720e-01,
	6.4354380932e-01,
	2.9227576343e-01,
	-8.4505962525e-02,
	9.4210638752e-02,
	-8.5796591716e-01,
	5.9861472094e-02,
	-2.8817221999e-01,
	9.4435171596e-01,
	-1.6029965333e-01,
	9.5434430982e-01,
	-3.3600878933e-02,
	-5.3777741665e-01,
	-4.2783772811e-01,
	-1.4786158030e-01,
	9.7645489298e-01,
	-6.3146729088e-01,
	9.9993022124e-01,
	5.6523666199e-01,
	9.8216639295e-01,
	-1.6722303656e-01,
	-1.2321905972e-01,
	-3.8152286886e-01,
	-1.4464146971e-01,
	5.3108900993e-01,
	7.4541320506e-02,
	6.5011565474e-01,
	7.7020346532e-01,
	7.1389727696e-01,
	-1.0701635246e-01,
	-8.8812745170e-02,
	6.1383932053e-01,
	-2.2507989229e-01,
	-6.7357398168e-01,
	-6.9780571917e-01,
	3.6564226203e-01,
	3.3512375256e-01,
	-4.4810327464e-01,
	-2.8745384075e-01,
	-7.6232184820e-01,
	-6.8034913175e-01,
	6.5279091769e-02,
	9.6234015931e-01,
	-4.5554979095e-01,
	9.5397808771e-01,
	-6.6881313304e-01,
	-8.3739743938e-01,
	-5.6212042604e-01,
	3.2578508866e-01,
	4.5396282846e-01,
	8.9593188269e-01,
	4.8430158945e-01,
	-2.0420029980e-01,
	1.7972130113e-01,
	-5.0508066248e-01,
	-8.7279404986e-01,
	-1.2753685110e-01,
	4.8765526292e-01,
	-6.5623950926e-01,
	-2.1726128517e-01,
	-8.9219761770e-01,
	-7.7849665822e-01,
	-4.1630298776e-01,
	-2.5280262831e+00,
	-7.4577275752e-01,
	1.2870208818e-02,
	4.4884656818e-01,
	2.2523391316e-01,
	-1.3032946710e+00,
	-8.9280117149e-01,
	-1.2406268209e-01,
	2.7378268446e-01,
	-7.6926373614e-01,
	-1.0086563649e-01,
	2.7452415775e-01,
	-5.1688406532e-01,
	1.9552234959e-01,
	-3.2791390735e-01,
	-5.3786134139e-01,
	5.0205999939e-01,
	3.9396178262e-01,
	-1.2637918354e-01,
	-4.5536667989e-01,
	4.6928312021e-01,
	7.8640955443e-02,
	5.1768547624e-01,
	-8.5229041414e-01,
	-8.3098849452e-01,
	-8.8787499619e-01,
	-9.6154667806e-01,
	-3.3689382611e-01,
	5.6553849910e-01,
	5.6761375774e-01,
	3.1900997955e-01,
	-8.6523026215e-01,
	-5.5082857753e-01,
	3.0545976135e-01,
	-9.1619617298e-01,
	-5.2812280648e-01,
	8.4398937956e-01,
	5.7985168004e-04,
	-9.3316446425e-01,
	1.9644764550e-01,
	-9.8730430006e-01,
	-6.2279122288e-01,
	5.5723746452e-01,
	-9.4482253487e-01,
	-1.2765892514e-01,
	2.1317178869e-01,
	6.3701284829e-01,
	5.5705435347e-01,
	-3.6826685385e-01,
	-3.2438123722e-01,
	-5.7750175481e-01,
	4.9845881527e-01,
	-5.3520310068e-01,
	-4.4779808954e-01,
	6.2224188971e-01,
	-4.6006653035e-01,
	-9.6850489822e-01,
	9.3859675893e-01,
	-2.7640614032e-01,
	-1.0403759607e-01,
	6.5931909729e-01,
	9.4561601611e-01,
	1.2143226756e-01,
	2.1703854242e-01,
	1.2171032781e+00,
	1.0992920829e+00,
	5.0106844429e-01,
	6.0917996765e-01,
	-6.0457167272e-02,
	-7.8902898546e-01,
	-2.2177405907e-01,
	-7.9289015486e-01,
	-2.9746972378e-01,
	7.1601572147e-01,
	1.0094136865e+00,
	-2.2008026643e-01,
	-2.6676314721e-01,
	-2.0771932326e-01,
	5.6873269142e-01,
	1.3810986636e+00,
	2.0826931787e+00,
	1.2967658659e+00,
	3.8574085007e-01,
	3.9169630372e-01,
	-6.9139915133e-01,
	5.2714470011e-02,
	9.5776185397e-03,
	-4.4234612763e-01,
	4.7986827689e-01,
	1.4234320815e-01,
	-8.3302977398e-01,
	6.7186498611e-01,
	6.7320780053e-01,
	9.0557573168e-01,
	-8.6516922514e-01,
	-2.3935666982e-01,
	6.6350291452e-01,
	4.4950712607e-01,
	1.0336619160e-01,
	-3.7949766533e-01,
	8.8534195990e-02,
	-7.4211859493e-01,
	1.3425098495e-01,
	-9.6160565108e-01,
	6.6661580248e-01,
	9.3908505509e-01,
	-8.8543351543e-01,
	-7.8264717551e-01,
	-8.0432166916e-01,
	8.7738202581e-01,
	5.9659272140e-01,
	-2.6048221436e-01,
	2.7991932961e-01,
	-6.1821344646e-01,
	4.0031128880e-01,
	8.3874019593e-01,
	-6.4727877113e-02,
	-2.6794301890e-01,
	-8.6358226264e-01,
	-5.7969908750e-01,
	2.1340077733e+00,
	1.8567954605e+00,
	1.3128574810e+00,
	1.1937114378e+00,
	6.8647865815e-01,
	6.3035211372e-01,
	1.0991190374e-01,
	1.7953392369e-01,
	8.7184304690e-02,
	5.7638390367e-01,
	-3.9210092035e-01,
	2.7731333056e-01,
	4.9753116820e-01,
	-7.9763977366e-01,
	1.2068023726e-01,
	-6.8448581010e-01,
	2.9398480178e-01,
	-5.0382792156e-01,
	-4.6847196832e-01,
	4.8387096774e-01,
	-4.9797051912e-01,
	6.7101639327e-01,
	-5.8320871609e-02,
	4.5255897702e-01,
	9.8529007843e-01,
	-9.1155735954e-01,
	9.8284859767e-01,
	-2.3477889340e-01,
	-2.0999786370e-01,
	2.9380169073e-01,
	9.6520889920e-01,
	-3.4836878567e-01,
	7.4346140934e-01,
	-7.4437696463e-01,
	-3.6747337260e-01,
	-6.7537461470e-02,
	2.2830896939e-01,
	2.9184850612e-01,
	6.3365581225e-01,
	8.5357219153e-01,
	9.2992950224e-01,
	7.7730643635e-02,
	7.4846644490e-01,
	6.5831476791e-01,
	-6.3115329447e-01,
	2.9850154118e-01,
	1.7996765038e-01,
	-3.8850062563e-02,
	-9.6881008332e-01,
	-4.9107333598e-01,
	-7.7428510392e-01,
	9.8400830103e-01,
	9.0850550859e-01,
	7.6268807031e-01,
	-3.5996581927e-01,
	7.1849726859e-01,
	2.6084170049e-01,
	5.7316812647e-01,
	7.0192571795e-04,
	7.6876122244e-02,
	-5.8586319767e-01,
	-2.3062837611e-01,
	-6.0844483984e-01,
	7.5499144487e-02,
	-8.1499273038e-01,
	-3.1552881627e-01,
	7.1223487468e-01,
	-7.6146732994e-01,
	3.0472731712e-01,
	-8.7730031431e-01,
	-5.5861266920e-02,
	9.1031243618e-01,
	9.5153492124e-01,
	9.3180643468e-01,
	5.5840518521e-01,
	-8.4093072357e-01,
	6.4101562957e-02,
	-4.6331647214e-01,
	-3.9942535955e-01,
	-1.4809299124e+00,
	-2.1439741565e+00,
	-1.1349227219e+00,
	-6.8711477519e-01,
	1.1860569605e-01,
	4.9768975468e-01,
	-4.6994661536e-01,
	4.6990023206e-01,
	-4.5878517377e-01,
	-5.8200675563e-01,
	-1.1406141814e+00,
	4.3654855524e-01,
	-6.7509994812e-01,
	6.5691091647e-01,
	-8.8225959044e-01,
	3.1830805383e-02,
	3.9823603015e-01,
	9.7631763665e-01,
	2.0139164403e-01,
	6.7467268899e-01,
	7.3015533921e-01,
	-6.2474440748e-01,
	2.9300820948e-01,
	1.1606181733e-01,
	5.1103048748e-01,
	-4.4526505325e-02,
	6.9124423963e-02,
	3.8230536821e-01,
	4.9534592730e-01,
	9.5439875662e-01,
	3.1369764941e-01,
	-4.0326059765e-01,
	-4.0257796112e-01,
	-8.3387588682e-02,
	-4.0910061953e-01,
	-6.2120426038e-01,
	8.9019440291e-01,
	-5.9428859796e-01,
	6.8408548772e-01,
	-5.6120487075e-01,
	-8.1920834986e-01,
};

double mlpWeightsLayer2[] = {
	3.2476041872e+00,
	-3.4987054137e+00,
	-5.1728757138e-02,
	-4.4913923723e+00,
	5.4684036471e+00,
};

