// MLP Weights File

#define NUMBER_OF_LAYERS 2
#define LAYER_1_WEIGHTS_LENGTH 600
#define LAYER_2_WEIGHTS_LENGTH 5

#define LAYER_1_WEIGHTS_ABS_MAX 5.0000000000e+00
#define LAYER_2_WEIGHTS_ABS_MAX 7.0000000000e+00

double mlpWeightsLayer1[] = {
	-2.3266569112e+00,
	-1.1351072351e+00,
	-8.7963389970e-01,
	5.0217536997e-01,
	9.0081238158e-01,
	-1.9809696270e+00,
	-1.1595604725e+00,
	1.6800961603e-01,
	-1.2230736572e+00,
	3.6687092190e+00,
	4.3019577351e+00,
	6.2733384631e-01,
	3.8609256891e-01,
	3.7797697235e-01,
	4.7669826075e-01,
	-4.3271630276e-01,
	-9.1428569438e-01,
	-6.9552418370e-01,
	5.3371482375e-01,
	3.8606149133e-01,
	1.2889793414e-01,
	-2.6505474200e-01,
	6.3488266671e-01,
	-3.5360241193e-01,
	-4.1891474401e-01,
	-5.6783770275e-01,
	-6.4909869622e-01,
	1.2064985117e+00,
	1.9129264241e-01,
	-2.1544707438e-01,
	-7.7410808834e-01,
	8.4850176092e-01,
	6.5853880391e-01,
	-2.9791677161e-02,
	-7.3363886350e-01,
	3.3983596756e-01,
	2.2973856906e-01,
	4.1551705516e-01,
	2.2468083316e-01,
	5.1951869648e-01,
	4.0430332134e-01,
	-3.2675320437e-01,
	8.5819187940e-01,
	-2.7097488560e-01,
	-8.9262071992e-01,
	2.6972307883e-01,
	4.2668406272e-01,
	-8.6891359178e-01,
	5.2590056673e-01,
	-8.6649826302e-02,
	4.0841244972e-01,
	-5.5839192940e-01,
	1.1441681679e-01,
	-5.1428048197e-01,
	-3.6935336113e-01,
	3.1410688409e-01,
	-1.4374109225e-01,
	-9.3695657837e-02,
	-9.3038281003e-02,
	8.9795723273e-01,
	6.1661036947e-01,
	1.2856999744e-01,
	7.3539998929e-01,
	2.3646104952e-01,
	-9.0393407452e-01,
	9.9528173078e-01,
	-4.2454904198e-01,
	3.2580448749e-01,
	4.1079878593e-01,
	8.0013179118e-01,
	-1.5467678619e-01,
	-1.8489789340e-01,
	-5.2657436269e-01,
	-2.9648493850e-01,
	5.4411861838e-01,
	-4.1923928428e-01,
	9.7323814033e-01,
	-2.9235397013e-02,
	-2.8815572489e-01,
	4.9913870706e-01,
	8.8411477762e-01,
	-8.7974327518e-01,
	9.4419359321e-01,
	2.3953761581e-03,
	-3.9276792730e-01,
	-4.2858874989e-01,
	-6.8736152243e-01,
	4.6223515061e-01,
	4.7769775776e-01,
	2.1960019656e-01,
	3.6019238334e-01,
	9.4308126296e-02,
	-6.5182980599e-01,
	9.5592371698e-02,
	-6.6923082418e-01,
	-5.5576388052e-01,
	9.0874101543e-02,
	-9.3779866162e-02,
	7.7004060790e-01,
	-4.9832711345e-01,
	-2.9364807498e-01,
	-3.8463620999e-01,
	3.1677499382e-01,
	1.7973051089e-01,
	3.1887885245e-01,
	-1.3910398128e-01,
	7.6048837777e-01,
	2.9211699185e-01,
	8.3165821518e-01,
	-5.2766734712e-01,
	-2.0874430202e-01,
	7.1577299187e-01,
	-4.0740925308e-01,
	-2.6799752436e-01,
	-2.8569541559e-01,
	1.9856562056e-01,
	3.0339589124e-01,
	2.6943061979e-02,
	-3.3919922977e-01,
	-2.1890635100e-01,
	-7.5112825401e-01,
	-9.7900684736e-01,
	8.7772987624e-01,
	-4.2410154862e-01,
	1.0286826079e-01,
	-7.9382892549e-01,
	3.8949689079e-02,
	-7.9254037450e-01,
	1.1238960533e-01,
	-2.5400196104e-01,
	-3.8136660372e-01,
	7.7168591294e-01,
	4.0668458383e-01,
	-9.7409258439e-01,
	-3.4690441528e-03,
	-2.5861775855e-01,
	-1.1596806143e-01,
	-2.4107210135e-01,
	-9.6465329400e-01,
	-2.8298361481e-01,
	2.2525876438e-01,
	-1.8323325038e-01,
	-5.7411005413e-01,
	8.0582144451e-01,
	5.4576507966e-01,
	1.4356939936e-01,
	2.0341390732e-02,
	-1.4272603229e-01,
	-8.2674495042e-01,
	6.7604348904e-01,
	6.4294674915e-01,
	-5.7797692615e-01,
	7.0209029848e-01,
	5.1849740820e-01,
	1.6736680184e-02,
	-1.7917100488e-01,
	7.2467025170e-01,
	-9.4431374871e-01,
	2.8288621003e-02,
	-1.6293866428e-01,
	-1.3532356878e-01,
	7.3742113436e-01,
	-3.4419565524e-01,
	-7.1096959976e-01,
	7.6332863968e-01,
	6.5427786561e-01,
	3.2263221700e-02,
	-3.4987024374e-01,
	-5.8676023762e-01,
	6.7613034075e-02,
	3.6858908803e-01,
	6.4453431295e-01,
	8.9421854536e-01,
	8.0282141073e-01,
	4.6841824030e-01,
	4.5282653135e-01,
	-4.8641682159e-02,
	-5.0913221273e-01,
	-6.8516959142e-01,
	1.2683828693e-01,
	-8.2588189553e-01,
	9.5792793481e-01,
	5.4886151457e-01,
	8.7836157618e-01,
	4.7642723540e-01,
	-4.3440180618e-01,
	-3.0080942870e-01,
	2.0109748710e-01,
	-3.7871555489e-01,
	7.2747919230e-01,
	-9.6184117811e-01,
	4.8596087633e-01,
	4.6490032573e-01,
	-3.0603683242e-01,
	7.7499127657e-01,
	2.2822896541e-01,
	-6.5175896774e-01,
	-1.9274550266e-01,
	8.7835872168e-01,
	-2.3851920536e-01,
	8.7486753234e-01,
	2.4694780970e-01,
	-5.9398489333e-01,
	7.6906909626e-01,
	4.9766261361e-02,
	8.7443334696e-01,
	2.2191260812e-01,
	-9.9887246359e-01,
	-6.3469886670e-01,
	5.3674301670e-01,
	1.2796582334e-01,
	-4.6058076222e-01,
	4.9467095057e-01,
	-3.2317266302e-01,
	-5.8221918604e-01,
	-2.8901814031e-02,
	2.4242553080e-01,
	1.1697138525e-01,
	-8.2780432786e-01,
	8.6370997683e-01,
	-1.5554942338e-01,
	-7.8964550597e-01,
	3.4967085223e-01,
	-6.9064909764e-01,
	-9.5682338390e-02,
	1.2466212880e-01,
	5.3757986777e-01,
	2.5255869387e-01,
	9.3191662614e-01,
	4.1593858852e-01,
	-9.8596051242e-01,
	8.0678415755e-01,
	-3.3711360271e-01,
	-5.7994540575e-01,
	5.7587023432e-01,
	7.1265561772e-01,
	-7.0551205972e-01,
	-2.0221715849e-01,
	7.1378315413e-01,
	-3.4021092641e-01,
	-6.5031361351e-01,
	-1.4171058126e-01,
	2.1077411320e-01,
	8.3714754760e-01,
	5.2800436539e-01,
	6.3164499070e-01,
	-1.8781636189e-01,
	-2.3316873880e-01,
	-2.6536661438e-01,
	-5.6355501513e-02,
	-4.2826194057e-01,
	5.6444867043e-01,
	1.7878992917e-01,
	9.7318135507e-01,
	8.8604385308e-01,
	-9.1659963265e-01,
	9.8425555640e-02,
	4.2440271176e-01,
	3.3797197187e-01,
	2.9248052960e-02,
	-1.6232902828e-01,
	3.4725676830e-01,
	-1.6683451055e-01,
	4.9884684676e-01,
	7.6724318847e-01,
	-5.8882659659e-01,
	2.1542142607e-01,
	-9.3599905011e-01,
	2.0790643255e-01,
	-7.2834294018e-02,
	-2.7188287977e-01,
	5.4502410281e-01,
	7.7047870943e-01,
	9.2732352111e-01,
	3.7501606532e-01,
	2.9094285304e-01,
	5.4429004985e-01,
	-8.2458368401e-01,
	-9.4806725157e-01,
	-7.2174944064e-01,
	1.4790698194e-01,
	-3.2335543042e-01,
	8.5666164656e-01,
	-6.6924772370e-01,
	-3.4897275704e-01,
	7.4442363612e-01,
	-5.8208503823e-01,
	7.5007204420e-01,
	1.6976549158e-01,
	7.5763647713e-01,
	-2.1896652934e-01,
	-9.8895406443e-01,
	1.1139748018e-01,
	6.1877905560e-01,
	5.1521277871e-01,
	-1.1478692252e-01,
	-9.6760512794e-01,
	-2.6796476323e-01,
	-4.6483384933e-02,
	2.4379353190e-01,
	6.6264084990e-01,
	6.8160922717e-01,
	-2.1028195285e-01,
	4.3499543957e-01,
	6.0891015064e-01,
	-8.3516062975e-01,
	-2.7407365631e-01,
	1.5320019943e-01,
	-6.5974431283e-01,
	-2.2214090788e-01,
	4.3145075954e-01,
	4.8816266912e-01,
	4.5450425058e-01,
	2.8811240536e-01,
	8.1891481011e-01,
	-8.9446906721e-01,
	3.2536040541e-02,
	-7.6317022916e-01,
	8.5560294886e-01,
	-7.9769846881e-01,
	9.9446624890e-01,
	-3.6336358048e-01,
	-7.8665253231e-01,
	1.0586505703e-01,
	-7.4458329405e-01,
	7.2856034440e-01,
	9.9107680562e-01,
	-7.1218965375e-01,
	-5.3940451776e-01,
	-5.5406580239e-02,
	5.3160387815e-01,
	-8.7676366785e-01,
	-3.7379735307e-01,
	-6.7867807470e-01,
	5.5823177172e-01,
	-7.6488720335e-01,
	-5.1383870445e-01,
	-7.1584188552e-01,
	3.8831299701e-01,
	-1.7358301728e-01,
	6.2017207528e-02,
	-1.8023624512e-01,
	-6.8542034909e-01,
	-4.8347913077e-01,
	-8.9212384070e-01,
	-8.6650553762e-01,
	-3.7794822612e-01,
	1.4041219984e-01,
	-6.2967576814e-01,
	-5.2234527819e-01,
	3.4271373197e-01,
	-6.3520952018e-01,
	1.1429114235e-01,
	5.5606119966e-01,
	4.7065420797e-01,
	3.6970661551e-01,
	2.8462144513e-01,
	4.6173101266e-01,
	6.5751696269e-01,
	7.4521692737e-01,
	2.0183063530e+00,
	1.5318864205e+00,
	1.8730268694e+00,
	2.5161224020e-01,
	1.0169366337e+00,
	2.0404880705e+00,
	1.8898832015e+00,
	1.8067713978e+00,
	1.3191314009e+00,
	-1.5099110417e-01,
	-3.7800220660e-02,
	9.9706601079e-02,
	6.6941210843e-01,
	2.0570075161e-01,
	2.6103660160e-01,
	7.0334732686e-01,
	2.5134095912e-01,
	8.8387574137e-01,
	-2.9365658996e-01,
	5.8743611753e-01,
	-6.3805824882e-01,
	-9.8497070111e-01,
	-1.1364894398e+00,
	3.2435405917e-01,
	4.7994481136e-01,
	4.6525786935e-01,
	-1.4714225972e-01,
	-3.0477753692e-01,
	-1.2971199802e-01,
	-4.9523331850e-01,
	-3.4822347574e-01,
	3.4100654045e-01,
	6.7734639494e-01,
	-4.7899326575e-01,
	-6.2280184656e-01,
	2.2950172270e-01,
	9.4775657275e-01,
	6.4508647176e-01,
	2.2677010169e-01,
	6.5859972390e-01,
	-6.9896065709e-01,
	-9.5020885577e-01,
	-5.6853992472e-01,
	7.7674924020e-01,
	1.8739183954e-01,
	7.2084129775e-01,
	3.6034875670e-01,
	-5.4151300506e-01,
	6.3227429224e-01,
	-9.1564625777e-01,
	-9.0009361873e-01,
	-9.7863799146e-01,
	-8.4892753970e-01,
	-8.9388375166e-01,
	5.2474086803e-01,
	7.7385237709e-01,
	5.8298032246e-01,
	-6.0217365883e-01,
	-3.1874626191e-01,
	-4.7842459170e-01,
	-7.1571223005e-02,
	3.3387202645e-01,
	8.6649492656e-01,
	-3.5184794820e-01,
	8.5494357341e-01,
	-7.5605847861e-01,
	8.7831809273e-01,
	8.0270015160e-01,
	8.8902799407e-01,
	1.0508819348e-01,
	4.6129985260e-01,
	-8.0993266414e-01,
	1.5487933793e-01,
	8.9275994985e-01,
	9.6682330685e-01,
	-6.5772882274e-01,
	6.1360124667e-01,
	3.2717206298e-01,
	-1.9924182780e-01,
	2.4587553891e-01,
	4.1152580614e-01,
	-9.9335445603e-02,
	2.6723754549e-01,
	5.6255820291e-01,
	6.7166564488e-03,
	-2.0802158546e-01,
	3.3645064260e-01,
	-4.1023887573e-01,
	1.8980475571e-01,
	-9.8229562025e-01,
	1.1133653257e-01,
	-8.8176646823e-01,
	3.5157640621e-01,
	-2.2168541803e-02,
	-2.3361441550e-01,
	2.0651997961e-01,
	2.2177298051e-01,
	-3.5529632371e-01,
	9.2201302802e-03,
	1.1080097366e-01,
	7.4979187071e-01,
	-5.2947999608e-01,
	3.0086830971e-01,
	-9.5328791577e-02,
	-6.3672004716e-01,
	2.6768961733e-01,
	2.4694238568e-01,
	9.7688120044e-01,
	-4.0513632139e-01,
	-9.5229944212e-01,
	2.2275673841e-01,
	-9.9361051619e-01,
	-5.1634887746e-02,
	-5.1000571507e-01,
	5.6898775025e-01,
	9.5514591502e-01,
	2.8197270040e-01,
	-9.4561607155e-02,
	-4.5509296165e-01,
	-5.2822254483e-01,
	1.6683666232e+00,
	1.5646119338e+00,
	2.4795949590e-01,
	-2.3684702339e-01,
	2.5642200571e-01,
	1.4381544952e+00,
	1.5715243776e+00,
	1.4068617437e+00,
	-5.8130341910e-01,
	-2.7636262893e-01,
	3.4701670940e-02,
	9.0444357881e-01,
	1.7007635437e-01,
	-6.8754941568e-01,
	-2.8722956196e-01,
	4.5535778829e-01,
	5.3816632963e-01,
	8.9332125727e-01,
	2.9434840054e-01,
	-8.7336235357e-01,
	8.9992673550e-01,
	-5.4776794628e-01,
	-8.7538898289e-01,
	-1.4789370770e-01,
	-2.8280956133e-02,
	6.8584053471e-01,
	-1.5514080862e-01,
	-7.0862999313e-01,
	-3.9057510537e-01,
	3.8901198725e-01,
	-2.3246271703e-01,
	5.3203706877e-01,
	5.2256417643e-02,
	3.5758929283e-01,
	8.0870663096e-01,
	6.8850906528e-01,
	-2.8595081870e-01,
	2.8998932302e-01,
	5.4479094387e-01,
	-2.8485057004e-01,
	7.8044861079e-01,
	-4.8856007377e-01,
	-5.3395845254e-01,
	-2.5857651610e-01,
	-2.2104278171e-01,
	1.2160487432e-01,
	-9.3431285486e-01,
	-6.8583387401e-01,
	2.4110585928e-02,
	3.6682759010e-01,
	-5.5576128771e-01,
	-2.5683144585e-02,
	8.9072477161e-01,
	-4.1929921667e-01,
	8.7288823718e-01,
	-9.5383761961e-02,
	-7.1384939538e-01,
	-2.7339446790e-01,
	2.0048040487e-01,
	-1.0296118218e-01,
	-8.7477013463e-01,
	9.6812202780e-01,
	-5.6893019638e-01,
	1.8009777143e-01,
	3.2577463674e-01,
	-7.6018003177e-01,
	-1.3095929433e-01,
	-9.6017618196e-01,
	5.2980929126e-01,
	-5.8616835139e-01,
	-2.4502675200e-01,
	3.1025790112e-01,
	-7.4728425161e-02,
	2.2101479546e-01,
	-9.4831419827e-01,
	7.0422730598e-01,
	-6.5738033115e-01,
	-8.8262705220e-01,
	-9.8160508181e-01,
	3.6673025478e-01,
	4.8420053790e-01,
	-5.3736636859e-01,
	-6.5895289076e-01,
	3.7492405728e-01,
	4.3333958613e-02,
	-7.8606465449e-01,
	-7.2045845339e-01,
	3.2948501936e-01,
	-5.9459122391e-02,
	4.8002195148e-01,
	-7.7347616282e-01,
	6.5770743911e-02,
	4.4814397835e-01,
	-3.4240635919e-01,
	-7.5413148559e-01,
	-2.2608138492e-01,
	-1.0258639003e-01,
	1.1490922007e-01,
	-1.8625756688e-01,
	-5.7277709971e-01,
	5.2874086868e-01,
	5.6871568112e-01,
	7.3748080234e-01,
	-5.4598755648e-01,
	-2.1026952435e-01,
	7.8916660407e-01,
	-8.4175876428e-01,
	1.3235014544e-01,
	9.0653955187e-01,
	-8.2336384515e-01,
	-5.0091960072e-01,
	3.9074008883e-01,
	-3.6073021375e-01,
	-1.5987249052e-01,
	-2.3433460260e-01,
	6.8260420099e-01,
	5.4062854989e-02,
	4.5206944014e-02,
	1.2089220347e-02,
	9.9460373353e-01,
};

double mlpWeightsLayer2[] = {
	-6.5756170805e+00,
	1.6864184516e-01,
	-1.8778969300e-01,
	4.6624384243e+00,
	3.1210384709e+00,
};

