// MLP Weights File

#define NUMBER_OF_LAYERS 2
#define LAYER_1_WEIGHTS_LENGTH 600
#define LAYER_2_WEIGHTS_LENGTH 5

#define LAYER_1_WEIGHTS_ABS_MAX 4.0000000000e+00
#define LAYER_2_WEIGHTS_ABS_MAX 6.0000000000e+00

double mlpWeightsLayer1[] = {
	3.3873575656e+00,
	1.4689463601e+00,
	2.3497798091e-01,
	-3.1168308042e-01,
	-2.4579631026e-01,
	6.4184229644e-01,
	-9.6694178559e-02,
	-5.6139894939e-01,
	-1.6369185628e-01,
	-1.7478942256e+00,
	-2.4200365018e+00,
	-4.5046485536e-01,
	-9.7832044131e-01,
	9.4869635814e-01,
	-3.4162662196e-01,
	-3.3639441719e-01,
	-5.8115717803e-01,
	7.3103965088e-01,
	3.7794713512e-01,
	-1.9525785794e-01,
	-1.2301746678e-01,
	-1.1396167351e+00,
	4.5015031105e-01,
	3.9888773098e-01,
	-7.2868860218e-01,
	-8.5540401625e-01,
	2.8293322054e-01,
	-1.7968109528e-01,
	8.6124977753e-02,
	-6.8471992968e-01,
	-2.9802678519e-01,
	4.2858376646e-01,
	-8.5923778603e-01,
	-2.4423963134e-01,
	2.7158421583e-01,
	7.9717398602e-01,
	6.8822290719e-01,
	5.5186620685e-01,
	-4.7099215674e-01,
	3.5721915342e-01,
	-7.9778435621e-01,
	-1.4694662313e-01,
	-1.8137150182e-01,
	7.4095889157e-01,
	7.9711294900e-01,
	-6.8138676107e-01,
	-7.9363383892e-01,
	-3.8145084994e-01,
	-1.4249092074e-01,
	6.0820337535e-01,
	-7.2685934019e-01,
	-4.3095187231e-01,
	-3.1711783197e-01,
	-2.8519547105e-01,
	-6.3524277474e-01,
	-4.2094180120e-01,
	-7.6018555254e-01,
	9.5861690115e-01,
	-1.3803521836e-01,
	-5.1615955077e-01,
	-9.0997039705e-01,
	-5.4753257851e-01,
	3.2197027497e-02,
	6.6185491501e-01,
	5.5632190924e-01,
	-1.4627521592e-01,
	-9.7405926695e-01,
	-7.0458082827e-01,
	-8.1005279702e-01,
	2.2899116745e-01,
	-4.1995477378e-01,
	-4.8882117510e-01,
	6.0110132957e-01,
	7.3154644047e-01,
	9.9137816854e-01,
	7.1366362718e-01,
	-2.8520851503e-01,
	2.4659973880e-01,
	9.1775519468e-01,
	4.0598773156e-01,
	-4.8704489273e-01,
	2.4472792749e-01,
	5.8561967833e-01,
	8.7170328927e-01,
	3.3598430736e-01,
	-7.7202673421e-01,
	9.3847468490e-01,
	9.2468031861e-01,
	-2.1579638050e-01,
	-7.6183355205e-01,
	3.1650746178e-01,
	-8.5369426557e-01,
	3.0539872433e-01,
	-6.4574114200e-01,
	-7.8557695242e-01,
	-1.4145329142e-01,
	5.1713614307e-01,
	-2.5238807337e-02,
	6.8370616779e-01,
	1.6580706198e-01,
	-6.7040009766e-01,
	6.9798883023e-01,
	-5.7893612476e-02,
	-6.2382885220e-01,
	9.3267616810e-01,
	-3.8792077395e-01,
	-2.4674214911e-01,
	-8.8567766350e-01,
	-2.9258095035e-01,
	8.0834376049e-01,
	-8.6260567034e-01,
	-5.6260872219e-01,
	-8.7218848231e-01,
	-7.0955534532e-02,
	-2.2553178503e-02,
	-7.3168126469e-01,
	-2.8867458113e-01,
	5.6315805536e-01,
	-9.1869869076e-01,
	4.5731986450e-01,
	-1.7400604748e+00,
	-1.5916698713e+00,
	-3.1352920845e-01,
	1.3839310576e-01,
	3.0217748753e-01,
	-2.4859008869e-01,
	-4.6639507055e-01,
	1.8258566069e-01,
	9.1612273984e-01,
	1.9641805889e+00,
	8.7844032342e-01,
	5.0913423515e-01,
	7.7960357612e-01,
	-8.7216201332e-02,
	-1.1201729299e+00,
	-1.1690968406e+00,
	-5.7589598587e-01,
	-6.7126148924e-01,
	1.2876146242e-01,
	4.2966596761e-01,
	-1.1565005809e-01,
	4.7100101660e-01,
	8.3522341736e-01,
	-6.0644338733e-01,
	-1.1678808963e-01,
	-9.6041554528e-01,
	-7.4920338829e-02,
	1.0587128938e-01,
	1.0210553340e+00,
	7.6701124023e-01,
	-8.3119816157e-01,
	5.5060397040e-01,
	-4.7361427241e-01,
	-4.8667867061e-01,
	-8.7920773949e-01,
	-3.4324167608e-01,
	5.6639301737e-01,
	-4.9296548357e-01,
	-9.8809778130e-01,
	5.1164281137e-01,
	-1.6022217475e-02,
	6.0850856044e-01,
	-2.5766777551e-01,
	-7.7120273446e-02,
	-1.7862483596e-01,
	2.4631488998e-01,
	-7.1086764122e-01,
	1.7160557878e-01,
	-4.0049439985e-01,
	-2.3520615253e-01,
	8.9745780816e-01,
	6.8724631489e-01,
	5.3501998962e-01,
	-3.9674062319e-04,
	-3.9561143834e-01,
	7.2649311808e-01,
	7.5316629536e-01,
	-1.1178930021e-01,
	-3.4263130589e-01,
	-6.3127536851e-01,
	5.5198828089e-01,
	9.2803735466e-01,
	3.8901944029e-01,
	1.4029358806e-01,
	-2.2055726798e-01,
	-7.0500808741e-01,
	-8.8781395917e-01,
	5.8000427259e-01,
	3.8639484848e-01,
	4.2167633522e-01,
	5.9677159625e-01,
	5.8824127945e-02,
	2.1748319614e-01,
	-6.1570047314e-02,
	-3.0941195193e-01,
	1.6408529994e-01,
	-8.9635692734e-01,
	-4.8279100974e-01,
	6.5004878342e-01,
	9.7399822993e-01,
	-6.8144779809e-01,
	-1.1447492904e-01,
	-2.6706747642e-01,
	-5.0591878738e-01,
	-5.4371509964e-01,
	-6.3164159062e-01,
	6.3389996033e-01,
	-3.6259041108e-01,
	-1.9638660848e-01,
	4.2939542833e-02,
	-6.9420453505e-01,
	-8.5146641438e-03,
	2.6053651540e-01,
	2.2818689535e-01,
	-2.5772881252e-01,
	7.2521134068e-01,
	8.7163914914e-01,
	-8.6571855831e-01,
	-7.2179326762e-01,
	-6.3936277352e-02,
	3.6469618824e-02,
	4.8533585620e-01,
	9.7332682272e-01,
	7.5121311075e-01,
	4.5713675344e-01,
	9.2645039216e-01,
	-3.6100344859e-01,
	-5.0584429456e-01,
	-1.1398663289e-01,
	2.8901028474e-02,
	-9.2602313303e-01,
	2.3166600543e-01,
	7.3802911466e-01,
	-2.9428998688e-01,
	-9.3243202002e-01,
	1.0345774712e-02,
	-3.7266151921e-01,
	-1.5048677023e-01,
	-2.6377147740e-01,
	9.9093600269e-02,
	2.3122311771e+00,
	8.8419479713e-01,
	3.7546332582e-01,
	-7.0025017765e-01,
	-8.5033712766e-01,
	3.8641643553e-01,
	4.6006992058e-01,
	3.9260831609e-01,
	-8.8398496186e-01,
	-3.2028223926e-01,
	-1.8528130911e+00,
	3.0735767073e-02,
	-9.6095164441e-01,
	-7.7420424284e-01,
	4.7935670543e-01,
	-6.3724947205e-01,
	-1.5618640778e-01,
	6.3340193073e-01,
	8.7975217566e-01,
	4.8898459100e-01,
	8.8217725067e-01,
	-1.3059360304e-01,
	1.1051971386e-02,
	-8.7211279700e-01,
	2.2164532790e-01,
	2.8139178732e-01,
	1.4577990380e-01,
	7.4156197877e-01,
	-6.8192970653e-01,
	9.6321924815e-01,
	8.3394259208e-01,
	8.4418619541e-01,
	3.1887439360e-01,
	-6.2883388775e-01,
	7.1440778832e-01,
	-6.0179448836e-01,
	-2.9428998688e-01,
	-7.9100924711e-01,
	-8.7252418592e-02,
	-3.1302835170e-01,
	-8.7090670492e-01,
	2.4564348277e-01,
	3.5520493179e-01,
	-7.1507919553e-01,
	8.1347087008e-01,
	-3.7537766655e-03,
	-2.2553178503e-02,
	-5.9602649007e-02,
	-1.5329447310e-01,
	-8.0193487350e-01,
	-4.3498031556e-01,
	-6.9450972015e-01,
	2.4631488998e-01,
	-1.2222663045e-01,
	-1.9943845943e-01,
	4.4648579363e-02,
	8.8335825678e-01,
	-1.7056794946e-01,
	-9.1998046815e-01,
	6.3457136753e-01,
	3.3225501267e-01,
	3.1498153630e-01,
	-3.3811456648e-01,
	-8.3159886471e-01,
	7.0915860469e-01,
	7.9961546678e-01,
	7.0983001190e-01,
	4.7611926634e-01,
	-4.3949705496e-01,
	-4.5807976590e-01,
	-2.0650795996e-01,
	-1.2651138543e-01,
	-1.3415927605e-01,
	-1.9612022017e-01,
	-5.9164384391e-01,
	-1.4481211596e-01,
	-7.8476259652e-01,
	6.3337688084e-01,
	7.4952915171e-02,
	-9.7186193426e-01,
	2.2434156316e-01,
	-2.0078127384e-01,
	5.9111301004e-01,
	-3.5488610464e-01,
	-7.4489652484e-01,
	-7.6998199408e-02,
	9.7918637654e-01,
	9.7204504532e-01,
	-5.0706503494e-01,
	-5.1847895749e-01,
	7.1202734458e-01,
	8.8012329478e-01,
	-5.4728843043e-01,
	-4.6140934477e-01,
	-2.3264259774e-01,
	9.2956328013e-01,
	9.7491378521e-01,
	1.1627552110e-02,
	-9.2291024506e-01,
	-7.2948393200e-01,
	-2.3026215400e-01,
	2.8647724845e-01,
	-6.5889461959e-02,
	6.7418439283e-01,
	5.7603686636e-01,
	-8.0874050111e-03,
	9.1808832057e-01,
	4.1199987793e-03,
	-5.0355540635e-03,
	7.4687948241e-01,
	-9.6713156529e-02,
	4.4267097995e-01,
	-9.3707083346e-01,
	6.9304483169e-01,
	-2.8812524796e-01,
	7.8264717551e-01,
	6.2492751854e-01,
	6.2498855556e-01,
	9.7283852657e-01,
	-9.0118106632e-01,
	-1.8517349686e+00,
	-1.2291161197e+00,
	2.4204594539e-01,
	-6.4921786970e-01,
	1.0284722406e+00,
	-8.2982282121e-02,
	1.1770827376e-01,
	5.1933556684e-01,
	3.5497796245e-01,
	5.6693258623e-01,
	1.1426213285e+00,
	4.0824238509e-01,
	8.0837851647e-01,
	8.6174792275e-01,
	1.7989652386e-01,
	1.7881640561e-01,
	8.2980116008e-01,
	6.1175397530e-01,
	-1.6975163906e-03,
	9.3457235159e-01,
	9.8582797975e-02,
	2.3198077263e-01,
	9.5741799469e-01,
	1.0267003768e+00,
	8.5180922647e-01,
	-7.8329016669e-01,
	-5.0616414387e-01,
	-2.6744661377e-01,
	3.9772716667e-01,
	4.9829303464e-01,
	7.5075553655e-01,
	1.7493156625e-02,
	8.4495268753e-01,
	-6.9341105380e-01,
	-2.9367961669e-01,
	3.0106509598e-01,
	5.4069643239e-01,
	5.3447065645e-01,
	-9.3719290750e-01,
	-9.9353007599e-01,
	4.1618091372e-01,
	-1.6266365551e-02,
	3.3542893765e-01,
	-2.1579638050e-01,
	-7.4678792688e-02,
	-9.5751823481e-01,
	-9.3969542528e-01,
	-7.4922940764e-02,
	4.9754325999e-01,
	5.1756340220e-01,
	5.3324991607e-01,
	-6.0545670949e-01,
	-3.2145146031e-01,
	4.4407483139e-01,
	-3.7022003845e-01,
	-3.7882625813e-01,
	1.5961180456e-02,
	-3.1925412763e-01,
	-7.2917874691e-01,
	3.5129856258e-01,
	-2.5565355388e-01,
	1.0257271035e-01,
	-9.0545365764e-01,
	-1.1740470595e-01,
	-6.6508987701e-01,
	-7.9680776391e-01,
	8.9782403027e-01,
	9.8919644765e-01,
	9.7015289773e-01,
	-8.7696360266e-02,
	4.1007202250e-01,
	-1.4936708814e-01,
	-9.9335106660e-01,
	-5.0139836302e-01,
	-3.8677114339e-02,
	2.9582637530e-01,
	4.8947352106e-01,
	1.9282658793e-01,
	-3.9074936004e-01,
	6.8480483413e-01,
	-2.2000793481e-01,
	-3.5868404187e-01,
	-7.2038941618e-01,
	-2.9114027498e-01,
	3.5666454023e-01,
	-2.9544969024e-01,
	-5.0242622150e-01,
	4.7605822932e-01,
	-1.4218573565e-01,
	-4.0787987915e-01,
	-7.4309518723e-01,
	-8.6107974487e-01,
	-5.7506027406e-01,
	8.6214789270e-02,
	5.9868160039e-01,
	-5.8848841823e-01,
	-5.9453108310e-01,
	6.7583239235e-01,
	4.5902890103e-01,
	-7.2496719260e-01,
	4.8533585620e-01,
	4.1349528489e-01,
	-6.5068514054e-01,
	-8.1157872250e-01,
	3.0808435316e-01,
	3.0704672384e-01,
	-5.6926175726e-01,
	1.1502426222e-01,
	6.4506973479e-01,
	5.9236426893e-02,
	-4.5475630970e-01,
	6.7790765099e-01,
	-8.2134464553e-01,
	9.6722312082e-01,
	-2.3288674581e-01,
	-2.4314096500e-01,
	9.6203497421e-01,
	-2.0499282815e-01,
	-9.6423230689e-01,
	-1.6074098941e-01,
	-1.7594116149e+00,
	-1.3220714673e+00,
	-7.6827030484e-02,
	-2.3591390066e-01,
	-5.6730177005e-01,
	-1.2853049759e+00,
	-7.1287088239e-01,
	-1.4294578884e-01,
	-2.9312345390e-01,
	1.1963439052e+00,
	7.5386602606e-01,
	1.5051811037e+00,
	7.6081799777e-01,
	-1.0016427809e-01,
	2.6716101353e-01,
	-5.3921421967e-01,
	8.1268203882e-01,
	-5.5406027173e-01,
	1.5288718587e-01,
	-4.5696519526e-01,
	1.2693971653e-02,
	5.4911748103e-01,
	4.6289556121e-01,
	6.3877473667e-01,
	-3.7480880585e-01,
	5.6992681168e-01,
	3.6004490992e-01,
	1.1941182899e+00,
	-2.8134820026e-01,
	7.1539105902e-01,
	7.6052926546e-01,
	6.6271985066e-01,
	9.4112571291e-01,
	7.6201666311e-01,
	6.0563982055e-01,
	3.3085116123e-01,
	6.9829401532e-01,
	3.1891842402e-02,
	5.2708517716e-01,
	-8.5747856075e-01,
	-7.7361369671e-01,
	-5.1646473586e-01,
	-7.1355327006e-01,
	8.5277871029e-01,
	1.3425092318e-01,
	6.3274025697e-01,
	2.5583666494e-01,
	5.8867152928e-01,
	-6.8919949950e-01,
	-9.9890133366e-01,
	3.0442213202e-01,
	4.3882564776e-01,
	-5.9843745231e-01,
	9.1863765374e-01,
	6.4281136509e-01,
	-8.2903530992e-01,
	-9.5248268075e-02,
	-5.1469466231e-01,
	1.8613238929e-01,
	3.9194921720e-01,
	-5.7100131230e-02,
	5.0669881283e-01,
	-9.9981688894e-01,
	4.6024964141e-01,
	-2.2714926603e-01,
	2.1286660360e-01,
	3.9103366192e-01,
	4.6647541734e-01,
	9.6713156529e-02,
	-4.3090485426e-01,
	-7.9777639800e-01,
	-4.0834104258e-01,
	-7.6445975814e-01,
	-9.5764692697e-01,
	8.8129932932e-01,
	1.5576557216e-01,
	-7.7042249932e-01,
	4.7371619667e-01,
	8.8028435626e-01,
	-3.2053590503e-01,
	9.2724387341e-01,
	1.4169743950e-01,
	9.4457838679e-01,
	2.3897576255e-01,
	-8.7866757965e-01,
	-4.4291512803e-01,
	-1.3217566454e-01,
	4.8057496872e-01,
	-1.9656971953e-01,
	-3.6286507767e-02,
	-7.4077578051e-01,
	5.5418561357e-01,
	5.9263893551e-01,
	-6.9536423841e-01,
	-1.0385448775e-01,
	-6.9127475814e-01,
	3.9939573351e-01,
	-5.2653584399e-01,
	-7.8008362072e-01,
	5.3743095187e-02,
	-6.0582293161e-01,
	6.6301461837e-01,
	-4.6024964141e-01,
	1.9876705222e-01,
	-6.6270943327e-01,
	6.2450025941e-01,
	-4.9491866817e-01,
	-9.1497543260e-01,
	-6.6484572893e-01,
	-3.5074922941e-01,
	4.1117587817e-01,
	-6.7955565050e-01,
	-9.1552476577e-01,
	-9.1460921049e-01,
	-1.0202337718e-01,
	-6.8697164830e-02,
	6.6759239479e-01,
	2.0261238441e-01,
	6.0686056093e-01,
	6.4268929106e-01,
};

double mlpWeightsLayer2[] = {
	5.7853118709e+00,
	-3.3449775810e+00,
	3.4685450075e+00,
	-2.1836667916e+00,
	-3.0800787728e+00,
};

