// MLP Weights File

#define NUMBER_OF_LAYERS 2
#define LAYER_1_WEIGHTS_LENGTH 2400
#define LAYER_2_WEIGHTS_LENGTH 80

#define LAYER_1_WEIGHTS_ABS_MAX 6.0000000000e+00
#define LAYER_2_WEIGHTS_ABS_MAX 6.0000000000e+00

double mlpWeightsLayer1[] = {
	7.0285892484e-02,
	5.4161673891e-01,
	-2.5861688686e-01,
	1.2105368969e+00,
	1.1200124782e+00,
	-4.8820492026e-02,
	1.0639580493e+00,
	8.6343531768e-01,
	9.2159170359e-01,
	-2.0366509711e-01,
	-3.3487026015e-01,
	-8.3114754605e-01,
	1.2051348440e-01,
	1.0677882494e+00,
	-1.9746670739e-01,
	7.7035137449e-01,
	8.4706917857e-01,
	9.5963678180e-01,
	7.4639567995e-01,
	-9.6969096330e-01,
	-6.4309665033e-01,
	-8.0136977727e-02,
	9.4530612943e-01,
	8.5766859203e-01,
	1.6362361357e-01,
	3.3084144826e-01,
	3.1780901189e-01,
	-6.1950400386e-02,
	3.6179053925e-01,
	-2.8477145303e-01,
	-2.3492121761e-01,
	-5.4062845287e-01,
	4.8143721137e-01,
	2.6142460625e-02,
	-7.5768572348e-01,
	2.9798487195e-02,
	8.8100704165e-01,
	7.2080433789e-01,
	-9.2843792359e-01,
	-1.7525964658e-01,
	7.6472252596e-01,
	-3.1787423897e-02,
	-7.7091027553e-02,
	-6.5880184139e-01,
	-1.2000690754e-01,
	9.1835027180e-01,
	-9.1210229869e-01,
	-3.8712599202e-01,
	8.4447023460e-01,
	8.3482364233e-01,
	-3.5033437349e-01,
	-7.8340782580e-01,
	-3.7695811598e-01,
	-5.4804927647e-01,
	-7.9989776099e-01,
	8.2483380187e-01,
	8.1737123421e-01,
	5.2241616208e-01,
	-2.2052854543e-01,
	2.8603759527e-01,
	-7.3135852894e-01,
	5.4462980993e-01,
	7.4750857354e-01,
	7.5593374276e-01,
	-3.7641353474e-01,
	1.2682251587e+00,
	2.2713199819e-02,
	-5.3538933313e-01,
	7.1263408743e-01,
	-1.4450922531e-01,
	2.7202736424e-01,
	4.7946192920e-01,
	8.2489562975e-01,
	-7.9296936263e-01,
	8.4415840102e-01,
	-2.3430243274e-01,
	-8.6521134128e-01,
	9.0624526354e-01,
	3.3363327801e-01,
	1.0961967688e+00,
	1.8361105528e+00,
	2.2818568107e+00,
	-1.5433039718e-01,
	-4.1758638444e-01,
	-4.3175094463e-01,
	-4.3717947704e-01,
	-6.8385277017e-01,
	-5.6399577843e-01,
	1.2409914653e+00,
	3.0817266657e-01,
	9.0288933443e-01,
	-8.0629979052e-01,
	-4.8136990909e-01,
	2.7194292650e-01,
	9.2801651872e-01,
	8.2799923974e-02,
	2.6144516800e-01,
	-2.8791406089e-01,
	5.3565813581e-01,
	-2.6226815473e-02,
	5.6757781279e-01,
	-1.8618815432e-01,
	-5.5094727237e-01,
	3.9093688586e-01,
	2.0134494610e-02,
	-7.2421766263e-01,
	-9.0464399781e-01,
	1.3367715913e-01,
	-8.2321339231e-01,
	4.1602288573e-01,
	1.0763370448e-01,
	9.4166065179e-01,
	4.8811079881e-01,
	3.0106007296e-01,
	-7.1456455355e-01,
	7.9612268414e-01,
	6.5717019569e-01,
	-5.2962568543e-01,
	-9.5055936401e-01,
	5.6346156639e-01,
	-9.9993520418e-01,
	-7.5248126517e-02,
	2.9901546613e-01,
	8.1532175420e-01,
	2.1757506472e+00,
	1.4798520588e+00,
	-1.8838885515e-01,
	-7.0020596182e-01,
	1.6291829762e-02,
	8.0412825235e-02,
	2.2063781166e+00,
	4.5684167328e+00,
	1.9489502558e+00,
	8.0111720766e-01,
	5.6938002211e-02,
	-4.9691591247e-01,
	8.4340727969e-01,
	4.6464900088e-01,
	5.4759378754e-01,
	1.0025954391e+00,
	-7.1793828507e-02,
	-1.4341084394e-01,
	1.4586432344e+00,
	-1.9512859317e-01,
	1.1518736398e+00,
	-5.0692445497e-01,
	-9.0212509247e-01,
	6.5384848199e-01,
	2.6439544517e-01,
	-6.9205071917e-01,
	2.4371948682e-01,
	-9.1922256812e-01,
	6.1425307013e-01,
	-9.9830227302e-02,
	-9.7701087401e-01,
	-5.5713037716e-01,
	-4.7878488911e-01,
	3.9983431872e-02,
	-4.8222824304e-01,
	-1.0656591836e-01,
	6.0725370497e-01,
	5.7823963537e-01,
	-1.6425416673e-01,
	-1.1542024562e-02,
	9.0182905602e-02,
	-8.3065716185e-01,
	3.8444121875e-01,
	-1.2939831184e-01,
	5.9822877517e-01,
	-8.6609684004e-02,
	-1.7447408026e-01,
	-5.6081469970e-01,
	5.3969839553e-01,
	-3.0262464438e-01,
	-3.4099476381e-01,
	4.4336633451e-01,
	-1.5035982763e-01,
	-3.2378859135e-01,
	4.6159741490e-03,
	4.7118902902e-01,
	-2.6450536636e-01,
	-8.5263348630e-01,
	5.3804643755e-01,
	-6.5352121732e-01,
	7.2233048730e-02,
	7.7356802917e-01,
	-1.0646887995e-02,
	5.1889335862e-01,
	-4.2098585689e-01,
	2.8150150798e-01,
	-6.0086056183e-01,
	-8.0959642439e-01,
	-1.3693364841e-01,
	2.5007304672e-01,
	2.1570892608e-01,
	1.0355737013e+00,
	4.3922751899e-01,
	-4.2877112270e-01,
	-1.3417760305e-01,
	1.8973220287e-01,
	1.6420546279e+00,
	2.1893031860e+00,
	1.4214905725e+00,
	3.9971947298e-01,
	-3.8670127631e-01,
	-6.7375263286e-01,
	-3.8025483559e-01,
	4.2081794892e-01,
	9.6614748844e-02,
	8.1280880978e-01,
	-8.3528221548e-02,
	5.2976101927e-01,
	5.9474497462e-01,
	-8.0500701540e-01,
	8.3072555663e-01,
	-4.3262958496e-01,
	7.3173059500e-01,
	-4.0495731946e-01,
	-9.3144748086e-01,
	-6.9000161668e-01,
	8.7652275789e-01,
	-5.3646318526e-01,
	-5.0414087419e-01,
	-2.5733653782e-01,
	7.1104973503e-01,
	6.8080618055e-01,
	-3.1314023121e-01,
	9.2878532946e-02,
	-7.6774431973e-01,
	5.1540691283e-01,
	-8.8438338948e-01,
	7.5106643237e-01,
	2.6710050421e-01,
	5.6961934659e-01,
	-2.7389083155e-01,
	4.9331167671e-01,
	6.2955146551e-01,
	1.8148663954e-01,
	-2.7652269992e-01,
	-5.9400717858e-01,
	-6.5380733073e-01,
	7.7899662141e-01,
	1.4940507556e+00,
	5.5492621408e-02,
	2.1727371248e+00,
	1.3982333653e+00,
	6.2999009887e-01,
	1.3121896012e+00,
	1.0211418249e+00,
	1.4265432273e+00,
	6.8973999234e-01,
	3.5062286573e-01,
	1.8853036099e+00,
	-3.6889552410e-01,
	-3.7681917262e-01,
	1.5890586042e-01,
	1.0536186258e+00,
	7.2110921675e-01,
	-8.6655861962e-01,
	9.6434285092e-01,
	1.0430647105e-01,
	-5.4940300165e-01,
	1.0076705324e+00,
	-8.6661890069e-01,
	6.5492240443e-01,
	-6.5333192713e-01,
	7.5212039615e-01,
	3.0801394071e-01,
	4.0547782307e-01,
	-6.1944428905e-01,
	7.2857200880e-01,
	-8.3031567924e-01,
	7.8955702495e-01,
	6.0788713634e-01,
	-6.2454850315e-01,
	3.2659108666e-01,
	3.4180892837e-01,
	1.5636798487e-01,
	-3.9943584409e-01,
	6.6153311155e-01,
	-9.9883398600e-01,
	-8.1885759338e-01,
	8.5739524376e-01,
	3.0862630685e-01,
	-7.4295803653e-01,
	-2.1048974194e-01,
	-6.9123280250e-01,
	-9.9722389385e-01,
	-5.9287084574e-01,
	-5.9889851561e-01,
	9.7601117911e-01,
	5.2937359085e-01,
	-4.1686074502e-01,
	6.4825333266e-01,
	8.0084554283e-01,
	-7.0836738390e-01,
	-9.6935522275e-01,
	5.6352341807e-01,
	6.2236764637e-01,
	5.7770373187e-01,
	-9.9097332172e-01,
	3.4659868251e-01,
	7.4799542634e-01,
	7.9611841429e-01,
	-5.8097921719e-02,
	-9.1971040047e-01,
	8.6427130687e-02,
	-6.9476003388e-01,
	2.8399314681e-01,
	7.3064298480e-01,
	9.4099545003e-01,
	2.8226714399e-01,
	9.0887768638e-01,
	8.1783614592e-01,
	-4.2142798985e-01,
	-8.5291879208e-01,
	-3.9865209790e-01,
	-1.0263303213e-01,
	-8.3990111804e-01,
	-5.2310453211e-02,
	-9.6228965332e-03,
	-1.0522228361e+00,
	-6.0101953182e-01,
	7.6787853006e-01,
	6.7128449750e-01,
	-7.5024344643e-01,
	-8.5920341027e-01,
	6.4967353915e-01,
	6.9677192826e-01,
	6.3645545647e-01,
	2.0887218138e-01,
	9.0069209604e-01,
	1.4145436865e-01,
	1.5221992814e-01,
	7.2591647208e-01,
	-8.8579804538e-01,
	2.8153582163e-01,
	-1.4391371802e-01,
	-5.7836485477e-01,
	-4.3367883616e-01,
	-4.1320067825e-01,
	-6.1018891691e-01,
	8.5223348067e-01,
	-5.0179081787e-01,
	-7.8374861441e-01,
	-5.5316751351e-01,
	-3.3292241053e-01,
	-1.6745598805e-01,
	3.4686606752e-01,
	-1.6880464772e-01,
	8.4498711074e-01,
	-3.6033309151e-01,
	-3.5918615834e-02,
	-6.0308500799e-01,
	-4.6131440836e-01,
	-2.1694449772e-01,
	-2.3979381508e-01,
	-2.8056556055e-01,
	-3.9653231823e-01,
	-3.2537848392e-01,
	-1.1935973816e+00,
	-1.6406360662e+00,
	-6.9460849715e-01,
	4.4468353065e-01,
	2.1369178480e+00,
	4.5106504773e-01,
	4.9514677165e-01,
	-8.2296924131e-01,
	7.8671344493e-02,
	-8.7152737237e-01,
	2.9337772850e+00,
	4.9047625993e+00,
	8.7020093409e-01,
	1.6061748453e-01,
	-6.9971777446e-01,
	-4.3838835101e-02,
	3.6475699943e-01,
	-1.3208768568e-02,
	6.8513909485e-01,
	-2.8620672788e-01,
	8.5622196283e-01,
	6.1240099664e-01,
	7.5312339815e-01,
	3.4988003611e-01,
	1.1285565154e+00,
	1.1661379034e+00,
	6.1570766890e-01,
	-2.4725931095e-01,
	2.1148561495e-01,
	-6.0675241895e-01,
	4.5274403052e-01,
	1.2464843390e-01,
	-8.1619293893e-01,
	9.8947158681e-01,
	-2.0820973966e-01,
	3.5448401721e-01,
	-7.1161886948e-01,
	-4.3289191058e-01,
	7.9465980223e-01,
	4.7209741709e-01,
	-2.2546802891e-01,
	-1.8910180646e-01,
	2.4489137868e-01,
	3.7324252044e-01,
	6.8000555070e-01,
	5.1634367451e-01,
	-8.1047487718e-01,
	-3.9738942858e-03,
	-5.4438197495e-01,
	8.3751045239e-01,
	6.6041839008e-01,
	-7.6558317520e-01,
	3.4178835682e-01,
	-1.9293858213e-02,
	9.3394285111e-04,
	2.5436835701e-01,
	-1.5657419579e-01,
	-4.4869348009e-01,
	9.2839591667e-01,
	4.2780425652e-01,
	-2.8760899384e-01,
	2.8061855740e-01,
	-4.6451489882e-01,
	-1.1133930340e-01,
	2.3219053995e-01,
	2.6660245154e-01,
	-7.7129498431e-01,
	5.2231980083e-01,
	8.8186032692e-01,
	-9.7183218785e-01,
	-5.0011120370e-03,
	-3.4357375557e-01,
	-1.6095330407e-01,
	-7.5999683941e-01,
	-9.7134220363e-01,
	-4.8372998049e-01,
	7.5503411326e-01,
	-7.8152460487e-01,
	5.1257063484e-01,
	-7.9125068826e-01,
	-9.7334501290e-01,
	-1.3329080770e-02,
	-6.1013115803e-01,
	3.8431578296e-01,
	-8.6019283429e-01,
	3.5103109377e-01,
	-3.5942888316e-01,
	-1.1087897643e-01,
	8.7579113699e-01,
	-4.3381370584e-01,
	-5.7787331664e-01,
	-2.8970185118e-01,
	8.5994385832e-01,
	-3.8986014697e-02,
	5.9964812944e-01,
	9.7968427743e-02,
	-7.2354412718e-01,
	8.3306668303e-01,
	-3.7911409168e-01,
	-8.4168384014e-01,
	8.6121507220e-01,
	6.1589704943e-01,
	-1.8528412248e-01,
	-2.9974144100e-01,
	8.5340293166e-01,
	-1.5876488407e-01,
	2.1885113268e-01,
	6.1207939258e-01,
	6.2894926792e-02,
	-2.6808301499e-01,
	8.2225344461e-01,
	1.1442255219e-01,
	8.5651273655e-01,
	-7.3211755042e-01,
	-4.8332916475e-01,
	-9.4014998998e-01,
	7.1711085448e-01,
	1.6827872474e-01,
	5.6160443168e-02,
	7.1495825255e-01,
	3.5056922316e+00,
	2.4205416375e+00,
	1.2236884955e-01,
	9.0503337738e-01,
	-9.8034277870e-01,
	-6.8032390497e-01,
	1.0914056281e-01,
	-1.5466253441e-01,
	2.9866985630e-01,
	-8.5815288884e-02,
	2.7639169212e-02,
	3.6504694630e-01,
	-4.4763960839e-01,
	6.1724880318e-01,
	-3.0320650553e-01,
	-1.8526722223e-01,
	-4.8019111751e-01,
	6.2868977524e-01,
	-5.8916489547e-01,
	5.9578005509e-01,
	-6.3191651232e-01,
	-8.3199247717e-01,
	-4.7536899812e-01,
	-7.3944943516e-01,
	-5.1101071909e-01,
	1.8402503529e-01,
	-6.7328111423e-01,
	-7.7986197197e-01,
	-6.1171820479e-01,
	3.7265312492e-01,
	9.1081818586e-01,
	-8.4847406662e-01,
	-1.2354993562e-01,
	-6.3732612066e-01,
	7.6374727549e-01,
	3.1971072811e-01,
	-6.0825073742e-01,
	-5.2656385560e-01,
	-9.5798159668e-01,
	-7.4885673344e-01,
	8.0277137077e-01,
	-7.9075772818e-02,
	9.7141947317e-01,
	-2.5199635478e-01,
	-3.8546145213e-01,
	-6.0804225207e-01,
	5.4889913310e-01,
	1.5232788823e-01,
	-9.6878508849e-01,
	9.6211648172e-01,
	-2.4665051542e-01,
	-5.9758024923e-01,
	-8.0097796200e-01,
	4.7308196662e-01,
	-3.2082963703e-01,
	-2.9404970878e-01,
	-2.9053450715e-01,
	1.5770986218e-02,
	-6.9968563071e-02,
	1.1464028671e-01,
	-5.9015072086e-01,
	-1.3193542172e-01,
	2.6841899144e-01,
	2.8584804777e-01,
	2.2179927831e-01,
	-2.6226881267e-02,
	-4.2431700021e-01,
	6.2258099735e-01,
	5.0754907973e-01,
	-3.4930087485e-01,
	8.8187266732e-01,
	3.0838811310e-01,
	5.6979661668e-01,
	8.4616383020e-01,
	-9.4250599516e-01,
	-8.2952011052e-01,
	-7.5931237421e-01,
	6.0188651463e-01,
	3.2389439928e-01,
	-7.5772137544e-01,
	1.0039040177e-01,
	-1.0876207897e+00,
	-4.3734480899e-01,
	6.7768152424e-01,
	4.6069809711e-01,
	2.3623435636e-01,
	-5.4983702105e-01,
	-7.3576279362e-01,
	-6.7154369234e-01,
	2.8194452282e-01,
	1.7493636787e-01,
	-2.2684429978e-01,
	-7.2860136290e-01,
	-3.4166745732e-01,
	-9.3183252858e-01,
	5.0998869515e-01,
	6.9245998361e-01,
	-3.2315705406e-01,
	1.3784888393e-01,
	2.0002358196e-01,
	3.2753687569e-01,
	1.6877223437e-02,
	-4.8964147820e-01,
	-1.0118077468e-01,
	-1.3451888247e-01,
	-4.3452168041e-01,
	8.4455326273e-02,
	1.0968131593e-01,
	-8.2401087342e-01,
	-5.7777281207e-01,
	3.7666948510e-01,
	7.3254519996e-01,
	-5.1022113070e-01,
	-9.4779565850e-01,
	5.0395311428e-01,
	-9.1894918942e-01,
	4.1010767837e-01,
	9.8271887383e-01,
	-6.5043006691e-01,
	7.8210117961e-01,
	1.1080989707e+00,
	9.1984903843e-01,
	-6.5241427513e-01,
	1.4055199785e-01,
	-1.2396782356e+00,
	-5.4766800711e-01,
	-2.4069376618e-01,
	-1.4027279265e+00,
	-8.0066470700e-01,
	-1.7609768559e+00,
	1.8725111429e+00,
	1.1158375710e+00,
	-4.9114987061e-02,
	6.0684577002e-01,
	7.8148552837e-01,
	-8.3768063123e-01,
	-7.9426492276e-01,
	-4.1247442652e-01,
	3.0260787229e-01,
	-4.1341909878e-01,
	1.1027718997e-01,
	-4.3350774542e-01,
	-7.0947981879e-01,
	9.7686609039e-01,
	-6.8626740900e-02,
	1.0285675472e+00,
	7.0241226626e-01,
	-7.7571094661e-01,
	1.2178761173e+00,
	-8.3283889260e-01,
	1.0160178381e+00,
	2.0523491226e-01,
	7.5275433587e-01,
	-4.5357194666e-01,
	-1.3437841428e-01,
	-8.4621414895e-01,
	1.5383313076e-01,
	-9.6354748409e-01,
	-7.5647574929e-01,
	-5.3584468529e-01,
	-6.4847616742e-01,
	5.3913046864e-01,
	1.0313213854e-01,
	6.8349047177e-01,
	3.4562700456e-01,
	-3.5873332278e-01,
	8.8332819440e-01,
	7.2078441693e-01,
	2.6476703920e-01,
	1.9180915208e-01,
	-7.2946979436e-01,
	-6.8788391083e-01,
	8.8405326431e-01,
	-4.3320479776e-01,
	8.7548922835e-01,
	-3.6430647195e-01,
	-6.2282363680e-01,
	5.1991458029e-01,
	-1.9812660534e-01,
	-8.2389769509e-01,
	5.1805080751e-01,
	-2.4840149268e-01,
	3.6761565550e-01,
	2.6387090225e-01,
	2.5170903723e-01,
	-8.1901192202e-01,
	3.7116391598e-01,
	-5.7710329121e-01,
	-7.3664627765e-01,
	6.5626048466e-01,
	-9.5401363926e-02,
	-3.8545932851e-01,
	1.9304099978e-01,
	9.7844768757e-01,
	-7.2214544710e-01,
	-4.8830015118e-01,
	-3.7961582342e-01,
	-8.2334463716e-01,
	-7.5768644798e-01,
	7.9049724729e-01,
	-1.7663756055e-03,
	-6.6188863797e-01,
	-8.8576450129e-01,
	1.9969059940e-01,
	5.0043229145e-02,
	-9.5148124608e-01,
	8.4278426770e-01,
	3.7336446154e-01,
	4.9449114674e-01,
	-4.0347050534e-01,
	5.1333452141e-01,
	1.0878421455e-01,
	4.4116916141e-01,
	1.7701793000e-02,
	-6.1010016631e-01,
	-2.7989686924e-01,
	2.4611889629e-01,
	8.0256883668e-01,
	1.4450807968e-01,
	5.0982884701e-01,
	4.5879001004e-01,
	-9.6729946189e-01,
	-8.7538669150e-01,
	-3.4759935291e-01,
	-9.7904846315e-01,
	-5.7663253492e-01,
	1.9479882869e-01,
	-3.4260361709e-01,
	-3.9605232061e-01,
	4.4827554732e-01,
	-4.5575268479e-01,
	9.4175953145e-01,
	9.1587735304e-01,
	-2.5386435540e-01,
	2.2917897238e-01,
	8.1867704589e-02,
	-1.5262319389e-01,
	1.2240102402e-01,
	-4.5382637211e-01,
	-5.4642377451e-01,
	1.5676402745e+00,
	1.1459503880e-01,
	9.2699922572e-01,
	4.5075058124e-01,
	6.2557849509e-01,
	9.6093126206e-01,
	1.2651984743e+00,
	-5.3451843055e-02,
	1.3299977085e+00,
	5.6480249060e-01,
	6.4923958244e-01,
	7.0755155563e-02,
	4.1329088849e-01,
	-8.3154613702e-01,
	7.3329381976e-01,
	1.8878260047e-01,
	-4.3623144981e-01,
	7.7638250077e-02,
	8.4768980646e-01,
	1.3079913048e-01,
	-4.6941812839e-01,
	-5.0610733515e-01,
	2.4221329991e-01,
	-5.2479318939e-01,
	1.5614839656e-01,
	-6.5499563864e-01,
	6.0164289980e-01,
	-9.8147574703e-01,
	4.4413208575e-01,
	-8.5111360229e-01,
	-5.2106664123e-01,
	3.0315377724e-01,
	-6.3076889630e-01,
	-9.4152304932e-01,
	-4.2370043977e-01,
	5.9720115337e-01,
	-9.7038570415e-01,
	-4.3175990041e-01,
	-9.2931676081e-01,
	8.0287111541e-01,
	7.0535335024e-01,
	-9.4608868470e-01,
	3.4756388066e-02,
	-1.2484394998e-01,
	-8.3786580230e-01,
	-7.9217045332e-02,
	-9.3050789056e-01,
	-3.0613606989e-01,
	-9.9862490413e-01,
	9.2190854393e-01,
	8.3163311728e-01,
	-4.6318584562e-01,
	-6.7049563607e-01,
	-5.2470862418e-02,
	5.7723589734e-02,
	5.0218787301e-01,
	2.9924959191e-01,
	-3.3837532128e-01,
	5.2524078988e-01,
	-2.2020291082e-01,
	-1.7213246765e-01,
	-9.8514092915e-01,
	-9.1171406470e-01,
	2.0124323328e-01,
	-8.8972376352e-01,
	-1.8978962264e-01,
	-7.4826299071e-02,
	-8.9791643795e-01,
	2.2947274645e-01,
	-1.3885928093e-01,
	8.9262462727e-01,
	-6.3453356078e-02,
	-8.2896825879e-02,
	-5.5866035409e-02,
	8.3779742394e-01,
	1.3467221032e-01,
	8.7823091462e-01,
	8.8783134372e-01,
	7.9982229487e-01,
	9.8192125384e-01,
	1.5598145497e+00,
	1.5609288860e+00,
	-8.8422822883e-02,
	-6.7073324238e-01,
	-2.7879991615e-01,
	6.8339050160e-01,
	7.4330643857e-01,
	1.0681472398e+00,
	-6.5028413860e-01,
	3.7750207216e-01,
	-2.2005665033e-01,
	-5.0330876308e-02,
	1.6868424233e-01,
	-2.8489151565e-01,
	-8.7505608260e-01,
	2.2498908798e-01,
	3.7421908050e-01,
	-8.4309320627e-02,
	3.1813733951e-01,
	-3.9676151701e-01,
	7.7684505306e-01,
	2.1425514244e-01,
	5.3782922591e-01,
	-3.0383174429e-01,
	-8.4472376265e-01,
	3.5420549898e-01,
	7.7003897790e-01,
	9.9579972890e-01,
	2.2937844999e-01,
	5.4808576587e-01,
	8.6369611100e-01,
	5.9205731051e-02,
	2.2501376016e-01,
	-7.3260303438e-01,
	1.6682471883e-01,
	6.9610959675e-01,
	6.8946556223e-01,
	-1.9836929163e-01,
	5.6766173265e-01,
	8.0003423342e-01,
	4.4004312199e+00,
	1.4131828108e+00,
	1.9508115050e-01,
	-1.2837240483e-01,
	-2.2177814299e+00,
	-6.6526282343e-01,
	-6.9168690891e-01,
	-1.0635129084e+00,
	-8.4640006030e-01,
	-8.7339329213e-01,
	-3.8471721135e-01,
	-1.1628166823e+00,
	-1.9606505207e+00,
	-1.1280294965e+00,
	-2.8456328185e-01,
	-1.3533334605e-01,
	4.8387045473e-01,
	-1.0884471136e+00,
	-3.8681210489e-02,
	-2.9032210345e-02,
	5.4173257274e-01,
	-4.5754204859e-01,
	-1.5104022631e+00,
	-3.3087726039e-01,
	7.5767826087e-02,
	1.4920490021e-01,
	-6.2200718851e-01,
	-2.2930239638e-01,
	9.2669415133e-01,
	9.0842168816e-01,
	-4.5472464907e-01,
	8.9715008244e-01,
	-8.9851453810e-01,
	2.9276987954e-01,
	1.3259028710e-02,
	-9.8215469972e-03,
	-8.5287982719e-01,
	3.4904591447e-01,
	2.5340811780e-01,
	9.1383206840e-01,
	3.7424820493e-03,
	-8.8093557296e-01,
	4.5718857621e-01,
	8.7129461573e-01,
	-4.7766819479e-01,
	6.9246081528e-01,
	-1.1751252462e-01,
	-7.2775294522e-01,
	6.9688227945e-01,
	8.8995720814e-01,
	2.4951389956e-01,
	2.4211677594e-01,
	-2.5498609650e-01,
	2.5381586106e-01,
	9.3124433045e-01,
	8.3759982038e-01,
	-5.8369223661e-01,
	-6.8497654222e-01,
	-3.8507371460e-01,
	-6.3015953620e-01,
	-7.5669828283e-01,
	1.8555958925e-01,
	-7.2785358903e-01,
	-6.5378512918e-01,
	-5.1841439069e-01,
	2.6475920985e-01,
	3.1538727880e-01,
	-3.7299515724e-01,
	-3.6399472918e-01,
	-4.0935304102e-01,
	-4.3106536079e-01,
	6.3976909883e-01,
	-2.9032056779e-01,
	-9.9940401826e-01,
	5.0966210138e-01,
	2.2134257182e-01,
	6.9136927323e-01,
	-6.0610963314e-01,
	5.0318414303e-01,
	3.8062912906e-01,
	-7.7064129885e-01,
	-3.3212144547e-01,
	-4.1439949367e-01,
	1.1712550595e-02,
	-9.9592251106e-01,
	-4.4838932002e-01,
	-1.4556648943e-01,
	-5.8107885181e-01,
	-1.3335381597e-01,
	4.4556332248e-01,
	-2.2557805657e-01,
	1.2118237718e-01,
	-3.3279428043e-01,
	6.6733485392e-02,
	4.6808304758e-01,
	1.4966667990e-01,
	-6.4703595901e-01,
	-1.9470868502e-01,
	7.7932399780e-01,
	-1.1008980142e-02,
	3.9590610910e-01,
	-6.7718668397e-01,
	-3.7123949983e-01,
	-8.9441424417e-01,
	-6.7750615448e-01,
	-8.6315588964e-01,
	3.3660614023e-01,
	-9.8337007873e-01,
	-4.6616935239e-01,
	-1.5765417091e-01,
	4.0631356277e-01,
	-1.8344241724e-01,
	5.7359001157e-01,
	-9.6350624296e-01,
	8.4274747557e-01,
	6.0464303010e-01,
	-3.9771728365e-01,
	-2.8667343993e-01,
	-9.7259944103e-01,
	4.8071253820e-01,
	-8.0788390870e-01,
	-1.6721756499e-01,
	-3.9740650980e-01,
	-1.3781597124e-01,
	1.0406643032e+00,
	-8.5195669711e-01,
	-9.8814928438e-01,
	-7.5700180544e-01,
	-1.2379200666e-01,
	7.9446979103e-01,
	3.7834833949e-01,
	-5.4135038226e-01,
	-8.2679517896e-01,
	8.9068383412e-01,
	-6.2083549812e-01,
	-5.5697046623e-01,
	-9.9558951656e-01,
	7.2449190188e-01,
	-5.4377708686e-01,
	-4.6306915164e-01,
	-4.3554446460e-01,
	8.8684164957e-01,
	3.9368090129e-01,
	-8.1543425958e-01,
	9.2051335435e-01,
	2.2554842803e-01,
	7.6697295369e-01,
	-4.8757643050e-01,
	9.8772697134e-01,
	8.1947761114e-01,
	9.9934387757e-01,
	-8.9081623755e-01,
	-3.8795658883e-01,
	-4.1334805474e-01,
	-2.8847526392e-02,
	-4.9865599389e-01,
	-3.4392487392e-01,
	-1.8789478121e-02,
	-2.5587304726e-01,
	5.3190985486e-01,
	-2.2761476470e-01,
	9.7613399009e-01,
	8.0378540782e-01,
	-1.1362673394e-01,
	8.3707756132e-01,
	-8.1875322353e-01,
	3.2385457824e-01,
	8.3753130453e-01,
	8.9630601966e-01,
	7.7797889002e-01,
	-6.2811778705e-01,
	-5.4628933275e-01,
	6.3875884813e-01,
	7.2408749709e-01,
	-3.9227295546e-01,
	5.3841984437e-01,
	-7.6936126257e-02,
	-6.3356530836e-01,
	-9.5963661185e-01,
	-1.6461166049e-01,
	-8.4682730590e-01,
	-9.7935003500e-01,
	-5.7491349547e-02,
	-2.3838025974e-01,
	-4.1489087273e-01,
	7.9523540378e-01,
	1.8199022806e-01,
	2.5770737572e-01,
	-1.0768160140e-01,
	-9.8941365173e-01,
	-2.0564523060e-01,
	6.6327818215e-01,
	9.8191363246e-01,
	-4.1515816898e-01,
	-4.7424478787e-01,
	7.7130937441e-01,
	-2.3751714287e-01,
	8.5853623678e-01,
	6.1802745899e-01,
	-4.2200343603e-01,
	3.4461823181e-01,
	-1.1793217890e+00,
	-2.6722297564e-02,
	1.9675250556e-01,
	6.6370724927e-01,
	6.2952248892e-01,
	-2.0923324019e-01,
	-3.7630316410e-01,
	-9.6134928253e-01,
	-2.2298115622e-01,
	3.9847216475e-01,
	-7.5366702036e-01,
	-1.1620846276e-01,
	-5.4374736337e-01,
	2.4320421664e-02,
	5.0249478215e-01,
	-6.3000861855e-01,
	-7.0866159891e-01,
	-2.3359830535e-01,
	2.6312588477e-01,
	-6.9807525058e-01,
	5.6204978924e-01,
	-7.1367601006e-02,
	-7.1234013909e-01,
	-8.4299567804e-01,
	4.7769160305e-01,
	-8.9107874023e-01,
	-5.6801093861e-02,
	3.5281619432e-01,
	7.6109828848e-01,
	5.9886255337e-01,
	-2.3732585521e-02,
	7.4624606102e-01,
	-2.7250227357e-01,
	-7.0296086405e-01,
	5.5987658181e-01,
	-5.1346915246e-01,
	1.2283567303e-01,
	-7.7418612090e-01,
	-4.0861138042e-01,
	-9.1671153596e-01,
	5.9419177821e-01,
	-1.9024248759e-01,
	-1.1923193376e-01,
	-8.4477554862e-01,
	8.1625813948e-01,
	-6.0352780035e-01,
	-4.1099308318e-01,
	-8.2454870736e-01,
	1.6911409401e-01,
	6.7255149247e-01,
	-6.8644897060e-01,
	-2.9717284413e-01,
	-2.2326563694e-01,
	-2.3660504264e-01,
	-1.0716043049e-01,
	-7.4069942880e-01,
	-1.2529911922e-01,
	8.3516631044e-01,
	6.1224693358e-01,
	-3.5125390754e-01,
	4.1044497886e-01,
	-3.8948312314e-01,
	-5.4671943533e-01,
	-7.8769450608e-01,
	-7.8586746432e-02,
	-9.8136256446e-01,
	-2.9585554071e-01,
	-9.3859466742e-01,
	-7.3860910928e-01,
	2.9621345795e-01,
	-9.3399167896e-01,
	-9.7892516571e-01,
	-8.4309322719e-01,
	-3.5116394521e-02,
	-7.6188827109e-01,
	-9.6075248333e-01,
	3.6633630161e-01,
	-1.7469164637e-01,
	-7.8792740022e-01,
	-4.6539765758e-01,
	-3.2470583325e-01,
	-3.1317756945e-01,
	2.6582751948e-01,
	4.5409398069e-01,
	4.5021734920e-01,
	-8.4005697344e-01,
	7.1343234523e-01,
	-6.7413218397e-01,
	9.9810042533e-01,
	3.2905490758e-01,
	-2.5144863420e-02,
	4.5786317210e-01,
	9.5466877337e-01,
	4.3014282614e-01,
	6.7034117955e-01,
	-1.1725977860e-01,
	4.4878189799e-01,
	-6.2551435811e-01,
	-5.5844621968e-02,
	7.1467235108e-01,
	6.9931215792e-01,
	1.4962541733e-02,
	7.4616797294e-01,
	1.0044213983e+00,
	1.7917487462e+00,
	1.6559247382e+00,
	9.0674234340e-01,
	3.4217864262e-01,
	-2.0468085251e-01,
	-9.0841094645e-01,
	8.8466341081e-01,
	4.7913807284e-01,
	-1.7848413411e-01,
	2.6803963888e-01,
	1.7225210419e-01,
	-6.8035966754e-01,
	3.4510857777e-01,
	-2.0501137425e-01,
	1.9330917261e-01,
	3.7765837937e+00,
	5.1359624263e+00,
	3.0413941832e+00,
	4.9076306997e-01,
	1.6090372191e+00,
	1.0005868683e+00,
	-9.1300946181e-02,
	7.9637935286e-01,
	5.4290194997e-01,
	8.2989057000e-01,
	1.8357602132e+00,
	-8.0323321812e-01,
	-4.8935572162e-01,
	-2.3402263212e-01,
	8.4541526366e-01,
	-6.8808702672e-01,
	-2.6613479233e-01,
	8.1434172965e-01,
	-8.1482844347e-01,
	-9.2475190363e-01,
	-3.9043373838e-01,
	-7.2979390378e-01,
	9.5302283944e-01,
	-9.0838516619e-01,
	7.5255879537e-02,
	1.1786478611e-01,
	1.0129452977e-02,
	2.6499678854e-01,
	-5.9675649367e-01,
	6.6930344005e-01,
	8.7256953678e-01,
	8.3910175776e-01,
	9.9356425468e-01,
	4.5736730818e-01,
	-5.1578218507e-01,
	5.3376377403e-01,
	-7.0157813587e-01,
	-8.4212933114e-02,
	-5.7675961604e-01,
	-2.8915663394e-01,
	2.4255099817e+00,
	9.2547610226e-02,
	-8.1922069306e-02,
	-1.0646165626e+00,
	-2.4023578347e+00,
	-9.9670621412e-01,
	-6.7718182399e-01,
	1.5199681114e-01,
	-1.9287300607e+00,
	-1.7767563403e+00,
	1.0576931948e-01,
	-2.1446730546e+00,
	-2.1135388518e+00,
	-1.7211734251e-02,
	5.6564587745e-01,
	7.7695384961e-01,
	-5.7651904421e-01,
	-9.4592575726e-01,
	1.6892822993e-01,
	8.0016974369e-02,
	7.6010391844e-01,
	-3.3950410145e-01,
	-8.3712516535e-01,
	3.3716874897e-01,
	-6.6464295501e-01,
	1.9816288116e-01,
	-7.9211765741e-02,
	-3.5077258624e-01,
	-8.9995581644e-01,
	2.4962247735e-01,
	3.0410415939e-01,
	7.9412244205e-01,
	3.5265851945e-01,
	-8.6403746907e-01,
	9.6375359685e-01,
	-7.9996974198e-01,
	-2.1474892703e-01,
	-5.6330134513e-01,
	7.7750348024e-01,
	2.4270185141e-01,
	9.3935300174e-02,
	4.3003902558e-01,
	-6.9029183485e-01,
	-9.7980530745e-01,
	3.3901492801e-02,
	4.5677799054e-01,
	9.8627387491e-01,
	7.3005485654e-01,
	6.0851324983e-01,
	2.1621343829e-01,
	-1.7747472002e-01,
	4.0294822836e-01,
	-7.4461678473e-01,
	6.0892635195e-01,
	-1.9282788280e-01,
	-3.7296852813e-01,
	-1.5224042495e-01,
	7.4294288258e-01,
	2.8379710544e-01,
	-3.2888904112e-02,
	1.5230907225e-02,
	-3.6338651624e-01,
	-2.2953690919e-01,
	-6.2331856301e-01,
	-1.5921827937e-01,
	8.4055286003e-02,
	-1.4721056541e-01,
	5.6891360769e-01,
	1.7026725887e-01,
	-6.5118817384e-01,
	-1.7054888748e-01,
	-7.3238817123e-01,
	7.8330778493e-01,
	1.3287539809e-01,
	-6.4916645137e-01,
	-6.7160607376e-02,
	-3.8676322024e-01,
	-7.0435222601e-01,
	-3.6900599412e-01,
	-5.2759900359e-01,
	2.0591077456e+00,
	2.2887617565e+00,
	1.7679457314e+00,
	1.0543740081e+00,
	2.2927160307e-01,
	-2.8473259804e-01,
	-4.4892795485e-01,
	1.2910166645e+00,
	-3.3486934929e-01,
	1.0950084054e+00,
	2.4280281420e-01,
	1.8115304580e-01,
	-7.0228184407e-01,
	5.6245928064e-01,
	5.1207679351e-01,
	5.0107870901e-02,
	-7.0735247058e-01,
	-9.1740917316e-01,
	-3.9493339010e-01,
	4.6265195884e-01,
	-5.6868711846e-01,
	4.0218160011e-01,
	7.2810384945e-01,
	-7.8491776091e-01,
	-4.7533391591e-01,
	-9.8050728230e-01,
	2.5655593862e-02,
	7.3666259427e-02,
	-7.1414054818e-01,
	5.8029746767e-01,
	2.7658318984e-01,
	8.4280230248e-01,
	1.1443912025e-01,
	-1.1654719041e-01,
	5.2676322109e-01,
	9.0852347525e-01,
	2.0864518590e-01,
	8.9828118922e-01,
	7.6808859796e-01,
	3.3677195896e-01,
	3.5239002458e-01,
	-6.5419263693e-01,
	-5.6559406323e-01,
	7.8971897412e-01,
	-1.0188267506e+00,
	8.8001711250e-01,
	-1.6189528493e-01,
	-6.5431079258e-01,
	-9.3334145343e-01,
	4.6348964098e-01,
	5.6383589860e-01,
	-8.3882621241e-01,
	-2.7849680061e-01,
	4.9190458974e-01,
	-3.1128792100e-01,
	3.4357728608e-01,
	5.4830496598e-01,
	7.0787876787e-01,
	-5.5460500465e-01,
	8.3911318418e-01,
	2.6772840251e-01,
	6.4035547841e-01,
	5.1571035771e-01,
	-8.2490996877e-01,
	-5.1069995798e-01,
	1.0255836471e-01,
	-8.7469798487e-01,
	6.9771480455e-01,
	-5.6119986059e-02,
	8.1331214997e-01,
	2.7633161199e-02,
	-4.5330684713e-01,
	-6.2305914101e-01,
	5.0214634296e-01,
	-6.3296538376e-01,
	-5.4282307337e-01,
	4.9067533116e-01,
	2.3408007586e-01,
	-1.6961315628e-01,
	5.5209587214e-01,
	-2.9547046651e-01,
	-3.3556292175e-01,
	-9.5561339704e-01,
	5.7659089452e-01,
	-7.7504751720e-01,
	-2.5326483196e-01,
	-4.2839858121e-02,
	7.9668483163e-01,
	-5.2820394818e-01,
	4.0990907562e-01,
	6.5012638296e-01,
	7.6303477561e-01,
	1.0708389645e-01,
	2.7281091519e-01,
	9.8644372448e-01,
	6.2375886721e-01,
	-5.9248205535e-01,
	-8.8306079334e-01,
	3.4227271999e-01,
	4.2405002506e-01,
	9.8531489186e-01,
	-5.8779237167e-01,
	9.8191421057e-01,
	-6.2860041604e-01,
	1.0485060648e+00,
	-1.4800275195e-02,
	3.5026754109e-01,
	4.1965610623e-01,
	5.7901675124e-01,
	6.4604929719e-01,
	-4.9326733533e-02,
	-7.0957635207e-01,
	-6.8058778044e-01,
	4.1446514093e-02,
	9.7882350437e-01,
	-2.4318363834e-01,
	8.3410605212e-01,
	-1.3407470283e-01,
	-5.1023171111e-01,
	-1.9666398440e-01,
	2.0901994576e+00,
	4.4005400508e+00,
	3.0150494065e+00,
	9.5889031221e-01,
	8.1158125366e-01,
	1.7710863124e+00,
	3.4253492936e-01,
	1.4344229560e+00,
	-2.4817069552e-02,
	1.1499545898e-01,
	9.3184719812e-01,
	-8.7478932237e-01,
	-2.8210730049e-01,
	6.9504347513e-02,
	-5.9124653871e-01,
	-4.1182176772e-01,
	4.0691043515e-01,
	2.2306122707e-01,
	9.8086308354e-01,
	-1.4963630099e-02,
	-1.3096793087e-01,
	-7.5084865048e-02,
	2.7190834795e-01,
	1.9401240646e-01,
	9.4752708049e-01,
	1.4829877239e-01,
	7.2186919525e-01,
	6.4916352464e-01,
	9.5137099953e-01,
	-9.2386451194e-01,
	9.1557935472e-01,
	-6.9478012887e-01,
	-6.4720334977e-01,
	9.4340376684e-01,
	5.3510098500e-01,
	2.9003750365e-01,
	7.9461354294e-01,
	-4.9991082614e-01,
	3.5377375302e-02,
	8.7871477184e-01,
	-2.5564232488e-01,
	-9.8209453774e-01,
	8.8712889380e-01,
	4.3900375989e-01,
	1.0918894138e-02,
	-7.3091533778e-01,
	-9.6496299734e-01,
	-4.9593746404e-01,
	5.3220536209e-01,
	-9.8657743860e-01,
	3.2497768000e-01,
	-8.0926545322e-01,
	-1.4526230321e-01,
	-2.7253693063e-01,
	5.7395707838e-01,
	-1.7650762149e-01,
	8.6304484146e-01,
	2.8899894610e-01,
	-5.0880759472e-01,
	8.1919774229e-01,
	3.2891365559e-01,
	-6.6754550104e-01,
	9.4048516977e-01,
	3.2733130333e-01,
	-8.4582245944e-01,
	4.7232828645e-01,
	-3.4765756554e-01,
	9.3474733417e-01,
	8.8306439512e-01,
	5.7344197598e-01,
	7.8794495056e-01,
	-2.8235536936e-01,
	6.4071670237e-01,
	7.0046571259e-01,
	-8.3281915814e-01,
	-2.6152280765e-01,
	-9.8323686343e-01,
	-7.9731236109e-01,
	2.4421824673e-01,
	5.4996939262e-01,
	-7.8263622792e-01,
	-2.6611420944e-01,
	9.5208766309e-01,
	1.5547846405e-01,
	4.9107112919e-01,
	5.3362495896e-01,
	-9.9478043132e-01,
	3.7550251384e-01,
	-1.6979996263e-01,
	-4.9849236132e-01,
	2.0319123816e-01,
	-8.2583574756e-01,
	-1.4893700702e-01,
	2.0054318812e-01,
	5.4800516532e-01,
	2.3638666153e-02,
	-2.9898739201e-01,
	-7.9297874765e-01,
	-2.4567965895e-02,
	-3.3820970139e-01,
	8.1403006236e-01,
	-2.2042031399e-01,
	3.8233472378e-01,
	4.5671301086e-01,
	-5.1259149347e-01,
	5.6163700042e-01,
	-8.0132070929e-01,
	-4.9671033714e-01,
	7.5267175108e-01,
	4.3969994325e-01,
	-9.4674096813e-01,
	9.7003623734e-01,
	-8.2641424976e-01,
	-9.9463894342e-01,
	1.2638463983e-01,
	6.6769266528e-01,
	5.4001212181e-01,
	1.3150442117e-01,
	3.9675536969e-02,
	-6.3016277990e-01,
	7.0581594020e-01,
	-7.4970126747e-01,
	-4.5434848359e-01,
	-5.1600967205e-01,
	4.4559261679e-01,
	-9.0870763199e-01,
	5.0920769745e-01,
	-8.5485318508e-01,
	-6.9924225966e-01,
	-5.1486631192e-01,
	-1.9103344104e-01,
	-8.8760277188e-01,
	2.6196363124e-01,
	-8.1074613136e-01,
	5.6828606134e-01,
	7.4837092448e-01,
	7.3923797800e-01,
	7.6376765676e-01,
	-7.4833959920e-01,
	4.9190972815e-01,
	2.0346761737e-01,
	-6.9508045059e-01,
	4.6194524278e-01,
	3.7707089463e-01,
	-6.8973139725e-01,
	-4.1253941926e-01,
	4.1884911026e-02,
	8.4923789737e-01,
	7.1819217744e-01,
	-9.1772091336e-01,
	-7.8154133707e-01,
	3.5102714059e-01,
	-6.7356747167e-01,
	-2.3790434068e-01,
	8.3395133782e-01,
	7.6996918171e-01,
	-1.4691320820e-01,
	3.4075639605e-01,
	9.1564688093e-01,
	1.5150279816e-01,
	1.7369334199e+00,
	1.5594831552e-01,
	1.8507117530e-01,
	-2.2213199783e-01,
	-1.7796986541e+00,
	-7.4224210078e-01,
	-3.9042374047e-01,
	-7.0885998832e-01,
	-1.4452925742e+00,
	-9.7884157629e-01,
	-1.3002203371e+00,
	-9.7766566636e-01,
	-1.1803529691e+00,
	1.2559151788e-01,
	4.5371787041e-01,
	5.5843319336e-01,
	-1.0108333513e+00,
	-8.5909599378e-01,
	5.0399665670e-01,
	8.9910616639e-01,
	-7.0452547204e-01,
	4.5053621612e-01,
	-1.8432979735e-01,
	-4.0518404308e-01,
	-4.9198128364e-01,
	6.5491821892e-02,
	-6.1240800291e-01,
	3.7532857206e-01,
	-5.8185513938e-01,
	-6.9693959694e-01,
	-4.8612497973e-01,
	-7.4441430012e-01,
	3.3397229372e-02,
	7.8913335944e-01,
	3.4211443655e-01,
	9.4463088045e-01,
	-3.6988085945e-01,
	-8.2371779802e-01,
	-4.0475370691e-01,
	2.2601303422e-01,
	2.6132036897e-01,
	-2.6242914575e-01,
	2.5374544331e-02,
	-3.4872191555e-01,
	-6.5808320933e-01,
	-7.9821057795e-01,
	-6.4849795571e-01,
	-4.6627805637e-01,
	-5.7991079501e-01,
	9.0096393431e-01,
	-5.5628071798e-01,
	-2.7934935003e-01,
	6.6883594653e-01,
	7.0414937089e-01,
	3.4704684901e-01,
	-8.0154768089e-01,
	-2.0168422125e-01,
	7.4339408043e-01,
	5.8115593045e-01,
	2.3316075327e-01,
	-9.4076994996e-01,
	-8.7062192750e-01,
	4.9416059822e-01,
	9.6452764042e-02,
	9.8856167805e-01,
	1.5243708422e-01,
	3.2068055423e-01,
	-4.4283105113e-01,
	1.0616412274e-02,
	6.2817587486e-01,
	7.9395894240e-01,
	-7.2468176473e-01,
	-6.2958920320e-01,
	-1.7584628007e-01,
	-9.1740967053e-03,
	-1.7064135627e-01,
	5.1387635587e-02,
	3.0422227851e-01,
	3.3480666359e-01,
	7.5725108278e-01,
	1.6580866676e+00,
	2.4942634495e+00,
	1.9779292370e-01,
	1.5854468233e-01,
	6.9050206743e-01,
	9.4475353021e-01,
	2.5421119176e-01,
	-4.8902831953e-01,
	7.2743714876e-01,
	5.8152667321e-02,
	8.7770495527e-01,
	3.2434761296e-01,
	-2.4353971933e-01,
	-8.4858499005e-02,
	-6.2831667586e-01,
	-3.4749097427e-01,
	7.4567361642e-01,
	4.0377380302e-01,
	1.9647641984e-01,
	-2.4408146693e-01,
	3.1876942483e-02,
	-3.4051254843e-02,
	2.9732859055e-02,
	4.0552427599e-01,
	7.8001052758e-01,
	9.6181199014e-01,
	-8.9139633883e-01,
	-2.4217441353e-01,
	2.2869100706e-01,
	3.6107764326e-01,
	-7.9399290743e-01,
	-5.2287273885e-01,
	1.7643922082e-01,
	-6.2111482655e-01,
	2.6086933296e-01,
	-5.7678696862e-01,
	8.0407649736e-01,
	-6.9114049238e-01,
	-3.4681485865e-01,
	3.6663884576e-02,
	-9.2207043215e-02,
	-9.7122712991e-01,
	-6.9459031601e-01,
	6.4954006580e-01,
	-1.1737355491e-01,
	-3.5020950267e-01,
	-6.9809591104e-01,
	-3.1384370910e-01,
	-9.1996942738e-01,
	4.9577392217e-01,
	2.1800047054e-01,
	-1.8324324162e-01,
	-6.0394925388e-01,
	-5.3979014486e-01,
	-4.9290600285e-01,
	-7.7799668054e-01,
	-5.8016296785e-01,
	-3.8799386255e-01,
	-2.2457489876e-02,
	6.3901735388e-01,
	9.5303136182e-01,
	1.4999314627e-01,
	-9.6213747236e-01,
	-3.9644926789e-02,
	4.3812114057e-01,
	2.6286974841e-01,
	4.0346284928e-01,
	2.4975621676e-01,
	5.3076266281e-01,
	-9.8466876780e-01,
	-7.1955628292e-01,
	-5.1428910237e-01,
	-9.5007711943e-01,
	-4.1487054047e-01,
	-8.6458292840e-01,
	-9.7758769512e-03,
	2.6245826645e-01,
	-5.6267791500e-01,
	6.7661573062e-01,
	3.4305046375e-01,
	9.3501001407e-01,
	1.1868590169e-01,
	-5.4504826737e-01,
	-6.0208460018e-01,
	5.8824482933e-01,
	-3.5608554741e-02,
	-3.7915359502e-01,
	-9.9186822052e-01,
	5.7895413115e-01,
	6.0040025681e-01,
	6.5269243587e-01,
	5.3994626065e-01,
	-2.4673516081e-01,
	6.9723644466e-01,
	-4.6760641200e-01,
	-7.8322355625e-01,
	-1.4091158758e-02,
	9.4547123925e-01,
	4.7531979507e-01,
	-4.3869301651e-01,
	9.6390181305e-01,
	7.5153103615e-01,
	4.6060114972e-02,
	-9.8400369514e-01,
	-6.6115187572e-01,
	1.7650009885e-01,
	2.1502034841e-03,
	6.0529566849e-01,
	6.1992453793e-01,
	-3.1629316249e-01,
	-5.1490944251e-02,
	5.5399507751e-01,
	8.0214541028e-01,
	3.9912561303e-01,
	9.4366860882e-01,
	3.8029426951e-01,
	-6.3784129345e-01,
	-4.3122646834e-01,
	3.8349561913e-01,
	9.1228784564e-01,
	-8.9191993513e-01,
	-3.9613564659e-02,
	4.3196550597e-01,
	-1.0035209119e-01,
	-2.6562420534e-01,
	-9.8554839927e-01,
	1.3683265360e-01,
	7.2906240622e-01,
	9.4983092835e-01,
	-3.9558179264e-01,
	-7.1476685466e-01,
	9.2781662474e-01,
	-6.2527706915e-01,
	3.4296414166e-01,
	9.4895964759e-01,
	-2.8042826754e-01,
	-4.7429862863e-01,
	-4.3976272011e-02,
	-6.7404256453e-01,
	-8.5437440200e-01,
	6.3973226168e-01,
	2.7554968108e-01,
	6.9946445356e-01,
	4.3927855356e-01,
	-3.2324170091e-01,
	6.5198817861e-01,
	-1.6785116318e-01,
	4.8769591567e-02,
	-7.7332793347e-01,
	-7.7017489657e-01,
	-6.3831365715e-03,
	-6.0741221589e-01,
	2.7269211947e-01,
	-5.2201690204e-01,
	3.2655168703e-01,
	-9.6868896625e-01,
	-4.9688448607e-01,
	-5.3093152933e-01,
	7.5752680245e-01,
	-5.3252256869e-01,
	6.3579118861e-01,
	-9.4130137058e-01,
	-5.9586277995e-01,
	9.1251665008e-01,
	1.3555375897e+00,
	-4.2920473258e-01,
	-5.0408756089e-01,
	1.6671688172e+00,
	1.3181165897e+00,
	4.0469055127e-01,
	-9.7226980866e-01,
	5.8744985539e-01,
	1.7222589840e+00,
	1.0703219014e+00,
	-7.8633564024e-01,
	-4.6109970028e-01,
	5.8356883166e-01,
	2.7122087934e-01,
	5.3488393402e-01,
	6.4590679178e-01,
	4.3787053686e-01,
	-4.8887790675e-01,
	-9.6129893546e-01,
	-3.4447792023e-01,
	-3.0880393610e-02,
	3.5301143726e-01,
	-2.3744322735e-01,
	4.8394202300e-01,
	7.5448007725e-01,
	-4.9630996561e-01,
	9.7093545070e-01,
	-4.8718512125e-02,
	-4.0409943862e-01,
	-6.2549320606e-01,
	-5.8025188987e-01,
	-9.9799005148e-01,
	-2.7246244570e-01,
	-3.9150535009e-01,
	9.3309021979e-01,
	-9.6484857703e-01,
	1.2237568345e-01,
	-9.9025797657e-01,
	-1.7729288441e-02,
	-8.8213044725e-02,
	7.8662910153e-01,
	3.7151349979e-01,
	3.8115036093e-01,
	2.1745351109e-01,
	-4.0647905535e-01,
	-1.0060847534e-01,
	-1.2472048391e-01,
	-9.5293552887e-01,
	4.1430650252e-01,
	-6.5795191129e-02,
	-2.1639614795e-01,
	-5.8641956169e-01,
	-6.7830908284e-01,
	5.5183870045e-01,
	9.1739108689e-01,
	-8.1812141175e-01,
	-9.1362245492e-01,
	8.9055474049e-01,
	1.3405200653e-01,
	-3.1706658039e-01,
	-7.3219948988e-01,
	5.5580969717e-01,
	-3.1458892039e-01,
	-4.4131204831e-03,
	-8.3664267037e-01,
	-3.8172054479e-01,
	1.4691215562e-02,
	2.8572978095e-01,
	-3.7215228595e-01,
	-9.8737098805e-01,
	-8.0304016858e-01,
	-5.8580472152e-01,
	3.8356011859e-01,
	5.7607679563e-01,
	6.2666779229e-01,
	9.6845806120e-01,
	-5.2599763378e-01,
	-4.9644368538e-01,
	-9.7830307652e-01,
	8.9295519943e-01,
	4.3781566559e-01,
	-1.9739737087e-01,
	-6.9672519401e-01,
	7.6161840211e-01,
	-6.4168803948e-01,
	-7.7643367738e-01,
	9.5216771387e-01,
	-5.5337709349e-01,
	-8.8523759948e-01,
	7.9843126759e-02,
	1.2979421561e-01,
	-6.1748310916e-01,
	-3.6529445526e-01,
	8.1521091508e-01,
	3.7782768892e-01,
	-2.0193710552e-01,
	-5.6647966602e-01,
	-5.9136542021e-01,
	-9.1620423011e-01,
	6.1328528286e-02,
	-5.7842039409e-01,
	-7.1868293183e-01,
	4.7636822614e-01,
	8.0587009539e-01,
	8.5995154375e-01,
	1.0890496629e-01,
	7.8318003705e-01,
	-6.6255348096e-01,
	6.1511551654e-01,
	8.0815172240e-01,
	-7.7008637813e-01,
	5.8746995873e-02,
	-3.8242877544e-01,
	-4.6404076935e-01,
	-1.7773619712e-01,
	-2.2085363488e-02,
	-7.9084563174e-01,
	-7.3810371172e-01,
	1.4936403906e-01,
	-2.8659388275e-01,
	1.8684080712e+00,
	1.3806521438e-01,
	7.1353944353e-02,
	-6.9939633809e-01,
	-7.0026063611e-01,
	-4.2626909037e-01,
	1.8426587130e+00,
	2.0296961166e+00,
	7.0496680766e-01,
	4.9600859480e-01,
	8.6539597336e-01,
	5.2200301696e-01,
	6.4523348711e-01,
	3.6427045203e-01,
	2.9181473598e-01,
	5.3307384342e-01,
	-5.0484942140e-01,
	1.1763032575e-01,
	1.0843474931e+00,
	-6.1477179931e-01,
	-1.8930765433e-02,
	-7.6091230284e-01,
	1.6164443660e-01,
	5.2710901373e-01,
	-4.3250254930e-02,
	1.0777862331e+00,
	-4.8591120943e-01,
	3.8188447920e-01,
	-2.7748586909e-01,
	9.0450125627e-01,
	-7.4719115840e-01,
	-4.2826329324e-01,
	-5.5743456993e-01,
	5.0401287136e-01,
	4.9367675366e-02,
	-1.8851527348e-01,
	-8.6106245679e-01,
	-6.6962343905e-01,
	6.1531976686e-01,
	1.8297671302e-01,
	6.9548162794e-01,
	4.8072839895e-01,
	-3.5099598969e-01,
	3.4196144159e-01,
	-1.7725537894e-01,
	9.2047216845e-01,
	-1.5258873405e-01,
	2.7381117853e-01,
	-2.3725393705e-02,
	-3.0833589998e-01,
	3.4189150359e-01,
	8.4123243570e-01,
	-2.3346362693e-01,
	-5.3100568966e-01,
	3.2394918954e-01,
	3.7802167580e-01,
	-5.8123842940e-01,
	7.8480653625e-01,
	-2.5047291260e-01,
	1.3421807275e-01,
	6.3670670747e-01,
	-9.1000636194e-02,
	6.1964010656e-01,
	-8.9265221128e-01,
	-5.0057389936e-01,
	-2.4704301574e-01,
	-7.6517478307e-02,
	-3.6162853580e-01,
	8.2053331879e-02,
	-4.6664580789e-01,
	8.0261805403e-01,
	-2.4709021023e-01,
	-9.8292069174e-01,
	-5.3320712235e-01,
	-8.8588610731e-01,
	-2.1446811634e-01,
	-7.3897463078e-01,
	-1.9378626595e-01,
	-9.5681635607e-01,
	3.0361851198e-01,
	5.6622508700e-01,
	3.1903130554e-01,
	1.5385023115e-01,
	-6.4007857025e-01,
	7.7409806065e-01,
	-5.6563045203e-01,
	6.2752845302e-01,
	-6.6412429605e-01,
	-6.8709661145e-01,
	-4.4862778442e-01,
	4.8303281173e-01,
	9.8774679088e-01,
	5.4871182670e-01,
	1.8659074790e-01,
	-9.0008942577e-01,
	-9.5186209184e-01,
	9.3953804874e-01,
	2.3542584160e-02,
	-3.1351244126e-01,
	2.0914800908e-02,
	5.5612790570e-01,
	-4.9490637559e-01,
	8.0124915564e-01,
	5.8157239796e-01,
	-2.2482603640e-02,
	9.1664778811e-01,
	-5.8021005723e-01,
	3.4944815362e-01,
	-1.3466805571e-01,
	-4.6658832300e-01,
	-2.6720807642e-01,
	-4.5297696887e-01,
	9.9522629636e-01,
	9.3375883794e-01,
	-4.2069073685e-02,
	9.1994206712e-01,
	-7.1302152212e-01,
	-4.7236808074e-01,
	-8.2028474345e-01,
	-2.7919785509e-01,
	1.0571375718e+00,
	1.1157326121e+00,
	-3.1606477660e-01,
	-2.2488939580e-01,
	-9.3893648198e-02,
	-1.4998318206e-01,
	9.2469813480e-01,
	1.2705311344e+00,
	1.2694758896e+00,
	6.6476334595e-01,
	8.8854235631e-01,
	4.9699318454e-01,
	-8.7056407250e-01,
	7.1597982335e-01,
	5.5710520436e-02,
	1.1124592898e-01,
	6.5225761487e-01,
	4.8866269605e-01,
	-3.8117386625e-01,
	-2.8861617639e-01,
	-9.1810757690e-01,
	3.0730451902e-01,
	8.5071009958e-02,
	-9.6110823319e-01,
	3.6505516924e-01,
	-8.7808456933e-01,
	9.7666351974e-01,
	6.2404960141e-01,
	-1.8804440025e-01,
	-7.7883931020e-01,
	-5.8580968091e-01,
	-8.5866406760e-01,
	9.6468951987e-01,
	1.8913031864e-01,
	1.5611668985e-02,
	-9.4422069888e-02,
	-9.3128599689e-01,
	9.4097914730e-01,
	7.8656262336e-01,
	9.7151073440e-01,
	5.5317173243e-01,
	6.9041111679e-01,
	4.3672533764e-01,
	6.7270928304e-01,
	3.9562188604e-01,
	-5.1572669937e-01,
	-2.2962540994e-01,
	2.1893579893e-02,
	9.5626221611e-01,
	2.3625298463e-01,
	5.3641062115e-01,
	9.6900281402e-01,
	-5.6288421692e-01,
	-4.0204624338e-01,
	9.8056117817e-01,
	5.8087798712e-01,
	-3.6661620980e-01,
	9.3532142273e-01,
	2.0452424536e-01,
	4.5210568533e-01,
	-7.8778810806e-01,
	9.8193661585e-01,
	9.3389226276e-01,
	-8.8970810563e-01,
	-2.0096201860e-01,
	-4.0471104475e-01,
	-9.0990062585e-04,
	-1.2830528426e-01,
	-4.5984816994e-01,
	-1.9590264797e-01,
	-1.0608666979e-01,
	-8.1110467180e-01,
	-4.8455445219e-01,
	-6.9883200460e-01,
	8.7399431920e-01,
	1.2515899416e+00,
	1.4401187227e+00,
	1.5594781849e+00,
	1.1510174360e+00,
	1.3524457485e-01,
	1.1496191268e+00,
	-2.2799549721e-01,
	-8.6431478652e-02,
	-5.3779299615e-01,
	5.2863353580e-01,
	1.6580365100e-01,
	1.3229737664e+00,
	7.1146495388e-01,
	-4.0140676428e-01,
	-1.1164264525e-02,
	9.9778576261e-02,
	-2.8856137864e-01,
	-4.0458080332e-01,
	-3.2115084965e-01,
	-1.9667125436e-01,
	3.9441934777e-01,
	2.7407205210e-01,
	8.0035976658e-01,
	-7.3690676084e-01,
	8.1807049103e-01,
	-3.9868476201e-01,
	1.1180485073e-01,
	9.0416563287e-01,
	5.8281000921e-02,
	3.8284135374e-01,
	6.7542428930e-01,
	-4.5145989403e-02,
	-8.0557817684e-01,
	-6.7161887913e-01,
	8.8726399072e-01,
	-1.2839148184e-01,
	9.6443743882e-01,
	-7.5057583305e-01,
	5.5890766608e-01,
	-7.8778137111e-01,
	2.8924778001e-01,
	-1.0255263200e+00,
	2.7859635389e+00,
	1.4815217460e+00,
	1.4663275682e+00,
	2.6404435938e+00,
	8.2828950501e-02,
	2.4124890868e+00,
	2.9585471360e+00,
	3.0635798041e+00,
	2.2224431951e+00,
	-7.0432082100e-01,
	1.6722465501e+00,
	1.4664381441e+00,
	1.0355388467e+00,
	1.7571454225e-01,
	-7.0327133349e-02,
	-1.7524471954e-01,
	8.5247606881e-01,
	7.8788428560e-01,
	6.3914125535e-01,
	2.9852621890e-01,
	1.9975996264e-01,
	1.3126144310e+00,
	1.8326072860e-01,
	-6.5869064253e-01,
	-4.7802457992e-01,
	4.6775296337e-01,
	-3.1382543701e-01,
	-1.1139817354e+00,
	5.3147394468e-01,
	-1.0046543313e+00,
	-5.9848330375e-01,
	6.2367535762e-01,
	-8.6265085854e-02,
	1.9013906488e-01,
	-4.3622555116e-01,
	-3.4619195323e-02,
	-3.0107902387e-01,
	-8.9530891517e-01,
	6.7495299395e-01,
	3.6351471225e-03,
	3.4364191366e-02,
	6.5681038967e-01,
	1.0767420805e-01,
	-7.7385639162e-01,
	4.4893084639e-01,
	7.9461873604e-01,
	-4.8162229322e-01,
	1.4038515742e-01,
	5.3979981031e-01,
	-8.1015501599e-01,
	-5.0677651648e-01,
	-7.8843748360e-01,
	9.9809911289e-01,
	-9.6054645812e-01,
	-2.9835399114e-01,
	-3.3947642396e-01,
	5.4760340487e-01,
	4.3799474530e-01,
	-1.3729576914e-01,
	2.2119598793e-01,
	4.4153193178e-01,
	2.6817751546e-01,
	-1.4868579821e-01,
	-6.0426930611e-01,
	-5.0029652884e-01,
	4.6139675471e-01,
	3.5361451568e-01,
	1.6821085255e-01,
	5.2688989421e-01,
	-1.1212175000e-02,
	-8.2858615240e-01,
	-4.3827217882e-01,
	-3.1695671219e-01,
	2.7884735157e-01,
	-2.0569861475e-01,
	-8.6176217600e-01,
	7.3525834658e-02,
	3.0493919859e-01,
	2.7933844038e-01,
	-2.3643007164e-01,
	7.0964833721e-01,
	8.7764087838e-01,
	-1.2823967042e-01,
	5.0732603681e-01,
	8.1219382491e-01,
	5.3580460875e-01,
	-8.1610898139e-01,
	3.8895430405e-01,
	1.4081806827e-02,
	8.5188834334e-02,
	-4.1835049252e-01,
	-5.8596234606e-01,
	-7.1130299459e-01,
	4.2930564221e-01,
	-2.0326289494e-01,
	-2.4240493383e-01,
	-1.4833147409e-01,
	-8.5157673667e-01,
	9.2579094732e-01,
	-6.2134579605e-01,
	1.7515827060e-01,
	-9.0278612080e-01,
	-6.2500943315e-02,
	8.5566041134e-01,
	3.7746004068e-01,
	7.2759981661e-01,
	9.9140993921e-01,
	-5.4732439109e-01,
	3.5435755620e-02,
	2.6306518859e-01,
	6.6692758630e-02,
	-4.4792160359e-01,
	3.0441815179e-02,
	8.9480646881e-01,
	-9.7470677812e-01,
	-1.6436516497e-01,
	4.1732411888e-01,
	-8.1302825355e-01,
	-8.1091437601e-01,
	-6.1758570134e-01,
	5.7473309420e-02,
	-2.3924657109e-01,
	-2.0284170462e-01,
	4.7224938843e-01,
	-8.0909943433e-01,
	5.9329901790e-01,
	-7.5483355882e-01,
	4.6597277029e-02,
	7.4057355874e-01,
	-8.6542555259e-01,
	3.4710837008e-01,
	-1.0111432985e-01,
	-7.3289922707e-01,
	-6.3452298360e-01,
	-2.2491500191e-01,
	6.4354049973e-01,
	-9.0678157875e-01,
	-2.3127586562e-01,
	-9.0210644628e-01,
	1.2680928855e-01,
	-9.6686355167e-01,
	1.5658622101e-01,
	6.4281480036e-01,
	5.4477476436e-02,
	4.8853568994e-02,
	6.8076689823e-01,
	8.9566737824e-01,
	-5.3199567972e-01,
	8.5922695443e-01,
	-9.1168791441e-01,
	-1.3796827520e-01,
	6.5740536237e-02,
	-1.4536065717e-01,
	6.5870030703e-01,
	-4.4680434757e-01,
	5.1556927420e-02,
	2.5410395453e-01,
	-2.0035069363e-01,
	-9.0129145044e-01,
	-2.8491015559e-03,
	-2.8736747349e-02,
	5.2451692034e-01,
	9.1557513173e-01,
	2.4049897377e-01,
	8.9033478773e-01,
	-3.0703335310e-01,
	-1.1308014910e-01,
	9.8369522157e-01,
	4.6185017526e-01,
	-1.5049426077e-02,
	1.1142592091e-01,
	4.9520546454e-01,
	-8.5076578513e-01,
	-2.2970002202e-01,
	-4.4076266579e-01,
	2.0574171059e-01,
	-5.4485114084e-01,
	-5.4039595348e-01,
	6.8214858029e-01,
	-6.7861980123e-01,
	-4.5052858715e-01,
	-4.5587482851e-01,
	3.8746631399e-01,
	4.0401734022e-01,
	-7.9986478042e-01,
	9.2899080191e-01,
	-5.4268739586e-01,
	4.5788309559e-01,
	-2.5958819746e-01,
	-4.4405549095e-01,
	-5.4496971683e-01,
	7.1204010856e-01,
	-9.1851519161e-01,
	-6.2808275366e-01,
	-4.6903807846e-02,
	9.7075992256e-01,
	6.6967071952e-02,
	8.4480573727e-01,
	9.5856060693e-01,
	-4.8369923509e-01,
	-1.8843166655e-01,
	4.6639485379e-02,
	-9.8098011403e-01,
	-3.2174545556e-02,
	8.2307306781e-01,
	-4.2187253662e-01,
	-8.2410110839e-01,
	-7.1086454258e-01,
	2.9005001108e-02,
	8.3710347995e-01,
	-3.8727289041e-01,
	5.8873504658e-01,
	-5.9476451474e-01,
	1.0000627960e+00,
	-5.3178309484e-03,
	-3.9098484224e-01,
	9.4035513603e-01,
	4.5219742745e-01,
	-9.3310109429e-01,
	-3.1923306214e-01,
	-9.9189163925e-01,
	-4.7783488550e-01,
	-6.0742697435e-01,
	-9.1175602319e-01,
	-1.0747145016e-01,
	3.4502343971e-01,
	-9.4071510969e-01,
	9.5620823523e-01,
	1.8427050273e-01,
	-9.8533644539e-01,
	-5.1724120770e-01,
	-9.9126165349e-01,
	8.0212098672e-02,
	-4.9701207485e-01,
	-1.8739498703e-02,
	-8.3927899822e-02,
	8.3501421264e-02,
	1.6038578912e-01,
	2.0739625964e-01,
};

double mlpWeightsLayer2[] = {
	-2.3761149706e+00,
	1.5014989486e+00,
	6.9668406582e-01,
	4.5289443644e+00,
	-1.7479414453e+00,
	1.3644274693e+00,
	-2.0236088541e+00,
	-2.3939799903e+00,
	7.6221258352e-01,
	-3.9000389502e+00,
	-2.6055899220e+00,
	-2.7177844741e+00,
	-7.7068049625e-01,
	-2.0753328162e+00,
	-2.4435352969e-01,
	-7.3667424171e-01,
	2.3466207607e+00,
	-2.6297809157e-01,
	-2.1173639687e+00,
	4.3739503143e-01,
	-2.0558276177e-01,
	-1.8244246315e+00,
	3.1762121480e+00,
	-3.4198003331e+00,
	5.1651222747e-01,
	-2.6180420999e+00,
	-1.4236156333e-01,
	-3.1432367917e+00,
	2.3647119707e-01,
	-3.2812790713e+00,
	-4.8662800653e+00,
	-2.1855146824e+00,
	-6.0595239390e-01,
	-3.5395389789e+00,
	1.1813733768e-01,
	2.2469520995e+00,
	-1.7147827082e+00,
	-3.1277638295e+00,
	4.3331091425e+00,
	-2.5099470425e-01,
	6.9588087901e-01,
	-2.3303369999e+00,
	-1.0329836852e+00,
	-2.9089035796e+00,
	-2.7839488998e+00,
	-2.0855046401e+00,
	-7.7365352093e-01,
	-2.6917302719e+00,
	-5.4265447104e-01,
	4.7779386425e+00,
	2.3430467860e+00,
	3.9602315779e+00,
	2.7800682927e-01,
	1.9195425207e+00,
	2.9756410621e-01,
	-5.2135024124e-01,
	-2.0142693120e+00,
	7.3667842828e-01,
	-1.6964877783e+00,
	7.2514432991e-01,
	-2.5234632853e+00,
	-5.8119065969e+00,
	-2.0512818510e+00,
	-1.3684631917e+00,
	2.7013635939e+00,
	1.1057775587e+00,
	-1.8012998892e+00,
	3.4015237063e+00,
	-4.5527032991e-01,
	-3.4596982936e+00,
	2.2094029069e+00,
	-2.7144156561e+00,
	4.1656929975e-01,
	1.0294657173e+00,
	1.7112111095e-01,
	-2.2182012529e+00,
	-4.5329159660e-01,
	-2.4445012248e+00,
	-4.9419909867e+00,
	7.7045696267e-01,
};

