// MLP Weights File

#define NUMBER_OF_LAYERS 2
#define LAYER_1_WEIGHTS_LENGTH 600
#define LAYER_2_WEIGHTS_LENGTH 5

#define LAYER_1_WEIGHTS_ABS_MAX 3.0000000000e+00
#define LAYER_2_WEIGHTS_ABS_MAX 7.0000000000e+00

double mlpWeightsLayer1[] = {
	-3.3536790063e-01,
	1.0446485794e-01,
	6.8034913175e-01,
	1.4637859607e+00,
	5.2253516227e-01,
	9.3786431471e-01,
	-3.1553086947e-01,
	-1.5390484329e-01,
	1.8488553863e-01,
	1.2587931765e+00,
	2.4260337193e+00,
	1.3066674742e+00,
	-6.2640855117e-01,
	1.0435026218e-01,
	2.3929983994e-02,
	2.3891191738e-01,
	7.5766218114e-01,
	-4.7234966975e-01,
	-7.4639310713e-01,
	2.1439269747e-01,
	-3.4781681358e-01,
	5.3198049182e-02,
	3.6163009044e-01,
	3.8141043742e-01,
	-1.1106315144e-01,
	5.0729758101e-01,
	6.3229028322e-01,
	1.7233190168e-01,
	1.0261071223e+00,
	-1.8127998802e-01,
	-2.2634112657e-01,
	-5.2117457839e-01,
	-4.6921860590e-01,
	-8.7133396405e-01,
	4.8802148503e-01,
	6.7827387310e-01,
	-1.5494247261e-01,
	5.0584429456e-01,
	9.1808832057e-01,
	8.6413159581e-01,
	-6.2108218635e-01,
	7.1321756645e-02,
	3.9603869747e-01,
	-1.2057863094e-01,
	6.7293313395e-02,
	5.5723746452e-01,
	2.3651844844e-02,
	-4.7465437788e-01,
	1.8741416669e-01,
	-9.1027558214e-01,
	-4.5146031068e-01,
	1.8131046480e-01,
	7.3473311563e-01,
	-7.1892452773e-01,
	-6.6216010010e-01,
	1.3345744194e-01,
	-3.1229590747e-01,
	-3.1492049928e-01,
	-7.3760185553e-01,
	1.7252113205e-01,
	4.6382639365e-01,
	-3.2181768242e-01,
	-6.9655088234e-01,
	-9.9036400297e-01,
	-4.3325949277e-01,
	5.3577062057e-01,
	-3.1253135715e-01,
	1.7148350475e-01,
	-6.6377758110e-02,
	8.1694998016e-01,
	-5.8940397351e-01,
	-3.5972167119e-01,
	6.9519346055e-01,
	-3.9353980668e-02,
	7.6694369310e-01,
	-7.0638989312e-01,
	6.7035513562e-01,
	-5.7548883580e-01,
	-9.6635785754e-01,
	-2.0681218483e+00,
	-1.8162413041e+00,
	-1.9398149455e+00,
	-8.5706166773e-01,
	-5.2618005702e-01,
	-2.1786224676e-01,
	7.5605702215e-01,
	-6.3814288526e-02,
	2.9489263650e-01,
	-1.2162802297e+00,
	-9.3144516494e-01,
	-2.7201328847e-01,
	5.7066560869e-01,
	7.9021576586e-01,
	-5.7921079134e-01,
	7.0772423475e-02,
	2.6779992065e-01,
	9.1857661672e-01,
	-8.0712302011e-01,
	8.3355204932e-01,
	8.9693899350e-02,
	7.9073458052e-02,
	9.6142460402e-01,
	3.9115572212e-01,
	9.8760585464e-01,
	1.9278542436e-01,
	-3.6014893033e-01,
	9.7265541551e-01,
	3.6527603992e-01,
	-2.2465439576e-01,
	4.9858119548e-01,
	-7.0929401466e-01,
	-7.0223260334e-01,
	3.0037821939e-01,
	-7.3137607959e-01,
	6.0069582202e-01,
	3.2071901608e-01,
	2.4191930725e-01,
	-4.5443388833e-01,
	4.9687185278e-01,
	-1.4059877316e-01,
	-2.8641621143e-01,
	-4.4108401746e-01,
	-9.0105899228e-01,
	2.2977040691e-01,
	5.9348441398e-01,
	-6.3658558916e-01,
	-3.9872432630e-01,
	-8.6791589099e-01,
	-6.3627690817e-01,
	2.6011754215e-01,
	-8.6228254047e-01,
	-2.3773669197e-02,
	-4.0736166141e-01,
	-6.5817157041e-01,
	-8.5336158456e-01,
	-4.6921613389e-01,
	4.9402602151e-01,
	-2.8767166012e-01,
	-5.3217651115e-01,
	-2.5014310136e-01,
	-1.2205344650e-01,
	5.7313198914e-01,
	-4.3152400237e-01,
	-2.6484986109e-01,
	4.5208984992e-01,
	4.7416967497e-01,
	5.2348778658e-01,
	-1.4626023869e-01,
	-6.7858385188e-01,
	-9.6002477094e-01,
	8.3801274835e-01,
	8.6492220713e-01,
	-9.8659344414e-01,
	-5.2061525315e-01,
	-4.8216193121e-01,
	-4.1489913633e-01,
	4.0849024934e-01,
	-8.5674611652e-01,
	-5.1652577288e-01,
	-6.4842677084e-01,
	5.1329081088e-01,
	-5.6767479476e-01,
	3.5648670919e-01,
	8.5967589343e-01,
	-4.3430890835e-01,
	-3.2547990356e-01,
	-9.5519882809e-01,
	-2.9007843257e-01,
	7.8789635914e-01,
	-8.6974700156e-01,
	-1.3153477584e-02,
	9.2883083590e-01,
	-9.2156743065e-01,
	1.7075106052e-01,
	-1.3321329386e-01,
	6.9795831172e-02,
	-4.2512283700e-02,
	6.9414349803e-01,
	6.1632129887e-01,
	-5.3984149787e-01,
	-9.2272324846e-01,
	8.4252449110e-01,
	-4.8685073351e-01,
	-8.4338219277e-01,
	-3.4886840128e-01,
	1.1565566272e-01,
	1.9123202885e-01,
	-8.4447767571e-01,
	-1.6141239662e-01,
	-2.9001739555e-01,
	-6.3176366466e-01,
	4.7367778558e-01,
	2.2464718651e-01,
	8.5138647948e-01,
	-8.6839222290e-01,
	-4.2755909992e-01,
	3.2698574182e-01,
	1.0005086008e+00,
	-4.4410838650e-01,
	-2.1595161473e-02,
	1.0739518314e+00,
	-6.8055810267e-01,
	-6.6686066997e-01,
	2.3514890474e-01,
	1.0104225484e+00,
	7.3117255455e-01,
	-2.6959579263e-01,
	-2.1153534811e-01,
	9.4463874951e-01,
	1.4538170916e-02,
	-8.7554927596e-01,
	7.3815118870e-01,
	7.4285103916e-01,
	-3.7296670431e-01,
	9.7003082369e-01,
	-1.1703848384e-01,
	5.3233436079e-01,
	7.7800836207e-01,
	-6.1516159551e-01,
	7.5835444197e-01,
	3.7864314707e-01,
	-6.7412335582e-01,
	9.6893293975e-01,
	-1.4187754886e-01,
	9.1814935759e-01,
	7.2328867458e-03,
	5.7628101444e-01,
	4.2942594684e-01,
	-1.9130757108e-02,
	-3.8210979816e-01,
	-3.0211756644e-02,
	-1.9707772382e-01,
	9.0612731863e-01,
	-6.7235328227e-01,
	-9.1674550615e-01,
	6.3652455214e-01,
	7.7735895319e-01,
	-8.2872771539e-01,
	8.8714255196e-01,
	6.8056276131e-03,
	-3.4638508255e-02,
	7.7629932554e-01,
	-6.3505966369e-01,
	5.4613720065e-01,
	-6.5718666711e-01,
	-6.0631122776e-01,
	-2.8116702780e-01,
	2.1210364086e-02,
	-6.2916165219e-01,
	-1.7131786387e-01,
	1.1761173463e+00,
	1.2438093599e+00,
	-8.7896962953e-01,
	-4.3381625434e-01,
	7.0652814786e-02,
	6.7853233640e-01,
	-4.2106112826e-01,
	4.6482589184e-01,
	5.7782646277e-01,
	3.9919229102e-01,
	1.6557728819e-01,
	-6.6625839550e-01,
	1.4568228826e-01,
	-3.0550893209e-01,
	-3.7185990764e-02,
	-4.3702733742e-01,
	3.2985660879e-01,
	2.7549697398e-01,
	-7.4438781176e-01,
	-2.1318297325e-01,
	-7.7651875291e-01,
	-1.2723224392e-02,
	4.6727035293e-01,
	-2.5351725822e-01,
	-2.8440198981e-01,
	-5.1341288491e-01,
	7.4315622425e-01,
	-5.4838709677e-01,
	3.3237708670e-01,
	3.5044404431e-01,
	2.7896969512e-01,
	-3.4635456404e-01,
	-2.7628406629e-01,
	9.0673543504e-01,
	2.5138096255e-01,
	-6.8370616779e-01,
	4.8399304178e-01,
	-8.3773308512e-02,
	-2.5370036927e-01,
	7.7608569597e-02,
	1.2543107395e-02,
	-7.5951414533e-01,
	3.3570360424e-04,
	7.6396984771e-01,
	-7.7800836207e-01,
	9.6722312082e-01,
	-7.2502822962e-01,
	1.7181920835e-02,
	9.0643024995e-01,
	-4.4535681251e-01,
	6.7229199126e-01,
	9.7567674795e-02,
	5.8254803785e-01,
	5.5263939337e-01,
	1.0441210445e-01,
	-1.5670186143e-01,
	-3.8556958985e-01,
	5.0492873928e-01,
	-5.6584368419e-01,
	4.2228461562e-01,
	-5.5412457656e-01,
	-5.3508102664e-01,
	-2.3259609467e-02,
	2.1053894939e-01,
	6.9834675512e-01,
	9.0499197575e-01,
	2.2067373860e-01,
	7.5008210056e-01,
	-4.6021565739e-03,
	-1.1807576333e-01,
	-1.0846657533e+00,
	-1.4049785200e+00,
	6.8627690761e-01,
	-5.4922158948e-01,
	1.9417706488e-01,
	4.6068590422e-01,
	-7.6725018853e-01,
	-8.3691062325e-01,
	8.3700975495e-01,
	-8.3053588614e-01,
	-1.8491201898e-01,
	2.9313028352e-01,
	9.6783349101e-01,
	9.6203497421e-01,
	8.9666432691e-01,
	4.2619098483e-01,
	-4.1788995025e-01,
	6.4525284585e-01,
	-4.3076876125e-01,
	3.3866389966e-01,
	7.6085695975e-01,
	2.3972289193e-01,
	-2.4289741665e-01,
	-2.2867879665e-01,
	-2.5663014618e-01,
	-3.5843989380e-01,
	-7.1138645589e-02,
	-1.5329447310e-01,
	5.7755546626e-01,
	-5.3789165237e-01,
	9.6852343454e-01,
	6.1654900693e-01,
	-3.9656668598e-01,
	-1.9626453444e-01,
	1.8485061190e-01,
	7.3436689352e-01,
	-7.0026473910e-01,
	8.5427586572e-02,
	-9.0487380596e-02,
	9.9185155797e-03,
	-3.5642567217e-01,
	-1.6022217475e-02,
	-8.9928891873e-01,
	6.7346618710e-02,
	-8.9880633340e-01,
	5.4765465255e-01,
	1.6025269326e-01,
	1.0495315409e-01,
	-4.5831549017e-01,
	-1.8375887199e+00,
	-2.7678973973e+00,
	-9.8733749124e-02,
	-4.9144581256e-01,
	1.4976319777e-01,
	-8.4183687012e-04,
	-5.1365454310e-01,
	-5.8333296810e-01,
	8.9133716773e-01,
	9.1676345033e-01,
	-5.2437347845e-01,
	4.8409964167e-01,
	-1.1094773642e-01,
	-1.3089875051e+00,
	-9.8245807866e-01,
	-9.2342315559e-01,
	-8.1770948640e-01,
	3.4607629619e-02,
	7.0599616096e-01,
	8.4950579263e-01,
	3.4903483173e-01,
	8.9981607284e-01,
	1.4340996690e-01,
	3.2096478469e-01,
	-5.6608783227e-01,
	-1.2552262947e-01,
	8.9144566179e-02,
	-5.2800073244e-01,
	3.3548997467e-01,
	4.3058565020e-01,
	-7.6204718162e-02,
	-3.9658803064e-01,
	6.0112308115e-01,
	9.5477156896e-01,
	4.8570207831e-01,
	-7.7837458419e-01,
	7.1410260323e-01,
	-9.2376476333e-01,
	6.4964751122e-01,
	-5.8616901151e-01,
	-7.2307504501e-01,
	3.9494003113e-01,
	3.9469588305e-01,
	9.0789513840e-01,
	-8.8879055147e-01,
	4.3131809442e-01,
	2.0285653249e-01,
	1.2588885159e-01,
	3.4574419385e-01,
	-3.8743247780e-01,
	-6.4781638317e-01,
	5.5586226830e-01,
	-4.4468520157e-01,
	1.0578582060e-01,
	6.8287006893e-01,
	1.0713404177e+00,
	-6.8600048603e-01,
	3.1877858682e-01,
	2.8824732200e-01,
	-7.4370555742e-01,
	-8.8109988708e-01,
	-1.7282631916e-01,
	2.3895992920e-02,
	-1.6019832294e-01,
	7.6699427630e-02,
	7.5727289866e-01,
	8.5004544307e-01,
	-7.8743210112e-01,
	-1.2520912853e-01,
	1.9276686841e-01,
	6.4977402263e-01,
	2.6742370387e+00,
	1.7611720129e+00,
	5.7707192080e-01,
	3.0607537556e-01,
	3.3818630916e-01,
	-1.2064228575e-01,
	-5.4085944725e-01,
	2.8742612618e-01,
	1.2158217262e+00,
	8.1796363845e-01,
	-8.9157946511e-01,
	-3.4971160009e-01,
	-7.8673665578e-01,
	-7.9558702353e-01,
	-5.5632190924e-01,
	3.2908108768e-01,
	-8.5992004151e-01,
	4.7636341441e-01,
	-3.5337382122e-01,
	1.3669240394e-01,
	-9.5031586657e-01,
	-9.9597155675e-01,
	5.3227338168e-01,
	3.5881002729e-01,
	8.9092684713e-01,
	5.2415540025e-01,
	-8.5839411603e-01,
	1.1911374248e-01,
	-4.4870268756e-01,
	5.9751425066e-01,
	-8.3298419278e-01,
	5.9876167948e-01,
	8.0322665189e-01,
	9.4882045961e-02,
	5.1640369884e-01,
	3.6704611347e-01,
	-2.0687998963e-01,
	6.1135037171e-01,
	-2.2238837855e-01,
	-3.1083101901e-01,
	-9.6163823359e-02,
	-1.3620410779e-01,
	-1.8460646382e-01,
	4.0425533927e-01,
	-6.4724850675e-01,
	1.4590899380e-01,
	8.9269692068e-01,
	-3.0710776086e-01,
	3.2188470522e-01,
	-3.9811582756e-01,
	-2.2035224587e-01,
	-9.4875513589e-01,
	4.8724032465e-01,
	-5.9113608929e-01,
	7.8557103569e-01,
	6.9396084430e-01,
	-4.2093951129e-02,
	8.7420396162e-01,
	7.7601064373e-02,
	-6.4319089429e-01,
	-4.3735570848e-01,
	-4.6808485605e-01,
	6.6999677888e-03,
	2.5647671300e-01,
	-2.5962111061e-01,
	6.6279300067e-01,
	-2.2033323773e-01,
	5.8416017075e-01,
	-3.1095488207e-01,
	2.7333636747e-02,
	2.3600926998e-01,
	-3.0857685336e-01,
	-8.3278225078e-01,
	3.1037324137e-02,
	8.0721457564e-02,
	-5.3056428724e-01,
	-6.4311655019e-01,
	5.3270058290e-01,
	4.9424726096e-01,
	-8.6577959532e-01,
	-3.3359782708e-01,
	-3.6606952116e-01,
	-7.2362437819e-01,
	2.1057771538e-03,
	-9.9835200049e-01,
	-9.3462935270e-01,
	9.0874965667e-01,
	6.1003448592e-01,
	8.0779442732e-01,
	3.2462538530e-01,
	3.9951780755e-01,
	4.3040253914e-01,
	1.7575609607e-01,
	6.1217078158e-01,
	-2.7396465957e-01,
	-2.0621356853e-01,
	3.2615131077e-01,
	6.3054292428e-01,
	6.8779564806e-01,
	5.8018781019e-01,
	7.8435782762e-01,
	-6.9066438795e-01,
	9.8176064674e-01,
	-7.5456898054e-01,
	6.0219533627e-01,
	-4.4496753339e-01,
	-6.8641687456e-01,
	7.2594378491e-01,
	6.3628040407e-01,
	-1.7001861629e-01,
	3.5233619190e-01,
	8.4105960265e-01,
	-8.9117163671e-01,
	4.0350897252e-01,
	-6.3222302240e-01,
	-3.3840773318e-01,
	-7.6364366918e-01,
	3.1299360225e-02,
	-6.7052720818e-01,
	-2.7559584364e-01,
	4.9404537217e-02,
	5.8833030446e-01,
	1.2143991798e-01,
	6.7081976674e-02,
	-1.4313051366e-01,
	7.8693020455e-01,
	-7.6381377719e-01,
	1.5294850635e-01,
	-2.7434789354e-01,
	8.4971262739e-01,
	-8.1097251342e-01,
	8.3690908536e-01,
	-3.6020996735e-01,
	-8.5381633961e-01,
	4.1544846950e-01,
	-3.6039307840e-01,
	6.7925046541e-01,
	-9.9908444472e-01,
	-1.7303994873e-02,
	-6.0875270852e-01,
	5.2079836421e-01,
	8.1566820276e-01,
	6.3353457346e-01,
	8.1383999745e-01,
	-8.5216834010e-01,
	-8.0809961241e-01,
	-9.1769157994e-02,
	2.5199133274e-01,
	-3.7131444328e-01,
	-3.8272279936e-01,
	2.7609521205e-01,
	5.7579841330e-01,
	-2.7878185451e-01,
	9.1265602588e-01,
	-2.2278511917e-03,
	-3.8914151433e-01,
	5.2063864618e-01,
	4.8124483711e-01,
	-2.7933591723e-01,
	6.7537461470e-02,
};

double mlpWeightsLayer2[] = {
	-6.0697041211e+00,
	7.6291019662e-01,
	-1.4630402293e+00,
	6.3004871557e+00,
	7.3910776169e-01,
};

