// MLP Weights File

#define NUMBER_OF_LAYERS 2
#define LAYER_1_WEIGHTS_LENGTH 600
#define LAYER_2_WEIGHTS_LENGTH 5

#define LAYER_1_WEIGHTS_ABS_MAX 5.0000000000e+00
#define LAYER_2_WEIGHTS_ABS_MAX 8.0000000000e+00

double mlpWeightsLayer1[] = {
	3.2858558836e+00,
	1.9357159384e+00,
	1.3398556674e+00,
	-2.2931956037e-01,
	1.2812986678e+00,
	3.0494780176e+00,
	1.9692569985e+00,
	9.5563549547e-01,
	4.4256730651e-01,
	-5.1809672058e-01,
	-5.3367933494e-01,
	1.0963185345e+00,
	-2.3792352840e-01,
	-1.5916271183e-01,
	-2.4018645621e-01,
	-4.8904678304e-01,
	-6.8505686239e-01,
	-3.4438408104e-01,
	-9.2920763508e-01,
	-2.5153501611e-01,
	-2.1742839580e-01,
	4.8686835754e-01,
	-7.2092153938e-01,
	-9.3052384160e-01,
	-7.7008128821e-02,
	8.4083465852e-01,
	-9.2948475849e-01,
	-5.9008636557e-02,
	-9.0225696053e-01,
	7.5792675920e-01,
	-8.7087304884e-01,
	-4.1541741109e-01,
	1.1686373915e-01,
	-2.2997228905e-02,
	7.7068901191e-02,
	4.5771494995e-02,
	-1.2014641479e-01,
	-9.7061192243e-01,
	9.3506597352e-01,
	5.4438773428e-01,
	-2.6662584639e-01,
	-5.9849473210e-02,
	3.8378771925e-01,
	8.2278723401e-02,
	7.7638386459e-01,
	-9.3642995410e-01,
	4.6512125594e-01,
	-9.2554779906e-01,
	-2.8081830185e-01,
	5.3591362086e-01,
	-1.7633650600e-01,
	5.0990232989e-01,
	1.5876986606e-01,
	1.6509855313e-01,
	5.8033812213e-01,
	-9.0269532609e-01,
	5.9332107221e-03,
	6.5085336363e-01,
	1.7028453349e-01,
	1.0449961345e-01,
	4.0878012190e-01,
	2.9941148558e-01,
	6.8908220236e-01,
	-4.7434351289e-01,
	-7.2358574426e-01,
	-2.3384889645e-01,
	5.7142798303e-01,
	1.5626784095e-01,
	-2.0446081888e-01,
	5.0649395562e-01,
	-2.9934442569e-01,
	5.2891333472e-01,
	-5.5335551852e-01,
	-9.1555670738e-01,
	-3.8880794281e-01,
	-7.7697165486e-01,
	-8.5198666148e-01,
	-9.2368668780e-01,
	-7.0251945392e-01,
	-1.3280496333e-01,
	6.1222693399e-01,
	1.2114404008e-01,
	-6.2290263438e-01,
	-2.2900320088e-01,
	-7.1375740772e-01,
	9.5743548775e-01,
	-1.3169852697e-01,
	2.9217580394e-01,
	6.0828885045e-01,
	-9.6141399348e-01,
	-6.0332458355e-01,
	1.7068971422e-02,
	3.3799749209e-01,
	-9.1424238212e-01,
	5.4272545946e-01,
	6.1441174783e-01,
	-1.4809127857e-01,
	1.1415344156e-01,
	-2.2932041121e-01,
	6.4744790255e-01,
	-3.7935260375e-01,
	4.7133516309e-01,
	1.7636123727e-01,
	6.7291877729e-02,
	5.5577845664e-01,
	7.8755329446e-01,
	2.9032022287e-01,
	7.0379179516e-01,
	8.6386660760e-01,
	5.8780076987e-01,
	-4.2901316817e-01,
	4.7609354066e-01,
	-2.9105519098e-01,
	-5.1915802551e-02,
	-7.5290966116e-01,
	-4.8125977650e-03,
	-9.4480314802e-02,
	1.1539181281e-01,
	-7.1263679476e-01,
	-4.8619146528e-01,
	-1.8512002474e-01,
	-4.2529629861e-01,
	3.6282388385e-01,
	-2.1747177121e-01,
	-6.2413300644e-02,
	-1.2692466424e-01,
	-1.0734273820e+00,
	5.2098690518e-01,
	-8.5789174963e-01,
	7.0983585763e-01,
	1.4152996074e+00,
	1.3883560214e-01,
	-6.5863124612e-01,
	-5.5396967913e-01,
	8.5548285709e-01,
	8.7936606752e-01,
	-7.6741924301e-01,
	1.6601590215e-01,
	6.0797206015e-01,
	-9.0284855618e-01,
	-2.3935492295e-01,
	-7.6523434093e-01,
	6.1134169809e-01,
	4.7838313797e-01,
	1.4045127232e-01,
	8.2012820855e-01,
	-5.4204582550e-01,
	-8.8334706624e-01,
	-6.3780978270e-02,
	-2.5468790621e-01,
	-4.5362869159e-01,
	-9.1051248923e-01,
	4.3148873028e-01,
	-9.2275118545e-01,
	-4.1853717874e-01,
	-8.0085305208e-01,
	1.5085178015e-01,
	-3.1215012041e-01,
	8.2085190984e-01,
	3.3860818638e-01,
	5.6491652576e-01,
	9.0004773387e-02,
	-8.5298801207e-01,
	9.1331833504e-01,
	5.3551887327e-01,
	-9.7729233279e-01,
	8.1749860003e-01,
	7.6858626761e-01,
	1.8872357029e-01,
	4.2547066017e-01,
	8.6552026862e-01,
	9.4254024138e-01,
	6.0442955122e-01,
	4.3854780935e-01,
	4.0530172149e-01,
	-2.6852736029e-01,
	2.5866568985e-01,
	8.6325060384e-01,
	-2.3596458660e-01,
	-8.0582461870e-01,
	-3.9143730951e-01,
	3.1040672274e-01,
	-7.1633710699e-01,
	-9.6208660117e-01,
	3.8765553729e-01,
	-1.3487428573e-01,
	-7.6293965232e-01,
	-4.6149268256e-01,
	5.5297559386e-01,
	-9.4208774340e-01,
	8.7711550383e-01,
	1.1789211962e-01,
	1.4791702998e-01,
	-9.7587250824e-01,
	3.1210453730e-02,
	-3.1656409675e-01,
	-9.5316484103e-01,
	-1.5129094624e-01,
	-5.4797783007e-01,
	2.3555872926e-01,
	-7.2582028700e-01,
	-6.8245756146e-01,
	1.7809897064e-01,
	8.7860926421e-01,
	7.5609024789e-01,
	-4.1659930880e-01,
	-3.8991809608e-01,
	1.4755936812e-02,
	-5.5334870496e-01,
	3.7411731732e-01,
	2.0893131905e-01,
	5.5213985525e-02,
	-3.1547596087e-01,
	4.9259421206e-01,
	9.3127385291e-02,
	-9.2782042358e-01,
	-6.4228007460e-01,
	3.3018773297e-01,
	-3.8931310614e-01,
	9.1069552019e-01,
	3.8809998957e-01,
	-5.1219760324e-01,
	2.8587638879e-02,
	-4.6398298045e-01,
	-4.8807011148e-01,
	-9.4020190832e-01,
	2.1945292280e-01,
	-4.4123495158e-01,
	-9.1492854567e-02,
	6.7147509273e-01,
	7.9432377768e-01,
	1.8268685843e-01,
	9.8901753127e-01,
	-2.7577252606e-02,
	6.1296122643e-02,
	7.4510777916e-01,
	5.5582343953e-01,
	6.7137802656e-01,
	-2.4013628496e-01,
	-9.9752526637e-01,
	1.4002780236e+00,
	1.4808711779e+00,
	5.7372906942e-01,
	6.6957786729e-01,
	5.3534619140e-01,
	-1.2572854024e-01,
	1.4899069198e+00,
	1.1822790331e+00,
	7.4050568934e-01,
	-8.7327674195e-01,
	1.9390088793e-01,
	-1.3066251219e-01,
	2.3858503471e-02,
	-2.4052232755e-01,
	4.3148069913e-01,
	4.5451943681e-01,
	-1.7581411209e-01,
	-3.7542442852e-01,
	9.7138318698e-01,
	7.2636880599e-01,
	-7.1010020830e-01,
	6.9606902808e-01,
	-1.3600877743e-01,
	-7.2219664363e-01,
	-2.6750370631e-01,
	9.7067550900e-01,
	-9.6982583123e-01,
	-7.3538660451e-01,
	6.4096131112e-01,
	-2.0996211619e-01,
	-7.0357211665e-01,
	-3.1244608448e-01,
	-2.4319098856e-01,
	3.5411660250e-01,
	-5.8242670241e-01,
	-7.7977783781e-01,
	5.0493270695e-01,
	-7.8022774392e-01,
	-9.6066866720e-01,
	-1.4063457499e-02,
	-3.6734189157e-01,
	7.6913602360e-01,
	8.5504036856e-01,
	5.3334635754e-01,
	-4.7247164858e-01,
	2.6016121323e-01,
	-5.4035504839e-02,
	3.4571877278e-01,
	8.8473498071e-01,
	-8.2652318796e-02,
	7.2416338638e-02,
	-8.1921616002e-01,
	-3.1694535507e-01,
	9.8180076293e-01,
	-5.3414976948e-01,
	4.2118435605e-01,
	9.5248130986e-01,
	-5.0397560070e-01,
	7.1513750577e-01,
	5.9453988150e-01,
	2.8606228311e-01,
	-9.8843461181e-01,
	-7.1790620392e-01,
	-9.5510479992e-01,
	3.6568199069e-01,
	-3.0033290633e-01,
	-7.3488263680e-01,
	-1.2938530330e-01,
	-8.0560650248e-02,
	-6.9555130400e-01,
	8.5655124013e-01,
	5.5209745818e-01,
	-9.2641528040e-01,
	7.1159160776e-01,
	8.5443815722e-02,
	-3.9888692899e-01,
	-2.8247179011e-02,
	-9.6859169005e-01,
	9.4683184379e-01,
	-1.4351219923e-01,
	-5.1244007913e-02,
	1.9248181497e-02,
	3.7271640747e-02,
	6.3181063702e-01,
	1.0489444253e-03,
	5.0312187127e-01,
	5.2994992143e-02,
	-4.6469746645e-02,
	9.9914627057e-01,
	-2.3186750302e-01,
	-4.5192986608e-01,
	2.8520855367e-01,
	-2.2030211483e-01,
	-1.6983606907e-01,
	3.3010375375e-01,
	-8.5462012508e-01,
	5.2983102460e-01,
	5.9522111695e-01,
	1.5994572554e-02,
	-5.5072962565e-01,
	8.9966981388e-01,
	-1.2745418825e-01,
	-9.9863216840e-01,
	9.7325453347e-01,
	-4.1586258142e-01,
	8.6811647325e-02,
	-4.2563239645e-01,
	5.5589023957e-01,
	1.1821995821e-01,
	-4.7880055265e-01,
	-5.8762195967e-01,
	-9.3302405064e-01,
	5.4044762884e-01,
	4.4964968108e-01,
	6.9878658638e-01,
	-4.5850342766e-01,
	-4.7228447649e-02,
	-2.4821842241e-01,
	4.9502682569e-01,
	-4.8082178015e-02,
	-1.7595819995e+00,
	-1.7152123533e+00,
	-1.7016568137e+00,
	4.4342619018e-01,
	3.5291491760e-01,
	-8.1865202886e-01,
	-1.8186668385e+00,
	-1.2121165744e+00,
	-3.2279782538e-01,
	3.8761632312e+00,
	4.6629757956e+00,
	1.2067614303e+00,
	-8.2368183096e-01,
	-1.4819154739e-01,
	-3.3370690873e-02,
	-1.7402632773e-01,
	9.3227461679e-01,
	6.0974319540e-01,
	-5.2644012474e-01,
	5.9728857541e-02,
	-8.3997156056e-01,
	1.7417647075e-01,
	2.9108667873e-01,
	7.3042076234e-01,
	-6.0047326533e-01,
	-1.7543007679e-01,
	-7.8708890709e-01,
	7.4457931385e-01,
	5.7947855411e-01,
	7.0791369796e-01,
	-7.5972302992e-01,
	9.6219911751e-02,
	7.5947707641e-01,
	-5.2259665426e-01,
	3.9583187057e-01,
	-3.7572848209e-01,
	-9.5536652578e-01,
	8.4082370523e-01,
	2.7363433050e-02,
	2.0708471965e-01,
	3.0181011059e-01,
	8.7972572161e-01,
	-7.3079422197e-01,
	6.3534232864e-01,
	-2.6654415823e-01,
	3.0458136895e-01,
	-4.4698803567e-01,
	-3.2600238981e-01,
	-8.5675436578e-02,
	2.6571839595e-02,
	7.3275933589e-01,
	4.5267205241e-02,
	9.1250975612e-01,
	-1.4150298906e-01,
	-2.8334252410e-01,
	-7.5190264813e-01,
	6.8302127145e-01,
	-7.0455681100e-02,
	5.3645650090e-01,
	2.5932710956e-01,
	-3.6254201334e-01,
	7.7673347098e-01,
	-6.4445297962e-01,
	-6.1153138504e-01,
	-7.4586318421e-01,
	7.5137889187e-01,
	1.2740132870e-02,
	-7.0122970999e-01,
	5.9220259618e-01,
	-9.5989643501e-01,
	5.0585501059e-01,
	-1.0598729416e-01,
	9.1982928753e-01,
	7.7506078862e-01,
	-4.7064496645e-01,
	-3.4671487163e-01,
	7.9642156642e-02,
	8.2366997880e-02,
	3.2728273856e-01,
	9.9396672100e-01,
	-8.9106116253e-01,
	6.0042074444e-02,
	3.9233925305e-02,
	-9.7855140733e-01,
	9.1853908539e-01,
	7.5589140121e-01,
	-7.3045405547e-01,
	6.0156035591e-01,
	-3.1456428082e-01,
	8.0600244543e-01,
	-1.3911253546e-01,
	3.2289370677e-01,
	5.8273591547e-01,
	2.1643448585e-01,
	7.1136232173e-01,
	8.3687273219e-01,
	-3.2186623212e-02,
	-2.7589754633e-01,
	-8.6435697873e-01,
	-4.3998402797e-01,
	-2.3579398041e-01,
	6.4149803186e-01,
	4.5402867787e-01,
	-3.1596469382e-01,
	4.1655881955e-01,
	9.8338371235e-01,
	3.3732043455e-01,
	-5.0379902381e-01,
	6.5750709300e-02,
	-3.3539682689e-01,
	-5.0983230374e-01,
	1.7468954677e-01,
	7.2464524755e-01,
	5.2940162156e-01,
	1.9613813944e-01,
	6.4318433201e-01,
	2.8529302277e-01,
	4.6568408397e-01,
	2.4474468699e-01,
	9.7072874195e-01,
	3.1950361356e-01,
	-8.8948275569e-01,
	3.0471147003e-01,
	-1.4886056511e-01,
	3.2520483064e-01,
	2.2113848820e-02,
	-2.9470292850e-01,
	-7.0525836700e-01,
	7.3855824801e-01,
	-1.8537538531e-01,
	-1.6241920432e-01,
	-5.0255784539e-01,
	-5.3045656374e-01,
	-6.9607533780e-01,
	1.7988874862e-01,
	8.8801736482e-01,
	-7.1268032418e-01,
	-4.8535101837e-01,
	-6.1880397686e-01,
	3.5305908385e-01,
	1.7925215474e-01,
	-1.2863753350e-01,
	-4.7225137030e-01,
	-9.6102598634e-02,
	-5.9923465904e-01,
	7.2388677007e-01,
	-4.5291826755e-01,
	6.6778227927e-01,
	1.8949747948e-01,
	7.9182642037e-01,
	6.5678710474e-01,
	-5.3874261842e-01,
	8.9745857189e-01,
	-4.9590447475e-02,
	3.1567982552e-01,
	2.1952520833e-01,
	9.5539432110e-01,
	-9.9302500020e-01,
	5.0940522156e-01,
	6.8448154334e-01,
	-1.6608680373e-01,
	-6.4069879411e-01,
	-8.2222521576e-01,
	3.0234942460e-01,
	-3.3677413191e-01,
	3.5510333225e-01,
	1.8734447248e-01,
	-4.9465757352e-02,
	8.6975231481e-01,
	5.6854049562e-01,
	-6.9640667443e-01,
	4.9004468624e-02,
	-5.6009578498e-01,
	-1.6865804473e-01,
	9.5290187092e-01,
	-1.5933044402e-01,
	-4.4477127560e-01,
	-5.0001639756e-01,
	-4.7327208122e-01,
	7.4479957844e-01,
	-7.0818997813e-01,
	-8.1648497741e-01,
	-7.9394304091e-01,
	-8.1073140717e-01,
	1.3392457512e-01,
	5.2173678462e-01,
	4.0879380117e-01,
	8.9318896220e-02,
	5.2871178441e-01,
	-8.1800978203e-02,
	-2.2619956137e-01,
	-6.3737502025e-01,
	2.7750022769e-01,
	-4.8424776200e-02,
	6.6497440527e-01,
	9.4072609671e-01,
	-6.9332144488e-01,
	-1.4768112318e-01,
	-1.0873966157e-01,
	-8.2356913100e-01,
	-5.7914062849e-01,
	1.9485366400e-01,
	2.2543533855e-01,
	-1.3923641347e-01,
	-9.7380438166e-01,
	1.7833720854e-01,
	7.0143314251e-01,
	-4.1857565633e-01,
	6.7832081098e-01,
	-7.7183893964e-01,
	-6.7377607882e-01,
	9.7013083378e-01,
	-5.8832391612e-01,
	-4.6771911973e-01,
	-8.4060057431e-01,
	5.4560065900e-01,
	-9.4598233604e-01,
	5.6819322778e-01,
	-3.6508044571e-01,
	5.8272944837e-01,
	-5.1360775135e-01,
	4.0871999385e-01,
	9.4535442812e-01,
	7.6389247727e-01,
	-6.3970478328e-01,
	6.1032883246e-01,
	7.0461857305e-01,
	-3.3302622816e-01,
	-5.3735229165e-01,
	-4.0412108945e-01,
	-1.5659535823e-01,
	-1.1649291921e-01,
	7.9073257455e-01,
	-9.3116002061e-01,
	7.4427066731e-01,
	8.1692819289e-01,
	2.4717718793e-01,
	4.4570380982e-01,
	-6.0164746437e-01,
	-7.4502002017e-02,
};

double mlpWeightsLayer2[] = {
	5.5227480150e+00,
	-1.4912872181e+00,
	2.3281981062e+00,
	-7.1365006271e+00,
	2.8015068013e-01,
};

