// MLP Weights File

#define NUMBER_OF_LAYERS 2
#define LAYER_1_WEIGHTS_LENGTH 2400
#define LAYER_2_WEIGHTS_LENGTH 80

#define LAYER_1_WEIGHTS_ABS_MAX 6.0000000000e+00
#define LAYER_2_WEIGHTS_ABS_MAX 7.0000000000e+00

double mlpWeightsLayer1[] = {
	-6.4611159465e-01,
	2.7028948045e-01,
	7.7012023625e-01,
	5.5982835957e-01,
	1.7622373145e+00,
	1.5198736298e+00,
	8.2313055849e-01,
	5.3289019007e-01,
	1.1513590650e+00,
	1.9229090201e-01,
	1.1898476813e+00,
	2.1131725088e+00,
	1.5272165268e+00,
	1.2137494542e-01,
	7.3266239005e-01,
	-1.4193312448e-01,
	-1.7381056408e-01,
	2.8770979730e-01,
	-7.5697531152e-02,
	-2.6365863809e-01,
	9.0273974366e-01,
	9.9893473528e-01,
	-1.8829747427e-01,
	1.9294955142e-01,
	-7.8037914966e-01,
	7.9861991973e-01,
	9.4964097309e-01,
	-2.2783495802e-01,
	5.5504025128e-01,
	4.7610344746e-01,
	1.2785819812e-01,
	-7.7687663109e-01,
	7.3358973611e-01,
	-9.0056519934e-01,
	4.3084594678e-01,
	4.6463217282e-01,
	5.6798827535e-01,
	-6.2028310710e-01,
	-8.4254924853e-01,
	-1.3061261276e-02,
	2.8068719864e-01,
	6.0506690461e-01,
	-2.0943496246e-01,
	2.0640511681e-01,
	-5.0854329183e-01,
	-4.8738447646e-01,
	-9.4912736302e-01,
	2.5615365675e-01,
	7.8418564041e-01,
	-2.5714627945e-02,
	9.9237413611e-01,
	6.8679713816e-01,
	-7.7999068926e-02,
	-4.3729638655e-01,
	-1.3502379187e-01,
	1.4059092996e-01,
	-6.4532650152e-01,
	-1.8520536422e-01,
	9.1235912867e-01,
	8.2456358421e-01,
	-7.1113314996e-01,
	3.7113703889e-02,
	-9.5231302849e-01,
	-9.7754236849e-01,
	1.4910253576e-01,
	6.5239166137e-01,
	5.7700582478e-01,
	-2.9554769864e-01,
	8.5824979183e-01,
	6.4453984967e-01,
	6.9138778361e-01,
	1.3893711705e-01,
	2.4960720192e-01,
	-5.1764952932e-01,
	-6.5190452914e-01,
	7.4940614421e-01,
	-5.2708601638e-03,
	-6.0296090802e-01,
	5.9360514415e-03,
	-1.7176150584e-01,
	6.7812165359e-01,
	4.5752989395e-01,
	-3.2542631335e-01,
	-6.6815766117e-01,
	6.1767681111e-01,
	3.9613345852e-01,
	4.7002791763e-01,
	9.2613356813e-01,
	-7.8228100189e-01,
	5.2345348227e-01,
	8.8351259598e-01,
	-5.6335536633e-01,
	-6.1720284716e-01,
	7.7921889991e-01,
	-5.4338394573e-01,
	5.1898831945e-01,
	2.5775179791e-01,
	9.4370515176e-01,
	-7.7659227596e-01,
	1.1600158881e-01,
	5.8824500050e-01,
	9.1476586923e-01,
	-7.4489335988e-01,
	-1.6214779419e-01,
	-6.0308387130e-01,
	-3.9967134542e-01,
	-4.2108179879e-01,
	3.9122775541e-01,
	-3.5045744856e-03,
	5.7637936666e-01,
	-8.2943397965e-01,
	-6.2985194082e-01,
	-4.2742244785e-01,
	-3.6245662060e-01,
	-3.4047497226e-01,
	-8.8198155252e-01,
	9.6597512716e-01,
	-9.0709497816e-01,
	-9.7388818302e-01,
	-8.8870822366e-01,
	-3.6522753405e-01,
	2.7358252774e+00,
	1.2510066950e+00,
	1.7037187223e+00,
	1.5613900340e+00,
	1.3858819828e+00,
	2.0633673796e+00,
	1.6208173775e+00,
	1.3276450325e+00,
	1.2241700132e+00,
	6.9931090978e-01,
	-3.7002310129e-01,
	1.1210583157e+00,
	-4.2437920394e-01,
	3.9609414505e-01,
	8.9066359212e-01,
	-1.0433110381e-01,
	9.8664031977e-01,
	2.6733450115e-01,
	7.6040921526e-01,
	5.2615653333e-01,
	5.0894439360e-01,
	-7.1147898600e-01,
	-9.3806232300e-01,
	-9.3025476944e-01,
	-2.2273146985e-01,
	-7.9001026274e-01,
	-9.6269037157e-01,
	-3.8740075868e-01,
	-7.6714021966e-01,
	-8.5217518657e-01,
	-6.8167392895e-01,
	9.9213630018e-01,
	-3.0660935604e-01,
	-8.6107708207e-01,
	5.2787348885e-01,
	6.9579763976e-01,
	4.7850808570e-01,
	-6.7863705553e-01,
	-3.5845842648e-01,
	4.1500976794e-02,
	-7.6914601110e-01,
	1.7553050778e-01,
	-4.8074026475e-01,
	-6.0471638832e-01,
	-4.5262880598e-01,
	-6.0629245527e-01,
	1.5999391822e-01,
	-5.0187290623e-01,
	6.5938310961e-01,
	-7.8800350930e-02,
	-9.7498467657e-01,
	9.5010773789e-02,
	4.9400918674e-02,
	-8.8237286447e-01,
	1.6611202302e-01,
	8.3709877256e-01,
	-6.7174260489e-01,
	2.0318454653e-01,
	-2.8261481658e-01,
	-4.3612553339e-01,
	3.5152067307e-01,
	3.5711255407e-02,
	-4.4398970410e-01,
	-9.5472039593e-01,
	5.9214301845e-02,
	-9.1780792681e-01,
	7.4107716872e-01,
	-3.4685774024e-01,
	-5.9475327171e-01,
	-6.1738125507e-01,
	6.9464323397e-01,
	-3.6390801713e-01,
	5.5810112540e-01,
	-7.8663310526e-01,
	3.0359946666e-02,
	-8.9447953864e-01,
	-3.9238948440e-01,
	-8.0874785798e-01,
	-4.0255020639e-01,
	-7.5908425722e-01,
	-3.2107265357e-03,
	-4.0763582082e-01,
	3.3820077043e-01,
	-8.4516466613e-01,
	-2.6088787330e-01,
	-4.8769105091e-01,
	9.6561248834e-01,
	-5.2990898549e-02,
	4.4271690721e-01,
	-3.4195294216e-01,
	6.3730982446e-01,
	8.2791204510e-02,
	7.5217402622e-01,
	-8.0556784468e-01,
	1.2810116873e-01,
	-7.3191800654e-02,
	-7.2168406086e-01,
	-1.3082166348e-01,
	5.7995045911e-01,
	-3.1643733164e-01,
	2.5179707783e-01,
	2.7459369473e-01,
	3.1966338648e-01,
	-1.9011187812e-01,
	4.8848406452e-01,
	-6.4895228466e-01,
	-8.4533229044e-02,
	-9.0389281879e-01,
	-4.5807891553e-01,
	5.1761658536e-01,
	-6.3820632795e-01,
	6.5086679100e-01,
	-8.5257740037e-01,
	7.2504940121e-01,
	8.1698267433e-01,
	-1.0593283321e-01,
	-7.4677848677e-01,
	8.1363706882e-01,
	9.6859759932e-01,
	3.3776287342e+00,
	-2.9275866809e-01,
	1.9184164422e-01,
	-7.0838761055e-02,
	-1.6816701808e+00,
	-1.7125677103e-01,
	-1.4330831185e+00,
	-4.2486455640e-01,
	-1.6106288822e+00,
	-1.6600408625e-01,
	-4.9691404860e-01,
	-1.0135740796e+00,
	-1.1945996293e+00,
	-1.1548949222e+00,
	-9.1617239100e-01,
	1.1330696909e-01,
	4.9166356442e-01,
	-5.8050776279e-01,
	-9.5868766754e-01,
	6.5065325780e-01,
	-2.3515753925e-02,
	5.0268749880e-01,
	-1.1431477537e+00,
	-3.6844087324e-01,
	7.0880282480e-01,
	7.3900581974e-01,
	-5.5165303846e-01,
	-3.9720744332e-01,
	1.0283553233e+00,
	-7.3546896024e-01,
	-4.2923086073e-01,
	9.7660348656e-01,
	-2.0294592865e-01,
	-8.2155646562e-01,
	4.3947718592e-02,
	8.1751128231e-02,
	9.7991210966e-01,
	2.3939311935e-01,
	-7.0674361554e-01,
	-9.4030337778e-01,
	-6.9598314431e-01,
	8.4712099789e-02,
	-1.7695619593e-01,
	-3.7956232921e-01,
	1.5076150892e-01,
	-9.3945628541e-02,
	7.4680481281e-01,
	-2.9469241542e-01,
	3.4011265418e-01,
	7.8863872485e-01,
	-6.4403915854e-01,
	-6.8340309974e-01,
	3.4958694472e-01,
	-6.3028509525e-01,
	-5.1914994163e-02,
	5.8312333682e-02,
	-8.9142582747e-01,
	3.9655578481e-01,
	6.6110489036e-01,
	-8.9934493410e-01,
	6.5841905737e-01,
	-7.6870046762e-01,
	-9.2274144847e-01,
	-5.4269230702e-01,
	-5.9286855278e-01,
	-3.8300712828e-02,
	3.1733118290e-01,
	-6.0915849019e-01,
	-6.3940061053e-01,
	8.3314840953e-01,
	-5.4943572802e-01,
	-3.3538375391e-01,
	-8.2151656123e-02,
	2.6584397694e-01,
	2.6488851327e-01,
	-9.4495291643e-01,
	-8.2315875067e-01,
	2.5321375143e-02,
	-2.5542251612e-01,
	3.8289790256e-01,
	-4.9802246079e-01,
	-4.1150521081e-01,
	2.4654769044e-01,
	-9.1605744423e-01,
	3.9319758688e-01,
	-2.6052919571e-01,
	1.9923493963e-01,
	5.8304388633e-01,
	-8.5035306068e-01,
	-2.2246259832e-01,
	4.8400124591e-01,
	8.3172155530e-01,
	1.2196957710e-01,
	7.8609313806e-01,
	-6.9975948879e-01,
	5.3296916724e-01,
	-9.2700591820e-02,
	8.4013253629e-01,
	9.2383681700e-01,
	2.6789879765e-01,
	6.7328094490e-01,
	-6.2559891195e-01,
	9.3117360496e-01,
	-4.1096638678e-01,
	6.4326632930e-01,
	2.1655668661e-01,
	-3.4023653033e-01,
	8.2683840773e-01,
	-7.5057231251e-01,
	4.3030631963e-01,
	3.3600674819e-01,
	4.6977286732e-02,
	-4.6806692897e-01,
	1.7060168123e-01,
	2.3911848401e-01,
	-9.3681114071e-01,
	9.6649012876e-01,
	-5.3415100069e-01,
	6.5861486776e-01,
	-8.5152246898e-01,
	2.1654062683e+00,
	1.9066542132e-01,
	3.7501470985e-01,
	-7.2216176589e-01,
	-9.5790226048e-01,
	-1.7163639486e+00,
	-1.5367972637e+00,
	-1.6404903799e+00,
	-1.5158487127e+00,
	6.7235455276e-01,
	-5.0000573453e-01,
	-7.6927435138e-01,
	-1.4660903186e+00,
	3.2858512537e-03,
	-6.0540661781e-01,
	9.4215981296e-01,
	-5.7637895303e-01,
	4.0792777379e-02,
	7.8596370646e-01,
	-2.5899400248e-01,
	-5.1060471839e-01,
	6.1649382371e-02,
	5.6657938201e-01,
	3.6058672608e-02,
	-6.8912215389e-01,
	2.7019317578e-02,
	1.0935633392e-01,
	-7.1464599757e-01,
	5.2095243539e-01,
	-2.1299467048e-01,
	-5.6867006853e-01,
	-1.2274517264e-01,
	-8.3201617647e-01,
	-5.7310552049e-01,
	3.5717634082e-01,
	3.3427992618e-01,
	-2.8134423461e-01,
	3.7006702058e-01,
	4.0787543515e-01,
	-1.4958306362e-01,
	3.0679451642e-01,
	-2.5063025823e-01,
	-3.4454094867e-01,
	6.1792310123e-01,
	-9.7662090788e-01,
	5.1642619563e-02,
	5.7706085014e-01,
	-4.8504259786e-01,
	-8.9241034346e-01,
	3.6387020879e-01,
	2.5596339966e-01,
	-4.0277023493e-01,
	-5.0187372207e-01,
	6.6894537335e-02,
	6.5045338573e-01,
	-1.8379894140e-01,
	-8.8216478838e-01,
	-2.3313413432e-01,
	1.0255155764e-01,
	6.3718215266e-01,
	5.5721986250e-01,
	5.4162460414e-01,
	-4.8508714426e-01,
	7.2399532170e-01,
	1.0242057315e+00,
	1.8481960564e+00,
	1.1845958543e+00,
	-3.1565806188e-01,
	2.4168034049e-01,
	-5.3521409050e-01,
	5.3486165760e-01,
	-4.5152491843e-01,
	2.1421128542e-01,
	-7.8603792479e-01,
	-7.5975296127e-01,
	3.1505709578e-01,
	2.5055265979e-01,
	7.5573552511e-01,
	8.3659957295e-01,
	7.1626845396e-01,
	2.3828145497e+00,
	2.9937211408e+00,
	2.7859744843e+00,
	1.0464183667e+00,
	-5.3034745976e-01,
	1.3852331970e+00,
	-3.4010223780e-01,
	-6.7911683292e-01,
	5.2710577263e-01,
	1.8053424488e+00,
	1.8362962278e+00,
	9.3396262520e-01,
	6.5946070311e-02,
	-6.5519557412e-01,
	6.4080931960e-01,
	2.7616166057e-02,
	-7.8358225421e-01,
	-3.0228151162e-01,
	7.1148962514e-01,
	4.5809808628e-01,
	1.6250439787e-01,
	2.4578001967e-01,
	-9.9228053163e-01,
	-6.2075886651e-01,
	4.4532101292e-01,
	-8.2508370278e-01,
	6.1420875067e-01,
	-3.2237590745e-01,
	9.1642970922e-01,
	3.7461362761e-01,
	-9.4269902851e-01,
	1.1258250118e-01,
	-4.9234667679e-01,
	1.0176897993e+00,
	-3.6806022305e-01,
	-5.4950743334e-01,
	5.6966233942e-01,
	6.2449954242e-02,
	-3.1244017432e-01,
	9.3972717598e-01,
	-4.6466698114e-01,
	-5.6885651706e-01,
	8.1231177208e-01,
	6.1652465857e-01,
	-2.1157655782e-01,
	4.6485314612e-01,
	-3.4877806041e-01,
	1.9120958889e-02,
	-8.1350038252e-01,
	-6.2459802670e-01,
	-6.6114545219e-01,
	8.6494261492e-02,
	5.1527860718e-01,
	-5.1015953905e-01,
	7.2457463223e-01,
	5.6797326807e-02,
	-3.2750188553e-01,
	3.4175006207e-01,
	7.3466095011e-01,
	-4.1066088686e-01,
	-2.9105024108e-01,
	7.5170567656e-01,
	5.6429592938e-01,
	7.5919439182e-02,
	7.2978909866e-01,
	-7.6316514641e-01,
	5.3114492893e-01,
	3.0062461684e-01,
	2.9312400251e-01,
	-8.2164945973e-01,
	2.3182539911e-01,
	8.6826048320e-01,
	-3.4758128475e-01,
	8.4381146227e-02,
	5.0573722711e-01,
	4.7126844873e-01,
	-4.2429484028e-01,
	-8.2916986376e-01,
	-4.9346407200e-01,
	-2.3528052179e-01,
	-4.5258732953e-01,
	-9.8506454424e-05,
	-8.8376180636e-01,
	-8.3022477656e-01,
	4.9984000134e-01,
	8.4441696007e-01,
	2.2766724286e-01,
	-8.2725059233e-01,
	1.8679051902e-01,
	-3.7519207707e-02,
	-2.3791147919e-01,
	8.9585101693e-01,
	-2.7680240445e-01,
	-6.2481364590e-01,
	-1.9946001945e-02,
	-5.4397086033e-01,
	-3.8250179933e-01,
	-4.8525045416e-01,
	7.5764029927e-01,
	9.1068041134e-01,
	-3.0686345441e-01,
	-8.4091758455e-03,
	7.7894329088e-01,
	3.4555705637e-01,
	-9.2196781469e-01,
	5.2928126387e-01,
	-1.2698145107e-01,
	-3.4832346603e-01,
	4.5550825794e-01,
	3.2334604642e-01,
	4.1640360490e-01,
	-9.9707906375e-01,
	-6.7673246668e-01,
	5.3398917030e-01,
	-8.2153727757e-01,
	8.3762476531e-01,
	3.7810867988e-01,
	4.0300401569e-01,
	1.0133117612e+00,
	-3.9712564224e-01,
	-4.5322373001e-01,
	-2.3397038405e-02,
	-4.0153204558e-01,
	1.6371841133e-01,
	2.7721955143e-01,
	6.6298167223e-01,
	6.5047990419e-01,
	8.1394790485e-01,
	1.3981630180e+00,
	6.6196703727e-01,
	9.5788705569e-01,
	-3.4847264256e-01,
	-7.0867165097e-01,
	4.4023132671e-01,
	9.9316108098e-01,
	-6.3275582885e-01,
	-2.7509055253e-01,
	-1.9002924915e-01,
	1.8920470504e-02,
	-8.1958229552e-01,
	-8.6668320366e-01,
	-5.6468375193e-01,
	-8.1666136679e-01,
	-5.4343549811e-01,
	9.6893435148e-01,
	-6.4373181877e-01,
	-7.2034764784e-01,
	3.4500115055e-01,
	7.5639817922e-01,
	-7.2273143909e-01,
	9.1634652497e-01,
	-8.7058073043e-01,
	5.0564701373e-02,
	-6.2773389306e-01,
	2.0535421781e-01,
	-8.3347388908e-01,
	8.0830625369e-01,
	-2.5092134815e-01,
	9.2965573129e-01,
	7.6568427664e-01,
	-1.1904670738e+00,
	2.9949903190e-01,
	-6.9041640603e-01,
	-7.1696644478e-01,
	4.0104851528e-01,
	-4.3726295878e-01,
	-3.9696025988e-01,
	6.2097146186e-01,
	1.5088957884e-01,
	6.6301957573e-01,
	2.1642202873e+00,
	2.1441150805e+00,
	-4.1502049080e-01,
	-8.1777407515e-01,
	8.0439227015e-01,
	-8.6668276945e-01,
	-5.3777917855e-01,
	-9.1733491761e-01,
	4.7278232540e-01,
	-7.7980932083e-01,
	-6.4101260281e-01,
	3.9505722518e-01,
	-3.9491954088e-01,
	4.3617522160e-01,
	7.5781768821e-01,
	5.7168283621e-01,
	5.6309569088e-01,
	5.6063662957e-01,
	-4.3302944829e-01,
	4.8154455995e-01,
	3.2915539152e-01,
	-6.6129550043e-01,
	5.4052793348e-02,
	7.3190462428e-01,
	-3.2295618233e-01,
	-9.2728929870e-01,
	-8.6483805900e-01,
	3.8262730529e-01,
	8.1627804125e-01,
	3.4868982497e-01,
	1.0713126376e-01,
	7.4026308476e-01,
	-3.0446549566e-01,
	2.6695147029e-01,
	8.4758676116e-01,
	-5.0105648092e-01,
	3.9472189611e-01,
	-6.8905477956e-01,
	-4.1799559138e-01,
	-1.3250652753e-01,
	-4.6929814176e-01,
	-5.9445879915e-02,
	-7.5089235220e-01,
	-1.3029913936e-01,
	-6.6748187955e-01,
	9.9925689027e-01,
	-5.8601599167e-01,
	8.9100823267e-01,
	5.5768766047e-01,
	-2.9437777833e-01,
	3.6390981838e-01,
	-1.2454140228e-01,
	4.3390610968e-02,
	-5.8033136009e-01,
	-3.9888295449e-01,
	6.3855072266e-01,
	-5.3124523988e-01,
	-2.5434061881e-01,
	1.0399784385e-01,
	-6.9032397107e-01,
	-9.0564751620e-01,
	-7.8887089239e-01,
	-9.5006092065e-01,
	-2.1752540754e-01,
	4.5232748967e-01,
	8.6637452252e-01,
	2.7937926397e-01,
	-1.4023230518e-01,
	-8.4134617507e-01,
	6.9533592984e-01,
	3.2870905858e-01,
	-6.4440541076e-01,
	-4.1739604549e-01,
	8.5249327265e-01,
	5.1978248761e-01,
	5.9133298765e-02,
	9.4747774056e-01,
	-9.9807781548e-01,
	-4.9498207105e-02,
	4.8440192598e-01,
	-3.1425657527e-01,
	-6.0234113859e-01,
	-5.7567991712e-01,
	7.7280676541e-01,
	-1.7776304185e-01,
	3.5744889190e-02,
	4.9417730397e-01,
	3.1563519934e-01,
	7.8140760762e-01,
	-4.0182485310e-01,
	6.2531122827e-01,
	8.7576015008e-01,
	-1.9217420593e-01,
	6.7278369609e-01,
	-3.3943737430e-01,
	-7.1265675425e-01,
	5.7277338957e-01,
	9.5378530136e-01,
	1.6018730573e-01,
	7.7773461171e-01,
	8.0941790250e-01,
	-1.3194887450e-01,
	-5.2526172690e-01,
	-3.7924068775e-01,
	-1.1035207985e-01,
	-8.7070592673e-01,
	7.7917894886e-01,
	-1.2801988252e-01,
	-8.6608796652e-01,
	-1.8869051821e-01,
	-5.8990759184e-01,
	-1.4077809405e-01,
	2.0530742759e-01,
	-1.5514938919e-01,
	-3.6149944437e-01,
	-9.5958328447e-01,
	8.7494495058e-01,
	-8.5487350283e-01,
	3.5758237658e-01,
	6.6941319112e-01,
	-4.0246149529e-01,
	-2.3443238488e-01,
	4.6745711780e-01,
	5.3004152061e-01,
	-3.4455615163e-01,
	-7.9132119544e-01,
	8.4325762031e-01,
	-7.7165714347e-01,
	-8.3682280922e-01,
	2.6675458079e-03,
	-9.9064805268e-01,
	9.7683999959e-01,
	8.2661733496e-01,
	-4.7388433233e-01,
	-3.7520459704e-01,
	-2.1320134580e-01,
	-3.4181591292e-01,
	-5.9423335442e-01,
	6.3125353602e-01,
	-1.8872591472e-01,
	2.1961245519e-01,
	-9.0351955588e-01,
	6.9203009535e-01,
	-5.6160025930e-01,
	-5.3379971093e-02,
	-6.5453120305e-01,
	-5.2228862304e-01,
	-1.6749549711e-01,
	-5.0691519748e-01,
	8.3265821349e-01,
	-5.0020341738e-01,
	2.3887595499e-01,
	-1.8708372358e-01,
	-9.5715118756e-01,
	-2.0602863804e-01,
	4.6842468133e-01,
	-7.4845175992e-01,
	-3.6354839865e-01,
	6.9670930025e-01,
	-5.8527456950e-01,
	6.3911914716e-01,
	7.0624122848e-01,
	-5.9678463898e-01,
	5.4226994400e-01,
	-7.6380658418e-01,
	2.8407126213e-02,
	-6.6469241384e-01,
	-1.0456032171e-01,
	4.3420794207e-01,
	-9.9310744274e-01,
	7.0683783559e-01,
	-3.4446674182e-01,
	-8.9662699862e-01,
	3.9886731134e-01,
	8.5768283663e-02,
	-3.5258860112e-02,
	5.4068210215e-01,
	5.7151936719e-01,
	8.8249753317e-01,
	-7.6257847145e-01,
	4.0430241826e-01,
	-6.1770588421e-01,
	4.7629711354e-01,
	-7.8281701267e-01,
	-5.7809033173e-01,
	-7.3212327448e-01,
	6.8394436579e-01,
	-3.2752316920e-01,
	-1.0503605076e-01,
	3.3421943502e-01,
	-5.3529019993e-02,
	-5.9979551170e-01,
	-3.6671193504e-02,
	4.2851809575e-01,
	-9.2628738806e-01,
	2.4814364126e-01,
	-4.7749725137e-01,
	-5.7787549066e-01,
	-8.1664218150e-01,
	7.6520473847e-01,
	-6.2062088967e-01,
	9.2240905448e-01,
	-3.8723338322e-01,
	-4.6631731720e-01,
	3.2593293270e-01,
	7.0671328516e-01,
	5.8367571308e-01,
	7.0269659660e-02,
	2.7835766099e-01,
	4.6617324625e-01,
	3.0769118821e-01,
	-3.1733975062e-01,
	8.4846736204e-01,
	-2.1601132826e-01,
	-1.0013184227e-01,
	-7.2638971066e-01,
	5.4257518171e-02,
	-4.1447734060e-01,
	-4.9698541430e-02,
	9.5822520871e-01,
	9.6051169169e-01,
	-9.6026651296e-01,
	-5.0098649382e-01,
	5.4564003106e-02,
	5.3633467670e-01,
	-4.0507290298e-01,
	-6.1874293332e-01,
	-9.4061163116e-01,
	1.2256739569e-02,
	-3.9851576621e-01,
	-1.2184441599e+00,
	1.8547786092e+00,
	5.3082244380e-01,
	5.0080858483e-02,
	1.8486048031e+00,
	1.8528624048e+00,
	3.2612859722e-01,
	1.5619979212e+00,
	7.6663567181e-01,
	9.7650602827e-01,
	2.8818192131e-01,
	-1.3695385823e-01,
	-1.4914972948e-01,
	1.2845049128e-01,
	2.7062943621e-02,
	2.1253410248e-01,
	2.3308293946e-01,
	-9.1071929764e-01,
	7.8322273452e-01,
	-8.9543534810e-01,
	-9.6833865311e-01,
	8.0604846783e-01,
	-7.0711652168e-01,
	-4.6982407195e-01,
	-1.9317453995e-01,
	6.8094706036e-01,
	1.3367172818e-01,
	1.8823812420e-01,
	5.8733876647e-01,
	-8.4940815384e-01,
	7.9094174308e-01,
	7.5865796197e-01,
	6.0040991703e-01,
	-6.8181499825e-01,
	-6.1192562227e-01,
	5.8274653628e-01,
	-8.2733282904e-01,
	-2.7579592135e-01,
	1.4875883383e-01,
	9.7418999810e-02,
	-6.6130856036e-01,
	-8.1905562329e-01,
	3.2986201687e-01,
	-3.6416095000e-01,
	6.1597281630e-02,
	-6.5370629525e-01,
	8.3286577455e-01,
	-7.8413952411e-01,
	-5.8301708921e-01,
	6.1541515757e-01,
	-6.7957487222e-01,
	-5.5134991815e-01,
	3.6584004451e-01,
	-5.3329216201e-01,
	-1.2865188072e-02,
	-8.2726549070e-01,
	-8.5065943555e-01,
	-8.7945336098e-01,
	3.6088604078e-01,
	8.9136239602e-01,
	-7.2769731177e-01,
	1.5052181501e-01,
	6.5002035712e-01,
	8.7271301423e-01,
	4.6866446944e-01,
	-9.6249270550e-01,
	4.1025128323e-01,
	6.4138124349e-01,
	-2.3770118749e-01,
	-3.9578199079e-01,
	-2.6120702050e-01,
	1.0099025215e-01,
	-2.1483761408e-01,
	-9.3137849762e-01,
	7.3607467912e-01,
	8.4570828007e-01,
	-5.8507155178e-01,
	5.6969508474e-01,
	-9.3736285248e-01,
	-1.6886891252e-01,
	1.7980486618e-01,
	-6.1693006098e-01,
	3.3102213733e-01,
	-4.4914035260e-01,
	-1.5042452576e-01,
	-7.3227636418e-01,
	-2.7630464573e-01,
	-9.5554772281e-04,
	-6.1205067401e-01,
	-9.1538364618e-01,
	-1.0306992969e-01,
	-3.3941260174e-01,
	2.3491280732e-01,
	-4.5952357420e-01,
	-4.6672152706e-01,
	-2.9620056008e-01,
	-4.2142884034e-01,
	9.8873764649e-01,
	-6.5482658039e-01,
	3.4086997218e-01,
	-4.0704434524e-01,
	8.3966399116e-02,
	-5.5813977661e-01,
	3.7812139144e-01,
	1.5266310354e-01,
	-8.2130993866e-01,
	2.2487840142e-01,
	5.6757009475e-01,
	7.4838460072e-01,
	2.8731878441e-01,
	-6.0069432350e-01,
	-6.7202395541e-02,
	6.6956459316e-01,
	6.7975620695e-01,
	4.8447170319e-01,
	-4.7970376698e-01,
	9.4780010744e-01,
	-7.9198801488e-01,
	5.1893859457e-01,
	-6.6404647615e-01,
	-7.0380277905e-01,
	-5.8729704409e-01,
	-1.6666466769e-03,
	5.2996590684e-01,
	-8.1273696683e-02,
	4.9868032924e-01,
	-7.6596263355e-01,
	5.3246470817e-01,
	5.2048000566e-01,
	-4.2282122670e-01,
	-1.3425128189e-01,
	-9.0073674470e-01,
	6.5333846618e-01,
	3.0959653022e-01,
	4.9031266553e-01,
	-1.8650468003e-01,
	4.9056866803e-01,
	-2.8537479907e-01,
	-6.1907590211e-01,
	2.3869788052e-01,
	-9.9790575076e-01,
	-2.1957419776e-01,
	-8.2775801448e-01,
	6.6782942667e-01,
	-5.3949105856e-01,
	6.5565353212e-01,
	-8.0706639393e-01,
	-5.9169090055e-01,
	8.5336496010e-01,
	7.1080074021e-01,
	-2.5562785531e-01,
	-8.4253156923e-01,
	-8.7783051090e-01,
	7.4100102100e-01,
	6.8526178304e-01,
	7.2491891250e-02,
	2.7090836841e-01,
	9.1685457431e-01,
	-3.9861454787e-01,
	-2.1044663862e-01,
	-5.0637921575e-01,
	4.7114898519e-01,
	-9.8845990886e-02,
	-8.4564660669e-01,
	-2.1722725929e-01,
	-6.0912730154e-01,
	-3.2292603064e-02,
	-7.2691397915e-01,
	1.0546909604e-01,
	3.4863149438e-01,
	5.1178390137e-01,
	1.0756334621e-01,
	-8.7094270432e-01,
	6.8397661284e-01,
	-2.1979928073e-01,
	-4.1043350539e-01,
	3.4061443123e-01,
	-2.6865674661e-02,
	-2.1244059327e-03,
	2.0538214371e-01,
	-3.0878969712e-01,
	7.5109179243e-01,
	3.6313118706e-01,
	-1.9012824682e-01,
	5.7810936762e-01,
	1.6050627017e+00,
	2.4925164810e+00,
	-2.4515853420e-01,
	-3.5033070033e-02,
	-5.1849533036e-01,
	5.4469778057e-01,
	4.5858826300e-01,
	9.5272175280e-01,
	-5.1765826401e-01,
	7.2966525009e-01,
	-1.4194122824e-01,
	-1.4421189832e-01,
	-3.9029796437e-01,
	1.7072912345e-01,
	1.5667964600e+00,
	4.3531043495e+00,
	4.2953235000e+00,
	3.1274002427e+00,
	-1.8848908428e-01,
	-1.8969258094e-01,
	1.9391201794e+00,
	2.0509624017e-01,
	8.1479274123e-01,
	1.9912990128e+00,
	2.5591633776e+00,
	1.2688123922e+00,
	5.1652431572e-01,
	3.9194048728e-01,
	-8.8687992370e-01,
	-7.0480782880e-01,
	-1.2872412108e-01,
	1.6123243289e-01,
	-8.2469093698e-01,
	6.2543300615e-01,
	-8.7380063714e-01,
	-3.4318626735e-01,
	1.6914349383e-01,
	5.8680146164e-01,
	-3.8521236831e-01,
	6.3317394630e-01,
	2.0066886255e-01,
	3.4491890733e-01,
	-5.5025481411e-01,
	7.7837669183e-01,
	-6.3500630685e-01,
	-5.6027283238e-01,
	8.4476251348e-01,
	7.7383020000e-02,
	5.1235524557e-01,
	7.6959457051e-01,
	7.7975439410e-02,
	2.7183548635e-01,
	-5.6541173467e-01,
	-3.0648157276e-01,
	-9.1512254326e-01,
	-1.0498057413e+00,
	2.1243939615e-01,
	4.4744439704e-01,
	3.7774169838e-01,
	4.3663814698e-01,
	7.9603171063e-01,
	-7.3392115391e-01,
	-4.0440645549e-01,
	-9.9368491854e-01,
	9.0987109937e-01,
	-2.7254494683e-01,
	-3.5895193870e-01,
	8.4331058217e-02,
	-6.4461480965e-01,
	2.9396760286e-01,
	-2.7430366159e-01,
	5.4865819943e-01,
	-3.5996311221e-01,
	1.7730845046e-01,
	3.3457612029e-01,
	-6.5613164593e-03,
	5.6569195426e-01,
	3.5874156744e-02,
	8.6052489874e-01,
	7.9763677228e-03,
	-1.9176099127e-01,
	-5.4904819408e-02,
	-7.2332611481e-01,
	2.2625163282e-01,
	5.6752274683e-01,
	-6.5252996406e-01,
	2.8180169746e-01,
	-5.8888279395e-02,
	9.0582870688e-01,
	-2.7049403604e-01,
	-5.7263590376e-01,
	7.5937722146e-01,
	4.8486110311e-02,
	7.4848904775e-02,
	7.8823480000e-01,
	-7.1007371913e-03,
	8.4853307709e-01,
	-5.2609389067e-01,
	-8.9354409179e-01,
	-7.9299567537e-01,
	7.6904480707e-01,
	-1.6597945484e-01,
	7.6320375770e-01,
	-5.9092271681e-01,
	-9.8866963293e-01,
	9.7779877064e-02,
	4.0251595685e-01,
	5.7959166802e-01,
	-8.5998731752e-01,
	2.6965714026e-01,
	-4.1242591730e-01,
	-5.1760533383e-02,
	-7.8522623693e-01,
	-1.3575203211e-01,
	-8.2963598418e-01,
	7.8100067857e-01,
	2.0971147727e-01,
	4.5136706464e-01,
	-2.7646298330e-01,
	1.1563658141e-01,
	-8.2123419723e-01,
	1.0508113550e-01,
	-1.2311540058e-01,
	2.3015778755e-01,
	-7.7392209590e-01,
	-3.3484126969e-01,
	-7.7694295057e-01,
	-9.2538901974e-01,
	1.3747053235e-01,
	-6.7296116295e-01,
	-7.2120702101e-01,
	-9.3806570008e-02,
	1.6043635061e-01,
	-9.6529641861e-01,
	2.5694654739e-01,
	-3.9973636311e-04,
	-3.0171519352e-02,
	-3.4972342176e-01,
	-2.7091841494e-01,
	2.4978946979e-01,
	9.3934074259e-01,
	3.3098119900e-01,
	-7.7132951296e-01,
	-7.9891796669e-01,
	-7.9562826796e-01,
	-6.0148602801e-01,
	9.8660410024e-01,
	4.1799093961e-01,
	8.5338081692e-01,
	-2.8924812437e-01,
	-4.6445769885e-01,
	-9.6494750770e-01,
	8.6198087589e-01,
	4.1246623239e-01,
	2.6521027985e-01,
	-9.1194122001e-01,
	-9.2237503823e-01,
	4.8737372397e-01,
	-8.3733024010e-01,
	2.1494459930e-01,
	8.1769743423e-01,
	-5.5571493393e-01,
	-8.7520055281e-01,
	-1.8686211211e-02,
	-5.1089587339e-01,
	4.3906181365e-01,
	-8.4878268184e-01,
	6.1929784797e-01,
	-8.3969178889e-01,
	-8.9366803453e-02,
	-8.5685311391e-02,
	-8.4895071287e-01,
	-7.4733720206e-01,
	1.4290175838e-01,
	-6.4482276687e-01,
	-9.7242068282e-01,
	5.8498180883e-02,
	-8.8651918687e-01,
	6.7965129706e-01,
	8.1690492686e-01,
	2.2881821886e-01,
	-8.1146058298e-01,
	1.8048228530e-01,
	-2.1584147076e-01,
	7.0926226519e-01,
	9.9344229416e-01,
	1.8627965160e+00,
	1.3015655291e+00,
	-7.5538195414e-01,
	1.6448966184e-01,
	1.2674836861e-01,
	-9.9935543377e-01,
	6.0280933142e-01,
	2.4403244984e-01,
	-1.2131351248e-02,
	-9.0056379032e-01,
	-2.9882233245e-01,
	4.1476642586e-01,
	7.7835680442e-01,
	-1.4334159426e-01,
	-9.1584868974e-01,
	-3.4968668270e-01,
	5.3843083736e-04,
	-3.7681449712e-01,
	7.9629886865e-01,
	3.6365118582e-01,
	-2.3420005256e-01,
	3.3648452011e-01,
	6.9641208753e-01,
	-3.5726405799e-01,
	-2.6375335793e-01,
	-2.5114128797e-01,
	5.5214237913e-02,
	-8.2893916957e-01,
	6.6366151146e-01,
	-1.1984123528e-01,
	-1.2891470135e-01,
	-3.3347690913e-01,
	-2.1727174577e-01,
	5.9377096155e-02,
	8.3205443147e-01,
	9.0198754515e-01,
	6.5449180578e-02,
	4.4187083721e-01,
	1.4604628233e-01,
	-9.4716494714e-01,
	5.4079137069e-01,
	8.3209139660e-01,
	1.9639858473e-01,
	2.7141497157e-01,
	-3.2017422808e-01,
	2.5059531222e-01,
	9.1635326199e-01,
	6.7860943530e-01,
	5.5745485591e-01,
	7.0696842779e-01,
	3.2886077507e-02,
	-6.7670556741e-01,
	4.2943097635e-02,
	-2.6772723841e-01,
	1.4153568371e-01,
	9.6366049107e-01,
	4.7751369126e-01,
	-9.7879501897e-01,
	9.5024974549e-01,
	1.4140953963e-01,
	-9.8636194476e-02,
	-1.7866099896e-01,
	8.1491901336e-01,
	7.0456133069e-01,
	9.0411399714e-01,
	6.4371957049e-01,
	5.9027583509e-01,
	-3.8167350874e-02,
	1.4104406296e-01,
	-3.6898412750e-02,
	4.1201629150e-01,
	-2.1830260732e-01,
	-3.8782904991e-01,
	-7.5360281660e-01,
	1.0293059691e+00,
	3.1416572442e-01,
	4.8660949498e-01,
	1.1141591599e+00,
	1.8400804114e-01,
	1.8194970796e-01,
	5.2126656832e-01,
	9.5669353186e-01,
	3.2669992620e-01,
	-4.4045908478e-01,
	-3.1615843499e-01,
	-7.0730932975e-01,
	-6.6127033982e-01,
	-8.3868676137e-01,
	-6.8610434871e-01,
	-7.1102059433e-01,
	3.0244642464e-01,
	2.1526512676e-01,
	1.1054871128e-01,
	1.1171663784e-01,
	-1.0011639259e-01,
	-8.9734137436e-03,
	-2.5018659385e-01,
	-5.1456905793e-01,
	9.4000167438e-01,
	8.4068342274e-01,
	2.4073589832e-01,
	-3.6147149549e-02,
	-5.3675162560e-01,
	7.8265950536e-01,
	1.3157923945e-01,
	-6.5237648194e-01,
	2.8062056313e-02,
	-4.1516408454e-01,
	-8.4189743255e-01,
	3.2631145697e+00,
	2.7800568201e+00,
	1.6203926351e+00,
	1.4483352449e+00,
	3.1061644006e-01,
	-2.3750146872e-01,
	5.4416173194e-01,
	1.1235485347e+00,
	4.9253780816e-02,
	2.5276170747e-02,
	3.1881524352e-01,
	-3.1061229408e-01,
	-5.9478620337e-01,
	-1.0138807303e-01,
	9.9157453719e-01,
	1.7596225839e-01,
	6.7569731520e-01,
	-1.9952902324e-02,
	9.1208477987e-01,
	-8.8565738308e-01,
	-1.0045275178e-01,
	7.3414628921e-01,
	2.3155729869e-01,
	8.0023734931e-01,
	-8.0512794455e-01,
	1.0061644530e-01,
	-3.3334626171e-02,
	-4.5579427817e-01,
	-8.6446105412e-01,
	5.4387940627e-01,
	-2.9945733333e-01,
	-9.1204022705e-01,
	1.2642334744e-01,
	-6.2415368273e-01,
	9.9165778823e-01,
	-9.6586365903e-01,
	-3.9023772692e-01,
	-4.2080263115e-01,
	2.3454156948e-01,
	1.8232804499e-01,
	3.2805018934e-01,
	-2.5115755166e-01,
	-9.5612677930e-01,
	3.7934943260e-01,
	4.7840272518e-01,
	-9.8426715284e-01,
	-4.5924862449e-01,
	1.0731439996e-01,
	-2.1380937203e-02,
	-5.4803327543e-01,
	2.2165701781e-01,
	8.7869318755e-01,
	-8.0542297745e-01,
	-4.4644359660e-01,
	7.1495159330e-01,
	-6.0904481803e-01,
	6.6722977984e-01,
	-3.1721076151e-01,
	-6.5110912111e-02,
	8.0672014030e-01,
	-7.7180360899e-01,
	6.3651664026e-01,
	8.9467463670e-01,
	3.5461465549e-01,
	-9.8700093062e-01,
	9.7345489404e-01,
	5.1073962509e-01,
	-3.7778792878e-01,
	-5.3446492997e-01,
	-3.7670391490e-01,
	8.0453891016e-01,
	7.9358526714e-01,
	3.7216716288e-01,
	8.5028471021e-01,
	1.8040616917e-01,
	-1.4478362144e-01,
	8.6477486138e-01,
	7.1489740868e-01,
	9.6809473784e-01,
	-1.3133678571e-01,
	-6.9829731339e-01,
	5.6760844260e-01,
	-1.2372489919e-01,
	-6.0843237975e-01,
	8.2068141344e-01,
	-5.2674937204e-01,
	-2.0808366940e-01,
	4.3238661849e-01,
	3.2460611418e-01,
	8.2623989781e-01,
	3.2389273414e-01,
	3.5005523375e-01,
	3.2267330498e-01,
	1.0169891133e-01,
	-2.9798992026e-01,
	3.3504001672e-01,
	-1.1963387491e-02,
	-9.0923540383e-01,
	9.5724833848e-01,
	4.5357168254e-01,
	-2.8593931873e-01,
	7.6178470336e-01,
	2.4715694100e-01,
	-9.1380077672e-01,
	6.1035196742e-01,
	-5.7985802971e-01,
	-6.3259480309e-02,
	4.7433672355e-01,
	-8.6622230050e-01,
	-1.0456484966e-01,
	-6.8080378831e-01,
	-6.9720940587e-01,
	-9.2316859178e-01,
	4.2120091067e-02,
	-3.4029503622e-01,
	8.0717788535e-01,
	4.7509850616e-01,
	4.1197271990e-01,
	2.1144975234e-01,
	-4.0522644647e-01,
	-1.0094888506e+00,
	-1.6243975273e+00,
	3.1851677486e-01,
	-9.5649778928e-01,
	1.5947393869e+00,
	1.0049021433e-01,
	1.7666963990e-01,
	-1.0684888901e+00,
	-5.5087947382e-01,
	4.6430874512e-01,
	4.1341551373e+00,
	5.0206458072e+00,
	1.3958670936e+00,
	3.0504526470e-01,
	5.1908188467e-01,
	9.5298431797e-02,
	5.9424727945e-01,
	-5.3779516643e-01,
	-4.4187075216e-01,
	7.5998076618e-01,
	3.6700420257e-01,
	-9.0582006001e-02,
	-2.4650291530e-01,
	5.5327247181e-01,
	9.3436662481e-01,
	-2.1045600335e-01,
	2.5892088159e-01,
	3.9417804904e-01,
	-3.3044134644e-02,
	-5.2966204393e-01,
	1.0045636457e+00,
	2.2568470762e-01,
	-1.3082426252e-01,
	9.2522561117e-01,
	6.4519806365e-01,
	-6.1462840047e-01,
	-4.3201431047e-01,
	3.9975143382e-01,
	-1.1039713636e-01,
	3.0230696187e-01,
	1.1155314330e-01,
	-1.5259418970e-01,
	-2.4931108451e-01,
	-4.1486044480e-01,
	-9.4763430299e-01,
	-7.1472991617e-01,
	6.6892025697e-01,
	6.7741721853e-01,
	-2.4340827448e-01,
	-7.7296231863e-01,
	4.3624643862e-01,
	-8.7749050179e-01,
	1.0225332673e-01,
	4.9450615025e-01,
	5.6253607737e-01,
	1.6021873344e-02,
	-7.8757383199e-01,
	-1.9025945905e-01,
	-5.9525040239e-01,
	-6.5880851059e-01,
	2.6410724290e-01,
	-6.1239810206e-01,
	5.6687362050e-01,
	-8.6640130552e-01,
	-6.8858978648e-01,
	7.9357815711e-02,
	-4.8692778282e-01,
	-1.1995328363e-01,
	-3.8817430818e-01,
	4.0857315967e-01,
	-8.1764632269e-01,
	7.2337881283e-01,
	-7.4404302675e-01,
	-6.8965117223e-02,
	-6.9659622693e-01,
	-7.0016036561e-01,
	2.1233087909e-01,
	9.6581391609e-01,
	9.4186448560e-01,
	8.9170227295e-01,
	-9.0776295920e-01,
	6.3098625384e-02,
	-9.5432931430e-01,
	2.6390084277e-01,
	-1.3634381139e-01,
	5.1286929766e-01,
	-6.8032660249e-01,
	1.1478631712e-01,
	-5.5108426449e-01,
	-2.9425811774e-01,
	3.5399108795e-01,
	7.3005941713e-01,
	1.1508786724e-01,
	3.7008326984e-02,
	8.6771096376e-01,
	4.2719416573e-01,
	-7.5091741502e-01,
	-6.1331874114e-01,
	-6.9275911883e-01,
	-1.3909172320e-01,
	7.9525441946e-01,
	-5.1040544152e-01,
	-4.1583981883e-01,
	-9.4921369389e-01,
	4.2105854288e-01,
	-1.0721281668e-01,
	-6.4042195276e-01,
	-3.5905017022e-01,
	-1.2975585234e-01,
	-6.5468458520e-01,
	-3.8735179344e-01,
	5.9059269326e-02,
	7.4553315130e-01,
	-2.8969045937e-01,
	-6.1859002619e-01,
	-3.1613726510e-01,
	-6.2726652324e-01,
	-2.9883132579e-01,
	8.0186928271e-01,
	-1.6013613669e-01,
	1.5431997115e+00,
	1.4882991087e-01,
	-6.3454260986e-01,
	-4.6059672612e-01,
	-1.2034977589e+00,
	-1.1072565023e+00,
	5.6451406593e-01,
	-8.0766411730e-01,
	-5.6454581650e-01,
	-8.3547451904e-01,
	5.0144880213e-01,
	-5.6507324956e-01,
	-5.1248146692e-01,
	-1.0879850062e+00,
	-3.1269426446e-01,
	-8.0731251499e-01,
	-1.2486919149e-01,
	3.0315709894e-02,
	-1.6575949750e-01,
	7.7749005663e-01,
	3.8300526899e-01,
	4.1549177549e-01,
	-2.3053070372e-01,
	1.5504129884e-01,
	-8.3642042902e-01,
	2.3689420517e-01,
	8.3520690178e-01,
	-4.6311326710e-01,
	1.0346165050e+00,
	6.4896388230e-01,
	3.8077829218e-01,
	3.6934650008e-01,
	-7.0231199763e-02,
	9.5678095985e-01,
	9.1618242111e-01,
	2.4971263262e-01,
	-5.9854562189e-01,
	8.9021250600e-01,
	8.1873904998e-01,
	2.3286749946e-01,
	-8.2851652793e-01,
	2.4867374415e-01,
	8.5953504027e-01,
	-5.7651002453e-02,
	2.6289554930e-01,
	-4.6256403227e-01,
	1.3585167431e-01,
	-8.3007714424e-01,
	5.7491495068e-01,
	9.7030418179e-01,
	9.4719431174e-01,
	-4.2266127207e-02,
	4.2061092026e-01,
	-2.0081375875e-01,
	-8.9209894272e-01,
	5.8418579380e-01,
	-9.6737169845e-01,
	9.4193097667e-01,
	-8.7902122172e-01,
	9.7027202042e-01,
	5.8876427151e-01,
	5.0068039517e-01,
	3.3961852050e-01,
	-4.8146692919e-01,
	4.4354866574e-01,
	2.0700775768e-02,
	5.3746306000e-01,
	8.5873198353e-01,
	1.4601344575e-01,
	5.8698475342e-01,
	9.1724788347e-02,
	3.1749691782e-01,
	-1.6436641175e-01,
	-4.8798736824e-02,
	-7.4139555736e-01,
	-9.0320655459e-01,
	4.8869330326e-01,
	3.9569758968e-01,
	-7.3152450946e-01,
	5.6463508570e-02,
	2.0334550654e-01,
	-8.1481492589e-01,
	-9.8377298581e-01,
	-2.2141506469e-01,
	-9.4767141302e-04,
	-8.7093699363e-01,
	-6.2929685381e-01,
	4.7398542256e-02,
	-9.2962139345e-01,
	-5.1206374177e-01,
	-1.2276875900e-02,
	6.5903348126e-01,
	9.9245730669e-01,
	-6.4262370376e-01,
	-8.2152600671e-01,
	4.4986056697e-01,
	6.1317723692e-01,
	9.4671969765e-01,
	3.0871785586e-01,
	-2.4080931826e-01,
	5.3370445014e-01,
	-5.9955735672e-01,
	-9.2331240043e-01,
	-6.3063706885e-01,
	3.5126977165e-01,
	-6.6346733952e-01,
	-5.3208300729e-01,
	-1.5960173456e-01,
	7.3223110369e-01,
	-2.6367633908e-01,
	9.0092316751e-01,
	9.3311800814e-02,
	-5.6680315389e-02,
	9.2102417595e-01,
	8.8454058303e-01,
	9.6692256255e-01,
	-9.4540069715e-01,
	-7.4442707109e-01,
	1.1901692546e-02,
	-8.7422414279e-01,
	-5.0402418807e-01,
	-1.1729924907e+00,
	6.4867081609e-01,
	-3.1073116382e-01,
	3.5349603890e-02,
	1.2861073003e+00,
	-8.6960081152e-01,
	-1.0810807127e+00,
	8.4823727250e-01,
	4.4501371864e-01,
	1.0158752704e+00,
	2.1781790275e+00,
	1.3050434524e+00,
	-1.1269154870e-01,
	8.0910881971e-01,
	2.6214877147e-01,
	1.6942829803e-01,
	-7.1997274771e-01,
	-9.0898054625e-01,
	-9.2075590592e-02,
	1.8779200520e-02,
	1.0039830954e+00,
	-7.6848126583e-01,
	1.0070703988e+00,
	9.2848663759e-01,
	9.1383269258e-01,
	9.4067644970e-01,
	9.7607846464e-01,
	-4.7206212114e-01,
	-4.1762316027e-02,
	-8.9075418864e-01,
	-1.0649368405e-01,
	-1.6148735790e-02,
	8.8682671396e-01,
	6.3338528032e-01,
	3.7339332205e-01,
	8.5064640821e-01,
	8.2312481004e-01,
	3.7611294788e-01,
	7.6155697450e-01,
	3.2158219596e-01,
	-8.6197674454e-01,
	2.0617199093e-01,
	2.2048222424e-01,
	-2.3378836468e-02,
	2.0149954138e-02,
	-5.2891527653e-01,
	-8.4824741438e-01,
	3.0204491005e-01,
	-4.3791451279e-01,
	5.9115111390e-02,
	-6.7966623962e-01,
	-4.4290473845e-01,
	6.4710509528e-02,
	-7.0931228237e-01,
	-5.2254133556e-01,
	-4.4848528246e-02,
	-7.7203576256e-01,
	-5.4757862983e-01,
	1.0123647987e-01,
	1.8279646894e-01,
	-4.4232111646e-01,
	9.9547738358e-01,
	-8.3452806630e-01,
	-4.8382699042e-01,
	1.8527814265e+00,
	1.8265559582e+00,
	-7.0920939070e-01,
	4.5125288398e-01,
	-8.6993724614e-02,
	-9.4746944192e-01,
	-2.2716454226e-01,
	5.1087872443e-02,
	2.8654468821e-01,
	1.0827205228e+00,
	-8.8013751307e-01,
	-7.1118305660e-01,
	-5.2123568259e-01,
	-7.1833836232e-01,
	1.0423683213e+00,
	2.8005128742e+00,
	4.0364048880e+00,
	3.3337281334e+00,
	1.1595053556e+00,
	-3.3532093387e-01,
	-5.6315861675e-01,
	-7.3401646749e-01,
	4.5292909926e-01,
	6.6093371123e-01,
	8.3549853623e-01,
	-5.0224112377e-02,
	6.2112695339e-01,
	7.0824127346e-02,
	-6.4564035444e-01,
	7.6232233866e-01,
	5.0623840816e-01,
	9.8248772043e-01,
	2.9921392784e-01,
	7.9650038378e-01,
	4.3374060441e-01,
	-7.8777979770e-01,
	8.4831933298e-01,
	-7.9205517490e-01,
	2.6634893320e-01,
	1.1862049995e-01,
	-7.9760466010e-01,
	2.9091894643e-01,
	3.8546038760e-01,
	-3.3570498492e-01,
	4.8019588111e-01,
	1.8678558957e-03,
	7.9720343691e-01,
	-1.2969578644e-01,
	-7.7943504109e-02,
	2.7764566908e-01,
	1.2050998868e-02,
	5.7719279131e-02,
	3.5004396685e-01,
	-6.7634628090e-01,
	4.8522179331e-01,
	1.1374428392e+00,
	-5.0953527622e-01,
	-6.3435646881e-02,
	-8.5321822072e-03,
	-4.1534139715e-01,
	-3.9635919705e-01,
	-5.4603950351e-01,
	-1.8555040726e-01,
	-9.6910437780e-01,
	-8.1007984111e-01,
	-7.9886855232e-01,
	-1.0216807034e+00,
	-1.0961137770e+00,
	-4.3870891482e-01,
	6.1831689722e-01,
	1.6909740640e-01,
	-2.1780620174e-01,
	-9.8319341034e-02,
	-4.4284479999e-01,
	4.7139987232e-01,
	-6.2743547262e-01,
	4.9247779336e-01,
	1.0212807139e-01,
	8.1436090288e-02,
	-6.1289454140e-01,
	-5.6345229948e-01,
	-9.0656237579e-01,
	4.4346927546e-01,
	7.9279461008e-01,
	-6.3613100612e-01,
	-8.0995387901e-02,
	6.2082399503e-01,
	-6.0827848530e-03,
	9.9336054269e-01,
	-4.6368361333e-01,
	9.7832508291e-01,
	-1.6996292731e-01,
	-4.1952812598e-02,
	-5.4779330760e-02,
	-3.4072469470e-02,
	1.7627837005e-01,
	3.4585685998e-01,
	3.1403819067e-01,
	2.4282888567e-01,
	9.5306873319e-01,
	-7.4601416045e-02,
	-5.8431032746e-01,
	-2.3982640786e-01,
	8.2765940476e-01,
	-2.6998374158e-02,
	-7.6842653554e-01,
	-7.9977606880e-01,
	-5.0504945009e-01,
	3.9375586314e-01,
	2.8161055747e-01,
	-1.1794399150e-01,
	8.3030356459e-01,
	3.7504818168e-01,
	-6.7447471697e-01,
	6.0225800686e-01,
	7.4245333259e-01,
	2.5056941606e-01,
	2.2376568041e-01,
	-2.6491857775e-01,
	3.1853197899e-01,
	2.1064145242e+00,
	1.0894499484e+00,
	-9.3148053874e-01,
	-2.8255442497e-01,
	6.5638014193e-01,
	3.4587155329e-02,
	8.9372436027e-01,
	2.2963202330e-03,
	-6.2281924996e-01,
	2.2739457391e-01,
	5.1466715224e-02,
	2.8641248177e-01,
	5.6997076521e-01,
	8.2817243579e-01,
	5.7041749897e-01,
	2.3947301295e+00,
	4.9118411418e+00,
	2.8385808245e+00,
	6.2702751896e-01,
	1.0482152430e+00,
	-2.0125675873e-02,
	1.3821754007e+00,
	4.0830648718e-01,
	2.8947819412e+00,
	7.6199347929e-01,
	1.0896234208e+00,
	7.1953278165e-01,
	4.7562466607e-01,
	9.9645222537e-01,
	-5.7041269088e-01,
	-2.8980369833e-01,
	7.5585061393e-01,
	1.4074492880e-01,
	-2.2187618782e-01,
	-5.2670381196e-01,
	-2.0287493020e-01,
	8.1197885322e-01,
	-6.3178779404e-01,
	8.0279381512e-01,
	-8.2605603071e-01,
	5.0602778255e-01,
	-2.4531195018e-01,
	4.3393376023e-01,
	5.5815469254e-02,
	-5.2019821316e-01,
	-4.2753654843e-01,
	6.8784352786e-01,
	-4.2131888418e-01,
	8.9168950235e-01,
	-3.9569397871e-01,
	7.5800857495e-01,
	-5.8008942961e-01,
	-4.8107361908e-01,
	-1.5044187155e-02,
	-6.1416184772e-01,
	-1.9517508960e+00,
	2.6636434843e+00,
	9.0865521807e-01,
	1.4473842730e-01,
	3.2367268075e+00,
	1.9796770455e+00,
	1.9259748721e+00,
	2.3763935846e+00,
	2.2823815120e+00,
	1.4037417164e+00,
	3.6393535378e+00,
	3.8803648868e+00,
	2.4283346526e+00,
	-7.7505111126e-02,
	-7.2834238240e-01,
	7.0648342767e-01,
	9.4478217990e-01,
	3.4383534554e-02,
	9.9252263118e-02,
	-1.4515801251e-01,
	4.6467614543e-01,
	7.5028436840e-01,
	7.4685819204e-02,
	9.4689711287e-01,
	4.8656009180e-01,
	9.8708105346e-02,
	6.5385401055e-01,
	8.8860221795e-01,
	7.7614662696e-01,
	-4.2494456417e-01,
	-7.2122888326e-01,
	-7.2840164123e-01,
	-7.2888696620e-01,
	-6.6653860457e-01,
	-5.2481484769e-01,
	9.7005692868e-01,
	-1.6477972789e-01,
	3.8896824764e-01,
	4.2485078118e-01,
	-5.2178841714e-01,
	8.0875154157e-02,
	3.5294082172e-01,
	-8.1672035661e-02,
	-4.1523908703e-01,
	6.4805099631e-01,
	1.5780641658e-01,
	-7.5148124516e-01,
	4.4673413478e-01,
	-8.4804732718e-01,
	3.4544049639e-01,
	-6.9876726144e-01,
	6.1624606122e-01,
	-2.3522646643e-02,
	-2.6320906229e-01,
	4.9773936882e-01,
	-5.5719552355e-01,
	7.7360340942e-01,
	1.3724125136e-01,
	-6.7279242523e-01,
	3.1392084030e-01,
	7.0586392456e-01,
	-4.1247946462e-01,
	5.8551919907e-01,
	9.7697761281e-01,
	-7.9569177796e-02,
	-9.4012042415e-01,
	6.1328029179e-01,
	7.5552989987e-01,
	4.4967259814e-01,
	3.7188532081e-01,
	-7.6607372135e-01,
	-4.6945224864e-01,
	-2.7517385747e-01,
	1.5207163985e-01,
	1.1501116847e-01,
	-6.2721510372e-01,
	-6.8993934043e-01,
	3.6382746696e-01,
	8.1948758284e-01,
	-5.3820766135e-01,
	-3.2156964174e-01,
	-8.9245495078e-01,
	-9.2273124536e-01,
	6.6812587158e-01,
	-1.8778670824e-01,
	3.6749231055e-01,
	-8.7145025557e-01,
	-3.7923322510e-01,
	-3.2475833283e-01,
	-5.8151592992e-01,
	7.3768343848e-01,
	-5.8089713557e-01,
	4.3277855517e-02,
	5.3067839589e-01,
	-6.0391845070e-01,
	9.6377228012e-01,
	5.9138274733e-01,
	-6.5688391014e-01,
	7.1948697591e-01,
	4.1055344530e-02,
	7.1500141067e-01,
	9.5341325456e-01,
	5.7160309682e-01,
	-5.6017244773e-01,
	1.0566749755e-01,
	-3.1308823978e-01,
	-1.8729530889e-01,
	4.1572815805e-01,
	-9.4926082061e-01,
	-3.6768473044e-01,
	8.7749832459e-01,
	-2.4009859982e-01,
	-2.4714232201e-01,
	9.5583708887e-01,
	-5.5424763707e-01,
	6.1079492216e-01,
	5.3199964647e-01,
	-4.2572714934e-01,
	-7.5803113413e-01,
	-7.5476034067e-01,
	2.0626254092e-02,
	-8.1562266631e-01,
	-3.3706559068e-01,
	-9.2679797786e-01,
	6.0112623878e-01,
	-5.9622044706e-03,
	-9.6395332956e-01,
	3.0756356495e-01,
	4.0126635124e-01,
	7.5533106173e-01,
	-8.4434930224e-01,
	-2.1353231289e-01,
	5.5371279341e-01,
	8.6997793912e-01,
	5.5584365024e-01,
	-1.8794858855e-01,
	-3.9187246523e-01,
	-6.2894640778e-01,
	-7.6859455148e-01,
	-3.4043700124e-01,
	3.3902057389e-03,
	-8.9496516672e-01,
	3.7549121532e-01,
	7.3688116195e-01,
	-9.3791321088e-01,
	8.4703156123e-01,
	3.6213391718e-01,
	5.9542971949e-01,
	-5.6891798801e-01,
	6.0824673129e-01,
	8.3612052411e-01,
	4.6968399336e-01,
	7.9657157262e-01,
	-4.9327823724e-01,
	5.4302127545e-01,
	5.1444237470e-01,
	5.6715586854e-01,
	5.8013083766e-01,
	-1.7630400750e-01,
	-2.9302895548e-02,
	3.3672737392e-01,
	1.7400495576e-01,
	-9.1076024990e-01,
	4.6737164746e-02,
	9.5917013984e-02,
	6.4760994895e-01,
	8.6241445405e-01,
	7.0474083335e-01,
	-9.8131516202e-01,
	-9.0618010140e-01,
	-6.3569616789e-01,
	2.2075690805e-02,
	-7.9703316456e-01,
	7.8387392675e-01,
	-2.2137348318e-01,
	-7.3188534460e-01,
	6.4919638338e-01,
	-8.5402773593e-01,
	8.6526212276e-01,
	-9.1117905169e-01,
	7.5535129186e-01,
	7.0764934707e-01,
	5.5850589689e-01,
	5.5192279933e-01,
	-7.8559189403e-01,
	2.0968392929e-01,
	2.0231831682e-01,
	7.8157465009e-01,
	-3.1834294708e-01,
	8.9006116236e-01,
	-2.4776705666e-01,
	-9.8161557316e-01,
	6.4066117194e-02,
	-1.5820550028e-01,
	6.6576730192e-02,
	-8.3946810364e-01,
	-5.1091735344e-01,
	-7.2107255637e-02,
	8.6970059377e-01,
	-4.8343213501e-01,
	1.2233966067e-01,
	-7.2040078792e-01,
	6.3768468951e-01,
	2.5275703754e-01,
	-9.8485080479e-01,
	-6.8978565412e-01,
	5.1343108009e-01,
	6.7553145710e-01,
	-5.0283972322e-01,
	4.6824315144e-01,
	8.7361081191e-01,
	-7.8975287559e-01,
	6.5354900822e-02,
	3.0942399395e-01,
	7.6171603695e-01,
	2.7972877644e-01,
	-5.8904978986e-01,
	-1.7191879413e-01,
	6.1264615069e-02,
	9.2607263053e-02,
	-2.8185763270e-01,
	8.1349755815e-01,
	1.1099168989e-01,
	7.8220848450e-01,
	-3.4502715581e-01,
	-8.2388671852e-01,
	9.4219162387e-01,
	1.4405289159e-01,
	1.0364932618e-01,
	8.0785205588e-01,
	6.5272604300e-01,
	-8.7498681413e-01,
	-9.6284501377e-01,
	1.8179563825e-01,
	3.4937729324e-01,
	-9.5115490535e-01,
	4.9013322754e-01,
	-1.5817409158e-01,
	7.1214358232e-01,
	9.4494341528e-01,
	-8.4523756954e-01,
	4.0247257326e-01,
	-8.6603674926e-01,
	2.3947154648e-01,
	-1.2613718491e-01,
	9.7590697079e-01,
	-4.7757370629e-01,
	1.5796014727e-01,
	-2.6970125451e-01,
	5.9729544065e-01,
	-6.8587794299e-01,
	4.7855583157e-01,
	3.9925456875e-01,
	3.7360870050e-01,
	2.4167900899e-01,
	-9.2347395478e-01,
	5.5964804884e-01,
	1.8448733222e-01,
	2.1833184957e-01,
	-3.3438632145e-01,
	-6.3293487203e-03,
	-1.3117838857e-01,
	-2.1358701872e-01,
	2.9473474151e-02,
	-9.4839810523e-01,
	-8.6072729516e-01,
	7.7843098140e-02,
	5.4122610792e-01,
	2.7869897563e-02,
	-2.1007957328e-01,
	4.8582675101e-01,
	1.8116186055e-01,
	-7.4878235347e-01,
	6.4098034795e-01,
	-5.5402429279e-01,
	2.2503871947e-02,
	5.5697312837e-01,
	-9.4816708050e-03,
	-7.9525967212e-01,
	-6.9886121047e-01,
	-4.0367443366e-01,
	-5.2041595221e-01,
	7.6344681893e-01,
	-9.8436964023e-01,
	8.6541945760e-01,
	7.9633309543e-03,
	-9.1009459547e-01,
	4.2736814796e-01,
	-8.0532854321e-01,
	3.0823334088e-01,
	-9.0703383643e-01,
	1.8829516190e-01,
	-8.2161835293e-01,
	-1.1643054947e-01,
	-7.8213775986e-01,
	-7.6980650601e-01,
	2.3500786640e-02,
	2.9627441396e-01,
	7.7213856940e-01,
	-9.9480239488e-01,
	-9.1243564068e-01,
	2.6205549703e-01,
	1.8696536600e-01,
	-6.6252596309e-01,
	-4.6977302279e-02,
	1.4923592814e+00,
	1.2904252283e+00,
	-5.4309095404e-01,
	-3.7714649801e-01,
	5.6409161238e-01,
	-2.4182836118e-01,
	2.1917930832e-01,
	-9.5628164174e-01,
	-4.5882748709e-01,
	2.9837359965e-01,
	9.7876758483e-01,
	5.3857978012e-01,
	3.3723630862e-01,
	4.1562358088e-01,
	1.0633772281e+00,
	1.5980650034e+00,
	3.0876247857e+00,
	1.5813126990e+00,
	2.0988985527e-01,
	-3.7248472170e-01,
	7.5275809297e-01,
	3.3298367483e-01,
	4.9122471373e-01,
	4.9824298986e-01,
	8.7768490430e-01,
	1.2054566769e+00,
	-4.7495311827e-01,
	-9.2553704711e-01,
	-4.7194326365e-01,
	-1.5134879494e-01,
	-2.8131804908e-02,
	-8.3960809085e-01,
	-7.9199868803e-01,
	4.2838881511e-01,
	-2.1675458887e-01,
	7.7209292435e-01,
	-8.1395177721e-01,
	-9.9635331830e-01,
	8.1828227744e-01,
	-2.8368216880e-01,
	2.3897283241e-01,
	7.2487664373e-01,
	-7.6377599303e-01,
	-4.3805125685e-01,
	6.8573317270e-02,
	9.8884624492e-01,
	2.7106980164e-01,
	-3.9361731551e-01,
	-8.8022403226e-02,
	-9.9222472178e-01,
	-1.9624473024e-01,
	-9.9699136363e-01,
	5.8308689467e-02,
	-8.2086290037e-01,
	-5.6468637676e-01,
	4.8428177312e+00,
	1.3629262544e+00,
	-4.8836653715e-01,
	6.9063214326e-01,
	-2.1946610573e+00,
	-4.2504640930e-01,
	-8.1463571794e-01,
	-1.5566172387e+00,
	1.5815711133e-01,
	-9.7781020444e-01,
	-6.8000519059e-01,
	-5.6534027347e-01,
	-1.1805046268e+00,
	-3.0204381094e-01,
	5.8206790938e-01,
	2.1141342215e-01,
	-8.8040445511e-01,
	2.9192155489e-01,
	4.6256929779e-01,
	-2.4474661110e-01,
	-6.2966312925e-01,
	3.4614042469e-01,
	7.0038209838e-01,
	-1.4845723532e-01,
	-7.0853121795e-01,
	9.3734873756e-01,
	6.6015914905e-01,
	-7.0338232670e-01,
	-6.3523942305e-03,
	8.0483768455e-01,
	-2.7791576157e-01,
	-1.3446098153e-01,
	2.8729832480e-01,
	6.6518325996e-01,
	-2.0072834622e-01,
	2.9730631285e-01,
	4.5375475262e-01,
	7.0487248418e-01,
	4.6770716248e-01,
	4.5028115318e-01,
	-9.6113787124e-01,
	-5.7864657770e-01,
	2.1890047715e-01,
	-4.4110000294e-01,
	3.7742416345e-01,
	-1.9671161529e-01,
	7.8609231570e-01,
	5.7072881124e-01,
	-8.8746000821e-01,
	2.4950864038e-01,
	-6.7401779987e-01,
	-5.1688143588e-01,
	-3.2711001268e-01,
	-7.2386749728e-01,
	3.4445352729e-01,
	-3.1727467213e-02,
	-7.6749045950e-01,
	9.5437602184e-03,
	2.6555469319e-01,
	2.3663662711e-01,
	-1.8511107247e-01,
	9.9090641000e-01,
	-8.9782435535e-01,
	-8.9781370102e-01,
	6.4368212954e-01,
	-1.7937139757e-01,
	2.4197417832e-01,
	1.0986606068e-01,
	-3.9368021832e-01,
	-1.3280022663e-01,
	-4.3982513437e-01,
	-3.5481808956e-01,
	2.8855318968e-01,
	7.7697567075e-01,
	2.0100519772e-01,
	-3.3523378802e-01,
	-4.1764258695e-01,
	-9.8257920207e-03,
	-7.6367435667e-01,
	-3.0773403973e-01,
	-7.6679562438e-01,
	-4.7722215774e-01,
	-1.2934207789e-04,
	-1.0170306130e-01,
	-1.6275221652e-01,
	-4.7799093729e-01,
	8.0093454721e-01,
	6.1615906092e-02,
	3.2558425686e-01,
	-2.8663107581e-03,
	-7.0049920626e-01,
	-6.5312699438e-01,
	1.3725576372e-01,
	-5.8985731545e-01,
	-5.5090520324e-01,
	-2.0655166693e-01,
	3.1158998297e-01,
	8.4858740952e-01,
	9.0334204673e-01,
	9.1790976465e-01,
	-2.8421281804e-01,
	-5.3648308829e-01,
	-4.3690832492e-01,
	-9.9565962236e-01,
	-7.5741710152e-01,
	7.6695613589e-01,
	-3.2968226323e-01,
	-1.7504401932e-01,
	-2.4265219515e-01,
	-9.2988435534e-02,
	5.1898047197e-01,
	-4.4652412883e-03,
	4.6661552755e-01,
	-3.0305722548e-01,
	9.0941460236e-01,
	-6.9146685102e-01,
	2.2035489539e-01,
	7.8899921055e-01,
	3.7840907933e-01,
	-2.4763118361e-01,
};

double mlpWeightsLayer2[] = {
	9.9739526573e-01,
	-1.2647549824e+00,
	-8.1733072637e-01,
	-4.3523510069e+00,
	-1.1996157205e+00,
	1.6354366773e+00,
	-1.7114664008e-01,
	5.3114604183e-02,
	-3.5418197073e+00,
	-2.6579454324e-01,
	9.6463758934e-01,
	-4.3417748773e+00,
	3.6606564798e+00,
	6.3220298685e-01,
	-2.3803977579e+00,
	-3.3379365842e+00,
	2.1436951191e+00,
	-2.9562210657e-01,
	-2.6475489371e+00,
	-2.6253227838e+00,
	6.1320291832e-01,
	4.3908229591e+00,
	-2.3367023715e+00,
	-4.7181433042e+00,
	-9.7003897953e-01,
	-1.8890974478e+00,
	2.5933698897e-01,
	2.3743476577e+00,
	-2.5769138907e+00,
	-3.5131287326e-01,
	-2.2714958230e+00,
	4.0669613589e-01,
	-4.7844911891e+00,
	-1.3600933926e+00,
	-4.8620185752e+00,
	-4.4488177680e+00,
	2.4674803563e+00,
	-3.0458797481e-01,
	-2.5676264763e+00,
	-2.3169868939e+00,
	-5.4089578937e-01,
	-1.1228664498e+00,
	-1.3970480309e+00,
	2.2952226323e+00,
	6.7165211201e-01,
	-7.4105560033e-01,
	-4.1961482056e-01,
	-3.2154150799e-01,
	5.1840553429e+00,
	-1.8159465509e-01,
	2.9161482488e-03,
	-2.2679246382e+00,
	-2.9727779776e+00,
	-7.0821712417e-01,
	2.1284579978e+00,
	4.0771664968e+00,
	-4.1786154262e+00,
	1.0536521804e+00,
	2.2838811270e+00,
	-2.4274839382e+00,
	-3.7998045532e+00,
	-1.7749161451e+00,
	3.0530987866e+00,
	-4.0406360677e-01,
	-6.3510453469e-01,
	-7.2522937020e-01,
	7.0640617064e-01,
	-2.4840278056e+00,
	-4.9272511733e+00,
	7.9655505472e-01,
	-1.3551260642e+00,
	-7.6551848412e-02,
	-1.4101860508e+00,
	1.8757910900e+00,
	-3.9872594103e+00,
	-2.9458483385e+00,
	-6.6623559780e+00,
	2.9318549357e-01,
	-1.9243323582e+00,
	3.5964371117e+00,
};

