// MLP Weights File

#define NUMBER_OF_LAYERS 2
#define LAYER_1_WEIGHTS_LENGTH 2400
#define LAYER_2_WEIGHTS_LENGTH 80

#define LAYER_1_WEIGHTS_ABS_MAX 7.0000000000e+00
#define LAYER_2_WEIGHTS_ABS_MAX 7.0000000000e+00

double mlpWeightsLayer1[] = {
	2.4044194797e-01,
	-6.2149896786e-01,
	3.0099210343e-01,
	-5.1287946640e-01,
	-8.5522503310e-01,
	2.9570064476e-02,
	1.7029572594e-01,
	3.9793291414e-01,
	-7.4892949958e-01,
	-8.5469606117e-01,
	3.8513524745e-01,
	3.6419323338e-02,
	-1.0545716058e+00,
	8.2423343890e-01,
	1.5793072134e-01,
	8.3706103809e-01,
	-8.7645508136e-01,
	-7.4227299026e-01,
	-7.4276849616e-01,
	5.2308801381e-01,
	-7.2716256750e-01,
	9.4276699481e-01,
	-8.1446909153e-01,
	5.0174979373e-01,
	1.8521850226e-01,
	2.9607701502e-01,
	3.8787611699e-01,
	-3.3483535004e-01,
	-7.3969673232e-01,
	-2.0461497757e-01,
	8.3060652983e-01,
	6.5213873221e-01,
	1.6609593442e-01,
	1.3868642020e-01,
	-8.5579826117e-01,
	3.5877506684e-01,
	-8.2800824280e-01,
	2.5590699411e-01,
	-3.0385778812e-01,
	-5.8031775410e-01,
	4.0092999740e-01,
	-5.2976792377e-01,
	-9.6678721065e-01,
	4.7135994466e-01,
	-6.8467893064e-01,
	1.9089684784e-01,
	3.0639409148e-01,
	-5.6108275222e-01,
	4.4862566024e-01,
	5.6362559626e-01,
	9.6206467876e-01,
	7.2164975094e-01,
	5.1568711899e-01,
	-8.2366419110e-01,
	2.7736932285e-01,
	-2.8883776967e-01,
	4.8730356222e-01,
	-3.2998320522e-01,
	3.7861158390e-01,
	7.5877235912e-01,
	4.6889598019e-01,
	2.2160654792e-01,
	4.1343460468e-01,
	-3.6599254595e-01,
	-5.2227727827e-01,
	2.2708198248e+00,
	2.4128416317e+00,
	-4.7386970957e-01,
	-1.8898017760e-01,
	-3.1307793004e-01,
	-5.4299189169e-02,
	-7.8805016562e-01,
	1.5716405860e-01,
	7.2095221427e-03,
	7.8971997077e-01,
	5.6720888604e-01,
	-8.1180574575e-01,
	1.4185156375e-02,
	1.0466604071e+00,
	1.1208196544e+00,
	2.4313492473e+00,
	5.1011613457e+00,
	3.4048091022e+00,
	-4.1475099596e-01,
	-5.9416276582e-01,
	-1.8518563339e-01,
	1.5765916005e-01,
	7.0464745009e-01,
	1.8519276066e+00,
	1.2723100307e-01,
	1.4429715968e+00,
	-2.1385493093e-01,
	3.7457539456e-01,
	-2.9322003913e-01,
	3.8488681110e-01,
	7.2664492378e-01,
	-7.3810721083e-01,
	3.7566589814e-01,
	-7.4783609194e-01,
	7.2912611567e-02,
	-9.3741203283e-01,
	1.9736512899e-01,
	2.8572978759e-01,
	2.2288248793e-01,
	-8.0423136157e-01,
	-2.8255301646e-02,
	-3.0748727822e-01,
	-6.5490999235e-01,
	9.5787643002e-01,
	-3.8997631384e-01,
	1.0027165710e+00,
	-3.6222710355e-01,
	-3.6789251020e-01,
	3.6229620784e-01,
	-4.1368026961e-01,
	-4.7314008462e-01,
	9.2036351050e-01,
	3.7896750655e-01,
	-8.8452861840e-01,
	2.1580184284e-01,
	4.5908757581e+00,
	2.3860030557e+00,
	1.6174664930e+00,
	3.0897119234e-01,
	-1.7040074942e+00,
	-9.4571856498e-02,
	-4.1649637268e-02,
	-4.3152574286e-01,
	-5.1755194817e-01,
	-1.5882470997e-01,
	-1.2591741345e-01,
	-1.1194681269e+00,
	-1.2949670436e+00,
	-3.3622350986e-01,
	-9.3898865227e-01,
	-7.5072923780e-01,
	6.1179664347e-01,
	-3.0493105143e-01,
	-4.1110463456e-01,
	6.1222698954e-01,
	2.9812918367e-01,
	-4.6925002534e-01,
	-9.2082410154e-01,
	7.3708084305e-01,
	8.4386868319e-01,
	-2.9641397753e-01,
	-6.9793970575e-01,
	7.7454869732e-01,
	-9.3653729505e-01,
	-6.3408091427e-01,
	-1.9002642439e-02,
	5.8334097340e-01,
	7.2584007578e-01,
	-5.9477379108e-02,
	-5.2435007855e-01,
	7.9244489492e-01,
	-7.1516930112e-01,
	9.4603792343e-02,
	-8.7905708695e-01,
	4.8046750039e-03,
	9.6572156715e-01,
	5.2235354275e-01,
	7.8736661830e-01,
	-9.6579553092e-01,
	-7.9137339806e-01,
	7.8967067496e-01,
	-7.2153348370e-01,
	8.6307185416e-01,
	-5.1580794040e-01,
	-1.3218142797e-01,
	4.7539315255e-01,
	7.8232323834e-01,
	4.2019715878e-01,
	5.9891994838e-01,
	5.5752135048e-01,
	2.7518855002e-01,
	-6.9733119183e-01,
	8.5957934887e-01,
	4.9748341110e-02,
	-6.3318146562e-01,
	-7.7440625512e-01,
	-9.6915107778e-01,
	9.5015950778e-01,
	9.5143341085e-01,
	-2.8629126586e-02,
	-6.0940725304e-01,
	4.7280725369e-01,
	2.5614497105e-01,
	5.2041322157e-01,
	8.6482121789e-01,
	-7.3899308207e-01,
	4.8613478778e-01,
	3.8717476064e-01,
	-9.5162649189e-01,
	5.2014369740e-01,
	5.9517896179e-01,
	8.3797299510e-01,
	7.9880576008e-01,
	4.5846104797e-01,
	-6.7815506997e-01,
	-3.8275826301e-01,
	-1.1192385647e-01,
	-8.9680699309e-01,
	-9.1328425495e-01,
	-4.8519988884e-01,
	5.1801123399e-01,
	2.9176878688e-01,
	-1.7994209035e-01,
	2.2157899308e-01,
	-6.0701703423e-01,
	5.2656970338e-02,
	7.4703887164e-01,
	-5.5739268361e-01,
	1.5283316614e-01,
	6.9868736048e-01,
	4.1397886044e-01,
	5.7864259443e-01,
	4.4256566532e-01,
	-3.2981889757e-01,
	9.9055815069e-02,
	3.0738688228e-01,
	-6.8811979643e-02,
	-4.1480939808e-01,
	-3.0543835801e-01,
	-2.0438826874e-02,
	-8.9447014215e-01,
	-7.0963699636e-01,
	-1.8239423408e-01,
	9.0433563194e-01,
	7.4923219279e-01,
	1.3979291917e-01,
	-4.2926229275e-01,
	-3.1675686080e-01,
	2.4427788628e-01,
	-3.4221852121e-01,
	2.1668890362e-01,
	-9.3517604471e-02,
	-9.8020846768e-01,
	-9.4745983718e-01,
	-5.7185739538e-01,
	-1.9980666158e+00,
	2.9783089322e+00,
	1.0644483326e+00,
	8.1028367691e-01,
	2.3265314782e+00,
	3.0248121759e+00,
	1.8579876697e+00,
	3.6177061292e+00,
	2.4542484041e+00,
	1.1391327937e+00,
	1.9670104436e+00,
	2.1658575835e+00,
	2.7910161938e+00,
	1.1467616655e+00,
	3.0211275038e-01,
	-4.2754527728e-02,
	1.0473221700e+00,
	6.6033858134e-01,
	6.8902496224e-01,
	6.8065206781e-01,
	3.5783907101e-01,
	-8.2201134057e-02,
	-5.8540040222e-01,
	-1.0290113806e+00,
	-9.3211600306e-01,
	-1.0332484942e-01,
	2.5480931631e-01,
	-2.6096946837e-02,
	-2.8629339886e-01,
	3.0573403745e-01,
	4.0130455884e-01,
	3.6088826571e-01,
	-4.3384923704e-01,
	5.8069952714e-01,
	-7.6495449327e-01,
	-2.5798618340e-02,
	4.5502159719e-01,
	-4.7681839088e-01,
	-3.9105173684e-02,
	-2.2832882368e-01,
	4.8149881395e-01,
	-9.5335591396e-01,
	3.9570763865e-01,
	3.7100403820e-01,
	7.1758394955e-01,
	-2.8569425795e-01,
	-7.5992918096e-01,
	4.9405366997e-01,
	-6.7673315093e-01,
	9.2674336672e-01,
	1.7485902141e-01,
	6.8146417741e-01,
	-2.4674205168e-01,
	4.2662434905e-01,
	7.2316409169e-01,
	-1.7582592795e-01,
	-6.6382884498e-01,
	-1.8447090415e-02,
	8.0157259563e-01,
	2.6550949517e-01,
	-7.0751424586e-01,
	2.0744621161e-01,
	-3.7334383512e-01,
	-1.4136370980e-01,
	-2.1228407803e-01,
	-1.8488084287e-01,
	5.8455234416e-01,
	-7.5696090519e-01,
	3.8462487580e-01,
	-2.0626750831e-01,
	1.4741387428e-02,
	-1.3387631094e-01,
	-1.5962342134e-01,
	-5.8970490376e-01,
	-7.6350295865e-01,
	-4.4233407991e-01,
	1.2503903316e-01,
	-5.2277332835e-01,
	-9.4835873989e-01,
	4.3868200843e-01,
	-6.4919251721e-01,
	5.1416333336e-02,
	1.0551824188e-01,
	1.5852178021e-01,
	-3.4371418538e-01,
	-1.5026282343e-01,
	8.8146027573e-01,
	-2.3698144385e-02,
	6.6586793468e-01,
	6.8122034394e-01,
	-7.5888049026e-01,
	-8.7345227641e-01,
	-1.0042894282e-02,
	-1.1842402495e-01,
	-1.4672378691e-02,
	7.7811165516e-01,
	7.4301924265e-01,
	-1.8183471131e-01,
	-9.7881534322e-01,
	1.2764411752e-01,
	6.1189778038e-01,
	3.5928835643e-02,
	9.9376780701e-01,
	-5.4765179123e-01,
	4.4677366491e-01,
	-7.6937878720e-01,
	1.0234886954e-02,
	-4.2886179007e-01,
	-2.9190592062e-01,
	6.2282867100e-02,
	-9.8086750224e-01,
	1.1118755538e-01,
	-7.1118322571e-01,
	1.4842403673e-01,
	-7.3077221076e-01,
	-5.7380135663e-02,
	-9.9869612325e-01,
	-7.4939053761e-01,
	9.3244302299e-01,
	8.3552746719e-01,
	-1.8746447953e+00,
	-1.5329855592e+00,
	6.0761050186e-01,
	-1.6745520362e-01,
	1.9057425239e+00,
	9.7525197763e-01,
	-5.0610111555e-01,
	-5.4732754102e-01,
	6.4691456582e-01,
	-2.7723983701e-01,
	4.9207370374e+00,
	6.1723108802e+00,
	2.2100847682e+00,
	1.0340676131e+00,
	8.1132183659e-01,
	3.3519526165e-01,
	-8.4448119912e-01,
	-1.6840242974e-01,
	8.7623140725e-01,
	-1.2711808210e-01,
	9.0398614570e-01,
	9.2988026151e-01,
	1.4581314237e+00,
	-4.2805359190e-01,
	9.5635167968e-02,
	-6.5082904112e-01,
	1.5814486016e-01,
	6.2613540667e-02,
	6.0320104332e-01,
	8.3721075675e-02,
	-8.8918331198e-02,
	-4.6209851441e-01,
	2.5384664234e-01,
	-1.5427904168e-01,
	5.6151804494e-01,
	-6.7710985880e-01,
	7.9071694696e-01,
	-6.3675374148e-01,
	1.3495215920e-01,
	5.5641065797e-01,
	1.8615912888e-01,
	7.4658294709e-02,
	-6.5997851578e-02,
	4.5000834877e-02,
	8.1322356165e-03,
	-2.3613200208e-01,
	-6.4977680875e-01,
	1.7250171079e-01,
	6.0396873374e-01,
	-7.7341624153e-01,
	-9.5503473652e-01,
	5.0631855033e-01,
	-8.7789305759e-01,
	-9.7053519169e-01,
	6.9779066541e-01,
	1.6628132815e-01,
	-7.1679979736e-01,
	-1.6811735517e-01,
	-7.8824041029e-01,
	-2.1245462038e-01,
	8.9817149995e-01,
	9.2340472588e-02,
	3.2477003086e-01,
	1.5211038021e-01,
	8.9908036253e-01,
	-2.6427602583e-01,
	1.1692615784e-01,
	7.2630648214e-01,
	2.5021116866e-01,
	-3.9004712337e-01,
	2.8288306843e-01,
	-5.6362970246e-01,
	6.8460877598e-01,
	-7.8652609081e-01,
	4.6351263985e-01,
	-3.1976416587e-01,
	-2.2738522479e-02,
	8.2601241230e-01,
	8.4447045920e-01,
	-4.5720653140e-01,
	-1.0725705040e+00,
	3.2483977733e-01,
	-1.0083194600e+00,
	-8.4139562680e-01,
	7.6367177951e-01,
	5.6614949107e-01,
	2.9883128343e-01,
	-7.8649694235e-01,
	-4.5378799514e-01,
	1.9227607440e-01,
	-9.0778042726e-02,
	-4.8184943472e-01,
	-3.4894123197e-01,
	-6.6413236301e-01,
	6.7126796423e-01,
	-4.1299090973e-01,
	2.2283254714e-01,
	1.4626868216e-01,
	-6.8633812744e-01,
	-5.2695628420e-01,
	7.5622155879e-01,
	5.9672531281e-01,
	-9.0586012073e-02,
	4.4070128604e-01,
	8.0763543690e-01,
	-6.0922340116e-01,
	-8.6642386572e-01,
	-2.0527551286e-01,
	-7.7762053245e-01,
	9.9779320692e-01,
	3.7264077616e-01,
	-7.3714787826e-01,
	8.8231993733e-01,
	4.5828811321e-01,
	-5.3996899079e-01,
	8.4870682091e-01,
	2.5973927148e-01,
	8.0293319867e-01,
	-9.3315773627e-01,
	8.7925232019e-01,
	6.7334671208e-02,
	-9.3058655257e-02,
	-6.2223664662e-01,
	-9.8478422044e-01,
	6.9838574130e-01,
	-8.0067762753e-01,
	-3.9708526771e-01,
	-3.6164470791e-01,
	2.1693803914e-01,
	-8.1902215274e-02,
	8.3789537928e-01,
	1.0035429564e+00,
	-2.4367098267e-01,
	-9.6710219704e-01,
	-5.8527206791e-01,
	-6.7016454045e-01,
	-5.8592739119e-01,
	-4.5193413981e-01,
	1.2272100844e-01,
	-3.6359821394e-01,
	-4.5306941755e-01,
	-4.9510579019e-01,
	-6.7820378087e-03,
	-4.9279031995e-01,
	9.8704728470e-01,
	3.9779502540e-01,
	-6.9285621603e-01,
	2.3602309515e-01,
	3.7215196934e-01,
	-6.2110965439e-01,
	1.1969321618e-01,
	-4.4913057771e-01,
	4.5822274101e-01,
	5.1423099291e-01,
	-4.3232245717e-01,
	-1.2390663993e-01,
	5.8489637709e-01,
	1.7149475458e-01,
	5.1679652721e-01,
	-1.9765620176e-01,
	-9.1102616205e-01,
	-3.6945659079e-01,
	7.7601277911e-01,
	-3.9682176588e-01,
	-3.4629569545e-01,
	-8.0948551363e-01,
	-6.8826468228e-02,
	6.7650344720e-02,
	-2.6140767022e-01,
	-9.4610668530e-01,
	7.0397585337e-01,
	2.8549142428e-01,
	-4.4376009491e-01,
	-3.7914109015e-01,
	7.4142215016e-01,
	-4.7056583104e-01,
	9.9858454149e-01,
	-9.5394030491e-01,
	7.6248764236e-01,
	1.8371909726e-01,
	-5.7772054690e-01,
	-1.2370817926e-01,
	7.3381726018e-01,
	8.8049981052e-01,
	-6.1102715656e-01,
	-7.0667479977e-01,
	-2.4434382076e-01,
	9.7490705484e-01,
	4.7376081695e-01,
	-7.2660791954e-01,
	-2.2274768691e-01,
	5.6273465490e-01,
	-9.6064683653e-02,
	-4.4754096877e-01,
	-8.3612999242e-01,
	5.5137836342e-01,
	-2.5783216985e-01,
	9.5503735035e-02,
	-3.7995925454e-01,
	4.5334548371e-01,
	5.4290453600e-02,
	-7.1901285089e-01,
	-2.7336070124e-01,
	6.7562977794e-01,
	-6.7406098069e-02,
	-4.9262018104e-01,
	-7.6372633435e-01,
	-5.4524191342e-02,
	-4.7181160890e-01,
	8.7450859707e-01,
	-8.9061252908e-01,
	-2.5018234594e-02,
	-1.2456791519e-01,
	8.6701706046e-01,
	-1.4187319253e-01,
	2.6544809214e-01,
	-8.3071687810e-01,
	6.1472237744e-01,
	2.4035660608e-01,
	6.4304393979e-01,
	8.8811445790e-01,
	-9.8239108174e-01,
	2.0577859376e-01,
	-2.0795010079e-01,
	-4.2917417132e-01,
	3.7164708692e-01,
	-6.5031061613e-01,
	3.1465358814e-01,
	-5.3122209736e-01,
	-2.5143683787e-02,
	-2.0463764958e-01,
	6.1241531334e-01,
	2.9398410994e-01,
	5.6090864904e-01,
	3.2685324052e-01,
	-7.4562922667e-01,
	-9.2582569343e-01,
	5.6125778122e-01,
	1.9926260371e-01,
	-3.7080692207e-01,
	1.9459527989e+00,
	-1.4664269134e-01,
	-7.4935602802e-02,
	-8.3218653466e-01,
	-9.4513705643e-01,
	-1.2941202903e+00,
	-5.7785635234e-01,
	-8.8426468798e-01,
	-1.7563771612e+00,
	-5.8109463913e-01,
	-5.3933660346e-01,
	2.7064241512e-01,
	-7.7333043752e-01,
	-9.9529565890e-01,
	-2.2941628668e-01,
	4.9452850123e-01,
	4.6807984195e-01,
	8.2284280625e-02,
	-1.5394629383e-01,
	-9.3876165690e-01,
	-9.1476813629e-01,
	5.8721391020e-01,
	6.2788606724e-01,
	4.5307790224e-01,
	2.1714796641e-01,
	2.3786139022e-02,
	6.4705371146e-01,
	2.8637473151e-01,
	-2.9973326641e-01,
	-1.5009255613e-01,
	9.1684731296e-01,
	-8.6576059920e-01,
	-8.1796704038e-01,
	5.2031620454e-01,
	-4.2755210652e-01,
	3.8455877611e-01,
	9.8517287894e-01,
	-7.2389552171e-01,
	-2.4363228643e-01,
	-9.3483380598e-01,
	2.2011766919e-01,
	7.7122059174e-01,
	-9.6672603300e-01,
	-8.1826022259e-01,
	9.9185206275e-01,
	-2.0656831246e-01,
	7.1423589704e-01,
	5.8417501561e-01,
	9.0327914893e-01,
	-4.3861439705e-01,
	6.4527587204e-01,
	9.8810649011e-01,
	-7.9443919556e-01,
	3.2613436660e-01,
	3.7717970245e-01,
	4.1462483416e-01,
	-6.6602986011e-01,
	2.0623689061e-02,
	-3.0213682880e-01,
	-9.4562998551e-02,
	8.6837126191e-01,
	-3.8549780091e-01,
	4.1454302095e-02,
	-9.4962894651e-01,
	-7.8355778139e-01,
	1.7175017371e+00,
	1.4684110764e+00,
	-8.8394686008e-01,
	8.8822877402e-01,
	-8.0989265899e-01,
	-8.1881125867e-01,
	1.0834644807e-01,
	9.6133103529e-01,
	-7.6680824872e-01,
	3.5444421956e-01,
	1.0073303672e+00,
	1.9090275136e-02,
	1.9496030651e-02,
	6.2562201606e-01,
	2.3322845184e-01,
	2.4823463914e+00,
	3.1174578744e+00,
	1.9355615036e+00,
	1.0779338083e+00,
	-2.8498228291e-01,
	-5.9654559806e-01,
	4.7589805168e-01,
	-5.0886264912e-02,
	1.3780359126e+00,
	1.7889334503e+00,
	1.5224913187e+00,
	1.8009849848e-01,
	-5.0477621935e-01,
	-2.1215121039e-01,
	2.1308582360e-01,
	-3.7509954319e-01,
	-6.0002691466e-01,
	-3.5317493945e-01,
	-2.5940372882e-01,
	-7.1179814158e-01,
	-1.6306759844e-01,
	-7.8541725445e-02,
	3.9684154434e-01,
	-2.0008667514e-01,
	1.4642822603e-01,
	-3.1102521537e-01,
	-2.4836684736e-01,
	-8.5683809118e-01,
	6.9095679924e-01,
	-7.0802963964e-01,
	7.7168190890e-02,
	3.3376041187e-01,
	5.6166271331e-01,
	9.8720080276e-01,
	3.1536241966e-02,
	9.8019147434e-01,
	-7.7048815331e-01,
	-7.7412521215e-01,
	-1.4755955735e-01,
	5.3086830706e-01,
	-6.2072700078e-01,
	1.3170218521e+00,
	6.0839618804e-01,
	-3.8967525473e-02,
	1.4791454026e+00,
	1.7025630676e+00,
	1.4068598115e+00,
	1.9678065057e+00,
	4.3110133789e-01,
	1.4399473404e+00,
	-2.0895708669e-01,
	1.3808709415e+00,
	6.7672214849e-01,
	6.5437758618e-01,
	-8.2407730716e-01,
	-9.5320030789e-01,
	-7.5941826298e-01,
	-4.2172808849e-02,
	-8.4129328507e-01,
	8.2117046488e-01,
	2.2484856033e-01,
	2.5331486467e-01,
	1.4489728755e-01,
	-3.4535756364e-01,
	1.6183650000e-01,
	-8.9676685610e-01,
	-3.2402426767e-01,
	3.9257550244e-01,
	-7.9452571794e-01,
	4.9691674625e-01,
	-8.1963743347e-02,
	-5.8273131753e-01,
	-9.2926087314e-01,
	6.0915091209e-01,
	9.2289750507e-03,
	4.2968698006e-01,
	5.1218691632e-01,
	-7.7391027556e-01,
	1.8860809374e-01,
	-9.3814630245e-01,
	-8.1645325842e-01,
	2.3573106678e-01,
	4.4845288128e-01,
	6.2462034199e-02,
	-3.2059766041e-01,
	6.3331239840e-01,
	7.6971575188e-02,
	-1.9029186535e-01,
	-4.3038775745e-01,
	2.3464302497e-01,
	-3.6902943317e-01,
	7.9470742298e-01,
	-5.5367680805e-01,
	7.0889735674e-01,
	-5.0877117995e-01,
	6.1096537654e-01,
	8.1475702944e-01,
	1.6794168165e-01,
	4.7025769040e-03,
	-8.6555705865e-01,
	-3.3258044631e-01,
	9.2386280546e-01,
	-4.4851660814e-01,
	-2.6183235398e-01,
	5.1322056815e-01,
	4.3363788105e-01,
	-8.3430496748e-01,
	4.5823594111e-02,
	7.8703032331e-01,
	3.5661541827e-01,
	1.0767729166e-01,
	9.7057706582e-01,
	-4.0765351588e-01,
	-4.4471326420e-01,
	2.4166491616e-02,
	2.6401556309e-01,
	-8.1055777471e-01,
	-8.8998985695e-01,
	-9.1875378609e-01,
	-2.6108868562e-01,
	2.3109371320e-01,
	-3.5987289685e-01,
	-4.8833349911e-01,
	7.6105673060e-01,
	-5.8466196412e-01,
	-6.0455534124e-04,
	3.9105687705e-01,
	-7.6394832206e-01,
	-7.8714015957e-01,
	-5.9402281058e-01,
	-6.3112279438e-01,
	-1.2038333332e-01,
	-6.6906369659e-01,
	-7.7763525340e-02,
	6.1883447477e-01,
	8.6457300552e-01,
	-5.1682292648e-01,
	7.8684179941e-01,
	-8.9603401297e-02,
	-7.2979260410e-01,
	1.4345721674e-01,
	-9.8192611056e-01,
	-7.5921553921e-01,
	7.3572378159e-01,
	-4.2667821936e-01,
	2.7342944135e-01,
	7.5527417444e-03,
	-2.3635336721e-01,
	3.8383423415e-01,
	8.8990642486e-02,
	5.2071977801e-01,
	-2.8126230091e-01,
	7.8815223835e-01,
	-9.2753493719e-01,
	-4.8053566690e-01,
	-7.7723811091e-01,
	1.2145472780e-01,
	9.1936358024e-01,
	-5.4441302094e-01,
	3.3381900693e-01,
	-6.7320334487e-01,
	-1.7167418483e-01,
	-7.8533267216e-01,
	-3.4131356404e-01,
	1.1257717998e+00,
	1.0933089244e+00,
	-4.7676487817e-01,
	-7.6563728895e-01,
	6.2068121590e-01,
	4.3468451256e-01,
	-1.9054260515e-01,
	2.4422093848e-01,
	6.4766250821e-01,
	-2.2931008598e-01,
	-5.0006186811e-01,
	-9.6751702825e-01,
	-9.8010039053e-01,
	5.0733633958e-01,
	-2.1011434566e-01,
	4.0344964142e-01,
	-4.0358574267e-01,
	-6.8718132445e-01,
	-8.6359144888e-01,
	-5.6457258113e-01,
	-6.1011247570e-01,
	-3.4565638786e-01,
	-3.7897907311e-01,
	5.1166560292e-01,
	-3.3089440666e-01,
	8.1506215502e-02,
	-1.5421609127e-01,
	-9.9156373692e-02,
	9.0881212554e-01,
	5.9791606644e-02,
	5.5983188635e-01,
	6.6041727255e-01,
	-1.0647254396e-01,
	-9.1660684902e-01,
	8.9519947110e-01,
	-4.8589467047e-01,
	5.1735101525e-01,
	-5.9981093444e-01,
	2.7814042069e-01,
	-3.0617231983e-02,
	1.4596312174e-01,
	7.7797921178e-01,
	-4.3814159019e-03,
	1.6556073779e-01,
	2.8537052837e-01,
	7.8550103204e-01,
	-4.3100741293e-01,
	8.8177132787e-01,
	-9.0191507521e-01,
	-2.9908763026e-01,
	-7.2039086452e-01,
	-5.1286750171e-01,
	3.5229697421e-01,
	-9.9791166885e-02,
	9.9763480760e-01,
	9.2508866821e-01,
	9.7851537941e-01,
	-1.5867855117e-01,
	-1.7489667074e-01,
	8.8845759999e-01,
	9.3700949911e-01,
	-4.1246131325e-01,
	1.0213551947e+00,
	-2.0399157296e-01,
	-5.3084266909e-01,
	4.4408121959e-01,
	3.1006327074e-01,
	9.8650834981e-01,
	8.4427250723e-01,
	-4.0625100075e-01,
	-2.4080646205e-02,
	3.7113374203e-03,
	-6.3477872389e-01,
	9.4948950856e-01,
	-8.3248282056e-01,
	7.3224016575e-01,
	1.5390233388e+00,
	9.2827730959e-01,
	1.4217777907e+00,
	9.4309866168e-01,
	5.7107729607e-01,
	1.0624482230e+00,
	-6.3646633967e-01,
	-1.9219989628e-01,
	-1.6542099069e-01,
	-5.6786345555e-01,
	-2.0585093133e-01,
	-2.9983766993e-01,
	1.6281031190e-01,
	5.2901703656e-01,
	-4.1885478620e-01,
	6.4703513433e-02,
	9.1478121649e-01,
	-8.6997323757e-01,
	8.6054693820e-01,
	-6.1606145260e-01,
	5.7410798295e-01,
	1.7049569039e-01,
	-6.3013465049e-01,
	4.1791527200e-01,
	7.6115817083e-01,
	3.2743517211e-01,
	-5.9130563142e-01,
	-8.7534675087e-01,
	2.7784779768e-01,
	-4.3490988286e-01,
	7.8166234244e-01,
	3.7230233117e-02,
	3.1672770494e-01,
	3.1968368168e-01,
	-1.4873601554e-01,
	-2.8510834854e-01,
	1.2202145051e-01,
	1.7338867800e-01,
	4.9999068212e-01,
	8.3520928004e-01,
	2.3441040504e-01,
	-1.0316436415e+00,
	-5.9872362064e-01,
	-4.6734745247e-01,
	6.2537984590e-01,
	-1.3116488731e-02,
	4.5202300554e-01,
	3.9047163277e-01,
	1.0495772104e-01,
	4.9885427733e-01,
	-1.0317081653e+00,
	-2.3735513101e-01,
	-3.0705406593e-01,
	-6.2814708574e-01,
	-7.7491064620e-01,
	-4.9668809667e-01,
	6.9829512219e-01,
	-3.6423068110e-01,
	-3.6658300643e-01,
	-1.6581346289e-03,
	2.0450603925e-01,
	-5.9049084298e-01,
	-9.8679976530e-01,
	-5.0630141399e-01,
	7.1881156029e-01,
	-1.3684561529e-01,
	2.0859023178e-01,
	-1.5906666313e-01,
	-9.6466337702e-01,
	-2.9852204737e-01,
	-3.2391667614e-01,
	5.2738182132e-01,
	-1.0254958510e-01,
	2.0391384755e-01,
	-8.1818543739e-01,
	-3.7756008719e-01,
	-6.8711061482e-01,
	9.0095081921e-01,
	-7.3778937279e-01,
	5.5189168712e-01,
	4.8063401109e-01,
	-7.1408011192e-01,
	-6.3499803079e-01,
	-7.6918710757e-01,
	-3.1992395749e-01,
	-4.0350948060e-01,
	-2.6042336098e-01,
	-5.9942979626e-01,
	2.3659074271e-01,
	3.7299363472e-01,
	3.9891206911e-01,
	-5.5890321804e-01,
	7.8250279267e-01,
	4.1211236707e-01,
	-6.5204632033e-02,
	5.0131435203e-01,
	-7.2473324916e-01,
	-8.5661440057e-01,
	-6.5775231163e-01,
	-6.8939662524e-01,
	-1.5570809629e-01,
	1.8838325525e-02,
	8.3785161307e-01,
	7.4264933798e-01,
	-7.4502873467e-01,
	-6.9457719258e-01,
	-4.4530725029e-01,
	-4.6445390003e-01,
	9.2075057697e-01,
	-3.7303549208e-01,
	-9.1269430206e-01,
	4.0138459630e-01,
	-8.7110050941e-02,
	-5.3214700972e-01,
	6.8900655944e-01,
	6.3867448983e-01,
	5.3311737591e-02,
	-6.2200212917e-01,
	1.0491855074e+00,
	-4.6796292427e-01,
	2.4283576680e+00,
	2.9697746560e+00,
	1.5606689999e+00,
	8.0193097779e-01,
	1.2955320094e-01,
	1.1811342326e+00,
	2.9533892387e-01,
	1.8427900392e-01,
	1.8178874646e+00,
	1.2766052699e+00,
	1.1111340318e+00,
	-3.3137821209e-01,
	-6.0984968991e-01,
	2.2841039823e-01,
	-6.0843510798e-01,
	-3.8859154256e-01,
	2.4821015692e-01,
	-2.4368168658e-01,
	1.4654270547e-01,
	1.6896073295e-01,
	3.8328282134e-01,
	2.3356863448e-01,
	-4.3010450787e-01,
	-7.0332672898e-01,
	6.9469797573e-01,
	-7.9513569421e-01,
	8.8932573849e-01,
	-2.6588504444e-01,
	-4.2568284508e-01,
	8.8529654339e-01,
	3.8908136193e-02,
	-6.1515395032e-01,
	3.5537727692e-01,
	7.7542566695e-01,
	8.4936663731e-01,
	-9.2034389711e-01,
	4.0655707331e-01,
	-1.1731399586e-01,
	1.8316708763e-01,
	2.1382002108e-01,
	-7.6331296983e-01,
	-4.6625926942e-01,
	8.4887291559e-01,
	-3.6753666888e-01,
	7.8791302051e-01,
	-7.4250101802e-01,
	2.3838599982e-01,
	2.2084375151e-02,
	7.1281023875e-03,
	-6.0711312148e-01,
	-8.0476722291e-01,
	-6.0266831540e-01,
	6.2898509103e-01,
	-2.3421459221e-01,
	-3.1259862445e-01,
	3.1205744657e-01,
	-3.2273969372e-02,
	-4.2347085074e-01,
	-9.5383244677e-01,
	5.4268944242e-01,
	-5.4081251019e-01,
	6.5010590325e-02,
	8.5555215404e-01,
	7.3398052284e-01,
	-1.8917839162e-01,
	7.0786754804e-01,
	8.1393538834e-01,
	-7.8274685973e-01,
	-4.1722956778e-01,
	-2.6576034001e-02,
	4.2807101253e-01,
	-1.7115785702e-01,
	5.2332561490e-01,
	2.8814018298e-01,
	4.6377843966e-01,
	3.0163912908e-01,
	5.3977336899e-01,
	-2.8987680715e-01,
	-6.7183720026e-01,
	-4.5227513157e-01,
	1.0301064938e-01,
	-4.7635279571e-01,
	-6.1040811735e-02,
	-2.7053326148e-01,
	2.8947692797e-01,
	6.2636072544e-01,
	-9.5848063657e-01,
	-7.4215054873e-01,
	-7.9711008249e-01,
	-9.1231305614e-01,
	8.0053889370e-01,
	-3.3792259234e-01,
	1.5307864321e-01,
	6.6231300666e-01,
	-6.0363409463e-01,
	9.6390040683e-01,
	3.7044233706e-01,
	-7.8968951096e-01,
	-8.1884645383e-01,
	9.5351178197e-01,
	1.8373298700e-01,
	6.0922498359e-01,
	-2.1764607598e-01,
	-2.9294139606e-01,
	-1.0213344469e-01,
	-7.5246314447e-01,
	-9.9121344843e-01,
	-5.6286147403e-01,
	-4.3744443470e-02,
	-6.6313946976e-01,
	-1.5136605601e-02,
	-9.4073379503e-01,
	-1.3949226170e-01,
	9.2455567828e-01,
	-2.0972787639e-01,
	-8.4927293439e-01,
	5.5036802769e-01,
	-1.6974745651e-01,
	-5.9214346959e-01,
	7.5582013614e-01,
	-7.5469632059e-02,
	-7.8688930438e-01,
	-5.8312805776e-01,
	-9.2753732758e-01,
	8.8657921033e-01,
	-1.8330315452e-01,
	-9.6508007636e-01,
	2.4519928411e-01,
	6.3846862745e-02,
	-7.8329072971e-01,
	2.3157967904e-01,
	-7.9436746429e-01,
	8.2530914845e-01,
	9.7699405531e-01,
	-8.7381384842e-02,
	-2.7733802110e-01,
	-7.7687358194e-01,
	-7.8683654349e-02,
	1.5980050487e-01,
	1.7938197459e-01,
	2.5817687589e-01,
	-8.5533610166e-01,
	2.3864818050e-01,
	-8.8131539052e-01,
	-9.3147601181e-01,
	-9.7261887601e-01,
	-7.3133072179e-01,
	6.1866978818e-01,
	-1.4236656816e-01,
	-3.2347287119e-01,
	3.7265614801e-01,
	7.7800402042e-01,
	-1.1354013652e-01,
	7.8799932476e-01,
	8.4662796159e-01,
	-2.4443759734e-01,
	-4.0158981700e-01,
	8.8187584912e-01,
	9.9749358760e-01,
	6.2049067020e-01,
	-1.1862307581e+00,
	1.4173510580e+00,
	1.3838922623e+00,
	1.0816921296e+00,
	1.3685960183e+00,
	5.6711790477e-01,
	4.5658859571e-01,
	1.2398714478e+00,
	1.4459458824e+00,
	1.2020645929e+00,
	3.1810148804e-01,
	9.8534252190e-01,
	1.7159259935e+00,
	9.7755680600e-01,
	7.2653578775e-03,
	-9.5557604047e-01,
	9.3890178007e-01,
	3.2060138022e-01,
	6.3818398960e-01,
	-3.0556300306e-01,
	9.8170419035e-01,
	4.9083414025e-02,
	-4.5919821181e-01,
	-1.6682930592e-01,
	-2.0538160413e-01,
	-6.8624837416e-01,
	6.2081519972e-01,
	3.9271272703e-01,
	-8.8691092321e-01,
	6.1692793281e-01,
	1.3247322796e-02,
	-7.0425107316e-01,
	-1.8977314263e-01,
	-1.5975984787e-01,
	-7.8137352680e-01,
	9.7855168953e-01,
	5.7865730933e-01,
	-1.3583400153e-01,
	3.7000304431e-01,
	2.3838949354e-01,
	-3.3049397232e-01,
	9.4083637369e-01,
	-8.4370144729e-01,
	-3.8049004477e-01,
	7.5031788263e-01,
	1.9289222229e-01,
	-3.6199963622e-01,
	5.8718051556e-01,
	-5.0184483710e-01,
	-7.2483944042e-01,
	-7.1832342060e-01,
	-5.2007851262e-01,
	2.8406376824e-01,
	-2.4825467321e-01,
	3.4656420320e-01,
	-9.2013937883e-01,
	6.8404650813e-02,
	-3.1230678331e-02,
	4.7406765794e-01,
	2.6657285321e-01,
	-4.1233480881e-01,
	-5.1148809656e-01,
	5.6232178101e-01,
	3.9789316572e-01,
	3.4071917865e-01,
	1.0316211366e+00,
	4.9412276585e-01,
	-9.2554333562e-02,
	-3.5488574736e-01,
	-2.5355332310e-01,
	-8.5419982385e-01,
	3.1462028032e-01,
	-3.1271484931e-01,
	-6.9765150178e-01,
	9.3965908073e-01,
	-5.5883265041e-01,
	4.9542737988e-01,
	-4.2786940067e-01,
	-9.7481307011e-01,
	1.0120671917e+00,
	-8.6653344160e-02,
	-6.4239006257e-01,
	-4.9239797758e-01,
	-8.6287887307e-01,
	1.1788056813e-01,
	9.0860778796e-01,
	-7.8862211340e-01,
	-8.7182436183e-01,
	-1.6236846895e-01,
	8.4068692880e-01,
	5.1686957810e-01,
	3.7912541790e-01,
	-8.2620469604e-01,
	-4.4497363756e-02,
	-2.2604162321e-01,
	5.0254848390e-01,
	-2.6354911051e-01,
	-8.4959810593e-01,
	-5.9004083443e-01,
	3.8156514213e-01,
	-1.0315142903e-01,
	-4.4424065829e-01,
	-3.0381457755e-01,
	5.8413166888e-01,
	-1.4114875073e-01,
	-3.6960059669e-01,
	-9.7826719538e-01,
	-6.4715097735e-01,
	2.0244625732e-01,
	-9.5343109680e-01,
	-6.5306036449e-01,
	-9.4771225711e-01,
	-6.4294468440e-01,
	-1.8013783023e-01,
	-8.1890585138e-01,
	4.1117537460e-01,
	-3.6130541530e-01,
	-6.0765759601e-01,
	5.4201854643e-01,
	4.2769261429e-01,
	-9.4243075597e-01,
	-9.5483823817e-02,
	-2.1285566284e-01,
	-7.5984935509e-01,
	8.8752819876e-01,
	5.7304104410e-01,
	7.2453046005e-01,
	-3.9607407187e-01,
	7.1587377018e-01,
	-8.3872426130e-01,
	-9.9517080080e-01,
	-3.7628993739e-01,
	-2.8446999749e-01,
	-2.9925431393e-01,
	-7.9151370648e-01,
	5.7740305514e-01,
	3.2898304421e-01,
	-7.6976707814e-01,
	9.3036022121e-01,
	-4.6656976429e-01,
	-7.2325112006e-01,
	-7.2364457311e-01,
	-4.1677840794e-01,
	-3.7062173459e-01,
	9.5418165017e-02,
	-2.3572158673e-01,
	-9.5910372405e-01,
	7.3411270865e-01,
	1.6073763288e-01,
	5.7883500506e-01,
	1.6120837683e-01,
	2.3415897937e-01,
	-4.9035611539e-01,
	9.6437036338e-01,
	4.8554518516e-01,
	-6.0388924815e-01,
	5.4149061048e-01,
	2.3947987391e-01,
	1.9028509510e-02,
	2.6901275165e-01,
	4.0337372916e-01,
	2.3511409305e-02,
	8.9338346380e-01,
	-8.7697307480e-01,
	7.2417973062e-01,
	-8.9811420529e-01,
	7.0053819367e-01,
	5.5163709938e-02,
	-6.6787932239e-01,
	6.3089848386e-01,
	5.8859394565e-01,
	-3.9113044245e-01,
	9.0725391074e-01,
	-8.2823840334e-01,
	2.3859045992e-01,
	2.6720748295e-03,
	-6.3978409890e-02,
	2.7948673595e-01,
	-2.6321521740e-01,
	-9.0741052754e-01,
	-1.4183361136e-01,
	8.9799316058e-01,
	3.2674845277e-01,
	3.6781025341e-01,
	8.6561422560e-01,
	-1.7255032258e-01,
	8.2042594437e-01,
	4.0387563075e-01,
	-9.4822648910e-01,
	-2.1705046539e-01,
	-3.2713311600e-01,
	4.5514724006e-01,
	8.0646098533e-01,
	-4.3358931558e-01,
	5.7897110123e-01,
	5.3115975166e-01,
	-3.3186385738e-01,
	2.7871235818e-01,
	-4.1412820705e-01,
	1.0831470341e-03,
	-8.5696098426e-02,
	-8.1953452810e-01,
	6.2946673402e-01,
	-1.8183892280e-01,
	-6.5366075761e-01,
	-1.5213066511e-01,
	8.2206648644e-01,
	2.8259904874e-01,
	-8.7258121303e-01,
	-4.4251262052e-01,
	3.9638386835e-01,
	-1.4621480000e-02,
	-5.4568258766e-01,
	-2.9848056068e-01,
	-6.4681976552e-01,
	-6.8332171053e-01,
	5.1381307725e-01,
	-8.8289874042e-01,
	7.2053242276e-01,
	5.6558658814e-01,
	-9.9949205806e-02,
	-6.0660069324e-01,
	2.0733827269e-02,
	-2.9348826282e-01,
	-4.0335017612e-02,
	-4.0104248095e-01,
	-7.6284759015e-01,
	6.2778579706e-01,
	8.7762034975e-01,
	-1.7704320544e-01,
	-3.7187674758e-01,
	-2.1234743146e-01,
	-1.9777937350e-03,
	-7.6266696901e-01,
	6.0409881350e-01,
	3.4351504657e-01,
	8.4885848502e-02,
	4.2374644746e-01,
	-3.7416030581e-01,
	2.1210070122e-01,
	1.0086230775e-01,
	-1.5797456603e+00,
	-1.0028092798e+00,
	-6.7812212599e-01,
	6.6516435623e-01,
	9.5265771593e-02,
	-4.1041989941e-01,
	-9.8410821738e-01,
	-3.8653821765e-01,
	-5.8900365129e-01,
	2.6613306872e+00,
	3.3523763174e+00,
	5.7325533613e-01,
	-1.3227544785e-01,
	-7.2686242777e-01,
	8.4345381570e-01,
	3.9170279282e-01,
	-4.9216784064e-01,
	4.5231377376e-01,
	2.7886763563e-01,
	3.3518493086e-01,
	-9.0444087165e-01,
	-7.1380654229e-01,
	-4.8891811235e-01,
	-6.5905861335e-01,
	7.1369861321e-01,
	6.8591996720e-01,
	4.1036247757e-01,
	6.4390510783e-01,
	-6.8990951382e-01,
	-3.7199824287e-01,
	7.3563084506e-02,
	-6.9855331955e-01,
	-1.8692177098e-01,
	5.0783222425e-01,
	3.4338603744e-03,
	3.6260043893e-01,
	-7.4122034653e-01,
	2.1923392416e-01,
	-9.6965869701e-01,
	-2.6974049363e-01,
	6.2057515635e-04,
	5.9813296124e-01,
	5.9513866510e-01,
	8.0274105342e-01,
	8.7243635667e-01,
	4.1966747838e-01,
	2.0376952235e-01,
	-6.1610783898e-01,
	-1.2801791221e-01,
	-5.1758166008e-01,
	7.1830475969e-01,
	-4.7660685632e-02,
	-4.5170165293e-01,
	-9.4992752185e-01,
	2.6986553765e-01,
	-7.8172570643e-01,
	7.2535524411e-01,
	-3.2772240663e-01,
	3.1188300592e-01,
	-9.7272368948e-01,
	2.8933584996e-01,
	-6.1312807101e-01,
	-6.7149648157e-01,
	-8.5606936369e-01,
	1.4703549389e+00,
	8.4466955356e-01,
	4.6142731402e-01,
	-8.4794203278e-01,
	-4.4955077369e-01,
	4.9188066580e-01,
	-1.1768252488e-01,
	5.5107133387e-01,
	1.0047106761e-01,
	-4.8551764922e-01,
	3.8633122713e-01,
	-3.0849869314e-02,
	9.0600367027e-01,
	-3.8928301143e-01,
	5.4009180351e-01,
	9.1784638635e-01,
	1.6633604061e+00,
	1.2160322448e+00,
	9.0306643395e-01,
	7.7439559197e-01,
	4.0394326499e-01,
	1.5078122870e-01,
	8.6899590506e-01,
	4.5842475518e-01,
	1.1116997256e+00,
	5.3750866191e-01,
	-1.2328901287e-01,
	-4.9162399720e-02,
	5.0390045322e-01,
	1.9399173281e-01,
	4.9107097578e-02,
	3.9717876697e-01,
	-4.7479309490e-01,
	-4.8955257164e-01,
	5.4923673419e-01,
	7.5656131411e-02,
	-9.9787093885e-01,
	-5.6814694833e-01,
	-3.7234333831e-01,
	9.7741701813e-02,
	-8.9786719906e-02,
	9.8059923072e-01,
	-9.4580539404e-01,
	-1.9386599272e-01,
	-4.6002982327e-01,
	4.1290416616e-01,
	6.1911801941e-01,
	6.2987298551e-01,
	-5.1483910047e-01,
	2.9874976024e-01,
	1.6641294812e-01,
	5.7951648080e-01,
	-7.0497646064e-01,
	-8.7648063560e-03,
	-5.7782680631e-01,
	8.6612817864e-01,
	-9.5477366356e-01,
	2.8458976072e-01,
	-7.1140965426e-02,
	4.8452079583e-01,
	-5.6071703041e-01,
	8.5741520228e-01,
	-7.7908036666e-02,
	-5.6848230446e-02,
	-5.6107895047e-01,
	-5.1321662735e-01,
	-9.9710295744e-01,
	-5.7619785386e-01,
	-4.3063637249e-02,
	-2.9306780975e-01,
	5.4469617632e-01,
	8.6315563339e-01,
	-3.1491261169e-01,
	6.0963337487e-01,
	-3.1154686739e-01,
	2.2562621218e-01,
	5.2688128967e-03,
	-7.4465557149e-01,
	-1.9718573259e-01,
	4.7489574434e-01,
	5.6037747746e-01,
	9.7015431320e-01,
	5.4201154404e-02,
	8.3461657781e-01,
	-5.6860655107e-02,
	4.7338320756e-01,
	7.9995609717e-01,
	3.4578012784e-02,
	-2.4122510536e-01,
	-2.9809331396e-01,
	-3.7008286611e-01,
	2.3815818468e-01,
	-3.4703562751e-01,
	6.2243502197e-01,
	-7.5725162111e-01,
	1.1446948774e-01,
	-8.3581035763e-01,
	-6.7700529549e-01,
	5.7810366507e-01,
	1.3749847055e-01,
	2.9966963935e-02,
	1.3368149713e-01,
	1.9817643342e-02,
	7.1747601112e-01,
	-2.5654606393e-01,
	7.0827077595e-01,
	-5.6897777625e-02,
	7.5356409315e-01,
	9.7196357230e-01,
	7.4684431671e-01,
	2.2845983749e-01,
	5.3234104977e-01,
	7.1699935650e-01,
	-7.1733848365e-01,
	3.8071376243e-01,
	-3.4102690532e-01,
	7.5466710281e-01,
	1.7979991500e-01,
	6.9454739603e-01,
	-4.6144641657e-01,
	1.2519458144e+00,
	-5.8507215809e-01,
	7.5312569856e-01,
	-4.6445908372e-01,
	9.4706886911e-01,
	9.9580261624e-01,
	6.5001040877e-01,
	-8.8874076429e-01,
	-6.7884645491e-01,
	2.4158784168e-01,
	2.5807797174e-01,
	3.4673979665e-01,
	-6.4126154972e-01,
	-7.3419824444e-01,
	1.0077160949e-01,
	5.2208985666e-01,
	1.6575734212e+00,
	-6.9898932153e-01,
	-9.2068550247e-02,
	1.0545984864e+00,
	9.2540377345e-01,
	-8.9328563444e-01,
	5.0899407427e-01,
	7.2969966806e-01,
	-5.3218724799e-01,
	-5.6064824731e-02,
	-8.6150018564e-01,
	-8.7385003733e-01,
	-9.5746635923e-01,
	8.2796533424e-01,
	-3.5920071013e-01,
	9.2511018548e-01,
	-8.4740098559e-01,
	-6.0622290763e-01,
	-5.3934889824e-01,
	-9.0033211741e-01,
	-6.1049672757e-01,
	-8.8997916552e-01,
	-7.8954178233e-01,
	-2.8947101304e-01,
	3.3955465601e-01,
	4.5974768970e-01,
	-9.4308799315e-01,
	7.0057123592e-01,
	7.2874175736e-01,
	1.2762510643e-01,
	-1.7856049740e-01,
	7.2640805536e-01,
	1.3967598893e-01,
	6.6544290094e-01,
	6.5391238285e-01,
	-1.1163657660e-01,
	7.5221738044e-01,
	1.3972505196e-01,
	-6.3858599611e-01,
	-8.8460237929e-01,
	1.0646767671e+00,
	-4.8182287872e-01,
	-7.4021923375e-01,
	-9.5048705839e-01,
	-6.6628117293e-01,
	-1.1207575246e-01,
	9.7688139643e-01,
	-5.1556918192e-01,
	2.8532245766e-01,
	-5.7237488437e-01,
	-4.1287314455e-01,
	6.8442766725e-01,
	-4.6041767421e-01,
	-2.1175102832e-01,
	-6.1860295095e-01,
	8.7730526784e-01,
	-7.5401272726e-01,
	-5.6296186799e-01,
	5.7522932607e-01,
	9.7391098984e-01,
	5.5681473598e-01,
	-6.2490482877e-01,
	6.8241914905e-01,
	-3.0754395497e-01,
	-9.5431579647e-01,
	3.3338056717e-01,
	5.8145366333e-01,
	8.0315179137e-01,
	-5.3201143515e-01,
	9.4284683331e-01,
	9.1943448778e-01,
	-5.3508525693e-01,
	-5.6271906736e-01,
	-8.3274322554e-01,
	-4.9562543793e-01,
	-2.3994334193e-01,
	5.5878351934e-02,
	-5.3105543346e-01,
	2.3543139698e-01,
	-6.6172298028e-01,
	-1.0583432722e-01,
	8.1047401941e-01,
	-9.8982103914e-01,
	4.3004828479e-01,
	-4.0355696408e-01,
	-6.0969494079e-01,
	3.0470647072e-01,
	-1.5790457146e-01,
	-1.7265683467e-01,
	-1.2006420322e-01,
	-1.8399417735e-01,
	-6.1254286096e-01,
	2.6098576433e-01,
	-5.0498038135e-01,
	7.9913062546e-02,
	3.0666996786e-01,
	8.2794578831e-01,
	-3.3917866523e-01,
	1.0426183841e-01,
	-7.0406570281e-01,
	-3.9671003358e-01,
	2.3742185769e-02,
	-2.3915076868e-01,
	4.9127863637e-02,
	3.5749802823e-01,
	4.1456989772e-01,
	8.0064364542e-01,
	-7.5316854927e-01,
	7.3416822484e-01,
	3.6080653859e-02,
	-4.1489152887e-01,
	-3.7166625876e-01,
	-1.5280317650e-01,
	-4.0411242552e-01,
	-9.4088397713e-01,
	4.4377797755e-01,
	-1.3441860836e-02,
	3.6887266012e-01,
	-7.0676319063e-01,
	1.0509409157e+00,
	-6.0888351599e-01,
	2.9240364076e-01,
	-7.9448181778e-01,
	5.5231742519e-01,
	6.9700558924e-01,
	3.1432769542e-01,
	-1.7585093756e-01,
	5.8878985580e-01,
	1.0609123832e+00,
	1.0357727098e+00,
	7.1851875003e-01,
	-4.5559856317e-01,
	-6.1361656087e-02,
	-5.1917214204e-01,
	5.8499154709e-01,
	-8.7040855730e-01,
	7.4605151627e-01,
	3.8562084798e-01,
	-6.2357710564e-01,
	4.8021974111e-01,
	-5.7831845413e-01,
	-3.8468634262e-02,
	-8.9144643804e-01,
	2.6811277347e-01,
	5.5701999788e-01,
	-8.3306417893e-01,
	-2.8880598456e-01,
	-4.5758872105e-01,
	5.2994688530e-01,
	-3.8210184739e-03,
	-6.4332218705e-01,
	7.7446661096e-01,
	-9.0276457226e-01,
	-4.4425808527e-01,
	2.7705913376e-01,
	6.9358744573e-01,
	8.3662792128e-01,
	-9.1170596627e-01,
	1.1776124392e-01,
	3.8883996292e+00,
	4.5110773478e-01,
	4.5583290521e-02,
	-6.6746376763e-01,
	-1.3785356839e-01,
	2.1452453817e-01,
	6.8123269972e-01,
	-1.8959481998e-01,
	-2.8682230067e-01,
	9.9734724112e-02,
	1.2527802828e+00,
	7.0076614526e-01,
	7.7678000719e-01,
	-6.1518517391e-01,
	-3.2929882011e-01,
	-2.2190375624e-02,
	9.1594297759e-01,
	-1.8841380322e-01,
	6.9281130108e-01,
	-4.9177413560e-01,
	-6.4932537038e-01,
	-3.1947965954e-01,
	-2.9583005037e-02,
	-7.6111161012e-01,
	-1.9793178543e-01,
	4.5113040829e-01,
	4.0956115624e-01,
	-5.1323736505e-01,
	5.5727161243e-01,
	4.9303672508e-01,
	6.0659939193e-01,
	3.2400543351e-02,
	4.9060978399e-01,
	-5.6348971642e-01,
	3.5399223927e-01,
	-5.6807058564e-01,
	7.5360721525e-01,
	2.6057548228e-01,
	5.0284053362e-01,
	-1.8204541559e-01,
	-4.4722042673e-01,
	-4.9825454620e-02,
	3.6252169468e-01,
	-7.3333479079e-01,
	3.5903992381e-01,
	-9.8435755818e-01,
	2.4876710924e-01,
	3.2472409835e-01,
	-1.6430098990e-01,
	-5.7936977156e-02,
	8.3281956233e-01,
	1.8578004985e-01,
	6.3162613364e-01,
	-3.0373802842e-01,
	3.0891001006e-01,
	-5.8146455585e-01,
	-8.8455587806e-01,
	-2.9090089597e-01,
	-1.0111042257e-01,
	3.7067187269e-01,
	-8.0336273986e-01,
	-5.0447161530e-01,
	-5.9795640367e-01,
	6.8722954041e-01,
	-1.0822270916e-01,
	3.4178487068e-01,
	-8.8969372560e-01,
	-3.1434850591e-01,
	1.7640136656e-02,
	6.2240719964e-01,
	5.0360444795e-01,
	5.7041970191e-01,
	-4.2742174022e-01,
	-1.4321699986e-01,
	7.9294625293e-01,
	8.9373852053e-01,
	-1.2271302599e-01,
	7.9602152804e-02,
	2.3312628683e-01,
	6.1497743622e-01,
	-1.1219387456e+00,
	-1.4571813594e-01,
	-2.9976025372e-01,
	5.2235429045e-01,
	6.4426859383e-01,
	-8.0871846714e-01,
	-9.2677201076e-01,
	8.5933297901e-01,
	-1.6024316841e-01,
	-1.2377698245e-01,
	4.9076690770e-02,
	1.0201367817e-01,
	4.7333241739e-01,
	6.7461570803e-01,
	-1.9407682462e-01,
	-5.9425654895e-01,
	4.3168036241e-01,
	-7.4510157609e-02,
	9.1394970702e-02,
	-5.5067950187e-01,
	-4.5210295890e-01,
	-4.0499892617e-01,
	-9.8025979287e-01,
	1.2011437703e-01,
	4.5459203813e-01,
	8.5595246958e-01,
	5.1978836721e-02,
	-6.5710088874e-01,
	-5.7323071605e-02,
	-6.9250546026e-01,
	-9.5028709255e-01,
	-7.2696222083e-02,
	3.4135581282e-01,
	-5.5335839543e-02,
	-3.7128317413e-01,
	1.8303884528e-01,
	1.7565327330e-01,
	-2.9890457422e-01,
	6.2887451203e-02,
	-9.0571937428e-01,
	1.9434687752e+00,
	-7.9946615454e-01,
	-7.8131269057e-02,
	2.5396335636e-01,
	-2.0972849539e+00,
	-1.5017057831e+00,
	-2.9875018565e-01,
	-3.8372378715e-01,
	-6.3803629591e-01,
	-6.6020581248e-01,
	-5.1986469879e-01,
	-1.5141068191e+00,
	-8.1505838983e-01,
	6.8698145045e-01,
	-3.5998010302e-01,
	-3.2063071814e-01,
	6.8318878687e-01,
	6.4346359683e-01,
	5.4112605477e-02,
	-2.6968361742e-01,
	9.7536808194e-01,
	4.2446600680e-02,
	4.9411028651e-01,
	3.4656229486e-01,
	-9.3243909974e-01,
	-6.8404897295e-01,
	-4.4934439754e-01,
	2.5164381447e-01,
	2.2866833646e-02,
	6.3896246418e-01,
	3.4585047376e-01,
	-2.7557556297e-01,
	9.9567104224e-01,
	-4.3390739689e-01,
	8.8329980424e-01,
	-9.7425969223e-01,
	-4.1159298802e-01,
	4.4791862250e-01,
	4.8748993663e-01,
	5.3514133931e-01,
	-8.9606759040e-01,
	3.9856006270e-01,
	2.9772706809e-02,
	3.5494727239e-01,
	3.2937039590e-01,
	6.4488286136e-01,
	-9.3290899505e-01,
	1.1700585537e-01,
	3.1209346806e-01,
	1.2213384971e-01,
	8.4731846761e-01,
	2.8775029317e-01,
	-7.6245494455e-01,
	5.4822328386e-01,
	-3.3898133474e-01,
	-6.8342607733e-01,
	8.7926148711e-01,
	2.1732588262e-01,
	5.7137975915e-01,
	-8.1490295511e-02,
	-1.3740708051e-01,
	-6.5514658009e-02,
	6.4877787159e-01,
	-1.4407820911e-01,
	6.3236635512e-01,
	2.2052480615e+00,
	1.3825309596e+00,
	-9.2057653861e-01,
	-2.5847432681e-02,
	-6.3355534879e-01,
	6.1455255227e-01,
	7.8084989714e-02,
	7.6501243773e-01,
	-3.1950871604e-01,
	-4.3837530603e-01,
	2.0728548849e-01,
	-6.8813834027e-01,
	-4.7019698904e-01,
	-6.2131768404e-01,
	1.2442305399e+00,
	3.7659178902e+00,
	3.7182676415e+00,
	3.1248968480e+00,
	1.4577506946e+00,
	1.2464840693e+00,
	1.4008508892e+00,
	-4.6060255886e-01,
	6.6906603095e-01,
	1.2897681652e+00,
	2.1747232408e+00,
	3.2135029675e-01,
	6.6160529344e-01,
	-3.2741690872e-01,
	-9.5237195396e-01,
	-5.2246579164e-01,
	-8.3863967650e-01,
	5.7386199179e-01,
	3.5648821823e-01,
	-7.5984915371e-01,
	-4.5198544182e-01,
	7.2293286944e-01,
	8.5408269700e-01,
	6.2791338932e-01,
	4.9275447621e-01,
	-4.7823008356e-01,
	-9.3699030149e-01,
	-4.1735727255e-01,
	-2.1362531795e-01,
	-4.4074461080e-01,
	-1.9868773365e-01,
	-5.6350969285e-01,
	-6.6196814642e-01,
	4.1108768561e-02,
	3.4703061364e-01,
	-9.5197029794e-01,
	-5.4068416747e-01,
	-1.7391748618e-01,
	-7.5832937590e-01,
	1.0103678938e+00,
	6.0442966030e-01,
	2.3936537340e+00,
	-1.8094168319e-01,
	3.2658687192e-01,
	-2.0060679725e-01,
	-1.1329133758e+00,
	4.1470696781e-01,
	-2.9124081684e-01,
	8.5410093051e-01,
	-1.6274221793e-01,
	-4.8441564972e-02,
	-8.6464995967e-01,
	-8.2279427663e-01,
	-4.3145262158e-01,
	-9.0454431994e-01,
	-7.1005068418e-01,
	3.8426782648e-01,
	-8.3424852000e-01,
	-1.6122618565e-01,
	-8.2418112413e-01,
	-2.3581513634e-01,
	6.3692995432e-01,
	-4.5859874598e-01,
	-9.9454849507e-02,
	-5.1067695742e-01,
	8.3872139484e-01,
	-1.2988695415e-02,
	-5.1362021337e-02,
	-3.3634183531e-01,
	2.0243256280e-01,
	-1.0586114745e-01,
	-7.4464358039e-01,
	1.7014790753e-01,
	2.4433302400e-01,
	4.7140154218e-01,
	8.0657094801e-01,
	6.4215472138e-01,
	1.6496647576e-01,
	-3.9564568894e-01,
	6.1383866966e-01,
	-7.8498037429e-01,
	6.4228851704e-01,
	-8.6646282387e-01,
	-1.1994353967e-02,
	-4.6569458184e-01,
	-7.2066478139e-01,
	2.4892924970e-01,
	9.2410957903e-01,
	-5.1573495451e-01,
	-9.0783445533e-01,
	-8.9971157904e-01,
	2.4844990915e-01,
	7.2909549891e-01,
	-3.3647716294e-01,
	-8.0585308643e-01,
	-7.8158145853e-01,
	-4.9775599199e-01,
	1.8115821815e-01,
	1.6705738901e-01,
	1.6590178440e-01,
	-6.1414009687e-01,
	-9.3880375938e-01,
	4.2127189572e-01,
	5.5600781066e-01,
	3.0552900457e-01,
	-1.0071551863e-01,
	4.6744122100e-01,
	-2.4991133637e-02,
	-9.4236008727e-01,
	9.6693306880e-01,
	-4.3847760532e-01,
	-7.2734046156e-01,
	6.0922158491e-01,
	-3.0494042919e-01,
	2.6066677068e-01,
	-8.5646893643e-01,
	-2.4526419530e-02,
	-4.9039538817e-01,
	-9.3236341883e-01,
	4.5866407372e-01,
	-3.9711932405e-01,
	-8.3024296531e-01,
	-2.7567532874e-01,
	-6.6772666907e-01,
	-1.6750054851e-01,
	-9.8505103377e-02,
	-4.5072598078e-01,
	3.6138914027e-01,
	-9.1758497254e-01,
	8.1418808445e-01,
	-4.8009889817e-01,
	-5.2260253388e-01,
	7.7860299062e-01,
	9.2086721020e-01,
	-9.7571741230e-01,
	8.3056653423e-02,
	-1.8646103478e-01,
	3.8686134545e-01,
	-9.6925962249e-01,
	-1.2882112205e-01,
	3.5379441425e-01,
	-4.0773722781e-01,
	1.4383841639e-01,
	-3.6984001769e-02,
	2.8732234393e-01,
	-5.9549639914e-01,
	1.0654300130e-01,
	-7.3828286665e-01,
	-8.5901964962e-02,
	1.7417958247e-01,
	7.2047012321e-01,
	5.1591671855e-01,
	3.4324477841e-01,
	-5.7137377953e-01,
	8.4780988176e-01,
	-8.2644764868e-01,
	3.2874337087e-01,
	-6.0401248913e-01,
	5.0829555382e-01,
	4.1125160102e-01,
	-8.8768108184e-01,
	-1.5463361317e+00,
	2.1163503317e-01,
	4.4147349415e-01,
	6.3047728820e-01,
	1.1769850529e+00,
	5.2133997585e-02,
	-6.2191398868e-01,
	-7.6087218046e-02,
	-1.9570224507e-01,
	4.5616654065e-01,
	4.1493606824e-01,
	1.7722090617e+00,
	-1.5276876329e-02,
	6.0863530212e-01,
	-1.3056321232e-01,
	1.5828242003e-01,
	-3.0368385897e-01,
	1.3956120163e-01,
	-9.2513700822e-01,
	8.8821720895e-01,
	-1.3432254374e-01,
	5.9721322642e-01,
	3.2750674499e-01,
	3.8007348900e-01,
	4.4728989174e-01,
	4.2330612937e-01,
	-3.7352674580e-01,
	8.3704785637e-01,
	1.6783512202e-01,
	-9.6319230809e-01,
	9.5161706014e-01,
	-8.2150865850e-02,
	9.1214404513e-01,
	8.3604717097e-01,
	-1.5444743501e-01,
	8.1585977963e-01,
	-1.9151095356e-01,
	5.8679496012e-01,
	1.0643673647e-01,
	8.1213264438e-01,
	1.9921623319e-01,
	7.5080810755e-01,
	4.0803901358e-01,
	9.5547592265e-01,
	3.5819547594e-01,
	-7.0873227329e-01,
	1.1623921204e-01,
	-9.2787415438e-01,
	4.3621357318e-01,
	1.9110053740e-01,
	9.6023579778e-01,
	-6.9846361210e-01,
	-2.1818012335e-01,
	1.9045033361e-01,
	5.9434591587e-01,
	-7.8074729246e-01,
	-4.0578270676e-01,
	-7.8410118715e-01,
	-9.4732695070e-01,
	5.0522852480e-01,
	-7.5139005672e-01,
	9.9837321638e-01,
	-5.7761188102e-01,
	-8.3924591322e-01,
	8.2348358782e-01,
	1.7471262106e-01,
	9.2511723563e-01,
	-3.5757493880e-01,
	-1.4457481687e-01,
	8.3050638010e-02,
	-5.4538089738e-01,
	-9.4535858476e-01,
	-1.6614293214e-01,
	8.5907902720e-01,
	-9.9877599186e-01,
	-8.1416821856e-01,
	-8.4644811223e-01,
	1.2635652902e-01,
	-7.4075993067e-01,
	5.4826477574e-01,
	-7.7590508476e-01,
	-9.0819249265e-01,
	7.1802141422e-01,
	3.2267805081e-02,
	3.5294971338e-01,
	4.5686740479e-01,
	3.1190998454e-01,
	-1.0012575745e+00,
	6.4732499541e-01,
	2.6880494182e-01,
	4.5310988267e-01,
	9.4058678639e-01,
	3.6941487098e-01,
	9.3738967364e-01,
	-8.8871466736e-01,
	2.0361316726e-01,
	2.0601989664e-01,
	-9.1210076581e-01,
	8.4610034984e-01,
	-9.3855492023e-01,
	1.7094987220e-01,
	-6.9927982506e-01,
	-8.8391350484e-01,
	-9.9520090243e-01,
	-8.3873881956e-01,
	-8.7379616679e-01,
	-8.0313716355e-01,
	-6.8269442007e-01,
	2.5256038329e-01,
	-5.3965175496e-01,
	8.9927180948e-01,
	5.5311714614e-01,
	-3.3463050397e-01,
	7.9003922528e-01,
	-3.3076632870e-01,
	-8.9967503860e-01,
	2.8514431984e-01,
	9.8599202377e-01,
	-8.9478378726e-01,
	-1.2954968674e-02,
	-1.8074228490e+00,
	1.3666771114e+00,
	9.1557807824e-01,
	3.1574347217e-01,
	2.2709940335e+00,
	1.4569397736e+00,
	2.2409332874e+00,
	1.2267634906e+00,
	1.5181619812e+00,
	1.5194005686e+00,
	7.3857925817e-01,
	5.9079770817e-01,
	3.1396866246e-01,
	2.3161237552e-01,
	-7.0873208119e-01,
	-7.1336724869e-01,
	2.3627760689e-01,
	-4.6425750533e-01,
	-4.3874509257e-01,
	-6.7657462835e-01,
	-2.9607689777e-02,
	-4.9160662302e-01,
	9.0364687186e-01,
	5.5197231462e-01,
	-7.3442777620e-01,
	-4.4175367087e-01,
	7.5421938374e-01,
	5.4945907677e-01,
	-6.8601012516e-01,
	8.6095935599e-01,
	-4.6214732718e-01,
	9.0958866100e-01,
	4.8935897566e-01,
	4.7613523563e-01,
	-3.6176948313e-01,
	5.0468728435e-02,
	-4.7498162625e-01,
	-4.2951445907e-01,
	8.1759876470e-01,
	6.6180009379e-01,
	-6.5115908517e-01,
	-3.5382612113e-01,
	9.6953168510e-01,
	-5.7208353634e-01,
	5.9083549007e-01,
	-7.1792810770e-01,
	-3.2962897296e-01,
	-3.3829906645e-01,
	-2.0852506310e-01,
	2.3013117035e-01,
	-1.4873239684e-02,
	7.6192088414e-01,
	6.9733703309e-01,
	-1.2142994307e-01,
	4.1782559520e-01,
	9.6366514171e-01,
	4.4130778659e-01,
	1.7405526767e-01,
	5.1513793669e-01,
	9.9186962098e-01,
	4.1546670054e-02,
	-9.4114461020e-01,
	9.0404159435e-01,
	-4.6942090692e-01,
	6.2913278066e-01,
	7.2237578306e-01,
	1.6026065699e+00,
	-9.4466908601e-01,
	1.1017433885e-01,
	3.9711947339e-01,
	7.1704077138e-01,
	4.5901526788e-01,
	-9.5669712374e-01,
	7.0882938823e-01,
	9.7323944788e-01,
	7.1204613987e-01,
	9.8242949190e-01,
	-4.2512722041e-01,
	-6.0016958276e-01,
	1.6502873480e-01,
	3.1141836227e+00,
	3.6337799967e+00,
	2.0045946424e+00,
	9.2783578624e-01,
	-4.5863342342e-01,
	1.5753832066e+00,
	7.0852121331e-01,
	7.3359130192e-01,
	1.2905358408e+00,
	1.0823287262e+00,
	1.4840153694e+00,
	-8.1579439164e-01,
	1.8474792534e-02,
	4.9416227895e-01,
	-3.1774265581e-01,
	-4.5293674313e-01,
	-9.6614892500e-01,
	-7.3822263244e-01,
	-3.9810580343e-01,
	1.4402541385e-01,
	6.5889684095e-01,
	-6.8147478052e-01,
	-3.9659037144e-01,
	7.0445596916e-01,
	-9.7851001942e-01,
	-5.0714007954e-01,
	3.3657231974e-01,
	9.7292253848e-01,
	4.7275474497e-02,
	6.3746659983e-01,
	-2.3412979013e-01,
	-5.7547804396e-02,
	4.6537192731e-02,
	3.0456295295e-01,
	-6.7538633418e-01,
	7.2631966279e-02,
	1.9431882540e-01,
	7.8335517698e-01,
	-2.8079321738e-01,
	-6.8545274089e-01,
};

double mlpWeightsLayer2[] = {
	-3.6551622368e+00,
	-3.0162119998e+00,
	-9.0581523192e-01,
	5.2167019780e+00,
	1.1110408079e+00,
	-3.0845517596e+00,
	-8.1150764777e-01,
	-4.2217835517e-01,
	-2.0639251915e+00,
	-1.2750648111e-01,
	-7.1922630726e-01,
	-1.4992550716e-02,
	9.6148673113e-01,
	-5.5436037999e-01,
	-8.8020871465e-01,
	-4.8466510984e-01,
	-4.4203581670e+00,
	-1.9051983697e+00,
	5.9412401543e-01,
	-3.3481239440e+00,
	-2.4577122147e+00,
	-6.5560667098e-01,
	5.0802222614e+00,
	-4.1284735437e+00,
	-4.0814728033e-01,
	-5.2050789289e+00,
	2.6653523377e+00,
	-2.0841090101e+00,
	-2.8889827259e+00,
	-6.4416593160e-01,
	1.9714829486e+00,
	-5.3147129190e-01,
	-4.1567562367e+00,
	-9.0530387003e-01,
	-8.6593163517e-01,
	-1.1395363992e+00,
	-5.6019024755e+00,
	-1.4335548506e+00,
	-1.8427424116e+00,
	1.0877087055e+00,
	4.3595634001e+00,
	-3.0229494475e+00,
	-1.9086334541e+00,
	-4.0958760923e+00,
	-6.7970366201e-01,
	1.5370686159e+00,
	-1.5585641537e+00,
	1.0659533198e+00,
	3.2061233515e+00,
	3.3456761537e-01,
	2.4748092085e-01,
	4.8944370553e-01,
	-1.8000960423e-02,
	1.6105227157e+00,
	-3.0049747975e-01,
	-3.6080659886e+00,
	3.7328188742e+00,
	-5.8454601467e-01,
	-8.3330830641e-01,
	3.0352548505e+00,
	-4.4037596688e+00,
	3.7714017712e+00,
	-5.9424163111e+00,
	-3.6645932108e+00,
	-6.2587630479e-01,
	-1.0252160615e+00,
	-2.1504148638e+00,
	-1.4436796025e+00,
	-1.2492051087e+00,
	3.6839434885e-01,
	-3.2883590113e+00,
	4.4989719144e-01,
	-3.2763733626e+00,
	-1.8673910648e-01,
	-1.1824355939e+00,
	8.4206654609e-01,
	-7.3680679701e-01,
	1.4184061848e+00,
	-2.4572047253e-01,
	-6.0835078900e+00,
};

