// MLP Weights File

#define NUMBER_OF_LAYERS 2
#define LAYER_1_WEIGHTS_LENGTH 600
#define LAYER_2_WEIGHTS_LENGTH 5

#define LAYER_1_WEIGHTS_ABS_MAX 5.0000000000e+00
#define LAYER_2_WEIGHTS_ABS_MAX 8.0000000000e+00

double mlpWeightsLayer1[] = {
	-2.5023724048e+00,
	-8.1275104806e-01,
	-1.5981613170e+00,
	1.3153550937e+00,
	4.2542602244e-01,
	-1.4678290704e+00,
	-1.1109532257e+00,
	-4.7154727034e-01,
	-1.0872799835e+00,
	3.9492322140e+00,
	4.7695066106e+00,
	6.4739413090e-01,
	-6.8129622214e-01,
	-3.2429098098e-01,
	1.5794566703e-02,
	-8.4817167246e-01,
	-9.4781438152e-01,
	5.0639168429e-01,
	-6.3169928996e-01,
	-8.5853608178e-01,
	4.5974304936e-01,
	1.0411277239e+00,
	6.1217447672e-01,
	5.7438566842e-01,
	9.4329003441e-01,
	-9.7891231485e-01,
	-2.1351107505e-01,
	3.5922637097e-01,
	7.9923948362e-01,
	-1.3688928468e-01,
	7.3185292526e-01,
	9.2078859542e-01,
	8.5336479092e-01,
	8.8480898174e-01,
	5.4328768958e-01,
	1.2113633571e-03,
	-5.4048331433e-01,
	-5.5859435981e-01,
	-9.2699375280e-01,
	-3.9412867157e-01,
	9.5290645396e-01,
	1.5321785126e-02,
	-1.7686902228e-01,
	-5.4200533197e-01,
	7.0874549901e-01,
	8.6302266729e-01,
	-3.3671690958e-01,
	7.6184429310e-01,
	3.6941435066e-01,
	3.1583801392e-02,
	9.0277037765e-01,
	-1.7470974250e-01,
	-1.2512309995e-01,
	3.9568312811e-01,
	-6.5032101034e-01,
	-2.2795958874e-01,
	4.1523089978e-01,
	1.3616089296e-01,
	6.0099701565e-01,
	2.1374559645e-01,
	9.9927055929e-01,
	3.3284993997e-01,
	1.3453419187e-01,
	8.5159291413e-01,
	2.1765892078e-01,
	-3.2217811948e-01,
	-1.4719572344e-01,
	6.7717560738e-01,
	1.1922752164e-01,
	-7.4189476238e-02,
	-7.1695306511e-01,
	7.2133974671e-02,
	9.4113230889e-01,
	1.0617791261e-01,
	5.3012864363e-01,
	6.4987780696e-01,
	-3.0799421030e-02,
	-8.0658826689e-01,
	4.1172210007e-01,
	-6.6138507037e-01,
	2.2499553451e-01,
	3.1449247678e-01,
	1.6390518712e-01,
	-9.0012756544e-01,
	-2.8982439604e-01,
	5.1358417678e-01,
	-1.2808715418e-01,
	-8.7459349626e-01,
	-3.5025493118e-01,
	-5.2709013947e-01,
	3.3915210019e-01,
	-3.5098437283e-01,
	8.0575980051e-01,
	-5.2631370887e-01,
	-4.9939145870e-01,
	2.3418721288e-02,
	1.5150817258e-01,
	3.5341281786e-01,
	-2.9940567226e-01,
	-7.2926430671e-01,
	-7.2077665838e-01,
	-1.6358737376e-02,
	3.4286966796e-01,
	-7.7964435042e-01,
	-9.1018082570e-01,
	-1.2700168934e-01,
	8.7023345748e-01,
	5.9019753271e-02,
	6.6410044705e-02,
	2.8195555661e-01,
	3.9763468290e-01,
	-7.0859442172e-01,
	-4.0355196754e-01,
	-4.3846013091e-01,
	-6.0872198716e-01,
	3.0662363642e-01,
	-9.2487595413e-01,
	2.6319085865e-01,
	4.3203014016e-01,
	-2.7513088532e-01,
	2.9033093454e+00,
	7.9798343643e-01,
	1.2334927762e+00,
	6.1462544630e-01,
	5.4827590531e-01,
	2.1247533404e+00,
	6.9703184043e-01,
	8.3945030967e-02,
	6.3532118839e-01,
	5.0050086895e-02,
	-6.8483250126e-01,
	6.3286220199e-01,
	-4.4021942640e-01,
	-9.8016757894e-01,
	7.4915644880e-01,
	-6.0474863332e-01,
	-1.1422689101e-01,
	5.9772837543e-01,
	3.9835375706e-01,
	9.4909380239e-01,
	-1.2035548171e-01,
	-2.1865215960e-01,
	-7.7282628577e-01,
	4.5591407959e-01,
	3.4958968874e-01,
	-3.6792598915e-01,
	-2.1725422666e-01,
	2.2033832802e-01,
	8.9487013363e-01,
	-7.8522408650e-01,
	-8.4247853041e-01,
	6.3136558869e-01,
	-1.4041846159e-02,
	5.3140621238e-01,
	1.7322610746e-01,
	-7.6917331562e-01,
	4.0589949554e-01,
	7.3850534751e-01,
	-3.7279661157e-01,
	-3.6619440437e-01,
	4.3789143694e-03,
	2.9431578484e-01,
	-8.5906496172e-01,
	2.5389374385e-01,
	3.0429784921e-01,
	8.6842013144e-01,
	5.9322774764e-01,
	-8.1272177576e-01,
	4.6613868022e-01,
	-8.4184953051e-03,
	-8.6333135695e-01,
	-6.5418721533e-01,
	7.8756994465e-01,
	-6.2253535894e-01,
	8.2193492252e-01,
	1.4509825276e-01,
	9.5386528454e-03,
	-3.9531930508e-01,
	-4.2224939234e-01,
	-9.5196477647e-02,
	-1.8054339158e-01,
	-2.6472792275e-01,
	-4.6383088988e-01,
	8.0541476226e-01,
	-7.3332171130e-01,
	7.0939521851e-01,
	-9.6375855336e-01,
	6.7257778424e-01,
	4.4790056508e-01,
	-3.3655516493e-01,
	-6.9361662105e-01,
	-5.4772052055e-01,
	9.5776061991e-01,
	-5.5268158277e-01,
	7.0617322331e-01,
	2.6205846912e-01,
	-6.8426145226e-01,
	2.9940097094e-01,
	4.4933669337e-01,
	7.8187722796e-01,
	-7.0901752529e-01,
	5.8600533641e-01,
	-8.7230998831e-01,
	-9.2144758157e-01,
	9.6346997840e-01,
	9.4962493421e-01,
	2.2365067118e-01,
	-2.6991369681e-02,
	-4.4569437087e-01,
	8.0140127884e-01,
	8.7781215267e-01,
	3.7376223755e-01,
	-4.6332664483e-01,
	-5.8601873814e-01,
	1.7917699981e-01,
	-1.9664835613e-01,
	-8.7662352057e-01,
	2.1541844644e-01,
	-5.2407057282e-01,
	5.7127704545e-01,
	8.7886328151e-01,
	-2.1768719294e-01,
	-9.7644347603e-01,
	8.3662390049e-01,
	2.2963122429e-01,
	7.2972974727e-01,
	9.8682368686e-02,
	5.4536977296e-01,
	2.9130717287e-02,
	-4.5198093888e-01,
	3.2724699999e-01,
	3.2011319200e-01,
	-8.6597560247e-01,
	4.5493701261e-01,
	3.9866561042e-01,
	-9.0250562499e-01,
	4.0456194589e-01,
	-3.7768371840e-01,
	7.0503005325e-02,
	9.5886757502e-01,
	2.0258392582e+00,
	1.2156405692e+00,
	1.3802533635e+00,
	1.7152916390e-01,
	7.5562965493e-01,
	1.0413107711e+00,
	2.1421726097e+00,
	1.3521567899e+00,
	1.2572263810e+00,
	-7.6747652821e-01,
	-1.5020176143e-01,
	8.3338135605e-01,
	3.2275973401e-01,
	9.1059629475e-02,
	4.6709804084e-01,
	-6.8641002708e-01,
	-1.8673873347e-01,
	-4.5859459487e-01,
	7.9698579004e-01,
	8.3911547590e-01,
	8.9327397427e-02,
	7.5359926704e-02,
	9.4646430752e-02,
	2.0385611723e-01,
	-4.2083032357e-01,
	-4.4185426619e-01,
	3.2093264038e-01,
	7.2323508478e-01,
	1.8003564405e-01,
	-6.0856435523e-01,
	9.4259932262e-01,
	6.0417957492e-01,
	3.3974981015e-01,
	2.7522913426e-01,
	-4.3542951040e-01,
	-2.9795277924e-01,
	7.8703594570e-01,
	-6.7168695092e-01,
	-8.1227988089e-01,
	5.1426120266e-01,
	-4.3201496426e-01,
	2.4467006291e-01,
	1.2034974020e-01,
	5.8996982947e-01,
	-6.7482347026e-01,
	-4.3693782270e-01,
	8.4158584654e-01,
	1.3541274384e-01,
	1.0445698402e-01,
	6.3857163658e-01,
	-2.5220324763e-02,
	-8.0612914814e-01,
	-2.3719557432e-01,
	-8.6574020137e-01,
	4.1730911723e-01,
	3.4197422738e-01,
	-3.0759446756e-01,
	-2.6175824239e-01,
	3.2570597405e-01,
	8.7286754785e-01,
	1.2967740238e-01,
	2.6830529574e-01,
	4.7704712184e-01,
	-5.3057179578e-01,
	-4.5646557093e-01,
	-9.5838238856e-01,
	1.7147542498e-01,
	-6.6942962616e-01,
	-6.3006933948e-01,
	3.5919554409e-01,
	8.4483157650e-01,
	-6.2084303732e-02,
	-3.9613439394e-01,
	-3.4818684233e-02,
	-4.7211447520e-01,
	-7.0957864202e-02,
	5.2824349400e-01,
	-6.3052862959e-01,
	-9.3554512129e-01,
	-3.6729952291e-01,
	-9.9195699393e-01,
	3.9234554879e-02,
	-1.7342867105e-01,
	-2.2915256826e-01,
	1.7349435351e-01,
	-7.5611955382e-01,
	-8.8717834181e-01,
	8.6589988594e-01,
	-1.7877796207e-02,
	4.3852763317e-01,
	7.3876743286e-01,
	-8.8820039476e-01,
	-2.9316707202e-01,
	2.1581455377e-01,
	-4.1877219054e-01,
	2.5036735798e-01,
	2.5743216521e-01,
	7.5270323444e-01,
	5.8093773182e-01,
	6.2736282573e-01,
	1.1189877759e-01,
	4.2576930831e-01,
	-4.3472147893e-01,
	7.1576438365e-01,
	-6.0904937685e-01,
	9.3164045873e-02,
	-3.5519348148e-01,
	9.1919411715e-01,
	4.6263541722e-01,
	-2.9073860184e-01,
	-4.4810540576e-01,
	4.7067842328e-01,
	7.4849595304e-01,
	3.7846592319e-01,
	-7.5847414497e-01,
	-7.8009694385e-02,
	6.2234636937e-01,
	-6.4565248678e-01,
	-2.1210980937e-01,
	-3.9553142777e-01,
	1.9769760836e+00,
	7.7964927842e-02,
	1.7962164168e-01,
	-2.8923959446e-01,
	9.5169499411e-01,
	9.6848848144e-01,
	1.3611134180e+00,
	3.6070240357e-01,
	2.5951259563e-01,
	3.2663708118e-01,
	-3.2743989347e-01,
	-5.5437715082e-01,
	-5.9761294922e-02,
	1.9841259257e-01,
	8.9021016990e-01,
	1.7989730006e-01,
	-7.1264592698e-01,
	-4.7732527745e-01,
	6.6927210925e-02,
	7.4820869180e-01,
	2.3068426836e-01,
	6.0579031982e-01,
	1.9292408345e-01,
	-2.5187808669e-02,
	-3.2193102290e-03,
	4.6054854947e-01,
	9.0241439357e-01,
	-4.3166070849e-01,
	8.1466375508e-01,
	-3.0969325328e-01,
	2.2410266997e-01,
	6.0777208843e-01,
	2.1696382429e-01,
	9.4037084837e-01,
	-8.9251983813e-01,
	-4.0563454405e-02,
	2.3786683531e-01,
	8.5755559423e-01,
	9.5934088713e-01,
	-7.1193394331e-01,
	1.8856875654e-01,
	-4.1339194747e-01,
	-5.4983594341e-01,
	9.4535122809e-01,
	7.7915374086e-01,
	-6.7197356078e-01,
	9.3084321866e-02,
	-9.3513652586e-01,
	-1.4930465964e-01,
	-8.3998846814e-01,
	8.1320862463e-01,
	-9.1737436034e-01,
	7.7883333796e-01,
	3.2232197482e-02,
	6.3051891077e-02,
	-2.2387893462e-01,
	-5.0721837464e-01,
	-3.4531551895e-02,
	3.9575516218e-01,
	-6.9232143261e-01,
	6.5577519483e-01,
	-3.8014216878e-01,
	9.1545065582e-01,
	-1.2726043590e-01,
	-4.3977132134e-01,
	-9.7706918324e-01,
	8.3217610970e-01,
	7.9809551490e-01,
	8.8048641099e-01,
	7.9151699589e-01,
	-9.1383842934e-01,
	6.9055166593e-02,
	-6.2187495251e-01,
	-4.6367437274e-01,
	1.4406393754e-02,
	-8.4272121165e-01,
	-1.3564793353e-01,
	-8.9250928531e-01,
	-7.7785773751e-01,
	7.1504740776e-01,
	-7.3249775252e-01,
	-9.6464911381e-01,
	7.9767304743e-01,
	-9.5366441549e-01,
	6.7583084604e-02,
	-1.3927506243e-01,
	-1.7754335011e-01,
	5.6036470996e-01,
	8.2619338568e-01,
	-7.8178818886e-01,
	8.6804327735e-01,
	4.8196858050e-01,
	-1.6193035672e-01,
	7.8349393224e-01,
	-6.4529185632e-01,
	3.9829832194e-01,
	8.0642474899e-01,
	-8.1311574756e-01,
	1.9639383592e-01,
	6.8691115905e-01,
	9.7840124833e-01,
	2.8255540751e-01,
	-2.4403367436e-01,
	-6.4347370511e-01,
	8.1888103477e-01,
	7.7037271940e-01,
	-4.8619491676e-01,
	-3.1676689876e-01,
	8.7786343502e-01,
	-2.6405265427e-01,
	-6.0171949193e-01,
	-8.5463431843e-01,
	-2.2870176715e-01,
	-8.0404644543e-01,
	-8.0829873393e-01,
	8.3888131745e-01,
	5.6678492137e-02,
	1.4157915960e-02,
	3.9924602648e-01,
	-1.1712812219e-01,
	8.0579233249e-02,
	2.2051437883e-01,
	-6.6261417736e-01,
	-9.3965515865e-01,
	1.7372422601e-02,
	-3.4195391498e-01,
	4.0918482353e-01,
	-1.6400198232e-01,
	-9.9862480464e-02,
	-3.5726133947e-01,
	-4.7600391076e-01,
	-1.5066719661e-01,
	9.2254672177e-01,
	3.0004680774e-01,
	2.4061080069e-01,
	7.6136838520e-01,
	7.0170204166e-02,
	7.5516259034e-01,
	-5.5019893011e-01,
	-5.1678378625e-02,
	-5.0888717524e-01,
	-1.5191842204e-01,
	9.3687302942e-02,
	2.6241105761e-01,
	4.4035132529e-02,
	2.8538856901e-01,
	1.0129237413e-01,
	-8.9928637627e-01,
	-7.0045351596e-01,
	-4.9946159939e-01,
	-1.6414498452e-02,
	5.3191621114e-01,
	7.6782770444e-01,
	3.4842595893e-01,
	6.0235558152e-01,
	-1.8138906135e-01,
	-9.3202544094e-01,
	7.1093272917e-02,
	6.7581892278e-01,
	-2.5592587434e-02,
	7.3622480023e-01,
	-7.8006193497e-01,
	8.5924151347e-01,
	6.8391173504e-01,
	5.2002353292e-01,
	1.0060190926e-01,
	4.5047970370e-01,
	-4.0951828072e-01,
	-1.4423261170e-01,
	9.0028077359e-01,
	5.3880334065e-01,
	3.4688021305e-01,
	-2.5163764937e-01,
	-3.6750935734e-01,
	-3.9070872934e-01,
	7.9239748316e-01,
	9.1787921168e-01,
	7.1058364478e-01,
	8.9311110689e-01,
	-7.8257430521e-01,
	-7.8887795554e-01,
	-1.2330339156e-01,
	7.4934190686e-01,
	9.7894974890e-01,
	-7.7487743356e-01,
	3.5169748745e-01,
	-2.0243931245e-01,
	-7.0690287357e-01,
	-5.7720924056e-01,
	-5.2662039060e-01,
	2.6750453900e-01,
	-8.4098444127e-01,
	-3.0668232558e-01,
	1.2674605247e-01,
	8.4292729378e-01,
	-7.8665879266e-01,
	-7.7265203920e-01,
	2.9340699655e-01,
	-1.9617707338e-01,
	8.3115349097e-02,
	1.9368776921e-01,
	-6.5737373273e-01,
	-5.7000443878e-01,
	9.4205011983e-01,
	-2.4883090064e-02,
	3.9286831878e-02,
	7.3444760206e-01,
	-1.0700387839e-01,
	-2.5012952334e-01,
	6.2755870895e-01,
	1.1042181640e-01,
	-3.9007478877e-02,
	-4.9574468354e-01,
	-1.4023627766e-01,
	-6.0057729976e-02,
	-2.7062211711e-01,
	-7.8853879114e-01,
	7.3750295757e-01,
	2.2475009329e-02,
	-3.6574803170e-01,
	-7.8911743396e-01,
	-7.1002045167e-01,
	-2.0673247204e-01,
	-9.5799758609e-02,
	4.1672560080e-01,
	-3.6380517919e-01,
	1.1754144873e-01,
	6.4407356160e-01,
	9.2960181829e-01,
	9.2136437535e-01,
	-2.7281109024e-01,
	1.2328958657e-01,
	-7.3600935831e-01,
	1.5718447098e-01,
	6.5339706403e-02,
	2.3910755256e-01,
	-8.0352869714e-01,
	-2.0021269247e-01,
	-8.6789632676e-01,
	-5.3658220476e-02,
};

double mlpWeightsLayer2[] = {
	-7.2496677037e+00,
	3.7585622564e+00,
	3.9583938503e+00,
	2.2600818382e+00,
	-8.7548319031e-01,
};

