// MLP Weights File

#define NUMBER_OF_LAYERS 2
#define LAYER_1_WEIGHTS_LENGTH 2400
#define LAYER_2_WEIGHTS_LENGTH 80

#define LAYER_1_WEIGHTS_ABS_MAX 4.0000000000e+00
#define LAYER_2_WEIGHTS_ABS_MAX 6.0000000000e+00

double mlpWeightsLayer1[] = {
	-5.7637060978e-01,
	-8.5092857597e-01,
	-3.0197352625e-01,
	-4.7068349135e-01,
	3.4535222655e-01,
	-1.9173871025e-01,
	9.4554402151e-01,
	3.1922233236e-01,
	4.2285193751e-01,
	5.5601201170e-01,
	5.4173538041e-02,
	-1.0018618243e+00,
	7.8647118232e-01,
	-1.6857084460e-01,
	-1.6833814182e-01,
	-9.8991787532e-01,
	-1.1138306472e-02,
	-3.3199633055e-01,
	-7.8307392344e-01,
	-5.8536376526e-02,
	-3.3779707442e-01,
	-7.4342301787e-01,
	-5.5698871636e-01,
	6.4889366121e-01,
	-6.7453434350e-01,
	9.8329965204e-01,
	-9.1861895052e-01,
	-5.3721150573e-01,
	-8.7687048325e-01,
	-6.2181367472e-01,
	-1.6289354249e-01,
	-4.3573599636e-01,
	-4.5667540930e-01,
	5.4698985142e-01,
	1.0561522219e-01,
	8.9948330536e-01,
	-6.3028098160e-01,
	7.8250469211e-02,
	2.4647919747e-01,
	8.0578290867e-01,
	-3.5771224338e-01,
	-6.9191668913e-01,
	8.1101685940e-01,
	-5.6248107697e-01,
	1.4579920245e-01,
	-3.5307838086e-01,
	-5.4813652651e-01,
	-8.5950529103e-01,
	3.1984585771e-01,
	-3.2965373778e-01,
	7.9820495942e-02,
	9.8258590325e-01,
	-7.2674630709e-02,
	5.2580516821e-01,
	6.3211475146e-01,
	2.5305744785e-01,
	5.1026424650e-01,
	7.1355906674e-01,
	7.1584626274e-01,
	6.3341227529e-01,
	-9.0795930471e-01,
	-4.4607766912e-01,
	-8.0160225372e-01,
	-3.6582807712e-01,
	-9.0441065301e-01,
	2.9508334125e-01,
	-4.6758399645e-01,
	-5.2977009214e-01,
	-6.1742911764e-01,
	7.8134504509e-01,
	-7.2357170550e-01,
	2.4881083111e-02,
	-9.1057646814e-01,
	-9.1312447063e-01,
	4.5656045595e-01,
	2.2667655746e-01,
	-2.6974522988e-01,
	9.0979601421e-01,
	3.6961219500e-01,
	-9.5417429078e-01,
	-4.3103068873e-01,
	-5.5765333064e-01,
	-9.6964673884e-01,
	4.9792913180e-01,
	9.7517356272e-01,
	6.5985783263e-01,
	-2.4099312454e-01,
	4.8270734544e-01,
	3.6069624463e-01,
	-5.3525596944e-01,
	1.1825445709e-01,
	4.7074819915e-01,
	3.4516289684e-02,
	3.2733619955e-01,
	-8.9006961598e-01,
	1.3422167508e-01,
	-3.6954936252e-01,
	-3.5522023652e-01,
	6.0635005758e-01,
	1.4296498622e-02,
	-5.7387519235e-01,
	8.8277835207e-01,
	-9.6082231121e-01,
	-4.8502035864e-01,
	9.6761118473e-01,
	5.0019797763e-01,
	7.5012649254e-01,
	-2.9542948974e-01,
	4.1582630574e-01,
	1.2611272581e-01,
	-2.4187584398e-01,
	-1.0010363368e+00,
	5.7560354863e-01,
	-2.0861393890e-01,
	5.1137287790e-01,
	5.7003653716e-01,
	-5.3544760921e-01,
	-7.2302216652e-01,
	6.2954843706e-02,
	8.4381192696e-01,
	-3.0567769523e-01,
	-8.6158415522e-01,
	2.8962527547e-01,
	7.8710002850e-01,
	6.0419702269e-01,
	4.9422340699e-01,
	-9.8130356517e-02,
	-8.4623252542e-01,
	-9.2651314361e-01,
	-4.5487632427e-01,
	2.6605273324e-01,
	-3.9463464782e-01,
	-5.1361991292e-01,
	2.6197211395e-01,
	4.1457022819e-02,
	-5.8061758912e-01,
	-2.6602516814e-01,
	-2.2916961124e-01,
	1.0632107890e-01,
	-8.5373241592e-01,
	9.1398831488e-01,
	8.5332338908e-01,
	-8.4667184899e-01,
	5.3178455279e-01,
	-3.1620747177e-01,
	6.4730269407e-01,
	4.2208865375e-02,
	1.1966633492e-01,
	9.6676678759e-01,
	-8.4898173130e-01,
	-2.4505265748e-02,
	-3.1126648192e-01,
	-6.7951091371e-01,
	-7.0560190392e-01,
	-5.3324572430e-01,
	8.3474164464e-01,
	7.1865305372e-01,
	3.9358208556e-01,
	9.7982545894e-01,
	7.8258372882e-01,
	9.2988516853e-01,
	1.5406574083e-01,
	-7.0915923220e-01,
	-6.5226931204e-01,
	-6.3607686076e-01,
	3.1009929509e-01,
	-2.6201155887e-01,
	7.2996799985e-02,
	-9.2216004437e-01,
	8.3101484655e-01,
	1.9379626324e-01,
	9.7301906058e-01,
	6.7902106458e-01,
	3.1887936043e-01,
	4.5256929388e-01,
	-6.7297850813e-01,
	-4.3060931863e-02,
	-4.9659672263e-01,
	4.3865845047e-01,
	-1.2823461328e-01,
	-3.8302380348e-01,
	-6.0945910962e-01,
	5.3971464563e-01,
	-9.0393008763e-02,
	-3.6647979654e-01,
	-1.0568405089e+00,
	-2.8457696358e-01,
	-6.2068733856e-01,
	4.0394403374e-01,
	-2.5166189114e-01,
	-8.2247186134e-01,
	3.3397635394e-01,
	9.0099420955e-01,
	-5.4041847732e-01,
	6.4277572810e-01,
	-7.9386542426e-01,
	7.3455392048e-01,
	-6.0079704695e-01,
	2.9488124270e-01,
	7.5334297779e-01,
	-9.3258637014e-01,
	-6.8677611956e-01,
	6.7137289367e-01,
	8.2394272388e-01,
	7.6180042786e-01,
	2.1687966105e-01,
	-7.9046480263e-01,
	-2.6130071551e-01,
	6.8462416700e-01,
	5.9621757979e-01,
	6.0412456909e-01,
	-6.1573409363e-01,
	-9.1117426797e-01,
	2.2070177769e-01,
	3.3474016415e-01,
	-2.3203686606e-01,
	2.3157921656e-01,
	-9.0370798387e-01,
	1.5822469059e-01,
	-3.6230011702e-01,
	-1.5537072247e-01,
	3.3622175904e-01,
	9.7324381806e-01,
	-2.5423960934e-01,
	7.9129156065e-01,
	6.4756906931e-01,
	9.6478982397e-03,
	5.8241291944e-01,
	-9.2454120193e-01,
	-6.6060405839e-01,
	4.2498674814e-01,
	-7.0815737140e-01,
	-1.7857922201e-01,
	2.3891153718e-01,
	-7.5517211147e-01,
	-2.8080839250e-01,
	-4.5437469734e-01,
	-5.0397637773e-01,
	4.9703288321e-01,
	-6.7489358631e-01,
	-4.3018452242e-01,
	2.0035555549e-01,
	-2.6247425343e-01,
	-7.1040811464e-01,
	-5.9400191490e-01,
	-9.4092951604e-01,
	5.8069937322e-02,
	6.5338079119e-01,
	-8.3211790782e-01,
	-7.8432876812e-01,
	-7.3569240920e-01,
	-2.5708903527e-02,
	5.3525406940e-01,
	-7.4371394409e-01,
	7.5459478411e-01,
	3.5046252542e-01,
	9.1491359303e-01,
	-2.3402685502e-01,
	-6.2887341200e-02,
	9.9113778844e-01,
	1.1021137035e-01,
	-6.2422316569e-01,
	-6.8334328566e-01,
	9.7660743402e-01,
	6.3571559393e-01,
	-4.3379664322e-01,
	-2.9508184108e-01,
	-8.0866522618e-01,
	7.0010288431e-02,
	-7.7378464827e-01,
	-4.7542380305e-01,
	2.7492318733e-01,
	4.2856035241e-01,
	2.6031881893e-01,
	5.6400800114e-01,
	8.5041074135e-01,
	3.3365270906e-01,
	-3.7623552543e-01,
	5.0542671177e-01,
	5.0379780564e-01,
	-1.5993691104e-01,
	7.9654058525e-01,
	-4.8369239619e-01,
	-6.0565362271e-01,
	-9.3717551539e-01,
	-7.2449425072e-01,
	7.4926418759e-01,
	9.8069204327e-01,
	4.6015513390e-02,
	-3.0968040237e-01,
	9.9829404584e-01,
	-8.3962568408e-01,
	7.2923896311e-02,
	-6.8979080318e-01,
	-8.4878596706e-01,
	-2.8566284072e-01,
	-1.2928802666e-01,
	-1.4694361163e-01,
	-9.2105196366e-02,
	9.4786304419e-01,
	1.0155418705e-01,
	4.9957146293e-01,
	2.6736617633e-01,
	-3.0634312060e-01,
	2.6128099969e-01,
	7.0185873980e-01,
	8.9579135611e-02,
	-6.9144067924e-01,
	4.6950859665e-01,
	8.7094422542e-01,
	5.4084651679e-01,
	-7.3779022674e-01,
	6.7715158705e-01,
	-8.1219590061e-01,
	1.1128196272e-01,
	1.4090873792e+00,
	-2.8812634894e-01,
	-4.4834619850e-01,
	1.0344193448e+00,
	1.4222953935e+00,
	2.0341722971e+00,
	2.9264460497e+00,
	2.0504065979e+00,
	1.4785111552e-01,
	1.8063621302e+00,
	1.3637580106e+00,
	4.2473006304e-01,
	5.1498486911e-01,
	4.8175899154e-01,
	1.7121497272e+00,
	4.6985048276e-01,
	8.3451584680e-01,
	2.7574464190e-01,
	-9.4720859128e-01,
	-8.5193762733e-01,
	9.1986361438e-01,
	-1.7285383783e-01,
	-4.9921235559e-01,
	9.4675947458e-01,
	-7.6487280429e-01,
	-6.2761331214e-01,
	4.8534331017e-01,
	-5.0955538562e-01,
	-9.3919974488e-01,
	6.9683316320e-01,
	2.2744735909e-01,
	7.9998561468e-01,
	8.7393896266e-01,
	5.3423209392e-01,
	5.3237370791e-01,
	3.8975865896e-01,
	7.2336751607e-02,
	8.7297137601e-01,
	2.1510878565e-01,
	-5.0344244153e-02,
	1.8478476901e-01,
	-4.8779124421e-01,
	7.6865206469e-01,
	-7.1876536914e-01,
	9.7346629320e-02,
	8.2877873083e-01,
	1.3613253445e+00,
	1.1029281035e+00,
	8.2202138356e-01,
	1.0913924375e+00,
	1.0193041787e+00,
	1.2257098265e+00,
	2.1291788034e+00,
	1.3179017755e+00,
	4.1801387625e-01,
	2.1212542120e+00,
	2.2050202817e+00,
	2.1864040380e+00,
	2.2611774912e-02,
	9.2801632219e-01,
	1.0137816315e+00,
	1.1555321092e+00,
	9.8421521230e-01,
	5.9608393882e-01,
	1.4155515678e-01,
	1.8195534951e-01,
	-3.8956762555e-02,
	8.9088493346e-01,
	-7.2795983009e-01,
	5.7668116042e-01,
	-2.4896100893e-01,
	5.4671646145e-01,
	1.1421714526e+00,
	-8.0888123358e-01,
	4.4833009335e-01,
	1.6116572597e-01,
	6.7336963097e-01,
	-8.7223878661e-01,
	5.6656433516e-01,
	-7.9296793431e-01,
	-3.0163466084e-02,
	-7.0119256939e-01,
	-2.8233277151e-01,
	-3.0987678075e-01,
	5.8778412716e-01,
	1.9862173890e-01,
	-4.4022891912e-01,
	1.8816545682e-01,
	1.7612988728e-01,
	-3.5104143065e-02,
	-1.3856488799e-01,
	-3.0902563324e-01,
	-4.9449436407e-01,
	-6.9090267907e-01,
	-9.1487031490e-01,
	5.7437704316e-01,
	2.3465213728e-01,
	-2.8002559552e-01,
	2.6318770152e-01,
	3.3092558513e-01,
	-8.5662212030e-01,
	7.2576840390e-01,
	-4.1215574714e-01,
	-9.6415702245e-01,
	8.3134466867e-01,
	8.5708821460e-01,
	-8.1751851102e-02,
	3.4969951637e-01,
	9.4533732191e-01,
	-5.9075450811e-01,
	4.2076387404e-01,
	-1.4860417181e-01,
	-2.7676373425e-01,
	-7.7947497486e-01,
	5.5041830667e-01,
	-7.7359628752e-01,
	4.2192482138e-01,
	-8.6663826081e-01,
	4.7577072066e-01,
	-4.4451842279e-01,
	3.0289082614e-02,
	-6.7269433872e-01,
	2.7564733812e-01,
	5.4872064425e-01,
	-4.7893673191e-01,
	1.1345458595e-01,
	-1.3599080012e-01,
	6.8441014191e-01,
	-1.0075600741e+00,
	-6.2595384763e-01,
	1.7135932575e-01,
	-7.9750404475e-01,
	-8.8593559387e-01,
	7.1838009506e-01,
	-8.2414975190e-01,
	9.1235632114e-01,
	6.4367078775e-01,
	2.0279772327e-01,
	3.5410973056e-01,
	6.4615197726e-01,
	6.7505262771e-01,
	-1.2352217406e-01,
	-4.2121295793e-01,
	-5.7317038930e-01,
	1.0260452719e-01,
	-8.4656096245e-01,
	-2.7038810918e-01,
	-4.7263743328e-01,
	-7.1330011856e-01,
	-7.9197926302e-01,
	1.1838850399e-01,
	3.8260807820e-01,
	-4.2681378191e-01,
	-5.7824503340e-01,
	-1.9364670128e-02,
	2.1299965965e-01,
	7.3770679715e-01,
	-9.0787178150e-01,
	8.0006937810e-02,
	8.6960257324e-01,
	-3.9289182440e-01,
	-6.4298606524e-01,
	-8.6843781684e-01,
	-2.4643313914e-01,
	-8.2947095490e-01,
	-4.3465104874e-01,
	-5.9728445971e-02,
	9.8227190317e-01,
	7.0591413569e-01,
	-8.0301376431e-01,
	5.7972674395e-01,
	4.1212279433e-01,
	8.9894929792e-02,
	-8.7035644310e-01,
	7.7803692731e-01,
	-8.4431257507e-01,
	-6.9132678772e-01,
	-4.8624539252e-01,
	-3.4261252471e-01,
	-4.6343023851e-01,
	-2.8262924681e-01,
	8.1088129874e-01,
	9.4258425875e-01,
	2.7617162293e-01,
	-8.0334577232e-01,
	-7.2213476064e-02,
	-4.6795133815e-01,
	1.0166874567e+00,
	8.6718562147e-02,
	6.3625939310e-01,
	9.1207706942e-01,
	7.1638516814e-01,
	1.0137378670e+00,
	-9.6945640451e-01,
	-5.4030577099e-01,
	-8.3132075905e-01,
	-5.4935239042e-01,
	2.3445624265e-01,
	-9.7649852078e-01,
	-9.1804966037e-01,
	3.6811586023e-01,
	5.2715484209e-01,
	3.8607663756e-01,
	-6.1872702648e-01,
	6.1438405813e-01,
	1.1946289801e-01,
	-5.0920678851e-01,
	8.4897409085e-01,
	5.8282729597e-01,
	1.3030254268e-01,
	-6.2556178706e-01,
	-7.3437271033e-01,
	-1.0333757046e-01,
	-7.1326086012e-01,
	5.2255193283e-01,
	8.6418504337e-02,
	1.8898639644e-01,
	-9.8450205537e-01,
	7.5109089361e-02,
	-7.4060469018e-01,
	6.4134933317e-01,
	-3.7203305884e-02,
	9.3966528119e-01,
	6.2838208502e-01,
	-8.3799217867e-03,
	-6.0129699530e-01,
	7.9625129495e-01,
	4.4333108708e-01,
	6.5092500723e-01,
	8.5003796779e-01,
	5.7076884679e-01,
	4.6877986685e-02,
	3.5951070936e-01,
	-9.2088180427e-02,
	3.7817542362e-01,
	-4.7338135918e-02,
	-9.7604135908e-01,
	8.6901626094e-01,
	-1.9598540169e-01,
	6.2304259667e-01,
	3.6576233808e-02,
	2.0219812647e-01,
	8.8400264489e-01,
	9.0547843235e-01,
	5.0757340801e-01,
	4.8902584623e-01,
	9.7226710752e-02,
	-2.6687033753e-01,
	4.6838812543e-01,
	-8.9448796680e-01,
	-4.7718968241e-02,
	8.8506627071e-02,
	5.8386546820e-02,
	-9.3155509015e-02,
	-2.6575615312e-01,
	-9.5099377917e-01,
	2.5780625150e-01,
	-5.2755158314e-01,
	4.4897990538e-01,
	-1.2011967880e-01,
	-7.1333848095e-01,
	-3.2215698746e-02,
	8.8050217176e-01,
	6.2830769533e-01,
	8.7204998905e-01,
	2.5883293829e-01,
	-4.1872832018e-01,
	8.9575215908e-01,
	1.2715891067e-01,
	3.8649469968e-01,
	5.0654849201e-01,
	-8.7137625314e-01,
	-4.4043003724e-01,
	3.7406789064e-01,
	-9.7633635584e-01,
	-9.7605184774e-01,
	-2.2111353588e-01,
	2.7383211189e-02,
	-3.1122580125e-01,
	-8.1400944898e-01,
	6.1657614404e-02,
	5.8722927324e-01,
	2.3450746276e-01,
	-9.1116249735e-01,
	-5.6094364490e-01,
	-5.0763647054e-01,
	-2.3022038545e+00,
	-1.4659959271e-01,
	-1.0795661630e+00,
	1.6247516507e+00,
	2.7894891795e-01,
	-1.1081676350e+00,
	-1.1352817716e+00,
	-9.0374872917e-01,
	-8.2881989738e-01,
	1.5074048163e+00,
	3.4470923540e+00,
	1.0756589541e+00,
	1.1985675139e-02,
	2.4369087372e-02,
	-4.0113818280e-01,
	9.6428724172e-01,
	1.8326290990e-01,
	2.1451979021e-01,
	6.1826844989e-01,
	4.7032125240e-01,
	2.6039884941e-01,
	1.6107926471e+00,
	2.0361130285e+00,
	1.4343380692e+00,
	-2.7413270435e-01,
	1.8438908662e-01,
	4.5040582068e-01,
	1.2900135321e+00,
	8.3834300372e-01,
	9.0480505600e-01,
	4.6264380837e-01,
	4.0758324980e-01,
	5.5801016876e-01,
	7.1810983992e-01,
	-1.9193565417e-01,
	8.8706757854e-01,
	-7.1502303490e-01,
	2.4567071436e-01,
	-7.8232713385e-01,
	-4.1907924293e-01,
	6.4287978318e-01,
	9.4526999516e-01,
	4.5856453822e-01,
	9.5982343151e-01,
	-2.0845434875e-01,
	7.4549894370e-01,
	7.4088525866e-01,
	7.4254280004e-01,
	-4.3055159719e-01,
	-1.3870939069e-01,
	-2.7729559561e-01,
	3.8196302876e-01,
	-2.3521267476e-01,
	-2.9006040763e-01,
	-1.0025183815e-01,
	-1.3811721799e-01,
	7.5774178084e-01,
	-9.9681015685e-01,
	-8.1166560567e-01,
	-1.1721909261e-01,
	5.3174989695e-01,
	4.1810993930e-01,
	-9.1680955086e-01,
	-3.0922449166e-01,
	-6.0193288514e-02,
	-1.9819763289e-01,
	-4.3435216974e-01,
	3.2971853847e-01,
	-8.7258217624e-01,
	-1.9022668134e-01,
	9.1040383530e-01,
	7.6656896388e-01,
	-2.5349263201e-01,
	2.6845244752e-01,
	5.8151374808e-01,
	5.0269394343e-01,
	5.7733602782e-02,
	3.2399401906e-01,
	8.7804304820e-02,
	3.5840324987e-01,
	-1.0218607343e+00,
	8.3596964932e-01,
	-5.3458594003e-02,
	3.4671820832e-02,
	-2.2250026845e-01,
	8.7489940243e-01,
	7.7779491432e-01,
	-6.2566465088e-01,
	8.2694198466e-01,
	-1.0234657777e+00,
	3.0660463184e-01,
	4.3365401002e-01,
	4.5203687499e-01,
	4.4075936028e-01,
	-7.7903035674e-01,
	-4.9737176245e-01,
	-7.0188795436e-01,
	-2.1245074914e-01,
	8.2690740868e-01,
	-5.7980161087e-01,
	5.8592712065e-01,
	7.3827705165e-01,
	-8.2019046773e-01,
	-6.8829831376e-01,
	9.8405323164e-02,
	8.7029653329e-01,
	8.5633026657e-01,
	-8.1867445420e-01,
	2.3401242349e-01,
	9.4048793795e-02,
	7.1067768381e-01,
	3.6542743473e-01,
	7.9590602296e-02,
	-1.9094197842e-01,
	-5.4396200678e-01,
	7.8512849197e-01,
	-3.0673164283e-01,
	-7.2315392964e-01,
	-7.5903531866e-01,
	-1.5378031207e+00,
	-2.1528300141e+00,
	-3.8834982067e-01,
	-1.4938952921e+00,
	1.8346230700e+00,
	6.5746039602e-01,
	-1.6337830545e+00,
	-1.4883248977e+00,
	-1.6516923401e-01,
	-1.4345590187e-01,
	1.2399997055e+00,
	3.4258934457e+00,
	7.6000795800e-01,
	1.5393385888e+00,
	1.0729234105e+00,
	3.1022935574e-01,
	1.1862102653e-01,
	9.7832957708e-01,
	2.5667264110e-01,
	6.3927060303e-01,
	5.4234766673e-01,
	1.3996406545e+00,
	6.8411692388e-01,
	6.0955575904e-01,
	1.0311519230e+00,
	1.3993395775e+00,
	9.4391628715e-02,
	2.3157692660e-01,
	5.0225255024e-01,
	1.0158174126e+00,
	4.8608114475e-01,
	3.3479083461e-01,
	8.2515091442e-01,
	6.6333955717e-02,
	2.8925012559e-01,
	4.9330843958e-01,
	8.4332751930e-01,
	4.8048403556e-01,
	7.2988655641e-01,
	4.7373025144e-02,
	-4.3810174681e-01,
	8.8814528702e-01,
	-1.8271150346e-01,
	2.3114010180e-01,
	8.0505006541e-01,
	-2.3738942345e-01,
	-7.4105633731e-01,
	-2.2119471243e-01,
	-4.4809720266e-01,
	1.1663027282e-01,
	9.1009271568e-01,
	5.9423188499e-01,
	6.4655041355e-02,
	-1.5447855819e-01,
	-8.8754659819e-01,
	-8.5871601564e-01,
	-3.9411632875e-01,
	8.2429148761e-02,
	1.9013631632e-02,
	8.7727152318e-02,
	-6.2862554617e-01,
	-8.2732658628e-01,
	-7.8906048921e-01,
	1.0634766666e+00,
	8.5811472897e-02,
	7.6395991554e-01,
	7.6017098967e-01,
	-2.3600797646e-01,
	-1.0966871133e-01,
	1.8674266856e-01,
	7.0069560121e-01,
	4.2706060990e-01,
	7.4067695485e-02,
	-4.2422587740e-01,
	-1.9229956332e-01,
	8.6624067535e-02,
	4.2221392507e-01,
	-6.7207097826e-02,
	6.8803865098e-01,
	1.1917989626e+00,
	1.7669550303e+00,
	1.4241576940e+00,
	1.0650714202e+00,
	5.0185980655e-01,
	-2.2817780977e-01,
	9.5150149455e-01,
	4.3031182069e-01,
	1.6093001775e-01,
	6.0468997531e-03,
	-3.9368534952e-01,
	1.2611493674e+00,
	2.5502031998e-02,
	-6.4815399765e-01,
	-8.2973492692e-01,
	-5.4896172524e-02,
	2.0177197339e-01,
	5.4569845496e-01,
	-6.3493637666e-01,
	8.1161080741e-01,
	-6.0370722150e-01,
	5.4364505345e-01,
	4.8883693923e-01,
	8.1933270162e-01,
	-3.8296817306e-01,
	1.0569251708e+00,
	-4.8440620759e-01,
	4.5615083856e-01,
	2.3360103026e-01,
	3.3777454529e-01,
	1.3571213858e-02,
	8.2310925499e-02,
	4.6101298154e-01,
	-2.7348950034e-01,
	-3.6704022108e-01,
	-5.7770904466e-01,
	-2.6834502721e-01,
	9.1943033337e-01,
	5.3802920140e-01,
	7.1602903443e-01,
	-4.7094625873e-01,
	1.7534656262e+00,
	9.3800748344e-01,
	2.8805968654e-01,
	-1.1594462566e+00,
	5.4785767162e-01,
	-8.2189343946e-01,
	-5.3457193932e-02,
	8.5358558332e-02,
	-4.5952331958e-01,
	-1.5915980784e-01,
	5.4421766646e-01,
	-9.3594655546e-01,
	-7.0339275077e-01,
	4.3562879021e-01,
	-7.2820113783e-02,
	-5.7004353812e-01,
	8.5652192665e-01,
	-7.5325187619e-01,
	7.1068317028e-01,
	2.8991557941e-01,
	2.7332768234e-01,
	-2.8415861041e-01,
	-3.9432600619e-01,
	7.4609245231e-01,
	1.5760205966e-01,
	-1.1817161554e-01,
	-5.8331582791e-01,
	2.5773923050e-02,
	-5.7831825473e-01,
	-9.3739006745e-01,
	5.1098659314e-01,
	-9.3938766284e-01,
	6.6647726508e-01,
	-1.9700428481e-03,
	-8.9347262456e-01,
	4.1641904855e-01,
	3.6361960831e-01,
	3.1769858808e-01,
	-3.0121576370e-01,
	-9.1264709138e-01,
	-6.6113922450e-01,
	-6.0515186178e-01,
	-6.3147842976e-01,
	-1.5310323952e-01,
	8.9728848666e-01,
	2.5458898243e-01,
	3.4197775601e-01,
	8.5903759203e-01,
	5.7822223591e-01,
	6.7985614711e-02,
	1.5582503478e-01,
	-1.0105225577e-01,
	8.1994797558e-01,
	7.5410131506e-01,
	-3.4193361533e-01,
	-1.4585166711e-02,
	-3.2151681260e-01,
	1.3647886139e-01,
	-9.3946450204e-01,
	9.5309529964e-02,
	2.2123970294e-01,
	6.2409671124e-01,
	1.9115034969e-01,
	-1.1322327844e-01,
	-3.8299197258e-01,
	2.9454179748e-01,
	-7.0165821584e-01,
	9.7874415861e-01,
	-3.8156243723e-01,
	3.4242196065e-02,
	-8.5533511258e-01,
	-3.4846312662e-02,
	4.0250413915e-01,
	-5.5747624903e-01,
	8.0240260583e-01,
	2.9583005234e-01,
	6.9512938362e-01,
	1.4477413822e-01,
	1.5564250537e-01,
	2.7219682106e-01,
	-7.9335589247e-01,
	-6.9450166654e-01,
	-8.2976026365e-01,
	-9.7064610621e-01,
	-9.3469914457e-01,
	-1.7077776410e-01,
	1.6234400187e-02,
	-2.5666777765e-01,
	9.6014137516e-01,
	7.1821470386e-02,
	8.3749162138e-01,
	1.8915013320e-01,
	-2.9664421399e-01,
	3.3148858233e-02,
	-9.2286607242e-01,
	3.2209990022e-01,
	-6.6785136350e-01,
	-6.2132182327e-01,
	3.0347566341e-01,
	-4.8749286714e-02,
	3.8634437163e-01,
	3.7765118730e-01,
	9.0890845798e-01,
	-2.1115307523e-01,
	8.1959482862e-01,
	7.1190181888e-01,
	-9.1219648614e-01,
	5.1757327461e-01,
	-1.4100907469e-01,
	2.4551813627e-01,
	-2.0704994165e-01,
	7.1158026365e-02,
	5.5518058406e-01,
	-3.5382262307e-02,
	1.0499013484e-01,
	6.2786491733e-01,
	8.0005800563e-01,
	-8.7545688305e-01,
	-6.2551068945e-01,
	7.6812904803e-01,
	-4.7830533240e-01,
	-5.7921588719e-01,
	4.9518799867e-01,
	1.4120906184e+00,
	7.7494731251e-01,
	5.4519374123e-01,
	9.2507502827e-01,
	1.1765342799e+00,
	8.9633806275e-01,
	-3.3127810170e-02,
	-1.0662791311e-02,
	3.8436119340e-01,
	1.4159757331e+00,
	-3.3473134640e-01,
	6.2430154935e-01,
	9.2458763152e-01,
	-5.8525300755e-01,
	8.8141492400e-01,
	3.1182428763e-01,
	3.4608248099e-02,
	1.8670684705e-02,
	-8.4901387084e-01,
	-8.8742292559e-01,
	-4.9069048655e-01,
	3.7185865674e-02,
	2.8897236388e-01,
	-7.8583702313e-01,
	-1.0563446245e-01,
	3.1346495164e-01,
	-4.5977024449e-01,
	-3.0078729216e-01,
	-4.0660198288e-01,
	-2.9401891867e-01,
	5.4354812398e-01,
	-5.6483641288e-01,
	9.5347305383e-01,
	-4.2512951787e-01,
	6.6459641384e-01,
	5.5875551792e-01,
	1.0072326329e+00,
	-8.0694693645e-01,
	-9.2784147828e-01,
	-2.0723765142e-01,
	-8.9536030228e-01,
	-4.8547152825e-01,
	-6.1804857941e-01,
	8.3339397169e-01,
	-3.2916909971e-01,
	-9.3826861996e-01,
	8.4613489299e-02,
	6.8664297094e-01,
	-1.4169355779e-02,
	1.2814973260e-01,
	7.7671308546e-01,
	4.7086488367e-01,
	-8.6211342824e-01,
	-3.0658749831e-02,
	5.8171178102e-01,
	-5.1673791134e-02,
	-7.1224203692e-01,
	-9.3098852100e-01,
	5.2889592824e-01,
	-1.8850213840e-01,
	-2.1657453414e-01,
	9.6282245504e-02,
	2.9865567667e-01,
	-2.1466067890e-01,
	6.7724253617e-01,
	-9.0306359813e-02,
	-7.6216825304e-01,
	5.4698518207e-01,
	8.7211903053e-02,
	-6.6241629940e-01,
	-5.7381633872e-01,
	2.0597588129e-01,
	-1.1627530427e-01,
	-1.7053126936e-01,
	3.6288547880e-02,
	5.2516887236e-01,
	-9.7322152147e-02,
	-7.8703745444e-01,
	3.5012691043e-01,
	9.5652787507e-01,
	3.0665367876e-01,
	4.4082061521e-02,
	3.7421652088e-01,
	4.1845270842e-01,
	9.9537075914e-01,
	-3.4459810704e-02,
	-6.1384523488e-01,
	-7.2174259989e-01,
	-1.8153714596e-02,
	8.5941511097e-01,
	5.5043011394e-02,
	7.4953098559e-01,
	-7.2902983153e-02,
	-7.0470812258e-01,
	-5.2263392003e-01,
	-4.3044735244e-01,
	1.9491231990e-01,
	-2.5726037929e-01,
	-7.9658710744e-01,
	-7.1266202949e-01,
	8.0237320862e-02,
	-3.5701296909e-01,
	4.9999064309e-01,
	9.3836437136e-01,
	4.3943474520e-01,
	-4.8263690222e-01,
	4.5812751844e-01,
	-6.8809625521e-01,
	-3.4990272917e-01,
	-2.9533795432e-01,
	-8.0143809141e-01,
	8.9800327431e-01,
	6.6143462899e-01,
	4.9317000166e-01,
	2.7048562210e-01,
	6.3599071428e-01,
	-5.9382854454e-01,
	3.8903403555e+00,
	2.4262828683e+00,
	5.1830670400e-01,
	4.1039183460e-01,
	-2.7178315469e-01,
	8.3124900160e-03,
	-7.1183433511e-01,
	1.6752148103e-01,
	4.3227182926e-01,
	-2.1276350705e-01,
	-6.9168876856e-01,
	-8.3247261348e-01,
	-6.1283915829e-02,
	-3.2919096883e-01,
	6.1120529628e-01,
	7.8752605855e-01,
	-8.7302810485e-01,
	3.1805714047e-01,
	2.2937461830e-01,
	-3.2527161844e-01,
	-2.4182914590e-01,
	5.3064212745e-01,
	3.8278370512e-01,
	4.4483922390e-01,
	6.6977803823e-01,
	1.5891131932e-01,
	8.8644765523e-02,
	1.4451556439e-01,
	-5.2696572112e-01,
	-2.8266237308e-01,
	4.9278204773e-01,
	-9.8497800525e-01,
	-3.7500898894e-01,
	-3.2541879395e-02,
	5.2685679052e-01,
	5.4654118925e-01,
	-8.9973864360e-01,
	9.1032953771e-01,
	-2.4668047044e-01,
	7.0277297314e-01,
	-1.3541638358e-01,
	1.6386991642e-01,
	-9.4705139235e-01,
	-9.7901530067e-01,
	8.5644473991e-01,
	4.8037923642e-01,
	8.0483973008e-01,
	-9.6348732177e-01,
	-1.5772799824e-01,
	3.0590418906e-02,
	-2.5410440554e-01,
	6.6182045030e-01,
	-4.3187446903e-01,
	-9.3007526364e-01,
	1.5334945893e-01,
	-7.3365557274e-01,
	2.7692423495e-01,
	-6.9780718987e-01,
	4.6021769625e-01,
	7.5351188879e-01,
	7.8018233899e-02,
	9.5694540326e-02,
	8.5071707925e-01,
	7.8979532443e-01,
	-6.4751486229e-01,
	8.4788740080e-01,
	5.9688551382e-01,
	-7.6616205715e-01,
	2.8117568219e-01,
	1.0551998715e+00,
	9.9108425689e-01,
	-8.5128227927e-01,
	1.6765438091e-01,
	9.8097124445e-01,
	-5.3642972980e-01,
	4.1151461712e-01,
	5.6958036609e-01,
	1.0490666585e+00,
	2.7897796318e-01,
	-1.4729859688e-01,
	1.0996984931e+00,
	2.0017520156e+00,
	1.6769639761e+00,
	1.0808517568e+00,
	1.2714558267e+00,
	3.7286883460e-01,
	1.1129494494e+00,
	4.8834374716e-01,
	8.2264933169e-01,
	7.7236569116e-01,
	2.3784524559e-01,
	-4.7472763574e-01,
	-6.1552143475e-01,
	-2.6909941804e-01,
	-8.9547013528e-01,
	-6.3030947813e-01,
	-9.2997607516e-01,
	3.3203996036e-01,
	-5.0777780261e-01,
	3.3309158140e-01,
	3.2966566730e-01,
	-6.7440607932e-01,
	4.6555477542e-01,
	-4.9264971265e-01,
	-6.9645693966e-01,
	6.5112896115e-01,
	5.2218075098e-01,
	5.8105632281e-01,
	5.7537021830e-01,
	-3.9602952714e-01,
	8.8931432343e-01,
	-1.4171623672e-01,
	-2.2689699611e-01,
	8.8999422919e-01,
	-7.9963526040e-01,
	-7.7575341962e-01,
	-2.8124314908e-01,
	1.0135496892e+00,
	4.8603291617e-01,
	-9.3025202196e-01,
	8.4075094170e-02,
	-9.1850327926e-01,
	-6.8349105229e-01,
	4.7507258638e-01,
	1.6551388615e-02,
	-4.6289967273e-01,
	7.7343006776e-01,
	-1.3208378999e-01,
	7.5225543410e-01,
	-6.2814718988e-01,
	-4.8123289033e-01,
	3.9993764269e-01,
	-1.7509044832e-01,
	8.4870500537e-01,
	6.5602875773e-01,
	-2.6632796312e-02,
	4.3235742677e-01,
	1.7563539736e-01,
	-4.3631919114e-01,
	3.8958465801e-02,
	7.8870956698e-01,
	-6.2798285278e-01,
	6.2762716709e-01,
	-8.0258225383e-01,
	1.0729508990e+00,
	7.4736308170e-01,
	-6.6832531516e-01,
	-2.8433703794e-01,
	7.0523501361e-01,
	7.1201704061e-01,
	-2.8858387010e-01,
	-1.5270026151e-01,
	8.9493859698e-01,
	1.2605680488e-01,
	-6.0705144637e-01,
	-1.7988343908e-01,
	6.0396288227e-01,
	-6.9860267594e-01,
	8.2209279544e-01,
	4.2707295557e-01,
	-2.8899464843e-01,
	-8.3704663060e-01,
	-4.0809355591e-01,
	4.4651991972e-01,
	9.7150599155e-01,
	-7.5256209261e-01,
	-6.0311855358e-01,
	3.9112360993e-01,
	4.1167567647e-01,
	-7.5412432983e-02,
	-6.1720602555e-01,
	1.4429811592e-01,
	2.4065349982e-01,
	9.3776594554e-01,
	2.3511970929e-01,
	2.2080763766e-01,
	6.1050927993e-01,
	5.3759317917e-01,
	8.8928455016e-01,
	2.2131516562e-01,
	1.8498891583e-01,
	-4.2532185886e-01,
	-9.4797686524e-01,
	7.1169171109e-02,
	7.0319416931e-01,
	-5.0730572841e-01,
	9.2739532524e-01,
	2.8117105333e-01,
	-2.6158263865e-01,
	7.0023178601e-01,
	-3.0895625721e-01,
	4.4693333689e-01,
	8.6315667439e-01,
	2.9219877884e-01,
	-7.7652820158e-02,
	8.7443224382e-01,
	5.5506013502e-01,
	2.9673707964e-01,
	2.3668308833e-01,
	1.2333756263e-03,
	-6.7419127917e-01,
	7.3565638849e-01,
	-8.2477473630e-01,
	5.1228579779e-01,
	5.9993360164e-01,
	3.7424566413e-01,
	-2.9365486563e-01,
	1.8423242501e-01,
	-9.0050821360e-02,
	-3.8824514064e-01,
	-5.9843044647e-01,
	-9.5248204001e-01,
	1.3380880918e-01,
	-5.8226926040e-01,
	1.0201906317e-01,
	-2.0297382387e-01,
	-1.4929263471e-01,
	-2.3402971920e-02,
	-9.4165944648e-01,
	5.8555640647e-01,
	-3.2393548151e-01,
	-2.5242529792e-01,
	3.2249802308e-02,
	-4.6078646464e-01,
	-9.6146968841e-01,
	9.3157166162e-01,
	-6.3008543215e-01,
	5.5670084986e-01,
	2.1044165994e-01,
	5.8720099952e-01,
	-4.9693699874e-01,
	4.4834805628e-01,
	2.2683534293e-01,
	-3.9506936449e-01,
	-1.2170670544e-01,
	-2.8123041374e-01,
	9.0013405955e-01,
	5.4667384441e-01,
	8.8258113703e-01,
	-2.4182367973e-01,
	-9.0574178391e-01,
	-7.7151674394e-01,
	-2.0761464406e-01,
	2.3879964711e-01,
	-2.1131791195e-01,
	1.0057167668e+00,
	-9.7792969890e-01,
	4.9802342929e-01,
	-1.2701793588e-01,
	-8.9860802846e-01,
	2.8575638755e-01,
	8.1213856947e-01,
	-2.8248024886e-02,
	-8.0166647344e-01,
	-8.8591843787e-01,
	-8.3469023369e-02,
	-9.0987947704e-01,
	-5.1072015389e-01,
	-5.4596117151e-01,
	2.8824026277e-01,
	-9.1407503351e-01,
	-4.3970525539e-02,
	-2.6859589771e-01,
	3.1112699951e-01,
	5.6643896249e-01,
	5.9626912951e-01,
	9.6193237724e-01,
	4.2942074999e-01,
	1.5104024707e-01,
	8.5707103019e-01,
	-8.3419329081e-01,
	1.8441646554e-01,
	-9.6054754300e-01,
	-4.3324807703e-02,
	-6.0160692131e-01,
	-3.2437599031e-01,
	-1.7131807157e-01,
	-5.8962300290e-01,
	-8.3235320670e-01,
	6.9075963166e-01,
	-5.0968730054e-01,
	2.4904809950e-01,
	2.3602050947e-01,
	3.1787973630e-01,
	3.6590336232e-01,
	3.2064797786e-01,
	-8.2404568694e-01,
	4.0311349086e-01,
	7.7154522825e-01,
	-4.1056574461e-01,
	-3.5116918189e-01,
	8.0774642205e-01,
	4.9619690236e-01,
	3.1365799686e-01,
	2.6160207124e-02,
	-1.6327739235e-02,
	-1.5324909759e-01,
	-3.8612762950e-02,
	-6.3203453349e-01,
	9.1572290655e-01,
	-2.4137486677e-01,
	-4.9526664181e-01,
	7.8903579213e-02,
	-2.1568801694e-01,
	4.4062346793e-01,
	4.7794406384e-01,
	4.6114674254e-01,
	-7.4423590006e-01,
	8.7750492127e-01,
	6.2350267890e-01,
	9.4790340653e-01,
	-6.3160461823e-01,
	-1.2794618585e-01,
	1.9185026222e-01,
	6.9770852121e-01,
	-7.5979405622e-01,
	-4.9578144839e-01,
	8.6027817380e-01,
	6.3871144135e-01,
	-7.1513139646e-01,
	-5.3593748898e-01,
	-7.0396014086e-01,
	-9.0954112822e-01,
	9.5523670103e-01,
	6.1142023370e-01,
	1.2178995211e-01,
	-6.6091821515e-02,
	-5.5586016472e-01,
	-9.2815244606e-01,
	2.9932783506e-01,
	-6.3995358093e-01,
	-1.7104176660e-01,
	8.0238889504e-01,
	4.3706337844e-01,
	6.1286139769e-01,
	2.3394519829e-01,
	-9.6509065776e-02,
	6.6645131700e-02,
	4.8951523750e-01,
	-2.1901263726e-01,
	-3.1071204194e-01,
	4.3552414468e-01,
	1.4932694405e-01,
	5.6318765247e-01,
	-3.7900135280e-01,
	-1.6532073140e-01,
	7.9554994439e-01,
	1.1941166797e-01,
	-3.0539282225e-01,
	4.3119998498e-01,
	4.0078272978e-01,
	1.5277626983e-01,
	7.2207136483e-01,
	4.8148902124e-01,
	8.7728080401e-02,
	3.0523502836e-01,
	-4.1954782705e-01,
	-9.8450966444e-01,
	7.5361755206e-01,
	-3.4868542174e-01,
	3.4301298922e-01,
	-8.9649292184e-01,
	4.7511719925e-01,
	1.1054533019e-01,
	5.1034347311e-01,
	6.1897747579e-02,
	-6.5711443138e-01,
	-5.5624159898e-01,
	-8.4758225026e-01,
	8.2124933342e-01,
	1.5102855812e-01,
	-2.5779493716e-01,
	2.2327712323e-01,
	-6.4597834797e-01,
	-6.0131773471e-01,
	8.7543433671e-01,
	2.0089673136e-01,
	-8.0662024498e-01,
	-6.2225935735e-03,
	8.8731528462e-01,
	6.1231905248e-01,
	-6.1706573330e-01,
	2.9521376731e-02,
	3.1307268726e-01,
	8.4782958713e-01,
	-8.8227175352e-01,
	-3.6160569209e-01,
	-5.5516012310e-01,
	-8.7112282943e-01,
	-6.2642895575e-01,
	8.6848203057e-02,
	4.4791476998e-01,
	-5.0970249745e-01,
	-4.3183303303e-01,
	-4.3897011965e-01,
	-9.6526954191e-01,
	6.5752851681e-01,
	-9.4260866801e-02,
	-5.2076720552e-01,
	8.1630526288e-01,
	-2.6114807150e-01,
	7.0425708206e-01,
	-3.4081949449e-01,
	-9.9311217391e-01,
	-9.2175293772e-01,
	6.3489586081e-02,
	8.9284141375e-01,
	2.8552030700e-01,
	2.6156375863e-01,
	-1.0244614985e-01,
	1.9234217377e-01,
	-1.0999882427e-01,
	2.9610989219e-01,
	-7.6435622250e-01,
	-7.7166041250e-01,
	1.6617033406e-01,
	-6.3414729276e-01,
	-1.2834571820e-01,
	6.1748555192e-01,
	-4.8927618167e-01,
	2.6270137908e-01,
	-2.7767864095e-01,
	9.7330576554e-01,
	7.8071830961e-01,
	3.4733853508e-01,
	-3.8863454299e-01,
	8.7101743120e-01,
	-1.5569742739e-02,
	4.3907855831e-01,
	-7.2914639142e-01,
	-2.2792477012e-01,
	-8.2781598102e-01,
	9.7638970719e-01,
	4.3687124044e-01,
	-7.9803133308e-01,
	-9.0080911062e-01,
	-4.7642822926e-01,
	-9.1529763450e-01,
	3.6817289492e-01,
	8.4943748301e-01,
	1.3726526249e-01,
	-2.8838854696e-01,
	-2.3218340564e-01,
	-6.4796666296e-01,
	-1.6450977681e-01,
	-5.9663883203e-02,
	4.9194209023e-01,
	1.9767267217e-01,
	8.4687496711e-01,
	1.4643015468e-01,
	7.1397285143e-01,
	3.2380239352e-02,
	7.7185906278e-01,
	6.0625134720e-01,
	-2.3472835009e-01,
	6.1010676756e-02,
	-8.6625354247e-01,
	-4.4343482946e-01,
	-9.8418539114e-01,
	5.6692008375e-01,
	-1.7258700529e-01,
	-2.1185081233e-01,
	7.3980712619e-01,
	-1.9737041607e-01,
	-7.7491617519e-01,
	9.2622547625e-01,
	-1.4161222610e-01,
	-2.8564461591e-01,
	9.9247672412e-01,
	-8.0327385795e-01,
	-5.2460939685e-01,
	-8.0359200908e-03,
	-2.2282574382e-01,
	1.4460850886e-01,
	2.4433710662e-01,
	4.9132728771e-01,
	9.9754501890e-01,
	-3.3418039381e-01,
	-3.6895369287e-01,
	7.4578463073e-01,
	1.4347962795e+00,
	-5.7428642187e-01,
	-4.3277544407e-01,
	2.5038302774e-01,
	6.1535093064e-01,
	2.6977228712e-01,
	-7.9008811336e-01,
	7.1477705092e-01,
	-1.1417909864e+00,
	-6.4250300470e-01,
	2.7472054639e-01,
	-5.1522138471e-01,
	4.3882823457e-02,
	1.7862514660e-01,
	6.8787159383e-01,
	4.9711624699e-01,
	1.2575135766e-01,
	-5.5292697158e-01,
	-7.4887515250e-01,
	2.0186524418e-01,
	-2.9028877723e-01,
	-2.8849840917e-01,
	-8.2608868098e-01,
	4.4829718358e-01,
	8.3128574126e-01,
	3.4748831082e-01,
	-9.8676675042e-02,
	8.1107804637e-01,
	-9.3386499543e-01,
	5.3555523682e-01,
	5.1280932984e-01,
	7.3445459040e-01,
	8.3348644327e-01,
	-6.6535980842e-01,
	2.3841007687e-01,
	7.0112979775e-01,
	8.5020490564e-01,
	7.7816165034e-01,
	6.8957887556e-01,
	9.1471648798e-01,
	-6.6859245746e-01,
	2.5785400881e-01,
	-1.8514149458e-01,
	6.6986782717e-01,
	-4.3792636976e-01,
	-4.8523324487e-01,
	2.2966127490e-01,
	7.8305888592e-01,
	6.7229566206e-02,
	5.0125133450e-01,
	-3.1159576161e-04,
	8.1734183531e-01,
	-7.5612483798e-01,
	1.7502905754e-01,
	2.9171081216e-01,
	-8.9638182516e-01,
	-4.2161292389e-01,
	-7.4644371203e-01,
	9.5629092425e-01,
	-3.5774525691e-01,
	8.3530903686e-01,
	5.5536936963e-01,
	-5.8178812119e-01,
	6.9212906504e-01,
	9.5441083617e-01,
	7.6691503980e-01,
	4.5317272010e-01,
	7.6481235885e-01,
	4.4636327576e-01,
	8.5595920059e-02,
	7.0863468591e-01,
	7.7741426621e-01,
	-6.7481318606e-01,
	-5.1394461396e-01,
	4.9913119128e-01,
	-3.9876479601e-02,
	2.3073280017e-02,
	-3.1518143562e-01,
	-3.0117938269e-01,
	-8.3518136359e-01,
	-6.1618351317e-01,
	9.1409356999e-01,
	1.0407710512e+00,
	-4.7977021647e-01,
	-8.1155524886e-02,
	2.2745713238e-01,
	-4.1982367422e-01,
	4.9161325165e-01,
	5.1978301212e-01,
	-4.2135100534e-01,
	-8.6674166210e-01,
	2.7301604981e-01,
	-9.7154906592e-01,
	-5.2542274919e-01,
	-7.9788384232e-02,
	9.0883353041e-01,
	-8.6614125954e-01,
	-7.1120913354e-01,
	6.4387511359e-01,
	5.7487811266e-01,
	3.5525657556e-01,
	2.9944506057e-01,
	3.4870032417e-01,
	6.8226427357e-01,
	7.8763046160e-01,
	-2.0036199531e-01,
	-4.3343675216e-01,
	-2.4609607349e-01,
	4.6270455560e-01,
	2.3694207757e-01,
	-1.7997133273e-01,
	6.8502804449e-01,
	-2.8765867018e-02,
	-2.8287063214e-01,
	-9.3364548273e-01,
	7.3418295788e-01,
	8.3873118238e-01,
	-4.2192752551e-01,
	1.7390979343e-01,
	2.5757523401e-01,
	-1.3978003679e+00,
	4.4914139411e-01,
	5.3562443417e-01,
	9.9336617685e-01,
	1.3518053179e+00,
	1.1539008665e+00,
	1.3462695038e+00,
	1.9684780002e+00,
	1.6008922679e+00,
	3.7547161296e-01,
	7.2621861502e-01,
	5.3599290759e-01,
	1.5647100362e+00,
	-2.3896081462e-02,
	-2.6607132398e-01,
	9.2461937556e-01,
	9.2412782062e-01,
	6.2124389015e-01,
	-5.2918166376e-01,
	-6.1775488092e-02,
	-3.8502496064e-01,
	3.3290916170e-01,
	-4.7112211982e-01,
	2.9273197430e-01,
	7.9524079653e-01,
	-2.7754931773e-01,
	3.4128698161e-01,
	8.4829614209e-01,
	4.2675891032e-02,
	-7.3621911305e-01,
	1.3764676274e-01,
	-6.4425571647e-01,
	4.7603645217e-01,
	4.3379940595e-01,
	3.3722124466e-01,
	1.7479240468e-01,
	-1.1318561978e-01,
	-6.8964526871e-01,
	3.0829431087e-02,
	-3.6394108243e-01,
	-8.4956274434e-02,
	-6.1998033712e-01,
	6.6442017072e-01,
	-1.7195353481e-01,
	1.0432227816e-01,
	-6.0353339220e-01,
	-4.9966013690e-01,
	-3.7242131908e-01,
	7.0053568318e-01,
	-6.1424617917e-02,
	6.2317813338e-01,
	-7.6759919965e-01,
	-8.1389395598e-01,
	-7.5186901239e-01,
	6.5970393883e-01,
	-8.9965196229e-01,
	-8.6300478211e-02,
	-1.8516051266e-01,
	8.4924538596e-01,
	-8.5290657908e-01,
	1.1974625225e-01,
	-1.4887543918e-01,
	-5.7445447522e-01,
	-3.4580307900e-01,
	-5.7774790401e-01,
	9.0314275683e-01,
	9.4416503367e-01,
	3.1181868579e-01,
	-9.2471740975e-01,
	-2.4542750058e-01,
	6.9294353551e-01,
	-3.5802697229e-02,
	1.8746039666e-01,
	5.1707961139e-01,
	8.4531153841e-01,
	-6.0197725365e-01,
	9.6795049703e-01,
	-6.7354623954e-01,
	-3.9725301991e-02,
	7.3384600820e-01,
	5.1572584823e-01,
	-1.0777085025e-01,
	1.0699501493e+00,
	5.7838699208e-01,
	-8.0046139726e-02,
	5.8920670068e-01,
	6.1833459134e-01,
	8.1756210335e-01,
	-5.3059552702e-01,
	5.3183032138e-01,
	9.6453788529e-01,
	4.6244934754e-01,
	-7.5996479146e-01,
	-7.0714851447e-01,
	-9.3331299726e-01,
	-4.2581611854e-01,
	-9.5519496816e-01,
	8.7965911673e-01,
	8.1603240249e-01,
	-8.9935006502e-01,
	-3.1274891189e-01,
	6.6710834305e-01,
	7.0953977530e-02,
	8.7558947110e-01,
	2.1156584539e-01,
	-1.0291560795e-01,
	-8.1599861729e-01,
	9.7267142880e-02,
	1.7894808247e-01,
	1.1820370504e-01,
	-2.7393463316e-01,
	-5.1199674016e-01,
	7.8236314883e-01,
	-3.6364599285e-01,
	9.0197984260e-01,
	-5.0641532183e-01,
	-9.2695678494e-01,
	4.2663785344e-01,
	-7.4291784100e-01,
	-5.9469154674e-01,
	1.2856546262e-01,
	-8.8919727705e-01,
	8.5388395775e-01,
	5.0423369816e-02,
	-6.1805716503e-01,
	9.1228511299e-01,
	6.3451372191e-01,
	-5.6027795795e-01,
	7.9365793566e-01,
	4.3519122417e-01,
	-4.7759095385e-01,
	-5.3255572487e-01,
	9.4615115433e-02,
	5.9251793745e-01,
	-6.5745851954e-01,
	-7.2430404423e-01,
	-5.3438340221e-01,
	-4.8126421893e-01,
	3.6724158170e-01,
	6.3569138099e-01,
	6.2736373274e-01,
	-9.2008209249e-01,
	-9.3064484235e-01,
	3.0376054615e-01,
	-3.6227476259e-01,
	9.3626524369e-01,
	7.9532296903e-01,
	-2.9125441176e-01,
	3.4785453588e-01,
	-9.9190784485e-01,
	1.0078897802e-01,
	-8.5130586321e-01,
	-9.0861043735e-01,
	-7.0016773864e-02,
	1.7988654192e-01,
	-5.3569054692e-01,
	-1.7180931638e-01,
	-2.1463373679e-01,
	-1.1872603913e-01,
	-3.9459124707e-01,
	-7.9244909458e-01,
	3.9844219307e-01,
	6.9849319062e-02,
	2.9837060647e-01,
	-1.1065763139e-02,
	4.0884013419e-01,
	5.6732038433e-01,
	4.4533123260e-01,
	9.2421248213e-01,
	-6.4748502571e-02,
	1.0116188181e-01,
	5.5402638562e-01,
	1.9758542933e-02,
	1.6356865670e-01,
	-1.3378927249e-01,
	6.5759240820e-01,
	9.4533096577e-02,
	-3.4030581607e-01,
	-6.3200817316e-01,
	-5.5590523293e-01,
	-3.1626812079e-01,
	5.2250036150e-01,
	-3.7279659440e-01,
	-9.4004487844e-02,
	-1.3867108572e-01,
	1.5216866552e+00,
	8.1961225185e-01,
	4.5375045536e-01,
	-3.9721652820e-01,
	-8.9400762326e-01,
	8.3563175746e-01,
	-2.2854739738e-01,
	5.1176808418e-01,
	1.2039699868e-02,
	-5.5802625348e-01,
	4.9086226806e-02,
	-3.7701244282e-01,
	7.5698671645e-01,
	1.2061472500e+00,
	9.5594102295e-02,
	1.1652904463e+00,
	1.8617827177e+00,
	2.0346578822e+00,
	1.3955270054e+00,
	-1.4872129503e-01,
	2.1293096994e-01,
	6.9116540264e-01,
	8.1056306475e-01,
	1.0894688646e+00,
	1.3731152807e+00,
	1.2600087976e+00,
	1.1568244204e+00,
	1.2619538306e-01,
	-6.7500076606e-01,
	-2.4768782864e-01,
	4.7967600817e-01,
	-9.1653683969e-01,
	9.6569187846e-01,
	-2.9965089500e-01,
	-3.6457600306e-01,
	-9.2856265583e-01,
	-4.6715218689e-01,
	4.0103904068e-01,
	5.9284801554e-01,
	5.6437175202e-01,
	5.3659732679e-01,
	-9.0777769294e-01,
	7.4931616213e-01,
	9.2001447756e-02,
	-9.5197409844e-01,
	1.1015020340e+00,
	1.0290729046e+00,
	6.0829350001e-01,
	1.1282748465e+00,
	3.7692014097e-01,
	2.2627018180e-01,
	-5.3979472227e-01,
	-4.2697229161e-01,
	-3.0754122184e-01,
	8.1325429291e-01,
	-9.2419996572e-01,
	-8.0636048308e-01,
	7.1890917780e-01,
	1.4949610697e-01,
	-4.9888481922e-01,
	-5.3990332110e-01,
	-3.7770882499e-01,
	-4.2011814165e-01,
	-5.7421144358e-01,
	3.2239790508e-01,
	2.1530540341e-01,
	-5.0277707335e-01,
	8.5522301300e-01,
	-3.8506374852e-01,
	-9.2715824392e-01,
	2.9061799743e-01,
	-9.2436278980e-01,
	-8.6002010752e-01,
	3.7738237082e-02,
	1.6515945045e-01,
	-8.5464854811e-01,
	2.0816146871e-02,
	-1.8124619368e-01,
	1.7367935887e-01,
	-2.0612653867e-01,
	-9.4797287600e-01,
	-6.2060918548e-01,
	2.1951208879e-01,
	-4.7742818738e-01,
	-1.4298108181e-01,
	-4.2573789620e-02,
	-4.0162094748e-01,
	5.0658435119e-02,
	-3.2366461183e-01,
	7.4787515949e-01,
	5.5177361590e-01,
	1.3643206709e-01,
	-6.2983366644e-01,
	-8.6834452668e-01,
	5.6222062444e-01,
	6.9256423865e-01,
	3.4696087676e-01,
	-9.4055644979e-01,
	5.4778725167e-01,
	9.6189712824e-01,
	-8.6771469371e-01,
	-1.6159475183e-01,
	-9.6246566156e-01,
	-7.2773480123e-01,
	8.7614348525e-01,
	2.0269378889e-01,
	-5.8238334841e-01,
	-1.0304036881e-01,
	-9.7855240478e-01,
	5.9129601046e-01,
	6.9083309345e-01,
	-9.2652528078e-01,
	9.7068682498e-01,
	-8.9654818685e-02,
	-4.0395346815e-01,
	-1.7229425775e-01,
	8.6777139170e-01,
	1.9437039886e-01,
	8.7784473113e-01,
	-4.5645560830e-01,
	-5.8534136826e-02,
	4.2929142863e-01,
	6.8041658481e-01,
	3.1246707743e-01,
	5.6179326566e-01,
	2.4275947048e-01,
	5.0313160778e-03,
	-9.1245857576e-02,
	3.0218686302e-01,
	-4.4755607093e-01,
	-1.3002101929e-01,
	4.3392207257e-01,
	3.9088169521e-01,
	-9.1822378101e-02,
	7.0600142383e-01,
	2.6610685798e-01,
	-8.9010239474e-01,
	-8.7610391957e-01,
	-8.3626686739e-01,
	-8.6833749694e-01,
	7.1476513089e-01,
	8.5441259799e-01,
	-7.9497583205e-01,
	6.8545028063e-01,
	-2.3521512412e-01,
	-1.9870671260e-01,
	-4.8615556855e-01,
	-3.6672340490e-01,
	9.9627382867e-01,
	-6.0757706948e-01,
	1.7738337497e-01,
	-6.1425428400e-02,
	8.2256072379e-01,
	-1.4207777900e-01,
	-7.4895835097e-01,
	3.8435398852e-01,
	-8.9931830945e-01,
	2.5607296510e-01,
	-7.0689186999e-01,
	4.0276691367e-01,
	8.0882643171e-01,
	1.6375574534e-01,
	-1.6262696272e-01,
	2.0011534598e-01,
	-9.2805499208e-01,
	-4.5587343697e-01,
	-5.3251735570e-01,
	-8.1719847658e-01,
	-3.3157760480e-01,
	-3.6829012794e-01,
	-6.8484860271e-01,
	-6.1583707277e-01,
	-5.1303040214e-01,
	-4.7910039307e-01,
	-9.2948702442e-01,
	-1.7050442420e-02,
	1.4362408569e-01,
	-4.8534676696e-01,
	8.3654600757e-01,
	2.3851533156e-01,
	-9.4897626981e-02,
	1.1274480405e-02,
	-7.9193676220e-01,
	-2.2892619644e-01,
	8.8973259792e-01,
	-5.6592778380e-01,
	-8.9846977289e-01,
	-1.0333813480e+00,
	7.2292672536e-01,
	-5.5233433680e-01,
	3.8577775703e-01,
	5.3877986488e-01,
	6.1631422750e-01,
	-7.5473707177e-01,
	-2.3632428679e-01,
	6.9237763382e-01,
	-2.1468557903e-01,
	2.1701072195e-01,
	8.6442188778e-01,
	4.4964600881e-01,
	8.5178271326e-01,
	-7.9197198515e-01,
	8.4336308641e-01,
	-6.6956087220e-01,
	-2.8863603884e-01,
	9.1535623127e-01,
	6.0072979826e-01,
	-9.4736012766e-01,
	-4.8991261338e-01,
	4.9362718977e-01,
	3.7075589802e-01,
	4.8835031229e-01,
	-4.3958551467e-01,
	6.2909352343e-01,
	-7.1059061170e-01,
	-5.1754921464e-01,
	-8.6012852372e-01,
	-5.2585849965e-01,
	-4.9581884906e-01,
	9.0306773895e-01,
	-4.9307097074e-02,
	9.2699038084e-01,
	4.7713557020e-01,
	-4.0786043217e-01,
	-8.0922052243e-01,
	-7.4800341927e-01,
	-6.9514588257e-01,
	-3.0838870148e-03,
	4.9323931589e-01,
	-7.9962164802e-01,
	-5.2844773956e-01,
	3.6638032316e-01,
	-5.8888324052e-01,
	-6.6966509968e-01,
	7.2641339606e-01,
	1.3978653019e-01,
	-7.4997059098e-01,
	3.3426770934e-01,
	1.8437029733e-01,
	-2.5139522166e-01,
	-1.9950818144e-01,
	-4.5301695836e-01,
	-7.4020400987e-01,
	3.9719444417e-01,
	-8.0030216615e-01,
	-4.5280895590e-01,
	8.7935895562e-01,
	-6.5935784594e-01,
	1.8102162247e-02,
	-6.3773930499e-01,
	-7.8419350337e-01,
	9.5254510480e-01,
	-6.9852127615e-01,
	6.8640760635e-01,
	-5.1233932311e-01,
	-6.4605219041e-01,
	7.9932214559e-01,
	-2.3694028027e-01,
	4.3325858213e-01,
	4.1147137665e-01,
	2.8063278013e-02,
	9.3383682954e-01,
	-2.0468119132e-01,
	4.3472866018e-01,
	-7.4337362494e-01,
	-4.6301561736e-01,
	-3.7600637326e-01,
	-4.3951134426e-01,
	9.0143294084e-01,
	8.2810656371e-01,
	3.3678206521e-01,
	-2.6098949269e-01,
	-6.0019552130e-01,
	6.0112421151e-01,
	-8.6241503219e-01,
	-3.9825944049e-01,
	-8.4401729762e-01,
	-9.8194625489e-01,
	-6.0639487624e-02,
	1.7414304171e-01,
	-6.0054045867e-01,
	1.8879345851e-01,
	1.6535985746e-01,
	-2.8219603739e-01,
	-8.8980265360e-02,
	7.2512568668e-01,
	1.9467568006e-01,
	-1.4515201448e-01,
	-4.0479348222e-01,
	-2.7967830402e-01,
	-6.3920157247e-01,
	6.9049056868e-01,
	-3.0743959072e-01,
	1.8079329607e-01,
	1.7564244132e-01,
	-5.2193835423e-02,
	1.4979599615e+00,
	1.6524450509e+00,
	1.2410897599e+00,
	1.1412777261e+00,
	1.1898382784e+00,
	8.9231350291e-01,
	2.5852436589e-01,
	-3.3433121559e-01,
	2.3262155625e-02,
	-1.1972623260e-01,
	1.0583686561e-01,
	1.4277104525e-01,
	-2.2877206656e-01,
	6.7332656551e-01,
	1.0354219195e+00,
	2.4563659639e-01,
	1.8183289490e-02,
	4.9701405369e-02,
	6.4718627367e-01,
	7.4330557172e-01,
	-1.6766413034e-01,
	-1.1267919757e-01,
	-4.9064383970e-01,
	2.9885728890e-01,
	6.7445984620e-01,
	7.3047925769e-02,
	1.2490522540e-01,
	-7.8594690769e-01,
	-8.7287190016e-01,
	-6.6974960464e-01,
	3.7229028645e-01,
	8.8851865627e-01,
	-9.7721848578e-01,
	-1.0399659732e-01,
	5.6246863943e-01,
	6.8774551774e-01,
	7.9758833287e-01,
	9.9354395749e-01,
	7.6084586626e-01,
	-7.0494134805e-01,
	-4.8995185442e-01,
	-6.1256918880e-01,
	-4.6192134784e-02,
	6.0842669117e-02,
	9.7261596682e-01,
	-2.0877419161e-01,
	-9.7673788503e-01,
	-2.4557322384e-01,
	8.0275934381e-01,
	7.0315739252e-01,
	-5.5195105787e-01,
	-4.4596275613e-01,
	-3.8914993076e-01,
	3.3066498133e-02,
	9.1842406705e-01,
	-7.6083081883e-01,
	9.7978197317e-01,
	-2.4272073679e-02,
	-4.3613024682e-01,
	-8.7623894560e-01,
	2.0735580069e-01,
	8.8327284223e-01,
	-9.8274661052e-01,
	2.0801744855e-01,
	-3.1648174889e-01,
	5.2765387026e-01,
	-4.8355585708e-02,
	-4.2675817583e-01,
	5.4818653371e-01,
	-3.5194627970e-01,
	-1.3634984342e-01,
	-9.2110525268e-01,
	6.7336933445e-02,
	7.4583093920e-01,
	6.4428687007e-02,
	2.9851249051e-02,
	-3.9811205963e-01,
	1.2370193373e-01,
	6.9145300393e-01,
	-7.9419264427e-01,
	-3.5039435892e-01,
	-8.7682900717e-01,
	-1.3462068643e-01,
	3.9398483510e-01,
	2.1872523711e-01,
	-1.6470686480e-01,
	6.5455530209e-01,
	1.7006301798e-01,
	7.6079519204e-01,
	-7.7010523077e-01,
	3.8556402269e-01,
	8.1152116763e-02,
	-8.0848810637e-01,
	4.4146640050e-01,
	-6.3891279798e-01,
	-2.7250349021e-02,
	4.3663713799e-02,
	3.3113156360e-01,
	5.4749964243e-01,
	-3.8664536487e-01,
	-9.5758405403e-01,
	-5.8504411220e-01,
	-3.0930284117e-01,
	1.2612631725e-01,
	-7.6544439184e-01,
	8.3769798186e-01,
	-7.8558720990e-01,
	-1.4247033360e-01,
	1.1992290488e-02,
	-9.7663970334e-01,
	2.2163112905e-01,
	8.1482205813e-01,
	-7.1969718591e-01,
	-7.4034430588e-01,
	4.0560078785e-01,
	6.2416280234e-01,
	1.4918199016e-01,
	1.1543570157e-01,
	-9.2533291676e-02,
	6.8778314793e-01,
	7.5375079274e-01,
	-6.1379313899e-01,
	-8.5241037606e-01,
	4.2791837566e-01,
	6.1729293205e-01,
	-4.8911221869e-01,
	-3.4544502047e-01,
	-1.9009454125e-01,
	7.7663665814e-01,
	-1.2060225205e+00,
	-1.2230604360e-01,
	5.8521145274e-01,
	-5.2831633259e-01,
	-8.5431223299e-01,
	-5.2147623362e-02,
	-2.4781589555e-01,
	8.9922007483e-01,
	1.5472113338e-01,
	5.9465880866e-01,
	-1.1581073242e-01,
	1.5727566357e-01,
	-1.4641133045e-01,
	-2.5430547153e-01,
	4.5338865226e-01,
	9.4927165631e-02,
	-7.6254561226e-01,
	1.2296807959e-01,
	-7.3332723489e-01,
	3.4081618024e-01,
	-9.1706722205e-01,
	3.9570922268e-01,
	-1.2466724731e-01,
	-5.6566597342e-01,
	5.4827425505e-01,
	-4.6653718360e-01,
	-7.5974970662e-01,
	-9.3696737855e-01,
	1.4579289846e-01,
	6.4715170990e-02,
	8.9447472926e-01,
	3.1558647237e-01,
	-4.9522678747e-01,
	7.6555731595e-01,
	8.8780274074e-01,
	-3.6750921297e-01,
	-2.2567053921e-01,
	-2.9352467145e-01,
	-3.9947022586e-01,
	-9.9787894845e-01,
	-6.1308980102e-01,
	5.8948592162e-01,
	2.7159658214e-01,
	3.4485030311e-01,
	-5.1576067377e-01,
	-1.4031889808e-01,
	-4.3164899081e-01,
	-2.1511046831e-01,
	-9.2233044322e-01,
	-3.9783163480e-02,
	-7.6538762825e-01,
	-7.7433983335e-01,
	-5.9791157949e-01,
	1.6011452670e-01,
	-2.0755819779e-01,
	1.1286400636e+00,
	7.8835934156e-01,
	-2.8239194444e-02,
	-9.6437882608e-01,
	-1.7538500127e-01,
	-9.7119190974e-01,
	9.2361760923e-01,
	-8.6612951787e-01,
	-4.6403462492e-01,
	7.8555736146e-01,
	-8.4066053495e-01,
	2.1275701648e-01,
	-4.9998484597e-01,
	-1.9497196345e-01,
	9.4761121227e-01,
	-1.7775423938e-01,
	5.0441339638e-01,
	5.9189868794e-01,
	9.0685788036e-01,
	-4.0711785728e-01,
	9.1000287282e-01,
	-2.9960881440e-01,
	1.5601539488e-01,
	-2.3194360162e-01,
	-1.5737471205e-01,
	1.1149978573e+00,
	-1.2471967811e-01,
	-9.4118769434e-02,
	-6.0674739897e-01,
	9.6188870329e-01,
	5.7901896842e-01,
	-6.4733156766e-01,
	6.2336792515e-01,
	-4.8923057235e-01,
	-6.1873441047e-01,
	-5.5989132839e-01,
	-4.8599931945e-01,
	-6.9445399207e-01,
	-4.2372245194e-01,
	4.7655231676e-02,
	1.0052545892e+00,
	-3.9678974395e-01,
	-8.3676179597e-01,
	-5.3837728170e-01,
	3.4678274061e-01,
	9.3279444003e-01,
	1.9537783268e-02,
	-4.1436649059e-01,
	3.0217877668e-01,
	-3.0066351248e-01,
	-7.4519957943e-02,
	6.3876318467e-02,
	2.9372890986e-01,
	9.9871986485e-01,
	6.6922160451e-01,
};

double mlpWeightsLayer2[] = {
	9.3551609669e-01,
	7.8905441271e-01,
	-2.7099516426e+00,
	-1.6582358500e+00,
	-9.0301779054e-01,
	-1.9669092953e+00,
	-3.2683926924e+00,
	1.5169191766e+00,
	-2.1984723474e+00,
	1.5520723017e+00,
	-2.2337675166e-01,
	-6.6710307292e-01,
	3.3234063439e-01,
	4.2144298292e-01,
	-3.3952193019e+00,
	-2.3763391853e+00,
	3.6778525843e-01,
	6.2485849474e-01,
	-3.8428353066e-01,
	5.7747265237e-01,
	1.6138223335e-02,
	-6.4027424067e-01,
	-1.5322182774e+00,
	2.1880175471e+00,
	8.1671661088e-01,
	-3.1847707419e+00,
	-5.0893207177e+00,
	-9.4366412278e-01,
	1.3542287338e+00,
	-2.5056717668e+00,
	-8.0142101772e-01,
	-8.4495328952e-01,
	-8.4094086068e-01,
	-1.2827045658e+00,
	2.2383977955e+00,
	-1.3632456350e+00,
	4.0940990986e-01,
	8.6635220263e-01,
	1.8343222128e+00,
	-3.7529943925e-01,
	-1.7213879045e-01,
	-5.4917869594e-01,
	3.4302991237e+00,
	-4.5928401848e+00,
	9.2625044965e-01,
	-1.6420351074e+00,
	-8.3707439022e-01,
	-7.1692718537e-01,
	-4.5523650875e-01,
	7.3491958662e-01,
	-9.0621066609e-02,
	4.6259103445e-01,
	9.0309357711e-01,
	4.2355203812e-01,
	-6.6234084475e-01,
	2.5897838215e+00,
	1.4112930164e-01,
	6.2545262914e-01,
	-1.5652764178e+00,
	1.3881210545e+00,
	9.7612849121e-01,
	-6.6060071867e-02,
	-2.2932311356e+00,
	-1.0619225300e+00,
	6.2952274276e-01,
	4.2209000654e+00,
	2.5522616557e+00,
	-5.6846394083e-01,
	2.0580667914e-01,
	-4.8088970257e+00,
	-6.2679980558e-02,
	2.2445693190e-01,
	-3.4287897344e-01,
	-1.8478044879e-01,
	-7.9308938210e-01,
	-2.0280412612e+00,
	8.5796370343e-01,
	5.9715955592e-01,
	-1.0309355702e+00,
	-9.1237455468e-01,
};

