// MLP Weights File

#define NUMBER_OF_LAYERS 2
#define LAYER_1_WEIGHTS_LENGTH 600
#define LAYER_2_WEIGHTS_LENGTH 5

#define LAYER_1_WEIGHTS_ABS_MAX 3.0000000000e+00
#define LAYER_2_WEIGHTS_ABS_MAX 7.0000000000e+00

double mlpWeightsLayer1[] = {
	-5.9720108937e-01,
	-7.8488375929e-01,
	-6.1330313458e-01,
	-1.2546938988e-01,
	-1.0927842265e+00,
	-1.0561494240e+00,
	7.2741755189e-01,
	6.9004535968e-01,
	1.4331849602e-01,
	-8.1143608866e-01,
	-7.0851348146e-01,
	-1.2178276633e-01,
	5.6651807414e-01,
	-2.6642658773e-02,
	9.8792826546e-01,
	9.8788448978e-01,
	7.4553666799e-01,
	5.1670888394e-01,
	1.2186040834e-01,
	-5.7591479232e-01,
	-4.5780816065e-01,
	9.7955259865e-01,
	6.9408246101e-01,
	2.6725058748e-01,
	9.5522934660e-03,
	5.5992309336e-01,
	-9.1241187780e-01,
	-5.6370738853e-01,
	1.9125949889e-01,
	7.3332926420e-01,
	-9.4317453536e-01,
	1.2637714774e-01,
	1.2814722129e-01,
	-5.0120548112e-01,
	-7.6158940397e-01,
	-4.7361674856e-01,
	-4.2390209662e-02,
	3.3249916074e-01,
	5.4094058046e-01,
	-1.0043641469e-01,
	9.2199468978e-01,
	4.1038239692e-01,
	-2.7359843745e-01,
	-9.1045869320e-01,
	1.0061952574e-01,
	-3.3671071505e-01,
	4.9559007538e-01,
	5.1493881039e-01,
	6.7674794763e-01,
	-7.7373577074e-01,
	3.8944669942e-01,
	-2.8611102634e-01,
	5.5180516984e-01,
	8.4533219398e-01,
	8.1951353496e-01,
	-4.9662770470e-01,
	-8.8000122074e-01,
	-1.9681386761e-01,
	5.4014709922e-01,
	8.1273884814e-01,
	-9.8591028205e-01,
	9.2742698447e-01,
	-1.2561109524e-01,
	-7.2918577177e-01,
	7.4951112228e-01,
	3.0530605570e-01,
	6.7994092486e-03,
	5.0773644215e-01,
	3.2413708914e-01,
	-1.6751609851e-01,
	6.4873195593e-01,
	5.3434858242e-01,
	-2.0052922209e-01,
	4.7264094119e-01,
	4.3974135075e-01,
	-2.3355446850e-01,
	3.4340830138e-02,
	-4.3093665751e-01,
	-7.2112878298e-01,
	-3.9484372587e-01,
	1.4704051825e+00,
	-6.3375615297e-01,
	8.8257145316e-01,
	-1.4554820150e-01,
	3.6565310087e-01,
	6.4913997022e-01,
	-7.7730850435e-01,
	4.5525878050e-01,
	6.2275948772e-01,
	-7.6982827398e-01,
	-9.1740562180e-01,
	5.4905850398e-01,
	-1.2540055544e-01,
	-3.1894894253e-01,
	-9.6752830592e-01,
	-6.9481490524e-01,
	5.8684041871e-01,
	1.9986571856e-01,
	7.1691030610e-01,
	9.0868861965e-01,
	6.7009491256e-01,
	6.7925046541e-01,
	8.6077506579e-01,
	4.2271522634e-01,
	2.1677297281e-01,
	-4.4862208930e-03,
	3.7491988891e-01,
	-5.0505081332e-01,
	1.4432818728e-01,
	8.1537517763e-01,
	2.0673271958e-02,
	6.9177772888e-01,
	-4.7546009840e-01,
	8.5668507950e-01,
	7.8691976684e-01,
	-7.8191473128e-01,
	2.6197859352e-01,
	1.0943390435e-01,
	6.5727713858e-01,
	6.6411328471e-01,
	1.2183318799e+00,
	7.5754623123e-01,
	-3.4661103217e-01,
	9.7309254781e-01,
	7.3464290624e-01,
	3.3198563036e-01,
	9.7831255308e-03,
	1.0627687705e+00,
	4.1338124946e-01,
	8.4950761847e-01,
	-1.9251844674e-01,
	5.9996762786e-02,
	-4.2689879849e-01,
	-3.4556108280e-01,
	-6.6811823851e-01,
	-3.9894674901e-01,
	5.6700338755e-01,
	3.2615131077e-01,
	1.4554277169e-01,
	-8.2317575610e-01,
	2.7347636341e-01,
	4.3449201941e-01,
	5.3154087954e-01,
	7.0250556963e-01,
	-8.0346079897e-01,
	5.1286355174e-01,
	-2.8928495132e-01,
	-9.4940031129e-01,
	1.0806604205e-01,
	-9.2925809503e-01,
	6.7925046541e-01,
	6.6002380444e-01,
	4.1154210028e-01,
	7.3851741081e-01,
	2.3651844844e-02,
	-6.6228217414e-01,
	9.8315378277e-01,
	9.9389629810e-01,
	-8.8808862575e-03,
	-6.9908749657e-01,
	-7.0201727348e-01,
	3.3783989990e-02,
	-8.7524033326e-01,
	5.1823480941e-01,
	-3.4604937895e-01,
	-6.4763328959e-01,
	7.7929013947e-01,
	4.1557054353e-01,
	3.0564287240e-01,
	-4.1099276711e-01,
	-1.7361980041e-01,
	-9.9304177984e-01,
	3.2120731223e-01,
	-7.9180272835e-01,
	8.6590166936e-01,
	-4.8588518937e-01,
	-2.5910214545e-02,
	5.7408368175e-01,
	2.5150303659e-01,
	-4.6360679213e-01,
	-5.2015404028e-01,
	9.8187200537e-01,
	-7.5308414787e-01,
	8.1963461745e-01,
	-1.9516079204e-01,
	-8.3967640657e-01,
	6.2192238997e-01,
	7.8960539567e-01,
	-9.6502578814e-01,
	-8.5222937712e-01,
	7.1718497269e-03,
	-3.9957884457e-01,
	1.2200227968e-02,
	-9.2373954751e-01,
	2.8534088351e-01,
	2.7912241836e-01,
	-3.7577576418e-01,
	1.4381502810e-01,
	3.2046443150e-01,
	-9.5580103633e-01,
	-6.5768012317e-01,
	3.0623901755e-01,
	-1.0957373239e+00,
	3.8432205782e-01,
	1.6246510090e-01,
	-2.9892655617e-01,
	-3.6609040868e-01,
	-5.4861586816e-01,
	7.1759461606e-01,
	3.6791698107e-01,
	7.1223595608e-01,
	2.6584673605e-01,
	1.1490218818e-01,
	-8.4459974975e-01,
	9.2187261574e-01,
	4.7303689688e-03,
	-5.2793969543e-01,
	3.3494064150e-01,
	7.1233252968e-01,
	-5.9990234077e-01,
	7.2392956328e-01,
	-9.4933927427e-01,
	7.9589200860e-01,
	-4.7636517101e-01,
	3.1342509232e-02,
	-3.0796227912e-01,
	3.8798181097e-01,
	5.7774590289e-01,
	2.4124482170e-01,
	3.5591226681e-01,
	2.6690405260e-01,
	-1.2981173307e-01,
	-9.2147523365e-01,
	-4.9272133549e-01,
	-8.6834315012e-01,
	4.7331156346e-01,
	8.8275351937e-02,
	4.7099917276e-01,
	1.9675283059e-01,
	-2.7518539995e-01,
	7.7626611266e-01,
	7.8360536786e-01,
	1.3830366131e+00,
	3.8796791021e-01,
	1.8328165711e-01,
	1.3482634883e+00,
	1.3424194571e+00,
	-4.6529083067e-01,
	4.3040895493e-01,
	-4.1601878579e-01,
	-6.0219225954e-01,
	7.0049719977e-01,
	1.1624043947e-01,
	-9.6887112033e-01,
	-1.2867509427e-01,
	-9.7106030754e-01,
	-1.7303994873e-02,
	4.7599719230e-01,
	2.7985473189e-02,
	-3.7079989013e-02,
	3.2590716269e-01,
	-8.7435529649e-02,
	5.8977019562e-01,
	8.5460982086e-01,
	3.4562211982e-01,
	4.9180578021e-01,
	7.6879177221e-01,
	-9.2864772485e-01,
	-7.8035828730e-02,
	-3.8248847926e-01,
	2.2165593432e-01,
	-9.6105838191e-01,
	5.9147923215e-01,
	-7.6030762658e-01,
	4.1984313486e-01,
	-6.2089907529e-01,
	3.8047425764e-01,
	6.0472426527e-01,
	6.4885402997e-01,
	1.6190069277e-01,
	2.9837946715e-01,
	2.4750511185e-02,
	9.4903408918e-01,
	-6.6631061739e-01,
	-6.9609668264e-01,
	-7.6970732749e-01,
	-6.8987090670e-01,
	3.8352610858e-01,
	-4.4370860927e-01,
	8.6596270638e-01,
	-5.6785790582e-01,
	3.0973235267e-01,
	7.6396984771e-01,
	6.9389934996e-01,
	3.6533707694e-01,
	-4.9043244728e-02,
	-5.5619983520e-01,
	-9.3328653829e-01,
	3.4153263955e-01,
	-2.5846127618e-01,
	-1.0233318068e-01,
	-7.6714377270e-01,
	1.0902679271e-01,
	9.2403010042e-01,
	5.4170898153e-01,
	-1.0633750836e+00,
	8.3170851884e-02,
	-4.9375896481e-01,
	-2.1567430647e-01,
	-4.3119602039e-01,
	6.3560899686e-01,
	3.4525589770e-01,
	9.7352378005e-01,
	-6.5581784572e-01,
	-2.3425586061e-01,
	-4.5022310658e-01,
	4.9654529861e-01,
	-4.5239047891e-01,
	-5.1107800089e-01,
	-6.8008248999e-01,
	-1.5685659729e+00,
	-1.6449284271e+00,
	6.0129549681e-02,
	5.8707799282e-01,
	3.2464804294e-01,
	2.6352975489e-01,
	-9.2951955391e-01,
	-1.1112102277e+00,
	-1.1471892797e+00,
	-6.9568125747e-01,
	-2.3777129078e-01,
	-7.5402081362e-01,
	2.4387340922e-01,
	-8.2293160802e-01,
	7.7990050966e-01,
	-7.8380687887e-01,
	-1.8326364940e-01,
	3.5575426496e-01,
	5.0889614551e-01,
	-6.3676870022e-01,
	-1.3275551622e-02,
	1.7246009705e-01,
	-4.0153208375e-01,
	-8.3286999963e-02,
	5.3501998962e-01,
	8.7438581500e-01,
	-4.6537675100e-01,
	7.3632007813e-01,
	-6.9739099602e-02,
	-8.8351353927e-02,
	3.6877346464e-01,
	-7.7727451720e-01,
	-3.6600204569e-01,
	2.4698629719e-01,
	1.8314157537e-01,
	-6.3020722068e-02,
	5.5418096987e-01,
	3.6983983716e-01,
	-9.9053926206e-01,
	5.6376842555e-01,
	-1.8661714298e+00,
	-1.9396048463e-01,
	-2.2949129065e-01,
	-7.6074951649e-01,
	-1.3923867525e+00,
	-1.9083056472e+00,
	-1.1094070531e+00,
	-4.8811990316e-01,
	-2.5577643391e-01,
	1.6154229912e-01,
	-3.1556008897e-01,
	-9.5616433677e-01,
	-9.8028830501e-01,
	7.9100924711e-01,
	9.1098962065e-01,
	-7.4550167956e-01,
	3.4452345347e-01,
	9.9700918607e-01,
	-5.8049256874e-01,
	-3.9512314219e-01,
	-8.8595233009e-02,
	-2.6120792261e-01,
	-9.8883022553e-01,
	9.4488357189e-01,
	8.4740745262e-01,
	1.6092410047e-01,
	-2.3862422559e-01,
	-4.7691274758e-01,
	-1.0711996826e-02,
	1.5717032380e-02,
	6.2511062960e-01,
	8.3904538102e-01,
	7.4590289010e-01,
	3.5502182073e-01,
	-3.8816492203e-01,
	3.6912137211e-01,
	-8.2647175512e-01,
	5.5388042848e-01,
	9.6459852901e-01,
	-7.2045045320e-01,
	-9.1344950713e-01,
	2.2867519150e-01,
	-3.4470656453e-01,
	1.9089327677e-01,
	-9.8431348613e-01,
	-3.8743247780e-01,
	5.0914029359e-01,
	-9.4573809015e-01,
	8.2647175512e-01,
	9.5007171850e-01,
	2.6999725333e-01,
	2.0548112430e-01,
	8.0986968596e-01,
	4.7398297067e-01,
	-7.9744865261e-02,
	6.5532395398e-01,
	-9.4073305460e-01,
	-4.7343363750e-01,
	-4.3333231605e-01,
	6.8211920632e-01,
	-4.4072434111e-02,
	3.8816492203e-01,
	-7.9432459573e-01,
	8.3778521024e-01,
	-1.0256114122e-01,
	-4.1019055448e-01,
	-3.1782266611e-01,
	7.4617755669e-02,
	5.0132755516e-01,
	7.6866969817e-01,
	-8.6809900204e-01,
	1.2338633381e-01,
	-8.2592623261e-01,
	1.6280974481e-01,
	-6.4279592184e-01,
	-5.8153685738e-01,
	1.1289250059e-01,
	7.2327580929e-01,
	1.3539044144e+00,
	1.9390631367e+00,
	1.5479186447e+00,
	2.2273873416e+00,
	1.0287318170e+00,
	2.6973537984e-01,
	-5.9137720039e-01,
	-4.8794055385e-01,
	1.6649259779e-01,
	7.2214443717e-01,
	-9.7399610024e-02,
	1.0609339062e-01,
	-3.7884892141e-01,
	-1.5189062166e-01,
	-3.8425855281e-01,
	3.9396343883e-01,
	5.3001495407e-01,
	-4.3198950163e-01,
	5.4051332133e-01,
	-9.1076387829e-01,
	8.6773277993e-01,
	7.8826258126e-01,
	-3.3194982757e-01,
	8.7676625874e-01,
	-6.1101107345e-01,
	-6.1070392062e-01,
	-7.9500717185e-02,
	2.9990539262e-01,
	-4.6513260292e-01,
	8.3458967864e-01,
	5.4955176066e-01,
	-3.2088351454e-01,
	-8.2782759035e-01,
	4.7953210287e-01,
	8.3441888645e-01,
	-6.8169194617e-01,
	-4.4282357250e-02,
	-6.6106143376e-01,
	-8.5021448507e-01,
	-7.0415153551e-01,
	7.4266792810e-01,
	-1.1239967040e-01,
	4.2919451723e-01,
	-3.4463085921e-02,
	3.1915778258e-02,
	1.0640159591e+00,
	7.2465611490e-01,
	1.4963609802e+00,
	1.5409540930e+00,
	8.9918270134e-01,
	2.3141711135e-01,
	9.9251748727e-02,
	9.9704325780e-01,
	-1.1308926270e-01,
	-7.8916912835e-01,
	-1.9956053346e-01,
	-5.3118703366e-01,
	3.8007517690e-01,
	-7.7669606616e-02,
	-5.8500930815e-01,
	7.3430585650e-01,
	-1.1636707663e-01,
	6.1729789117e-01,
	3.6234626301e-01,
	8.1530198065e-01,
	8.1310464797e-01,
	4.8722800378e-01,
	2.5016022217e-01,
	2.4124881741e-01,
	5.2122562334e-01,
	-3.5697500534e-01,
	-7.7300332652e-01,
	1.2179937132e-01,
	1.1993774224e-02,
	-9.2608417005e-01,
	-6.7729728080e-01,
	3.7668996246e-01,
	5.0004577776e-01,
	-7.8527176733e-01,
	-4.7914059877e-03,
	-6.5593432417e-01,
	-1.6495254372e-01,
	9.2406994842e-01,
	4.4712668233e-01,
	-9.1912594989e-01,
	-1.4883877071e-01,
	-3.1553086947e-01,
	2.7469710379e-01,
	-3.3347575304e-01,
	7.0561845759e-01,
	8.3812982574e-01,
	-9.8913541063e-01,
	8.2348094119e-01,
	-7.3296304209e-01,
	6.7015594958e-01,
	1.2564470351e-01,
	1.6635639515e-01,
	-3.8163396100e-01,
	-8.4813989685e-01,
	4.5564134648e-02,
	3.9274269845e-01,
	7.3430582749e-01,
	-8.5058266547e-01,
	-2.4405652028e-01,
	7.2750865573e-01,
	-6.3042700551e-01,
	-2.3991847536e-01,
	-5.4931950996e-01,
	9.3246247697e-01,
	-5.8342234565e-01,
	-1.5012054811e-01,
	4.6659749138e-01,
	-7.9442732017e-01,
	-7.9528183844e-01,
	-3.9156337623e-01,
	-9.6755420703e-01,
	2.1055442227e-01,
	7.8056280797e-01,
	-2.2706202459e-01,
	7.7533196879e-01,
	5.2279465408e-01,
	-6.2456027081e-01,
	-1.7621115037e+00,
	-1.3696623917e+00,
	-1.0210396245e+00,
	-1.1797014548e+00,
	-1.0311093050e+00,
	1.3318275071e-01,
	-1.5641442040e-01,
	-1.2126274888e+00,
	2.1724814132e-01,
	-1.4654604510e-01,
	-9.5855982119e-01,
	5.8415478988e-01,
	3.7424848170e-01,
	-6.6393017365e-01,
	-3.0063783685e-01,
	-8.7279885250e-01,
	-5.0328073977e-01,
	8.1102938932e-01,
	-5.4551835688e-01,
	-7.9857783746e-01,
	-3.8169499802e-01,
	3.2328257088e-01,
	5.5571149923e-01,
	-8.2476456812e-01,
	-7.0885341960e-01,
	2.4497207556e-01,
	8.0217902158e-01,
	-9.4515823847e-02,
	1.7971742216e-01,
	-1.2364318292e-01,
	3.7561321026e-01,
	-6.9174411880e-01,
	-6.5287955328e-01,
	-1.9705801569e-01,
	-8.0327768792e-01,
	4.6098208563e-01,
	4.5956944747e-01,
	-2.9376458568e-01,
	-6.1052278207e-01,
	-3.8480788598e-01,
};

double mlpWeightsLayer2[] = {
	1.9911382762e+00,
	-1.2424521937e+00,
	-3.1650465355e+00,
	6.4506379767e+00,
	-3.1416525073e+00,
};

