// MLP Weights File

#define NUMBER_OF_LAYERS 2
#define LAYER_1_WEIGHTS_LENGTH 600
#define LAYER_2_WEIGHTS_LENGTH 5

#define LAYER_1_WEIGHTS_ABS_MAX 4.0000000000e+00
#define LAYER_2_WEIGHTS_ABS_MAX 5.0000000000e+00

double mlpWeightsLayer1[] = {
	-9.4301822614e-01,
	3.7832825701e-01,
	1.0561101123e-01,
	2.0613004150e-01,
	-5.7030731787e-02,
	4.6068055105e-01,
	1.7469309669e-01,
	-8.0420644144e-01,
	-4.8675942318e-01,
	-1.6771023828e-01,
	-5.5057059504e-01,
	-6.0452204010e-01,
	8.7137154602e-01,
	7.0429850992e-01,
	-1.5360015656e-01,
	9.7365993282e-01,
	-7.4970315597e-01,
	-8.0494714892e-01,
	4.1581230863e-01,
	-5.7006715777e-01,
	-1.8539083245e-01,
	5.5229196729e-01,
	-6.4863810688e-01,
	8.3904031946e-01,
	-7.4275137379e-01,
	7.1358756521e-01,
	-8.6237401416e-01,
	7.2144423172e-02,
	-6.5061779676e-01,
	4.6709808403e-01,
	1.1991518416e-01,
	-6.1375428159e-01,
	-1.7245883363e-01,
	-7.9254296878e-01,
	7.1231683144e-01,
	8.6781845794e-01,
	6.4245407453e-01,
	-1.4629382787e-01,
	-9.4716380813e-01,
	-8.4449524984e-01,
	8.8423587004e-01,
	-2.3768421134e-01,
	-3.4014157361e-01,
	8.6489493394e-01,
	-5.3355566670e-01,
	5.0557001750e-01,
	8.3158139038e-01,
	-2.8333223578e-01,
	7.0062286858e-01,
	2.4739369808e-01,
	1.4660060645e-01,
	-4.8476796480e-01,
	-1.0786793246e-01,
	5.1520676516e-01,
	-6.1712286324e-01,
	1.4938069375e-01,
	2.2879432944e-01,
	-4.7949687647e-01,
	-7.5508074824e-01,
	5.7817653268e-01,
	9.8760120756e-01,
	3.6483443592e-01,
	9.6442225201e-01,
	-1.8485762700e-01,
	5.7229146714e-01,
	6.7673908252e-01,
	-3.1703916905e-01,
	2.1474554074e-01,
	-4.6955474535e-01,
	-2.6420297719e-01,
	3.7025029090e-01,
	-5.8531887624e-01,
	4.9811281240e-01,
	-9.6989128365e-01,
	-7.2042394323e-01,
	9.6455714571e-01,
	5.3567873386e-01,
	-8.8884255378e-01,
	-3.1877509100e-01,
	2.3630160151e-01,
	3.5855114523e-01,
	8.2782551638e-01,
	7.5153363671e-01,
	-7.4931678816e-01,
	3.4303228061e-01,
	-8.6558922653e-01,
	4.0006390559e-01,
	-4.2817338995e-01,
	-3.4508610300e-01,
	6.4498315735e-01,
	-8.4999685821e-01,
	-3.5748489637e-01,
	9.8175923386e-03,
	-8.8557460713e-01,
	4.5765747663e-01,
	-4.1789094145e-01,
	7.9116447633e-01,
	-8.5938169335e-01,
	7.9685460022e-01,
	-6.7839026995e-01,
	-1.2358466961e-01,
	1.6710489018e-01,
	-2.6370914619e-01,
	-6.2547185813e-01,
	1.9721360747e-01,
	1.5866910580e-02,
	-6.6091471336e-01,
	-2.6710765961e-01,
	1.2702435680e-01,
	2.0310195638e-02,
	9.6919394283e-01,
	-5.1442449890e-01,
	-1.5186428891e-01,
	7.2072757861e-01,
	-2.6374128706e-01,
	-8.0883200830e-01,
	8.5513835207e-01,
	-8.6367738241e-01,
	-2.3700539825e-01,
	-4.8994775186e-01,
	2.7196241015e+00,
	8.6523747558e-01,
	9.4249550839e-01,
	-1.1814321326e-01,
	3.4316739255e-01,
	7.2202249076e-01,
	1.4125423799e+00,
	5.0419878470e-01,
	2.4699919874e-01,
	-3.5127310483e-01,
	-6.5222598173e-01,
	4.0955165348e-01,
	-4.4500600088e-01,
	8.7873253022e-01,
	-9.8353868137e-01,
	5.7999801407e-01,
	-9.4623516512e-02,
	-6.5901799774e-01,
	-7.3270213778e-01,
	-9.8062053788e-01,
	3.6118208960e-01,
	-7.6810039341e-01,
	-4.9978847715e-01,
	-7.9523040266e-01,
	8.8802720620e-01,
	2.4121367710e-01,
	-5.9951420855e-01,
	2.5065976300e-01,
	3.7753629562e-01,
	1.5851168097e-01,
	-6.7759001799e-01,
	1.5884206964e-01,
	-9.2352186326e-01,
	4.7497733472e-01,
	9.4996543692e-01,
	1.0390127408e-01,
	-9.1479783781e-01,
	3.2319786182e-01,
	9.2248888683e-01,
	-1.6395470275e-01,
	-5.0671511400e-01,
	6.2686228688e-02,
	-5.3669623730e-01,
	-1.6952319963e-01,
	-6.0825575637e-02,
	-5.3490963091e-01,
	-6.3511767780e-01,
	8.3152953062e-01,
	-1.9403773695e-01,
	-3.6781981558e-01,
	8.5090899274e-01,
	-8.3285564828e-01,
	-1.3132801146e-01,
	-6.4413604403e-01,
	-6.2353784853e-01,
	-1.7410862966e-01,
	5.9707763400e-01,
	-2.2305205614e-01,
	-3.6175089579e-01,
	-2.5386071310e-02,
	9.4042833705e-01,
	-3.9340912848e-02,
	-8.6654400260e-01,
	-9.8309352714e-01,
	-5.6436357906e-01,
	-9.1657856662e-01,
	1.2080774695e-01,
	-4.7916141687e-01,
	4.0661929520e-01,
	4.3296632843e-02,
	3.5688388038e-01,
	8.9990418120e-01,
	-8.9401713940e-01,
	8.2018764309e-01,
	-2.6961901843e-01,
	4.5157284963e-02,
	-7.1472198782e-01,
	9.5263303768e-02,
	-1.2331318535e-01,
	9.1240275228e-02,
	7.2744348819e-01,
	-2.7240419261e-01,
	2.5838462694e-01,
	-4.0388452420e-01,
	8.3459763361e-02,
	6.3484677842e-01,
	4.2200684614e-01,
	-3.1946260357e-01,
	-5.8820527866e-01,
	-9.3974404966e-01,
	6.5515132512e-01,
	-6.4777694160e-01,
	2.0915037496e-02,
	7.8860732344e-01,
	-6.3087046874e-01,
	4.5655145843e-01,
	8.7202875683e-01,
	4.8993727914e-01,
	9.7739004156e-01,
	2.7864805203e-01,
	-4.6676608895e-01,
	3.3427392102e-01,
	1.7855223230e-01,
	-3.6078322742e-01,
	1.5446156410e-01,
	9.0893321387e-01,
	6.8437405754e-01,
	4.3973957628e-01,
	4.1965167058e-03,
	-4.3893912781e-01,
	-4.6902014942e-01,
	-2.6835999604e-01,
	2.8865667958e-01,
	7.8936447752e-01,
	3.2775547976e-01,
	-6.2788355799e-01,
	4.2421125501e-01,
	-2.5023767410e-01,
	5.2653839371e-02,
	8.3600597728e-01,
	-1.8998172376e-01,
	-2.9219483644e-01,
	-8.1177096526e-01,
	5.6885587884e-01,
	-5.5867368951e-01,
	-4.4264143400e-01,
	2.8748477124e-01,
	-6.3155875710e-01,
	-9.5270415580e-01,
	-3.5841086514e-01,
	-2.8020339974e-01,
	-7.2082630825e-01,
	-4.2948398685e-01,
	-1.7435847371e-01,
	2.1974652876e-01,
	7.5361029606e-01,
	-2.6542525984e-01,
	-9.5879414629e-02,
	1.9334987141e-01,
	7.3877125687e-01,
	4.2673086987e-01,
	5.8793370600e-01,
	-5.4334515941e-01,
	-2.5113828301e-01,
	4.7261500958e-01,
	7.8242878458e-01,
	1.2315929267e-01,
	-9.7092330395e-02,
	-4.5207093444e-01,
	-8.2694947888e-01,
	-2.2608857007e-01,
	3.5794734180e-01,
	-1.1651944732e-01,
	-3.7859535328e-02,
	1.8888065461e-01,
	3.8282606815e-01,
	5.1949903067e-01,
	-5.2363457509e-01,
	7.5126731105e-01,
	5.6679487581e-01,
	7.4124023679e-01,
	3.9835660504e-01,
	-8.5267536894e-01,
	-6.5961103125e-01,
	-7.7600186960e-01,
	3.6707115982e-01,
	-9.0600073613e-01,
	-4.1427129433e-02,
	-7.2880825574e-01,
	2.8734913621e-01,
	-3.0265587256e-01,
	7.3637320275e-01,
	1.1678857269e-02,
	1.6775538827e-01,
	-5.0978866197e-01,
	-4.7462694416e-01,
	-3.4077872072e-02,
	6.1616591719e-01,
	4.6327850943e-01,
	5.1385119442e-01,
	7.9477433478e-01,
	-7.6281006158e-01,
	-1.2820146472e-01,
	-3.1881208407e-01,
	1.9933040310e-01,
	-9.3932081011e-01,
	-9.3598601685e-01,
	-2.8117056716e-01,
	-4.6295538520e-01,
	8.1528129420e-01,
	-7.1437569229e-01,
	-7.2171514841e-01,
	2.1363789831e-01,
	-5.6705106123e-01,
	-3.8132617966e-01,
	4.3763602871e-01,
	8.0002009859e-01,
	-2.8732691579e-01,
	-6.0379110072e-01,
	-9.2878815715e-01,
	-9.9997778051e-01,
	9.3553026716e-02,
	8.0758504561e-01,
	1.1701077694e-02,
	-7.3869158595e-01,
	-7.0220361729e-01,
	5.3707413354e-01,
	2.2723054198e-01,
	9.1396230083e-01,
	3.5264203341e-04,
	-2.5891826454e-01,
	7.0873663468e-01,
	2.3754258046e-01,
	6.1288027168e-01,
	-6.1007545032e-01,
	-5.6312701738e-01,
	6.7355946157e-01,
	-5.4606146717e-01,
	1.5570241546e-01,
	-7.8939592456e-01,
	-7.3078017390e-01,
	4.4132672411e-01,
	-5.1111107297e-01,
	4.8285772441e-01,
	8.7427566288e-01,
	1.0756274737e-01,
	-7.9506246876e-02,
	6.7429576147e-01,
	8.2023583251e-01,
	3.1670265240e-01,
	7.4550760432e-01,
	8.2025805200e-01,
	-5.8974432181e-01,
	5.5309264900e-01,
	-1.6804087123e-01,
	-3.2843590776e-01,
	8.5088903171e-01,
	-6.3096673863e-01,
	8.9879463422e-01,
	7.6485133160e-01,
	6.4433956799e-01,
	-2.3070307503e-01,
	5.8599707138e-01,
	-3.0256743375e-01,
	-6.3850521426e-01,
	1.0271905528e+00,
	1.9377379832e-01,
	1.0323386859e+00,
	-6.2003688241e-01,
	-7.1228901824e-01,
	-7.6610527202e-01,
	-3.3992598349e-01,
	6.7856603455e-01,
	-3.7396512890e-01,
	-9.2901487429e-01,
	5.2328059733e-01,
	7.3577687822e-01,
	-9.9585342200e-03,
	1.8940202761e-01,
	5.5360768342e-01,
	-6.9327499610e-01,
	-6.5090368998e-02,
	3.7386573543e-01,
	-2.8301931791e-01,
	-5.1199772093e-01,
	-7.9417513674e-01,
	3.8854477433e-01,
	-6.6110868922e-01,
	-4.2514187443e-01,
	2.8733940762e-01,
	-8.9625735855e-01,
	9.4424402897e-01,
	9.2721577730e-01,
	5.7733060772e-01,
	-4.4882748809e-01,
	-8.2002758319e-01,
	4.4084312368e-01,
	5.9497397747e-01,
	-8.9371148213e-01,
	7.5829417247e-01,
	7.9447785848e-01,
	-7.5679130468e-01,
	-6.5503495357e-01,
	4.3530846268e-01,
	-1.3098220021e-01,
	-5.8550635427e-01,
	-4.9585270253e-02,
	-3.9761034930e-01,
	4.0451599816e-01,
	-8.6018324357e-01,
	-8.4400266588e-01,
	7.1124100206e-01,
	7.4726388359e-02,
	5.2986306955e-01,
	-5.7177831678e-01,
	5.6272866743e-01,
	7.3568793281e-01,
	8.1676645755e-01,
	9.0161997820e-01,
	-6.8945394256e-01,
	1.0410586517e-01,
	-9.9463738035e-01,
	-7.4520991358e-01,
	3.1321641538e-02,
	5.8269322737e-01,
	-1.9403740167e-01,
	2.1129405927e-01,
	2.3536350123e-02,
	-5.9906342514e-01,
	3.1758257715e-01,
	-2.1816947834e-01,
	-8.0458556665e-01,
	5.6079127247e-01,
	1.2679556903e-01,
	6.3072289602e-01,
	-5.7019092868e-01,
	5.4128921476e-01,
	-4.1886237516e-01,
	3.2198722955e-02,
	-5.4194787077e-02,
	-2.7904561780e-01,
	1.8819605708e-01,
	-3.4295378595e-01,
	7.9568077056e-01,
	-2.8194087431e-01,
	8.5267898201e-02,
	3.5840943705e-01,
	-5.4625294243e-01,
	-9.7965645184e-02,
	2.6002941526e-01,
	-2.3570688406e-01,
	-9.9385978095e-01,
	2.6539203490e-01,
	1.9083202360e-02,
	3.7461861520e-02,
	-1.5191473866e-01,
	8.2504580069e-01,
	-7.5124408014e-01,
	8.7162161240e-01,
	-7.7401762538e-01,
	5.6633849701e-01,
	-3.4654786687e-01,
	-5.7860319204e-01,
	1.2712976948e-01,
	7.8024770216e-01,
	-9.4788029601e-01,
	5.5693884080e-01,
	3.2153691692e-01,
	-3.6674267117e-01,
	-4.1086243718e-01,
	-7.3265787108e-01,
	3.5421171102e-01,
	7.7733361990e-01,
	-7.5611657033e-02,
	1.4989248065e-01,
	-5.0460725534e-01,
	-9.9034375976e-01,
	-4.9169808230e-01,
	-5.0860196841e-02,
	-8.8309404016e-02,
	3.2266319597e+00,
	1.8891564803e+00,
	9.0580268028e-01,
	5.4670056259e-02,
	6.8346371014e-02,
	2.3425350702e+00,
	2.1891135435e+00,
	4.1812947011e-01,
	-1.8084618196e-01,
	9.1885330687e-02,
	-1.0675365877e+00,
	4.1693432892e-01,
	-3.0886472841e-01,
	2.0808246429e-01,
	-8.2056070819e-02,
	-7.5095973302e-01,
	2.7465038875e-01,
	-5.4538984497e-01,
	5.0866699103e-01,
	8.3340011810e-01,
	2.8105592695e-02,
	4.0159446067e-01,
	2.7280554761e-02,
	-1.8146705393e-01,
	-3.1604043203e-01,
	-6.0557767265e-01,
	3.0759754862e-01,
	-2.9873495024e-01,
	-9.7275754948e-02,
	-7.3732993844e-01,
	6.2174429913e-01,
	-3.2894442292e-01,
	9.7021750658e-01,
	-4.6042488583e-01,
	7.0477894400e-01,
	-2.8859152891e-01,
	-5.0513221021e-01,
	5.8658757228e-01,
	2.6897039137e-01,
	-3.0108361379e-01,
	3.4001781109e-01,
	-9.4748531466e-01,
	-5.3069652129e-01,
	7.4690018396e-01,
	2.5745578914e-01,
	3.6682034068e-01,
	9.3403025900e-01,
	-4.8548340401e-01,
	8.2127604253e-01,
	4.4269724909e-01,
	-5.9516526740e-01,
	-1.3513069280e-01,
	2.1870636904e-01,
	6.4936458024e-01,
	6.8579619270e-01,
	9.1910383195e-01,
	-9.5621309334e-01,
	2.1158219325e-03,
	-3.7084246584e-01,
	-5.3488847359e-02,
	2.6757525432e-01,
	-7.4909816671e-01,
	6.1756672972e-01,
	2.4646760488e-01,
	-2.0952305254e-01,
	3.2234567372e-01,
	9.5787607597e-01,
	2.8534473725e-01,
	-9.1066754931e-02,
	2.2684646641e-01,
	9.8426112346e-01,
	-7.5104894477e-01,
	2.7936115175e-01,
	-5.4643539877e-01,
	9.9585124012e-01,
	-4.6318305911e-01,
	8.2038494191e-01,
	9.2988149818e-01,
	5.1333536884e-02,
	6.4166098444e-01,
	3.7257874635e-01,
	4.5616826949e-01,
	-4.9346970929e-01,
	-4.0871488555e-01,
	1.0553284879e-01,
	-8.0767351753e-01,
	-4.8961105453e-01,
	1.4931975638e-01,
	1.9444230441e-01,
	1.3954648056e-01,
	-9.0416909191e-01,
	-5.3798244220e-01,
	3.9044831385e-01,
	7.1339763781e-01,
	7.0848516268e-01,
	-8.1907473962e-01,
	3.5743310599e-02,
	6.6636123772e-01,
	4.6626999763e-01,
	9.4467655567e-01,
	-1.0679229680e-01,
	4.5053112109e-01,
	-8.0637238911e-01,
	-8.2743114504e-01,
	9.0409572232e-01,
	-8.1052114992e-01,
	-2.9061420415e-01,
	7.2448066423e-01,
	-8.8063965267e-01,
	7.6071933273e-01,
	3.6614164774e-01,
	4.9193909368e-01,
	2.1688760222e-01,
	8.7267193844e-01,
	-9.1677579187e-01,
	-6.7757954992e-01,
	-9.3500157908e-01,
	-4.0638684640e-01,
	4.7174020646e-01,
	2.5944072532e-01,
};

double mlpWeightsLayer2[] = {
	7.0380563174e-01,
	3.2373263940e+00,
	1.9971388923e-01,
	5.5384559270e-01,
	4.5501163724e+00,
};

